1.726895011961460114e-02
-9.124995023012161255e-02
-1.043726354837417603e-01
-2.239454537630081177e-02
-4.688112065196037292e-02
-4.366301000118255615e-02
1.108670160174369812e-01
-7.876170426607131958e-02
-4.674023389816284180e-02
-1.470000855624675751e-02
4.125975072383880615e-02
-5.869411677122116089e-02
-5.677738785743713379e-02
2.857896685600280762e-02
-8.977407962083816528e-02
3.194431215524673462e-02
-3.299433155916631222e-04
-4.380339384078979492e-02
-4.656274989247322083e-02
-4.212884977459907532e-02
-1.492275204509496689e-02
-1.990887150168418884e-02
-9.741467982530593872e-02
-2.907747030258178711e-02
-5.953599512577056885e-02
2.462059445679187775e-02
-1.972852833569049835e-02
8.586890064179897308e-03
-1.698311232030391693e-02
3.686742857098579407e-02
9.728776663541793823e-02
6.388454139232635498e-02
5.247135832905769348e-02
-9.240247309207916260e-02
3.000498050823807716e-03
9.669332765042781830e-03
1.067070737481117249e-01
6.327926367521286011e-02
1.949887536466121674e-02
2.413874864578247070e-02
6.959121674299240112e-02
-5.019256472587585449e-02
-7.950327545404434204e-02
-2.551193465478718281e-04
-8.948249369859695435e-02
5.355503410100936890e-02
-6.454726308584213257e-02
1.622712053358554840e-02
-5.379570648074150085e-02
-1.717784442007541656e-02
-4.907929897308349609e-02
9.261715412139892578e-02
2.823809534311294556e-02
5.328487139195203781e-03
8.787395805120468140e-02
-8.438657224178314209e-02
2.356372624635696411e-01
-1.118876691907644272e-02
1.347584724426269531e-01
3.392603620886802673e-02
3.454772382974624634e-02
2.604119181632995605e-01
1.710500568151473999e-02
1.131973043084144592e-01
7.097022235393524170e-02
1.443950831890106201e-01
2.591789066791534424e-01
1.227869391441345215e-01
-1.313182990998029709e-02
1.283140927553176880e-01
5.065761134028434753e-02
3.169175386428833008e-01
1.912032365798950195e-01
1.182232126593589783e-01
7.048469036817550659e-02
4.251189902424812317e-02
1.158041730523109436e-01
-3.391654416918754578e-02
-1.708961464464664459e-02
1.106914058327674866e-01
9.810434281826019287e-02
5.619366094470024109e-02
-1.372039914131164551e-01
-1.605330966413021088e-02
1.515543311834335327e-01
1.316055655479431152e-01
1.015165746212005615e-01
-5.728641897439956665e-02
-3.206705674529075623e-02
3.890719264745712280e-02
3.332667052745819092e-02
9.680549800395965576e-02
-3.091496601700782776e-02
-4.770807176828384399e-02
1.056560426950454712e-01
1.342309117317199707e-01
1.884589195251464844e-01
4.342528805136680603e-02
8.301112055778503418e-02
8.047020435333251953e-02
1.145890653133392334e-01
1.337746977806091309e-01
-5.085005238652229309e-02
-6.056419014930725098e-02
-3.002764657139778137e-03
2.675478346645832062e-02
-3.509415313601493835e-02
-9.345257282257080078e-02
6.940587610006332397e-02
-1.908994629047811031e-03
9.059932827949523926e-02
1.342984568327665329e-02
-5.197046697139739990e-02
-4.988696426153182983e-02
2.592394873499870300e-02
5.962141975760459900e-02
3.374780714511871338e-02
2.157588861882686615e-02
8.271210640668869019e-02
1.064680982381105423e-02
-5.709785502403974533e-03
8.162892609834671021e-02
-1.549121574498713017e-03
3.357186540961265564e-02
1.178076397627592087e-02
2.142805606126785278e-01
2.434519827365875244e-01
7.399979978799819946e-02
-7.219365984201431274e-02
7.549753785133361816e-02
6.584469228982925415e-03
-1.870368048548698425e-02
-7.852631807327270508e-02
-7.294990867376327515e-02
1.981432884931564331e-01
-9.976102411746978760e-02
-9.535292536020278931e-02
-1.220081076025962830e-01
6.582364439964294434e-02
2.806061208248138428e-01
-2.241947315633296967e-02
-1.503099799156188965e-01
-1.602201759815216064e-01
-5.384825170040130615e-02
-1.258809398859739304e-02
-1.347262561321258545e-01
-7.161407172679901123e-02
-5.252720043063163757e-02
1.747525110840797424e-02
-1.257565617561340332e-01
-9.325590799562633038e-04
-7.586166262626647949e-02
1.389339007437229156e-02
1.107046529650688171e-01
3.865450248122215271e-02
5.716018751263618469e-02
1.383285224437713623e-02
7.767749577760696411e-02
1.698249019682407379e-02
-3.289264440536499023e-02
-4.533868283033370972e-02
4.723564162850379944e-02
-3.749737888574600220e-02
-5.212498083710670471e-02
2.782174572348594666e-02
1.258950084447860718e-01
4.919811338186264038e-02
-4.679383710026741028e-02
-3.174905106425285339e-02
-2.959989383816719055e-02
-1.703841984272003174e-02
3.400233760476112366e-02
3.177910298109054565e-02
-2.550435438752174377e-02
4.717638716101646423e-02
6.256706267595291138e-02
1.029124259948730469e-01
2.216887287795543671e-02
-3.803164139389991760e-02
-1.140063107013702393e-01
1.338521391153335571e-02
1.106439232826232910e-01
5.903293564915657043e-02
-2.115759067237377167e-02
-4.303645342588424683e-02
2.395656891167163849e-02
2.123797871172428131e-02
-2.028800919651985168e-02
-7.491993159055709839e-02
-6.490255240350961685e-03
1.333908289670944214e-01
-2.315109223127365112e-02
-7.119346410036087036e-02
-8.272685110569000244e-02
-2.708209119737148285e-02
5.762507393956184387e-02
-1.490719430148601532e-02
-7.406154274940490723e-02
8.322434127330780029e-02
8.248171955347061157e-02
2.592314500361680984e-03
6.591339409351348877e-02
2.518839836120605469e-01
2.344198375940322876e-01
-1.037879809737205505e-01
5.642734933644533157e-03
-2.566697821021080017e-02
2.252085059881210327e-01
1.539134681224822998e-01
-7.189797610044479370e-02
-9.268955886363983154e-02
-7.283984869718551636e-02
6.645708531141281128e-02
2.016372382640838623e-01
-8.214899152517318726e-02
-7.764391601085662842e-02
-8.611215278506278992e-03
-2.267791144549846649e-02
2.144011110067367554e-01
-1.185478735715150833e-02
2.445406652987003326e-02
1.493727322667837143e-02
1.905897855758666992e-01
4.209380447864532471e-01
-1.901192218065261841e-02
2.805672027170658112e-02
1.430206894874572754e-01
2.086345404386520386e-01
-1.208604648709297180e-01
-2.058647423982620239e-01
5.167527496814727783e-02
-1.196236442774534225e-02
2.106112688779830933e-01
1.595547236502170563e-02
-1.077061593532562256e-01
-7.218480855226516724e-02
-8.626623451709747314e-02
1.013562232255935669e-01
-3.563123568892478943e-02
-1.763422787189483643e-01
3.878186689689755440e-03
-1.345718204975128174e-01
2.252141833305358887e-01
1.114522814750671387e-01
-1.403208356350660324e-02
1.203391477465629578e-01
3.932586684823036194e-02
4.613685607910156250e-01
1.072012111544609070e-01
-1.567647904157638550e-01
-8.875674009323120117e-02
9.030608087778091431e-02
-7.152751833200454712e-02
-1.156777516007423401e-01
3.040227107703685760e-02
-6.602743268013000488e-02
6.447511911392211914e-02
2.898474037647247314e-02
-1.722197607159614563e-02
-6.879049539566040039e-02
-6.173149449750781059e-04
4.951241612434387207e-02
9.480225294828414917e-02
-1.562050357460975647e-02
-1.167117804288864136e-01
-7.689105719327926636e-02
-1.630016043782234192e-02
2.246933244168758392e-02
-3.295668587088584900e-02
-3.269818797707557678e-02
-4.605183750391006470e-02
-9.241004288196563721e-02
-2.722955681383609772e-02
-3.502589464187622070e-02
-1.225733384490013123e-01
-4.037599265575408936e-02
-8.164043538272380829e-03
-1.806807965040206909e-01
-8.695944398641586304e-02
2.958027124404907227e-01
2.718820981681346893e-02
1.151987761259078979e-01
-4.376729205250740051e-02
8.759574964642524719e-03
2.176478505134582520e-01
-1.087126657366752625e-01
1.051940247416496277e-01
-5.495855957269668579e-02
-1.591930687427520752e-01
1.783127523958683014e-02
-6.924957782030105591e-02
1.124312356114387512e-01
3.839376941323280334e-02
-1.525527089834213257e-01
-1.652023196220397949e-01
-4.558929800987243652e-02
1.829246878623962402e-01
1.936289370059967041e-01
-8.642646670341491699e-02
-1.022934466600418091e-01
1.865050941705703735e-01
1.123888418078422546e-01
-5.140382423996925354e-02
1.269629895687103271e-01
6.544237583875656128e-02
-1.502280682325363159e-01
-1.335589140653610229e-01
1.028047595173120499e-02
9.544126689434051514e-02
5.186330527067184448e-02
-4.344742745161056519e-02
-5.835484713315963745e-03
-3.384370822459459305e-03
-2.009800076484680176e-02
4.850785434246063232e-02
1.432991214096546173e-02
4.037532489746809006e-03
9.012210182845592499e-03
-2.025072835385799408e-02
1.119719166308641434e-02
-1.992947608232498169e-02
-3.760986775159835815e-02
5.109471827745437622e-02
-3.089650906622409821e-02
-3.847677493467926979e-03
-1.091119498014450073e-01
-2.937928959727287292e-02
-5.628734827041625977e-02
7.837738096714019775e-02
4.975665360689163208e-02
-2.995751984417438507e-02
-1.589968614280223846e-02
6.426353752613067627e-02
1.883609406650066376e-02
9.006754308938980103e-02
4.611844662576913834e-03
-1.347218733280897141e-02
4.252028465270996094e-02
5.625802651047706604e-02
3.828889131546020508e-02
-8.910386264324188232e-02
-4.431064240634441376e-03
-7.919909805059432983e-02
9.661059826612472534e-02
-1.137395575642585754e-01
1.889060251414775848e-02
-8.288719691336154938e-03
3.867422789335250854e-02
-2.188410609960556030e-02
-2.294099330902099609e-02
5.985058099031448364e-02
-1.651103049516677856e-01
-3.006024658679962158e-02
7.665280252695083618e-02
2.176872640848159790e-01
-4.176037618890404701e-04
-1.050808355212211609e-01
-4.704030975699424744e-02
-4.162703827023506165e-02
4.795454442501068115e-02
-6.441887468099594116e-02
-1.643944829702377319e-01
-6.251756846904754639e-02
-1.395418941974639893e-01
6.549338996410369873e-02
-1.351923644542694092e-01
-1.527716517448425293e-01
-1.354324072599411011e-01
-8.978782594203948975e-02
1.941677182912826538e-02
-1.742551922798156738e-01
-1.329008489847183228e-01
-1.168947666883468628e-01
-4.156298935413360596e-03
1.843954063951969147e-02
-2.520128525793552399e-02
8.964673615992069244e-03
-7.814306020736694336e-02
1.001432016491889954e-01
1.935288757085800171e-01
6.644523888826370239e-02
5.079815909266471863e-02
2.861411310732364655e-03
1.796838492155075073e-01
3.166329488158226013e-02
-1.938188970088958740e-01
1.985616423189640045e-02
8.780272677540779114e-03
7.168017327785491943e-02
-2.744838036596775055e-02
-4.710328951478004456e-02
-2.215277636423707008e-03
-1.274066120386123657e-01
3.076080931350588799e-03
-7.939022034406661987e-02
-7.806932181119918823e-02
-9.871356189250946045e-02
-6.095878034830093384e-02
-1.318094134330749512e-01
-8.446794748306274414e-02
-3.741456940770149231e-02
2.623588442802429199e-01
2.588325738906860352e-01
1.648958474397659302e-01
4.143584892153739929e-02
-4.374499991536140442e-02
-1.129917129874229431e-01
-9.104713052511215210e-02
-2.302158065140247345e-02
8.626560866832733154e-02
-3.984687104821205139e-02
-2.091876417398452759e-02
5.720952525734901428e-03
1.041731145232915878e-02
-5.721673369407653809e-02
1.964654307812452316e-03
1.527458894997835159e-02
1.436089258641004562e-02
-8.103270828723907471e-02
-1.926229521632194519e-02
-9.098972380161285400e-02
-4.148003831505775452e-02
-3.867325186729431152e-02
-5.303686112165451050e-02
7.274586707353591919e-02
2.370640486478805542e-01
5.822952389717102051e-01
3.223595321178436279e-01
1.008739098906517029e-01
-2.606255700811743736e-03
-3.614837303757667542e-02
-2.896366119384765625e-01
-5.174077674746513367e-02
1.993334591388702393e-01
6.300129741430282593e-02
6.377051770687103271e-02
-1.019766181707382202e-01
-2.146924380213022232e-03
5.227497220039367676e-02
1.599480956792831421e-01
-8.251913823187351227e-03
-4.977865144610404968e-02
-9.731250256299972534e-02
4.683146625757217407e-02
6.049687787890434265e-02
3.676194697618484497e-02
-1.114745810627937317e-01
-5.842255428433418274e-02
-1.071287095546722412e-01
-1.358773708343505859e-01
-3.784757480025291443e-02
-8.868044242262840271e-03
-3.944407799281179905e-04
4.703835770487785339e-02
-2.411259338259696960e-03
4.991677030920982361e-02
8.506490290164947510e-02
1.065297797322273254e-01
6.668949872255325317e-02
-7.912532985210418701e-02
9.018096327781677246e-02
7.811100035905838013e-02
4.539974778890609741e-02
3.399291262030601501e-02
-5.435108393430709839e-02
7.497013360261917114e-02
1.219469159841537476e-01
4.902462288737297058e-02
1.748642697930335999e-02
-4.502175748348236084e-02
-1.039878949522972107e-01
-7.203219830989837646e-02
-6.366299092769622803e-02
-1.185322776436805725e-01
-7.059378176927566528e-02
-1.004546508193016052e-01
9.710247069597244263e-02
1.859109699726104736e-01
4.958567395806312561e-02
-2.677592076361179352e-02
-4.573932848870754242e-03
1.390916258096694946e-01
1.179775297641754150e-01
-1.475320430472493172e-03
-1.192475780844688416e-01
7.997831702232360840e-02
7.960848510265350342e-02
-1.470676739700138569e-03
2.074167423415929079e-04
-8.647785335779190063e-02
1.471594721078872681e-01
1.654439866542816162e-01
1.525200754404067993e-01
-3.947457671165466309e-02
1.900876499712467194e-02
-1.494199633598327637e-01
-1.824281662702560425e-01
-1.864283382892608643e-01
-2.690500617027282715e-01
1.837488077580928802e-02
2.232626639306545258e-02
3.344510495662689209e-02
3.968857228755950928e-02
7.819594442844390869e-02
-1.066887192428112030e-02
-1.532137673348188400e-02
-9.189320355653762817e-02
-5.896475166082382202e-02
5.375726893544197083e-02
6.382501125335693359e-02
5.363566800951957703e-02
-2.489529401063919067e-01
-1.940090954303741455e-02
-2.597976662218570709e-02
7.475447654724121094e-02
-1.170595735311508179e-01
-1.788853704929351807e-01
-5.301674827933311462e-02
8.036620914936065674e-02
-6.037133187055587769e-02
-2.838110327720642090e-01
-1.143089830875396729e-01
-6.067021936178207397e-02
4.498427361249923706e-02
2.671235799789428711e-01
1.609516590833663940e-01
5.981598421931266785e-02
3.965411335229873657e-02
-2.490472979843616486e-02
-1.632238738238811493e-02
-3.437248617410659790e-02
-1.322154104709625244e-01
-1.001586541533470154e-01
9.001283347606658936e-02
8.283568918704986572e-02
-9.294168651103973389e-02
-1.949146240949630737e-01
-3.779483586549758911e-02
6.798834074288606644e-03
5.904592201113700867e-02
-1.385057531297206879e-02
7.130625844001770020e-02
1.295070536434650421e-02
-7.408566027879714966e-02
1.072386503219604492e-01
6.677944213151931763e-02
2.483937144279479980e-01
2.985067069530487061e-01
4.891724586486816406e-01
4.261212050914764404e-01
3.816121816635131836e-02
6.558900326490402222e-02
4.941361024975776672e-02
-7.760148495435714722e-02
1.174849574454128742e-03
2.127877250313758850e-02
4.002055153250694275e-02
-1.434569619596004486e-02
-3.319817036390304565e-02
-8.991840295493602753e-03
-1.097661107778549194e-01
-6.059597432613372803e-02
4.033629223704338074e-02
-6.218920648097991943e-02
6.886769086122512817e-02
-7.448640465736389160e-02
3.950224258005619049e-03
1.031870394945144653e-02
-8.687066286802291870e-02
2.181266434490680695e-02
-5.507303774356842041e-02
-3.040673583745956421e-02
-2.356933802366256714e-02
-2.361026359722018242e-03
-4.787454009056091309e-02
9.571158140897750854e-02
-1.072214096784591675e-01
-1.857288926839828491e-01
-1.987867951393127441e-01
-9.154991060495376587e-02
6.098764017224311829e-02
-9.274581819772720337e-02
-2.040265202522277832e-01
-6.642304360866546631e-02
1.325914636254310608e-03
-9.512893110513687134e-02
-8.938884735107421875e-02
-1.034010127186775208e-01
7.991001754999160767e-02
1.243607252836227417e-01
-2.136819064617156982e-02
-3.463925793766975403e-02
-5.721649900078773499e-02
4.439453408122062683e-02
6.366191059350967407e-02
2.557524144649505615e-01
2.929632365703582764e-01
3.226390182971954346e-01
1.940537095069885254e-01
-9.692052006721496582e-02
8.554751053452491760e-03
6.575462967157363892e-02
-5.186298862099647522e-02
-3.916632849723100662e-03
2.518910542130470276e-02
-2.342490293085575104e-02
-7.210975140333175659e-02
5.010906606912612915e-02
-1.879564113914966583e-02
-3.874136833474040031e-03
-1.844538934528827667e-02
5.097443610429763794e-02
4.366811737418174744e-02
-6.751654297113418579e-02
-9.055609814822673798e-03
-4.559801518917083740e-02
2.993719279766082764e-02
3.867791965603828430e-02
-5.769280344247817993e-02
1.620381837710738182e-03
-8.940395899116992950e-03
6.405505351722240448e-03
6.385572254657745361e-03
-5.054941028356552124e-02
-1.187788322567939758e-01
3.277162089943885803e-02
1.515946723520755768e-02
-2.340171718969941139e-03
-5.232089757919311523e-02
4.882381856441497803e-02
4.083688557147979736e-02
8.334236592054367065e-02
4.534331709146499634e-02
-4.540795832872390747e-02
7.578331278637051582e-04
7.382933795452117920e-02
1.090593449771404266e-02
-1.902976259589195251e-02
-7.005316019058227539e-02
1.153966858983039856e-01
5.046707578003406525e-03
1.280877143144607544e-01
7.847516983747482300e-02
7.943582721054553986e-03
8.257442712783813477e-02
4.958677291870117188e-02
-5.584868416190147400e-02
-7.669126242399215698e-02
-9.510003775358200073e-02
-7.577586919069290161e-02
1.130545437335968018e-01
3.874720307067036629e-03
-1.380465086549520493e-02
2.983360923826694489e-02
3.673916682600975037e-02
9.363837540149688721e-02
3.300900012254714966e-02
8.480846881866455078e-02
7.037962228059768677e-02
6.669838726520538330e-02
5.763558670878410339e-02
-4.179357737302780151e-02
1.107174456119537354e-01
1.017312407493591309e-01
1.416049711406230927e-02
7.297098636627197266e-02
-2.609830349683761597e-02
5.565229803323745728e-02
6.328825838863849640e-03
-4.233115911483764648e-02
1.167692020535469055e-01
-7.170285284519195557e-02
-6.466399133205413818e-02
1.283593103289604187e-02
8.647946640849113464e-03
-1.270466856658458710e-02
1.242077536880970001e-02
-4.312578588724136353e-03
2.991919778287410736e-02
-7.407240569591522217e-02
-1.158849373459815979e-01
-4.296372085809707642e-02
-2.692560106515884399e-02
-2.452332153916358948e-02
-3.256705030798912048e-02
-9.206188470125198364e-02
-5.735016986727714539e-02
-4.218894988298416138e-03
-3.420148417353630066e-02
-3.960878774523735046e-02
-8.523125201463699341e-02
4.990790970623493195e-03
-7.692329585552215576e-03
6.666571367532014847e-03
-1.918813399970531464e-02
-4.807996377348899841e-02
-1.165672168135643005e-01
-1.062472611665725708e-01
-4.727556183934211731e-02
-2.785071730613708496e-02
-1.528614014387130737e-02
2.233050391077995300e-02
-4.948307946324348450e-02
7.958666980266571045e-02
-2.190306223928928375e-02
-3.492054343223571777e-02
5.988159403204917908e-02
-6.285722553730010986e-02
-3.010423853993415833e-02
-5.164598301053047180e-02
4.165317118167877197e-02
6.811937689781188965e-02
-3.824378922581672668e-02
5.998197197914123535e-02
5.005404353141784668e-02
-7.627694308757781982e-02
6.223478540778160095e-02
3.359811753034591675e-02
-2.112345071509480476e-03
-1.317894179373979568e-02
3.354651108384132385e-02
-5.977824330329895020e-02
2.770456951111555099e-03
-4.614708200097084045e-02
-3.978401049971580505e-02
-2.771826982498168945e-01
-2.245354466140270233e-02
1.655800193548202515e-01
2.362893521785736084e-01
-5.665354803204536438e-02
-1.175529286265373230e-01
2.495102956891059875e-02
-3.837035968899726868e-02
-5.525387451052665710e-02
3.894854709506034851e-02
-2.005160152912139893e-01
-1.587381702847778797e-03
-6.381898373365402222e-02
4.608358070254325867e-02
1.141741201281547546e-01
-6.570820510387420654e-02
-6.738643627613782883e-03
-4.172428452875465155e-04
2.160574942827224731e-01
2.997009754180908203e-01
-1.700867712497711182e-01
5.367870628833770752e-02
1.242482848465442657e-02
1.331870555877685547e-01
3.922481238842010498e-01
9.300678223371505737e-02
8.865129947662353516e-02
3.756558522582054138e-02
-2.643734961748123169e-02
5.112795904278755188e-02
5.890582129359245300e-02
3.867889568209648132e-02
-3.249563649296760559e-02
2.024821587838232517e-04
1.024874225258827209e-01
-1.307434681802988052e-02
5.914939939975738525e-02
-7.031499594449996948e-02
3.453186526894569397e-02
1.420583110302686691e-02
-7.542345672845840454e-02
-4.335401207208633423e-02
-7.879514247179031372e-02
1.303713396191596985e-02
-5.195429548621177673e-02
-7.770653069019317627e-02
-7.983657717704772949e-02
7.230924069881439209e-02
4.676978290081024170e-02
-3.454052284359931946e-02
1.513899583369493484e-02
4.119102843105792999e-03
-6.715393811464309692e-02
-2.192737162113189697e-02
-1.136999763548374176e-02
-4.188623279333114624e-02
5.009215325117111206e-03
2.847904898226261139e-02
-2.227365598082542419e-02
6.039450690150260925e-02
1.862124167382717133e-02
-3.183352947235107422e-02
7.015020400285720825e-02
9.022933989763259888e-02
6.869708001613616943e-02
-8.057870715856552124e-02
-3.073034994304180145e-02
7.879124954342842102e-03
-5.417881999164819717e-03
-2.314148284494876862e-02
-9.486559033393859863e-02
3.949221223592758179e-02
3.573629260063171387e-02
2.773738279938697815e-02
7.760180532932281494e-02
-4.100291058421134949e-02
-1.898608356714248657e-01
-4.485394805669784546e-02
-1.315076798200607300e-01
-3.013020567595958710e-02
-1.102443933486938477e-01
-8.661696314811706543e-02
-8.030013740062713623e-02
-3.663425520062446594e-02
5.987306684255599976e-02
-1.021771058440208435e-01
-1.453021466732025146e-01
4.813504219055175781e-02
-3.682808950543403625e-02
-1.078473106026649475e-01
-1.882412731647491455e-01
-2.065536938607692719e-02
-1.787205808795988560e-03
8.056628517806529999e-03
-8.596377819776535034e-02
-1.940224021673202515e-01
4.484229162335395813e-02
9.004763513803482056e-02
-8.797725662589073181e-03
-7.665371149778366089e-02
-4.174567386507987976e-02
-1.087674647569656372e-01
-1.275940891355276108e-02
6.774728652089834213e-03
9.195019304752349854e-02
-1.496922522783279419e-01
-1.390856206417083740e-01
-2.904194593429565430e-02
-7.263398170471191406e-02
7.194887846708297729e-02
-7.666100561618804932e-02
1.351970247924327850e-02
3.955648094415664673e-02
3.084605559706687927e-02
-8.357790112495422363e-02
-9.657054394483566284e-02
9.963202476501464844e-02
-1.062728464603424072e-01
2.261785417795181274e-02
5.326283629983663559e-03
-8.044148981571197510e-02
8.960359543561935425e-02
-6.925819069147109985e-02
-1.748110949993133545e-01
-6.911981105804443359e-02
-1.225049793720245361e-01
-7.575424015522003174e-02
-4.658035188913345337e-02
3.030342794954776764e-02
-2.765610814094543457e-02
-8.223710954189300537e-02
-8.121992647647857666e-02
-4.908503592014312744e-02
-9.005045518279075623e-03
2.938902564346790314e-02
-8.235955983400344849e-02
-7.125427573919296265e-02
3.202560171484947205e-02
-3.692158684134483337e-02
5.270837992429733276e-02
3.790159150958061218e-02
4.809091240167617798e-02
-5.431056953966617584e-03
7.149481098167598248e-04
-7.383244484663009644e-02
-9.287524223327636719e-02
1.187279075384140015e-01
-6.058912724256515503e-02
-8.888989686965942383e-02
3.194194287061691284e-02
-1.399669200181961060e-01
-8.271147310733795166e-02
1.445708423852920532e-01
6.123051047325134277e-02
3.527303040027618408e-02
-2.260255441069602966e-02
9.693822264671325684e-02
1.290408521890640259e-01
1.627441868185997009e-02
8.090060204267501831e-02
-1.124336011707782745e-02
1.463326960802078247e-01
5.742582958191633224e-03
-8.355263620615005493e-02
5.343991518020629883e-02
1.371766328811645508e-01
8.219207078218460083e-02
9.839606285095214844e-02
8.780271746218204498e-03
-7.481275498867034912e-02
2.304086238145828247e-01
9.588778018951416016e-02
3.986756131052970886e-02
1.414974033832550049e-02
2.567437291145324707e-02
-5.622518062591552734e-02
9.899630397558212280e-02
8.569350838661193848e-02
4.177150875329971313e-02
6.407068669795989990e-02
5.144079774618148804e-02
2.476168610155582428e-02
3.725515678524971008e-02
-3.983289748430252075e-02
-1.318102423101663589e-02
2.942712046205997467e-02
-4.629344120621681213e-02
-1.000142544507980347e-01
7.507444173097610474e-02
7.413550466299057007e-02
6.551849097013473511e-02
4.783096909523010254e-02
1.289457199163734913e-03
-6.198595091700553894e-02
-1.555829122662544250e-02
2.402793057262897491e-02
2.576621249318122864e-02
6.685240566730499268e-02
-4.992149025201797485e-02
6.574589759111404419e-02
-5.008884146809577942e-02
-1.079955045133829117e-02
-4.428562149405479431e-02
-4.912951029837131500e-03
4.112737253308296204e-03
-7.485491223633289337e-04
-6.134296208620071411e-02
-9.739382565021514893e-02
-3.546128049492835999e-02
4.751320928335189819e-02
2.318735234439373016e-02
-7.733429968357086182e-02
-9.367441385984420776e-02
3.486382588744163513e-02
6.477510929107666016e-02
-4.079262167215347290e-02
-4.117415100336074829e-02
3.451033681631088257e-02
-4.394726082682609558e-02
-5.730527266860008240e-02
-1.059043873101472855e-02
7.230598479509353638e-02
-5.901496484875679016e-02
-3.620300674811005592e-03
-9.939597919583320618e-03
1.244280412793159485e-01
-1.078880624845623970e-03
-7.895016670227050781e-02
-3.942533954977989197e-02
-6.491755694150924683e-02
3.809352591633796692e-02
8.384260348975658417e-03
4.277356341481208801e-02
-4.631428420543670654e-02
-8.020349591970443726e-02
-1.762932911515235901e-02
7.472842931747436523e-02
-2.955983020365238190e-02
-2.158571593463420868e-02
-8.666575886309146881e-03
3.062764415517449379e-03
1.485815457999706268e-02
-3.060408495366573334e-02
3.940906748175621033e-02
-1.310323178768157959e-01
-6.340296566486358643e-02
1.123738363385200500e-01
-1.440912485122680664e-02
-6.547901779413223267e-02
1.849918998777866364e-02
-4.921079427003860474e-02
-4.537461698055267334e-02
-3.453462943434715271e-02
-2.181099727749824524e-02
8.703672885894775391e-02
8.537212759256362915e-02
1.427809800952672958e-02
1.058571413159370422e-01
-1.442163623869419098e-02
1.313635259866714478e-01
1.133084646426141262e-03
1.816826909780502319e-01
4.286913201212882996e-02
7.112982124090194702e-02
-2.725459821522235870e-02
1.135739237070083618e-01
1.604059785604476929e-01
-5.589015781879425049e-02
4.751380160450935364e-02
-3.801928088068962097e-02
2.135463058948516846e-01
3.224652260541915894e-02
-1.078892201185226440e-01
1.195586752146482468e-02
4.569374769926071167e-02
-3.482678905129432678e-02
2.055990323424339294e-02
-4.252554848790168762e-02
1.848998293280601501e-02
-1.795282773673534393e-02
-1.872329786419868469e-02
-9.573654271662235260e-03
4.134412854909896851e-02
-5.444226041436195374e-02
2.693664841353893280e-02
4.886049404740333557e-02
8.695036172866821289e-02
-2.152453362941741943e-02
9.087299555540084839e-02
7.870509475469589233e-02
6.030909717082977295e-02
1.156107857823371887e-01
-3.631155565381050110e-02
-1.051085907965898514e-02
-4.988987371325492859e-02
1.260860115289688110e-01
8.334123343229293823e-02
-3.740530088543891907e-02
-3.149577602744102478e-02
-6.335243582725524902e-02
-1.862854659557342529e-01
-1.416098177433013916e-01
-1.173561811447143555e-01
1.486875861883163452e-01
-4.959672316908836365e-02
-1.352463811635971069e-01
-5.876674782484769821e-03
-1.805338449776172638e-02
8.829716593027114868e-02
-6.710706651210784912e-02
1.484062075614929199e-01
2.767402529716491699e-01
8.860796689987182617e-02
-7.353622466325759888e-02
-1.623405963182449341e-01
2.740784287452697754e-01
2.354912757873535156e-01
2.854614704847335815e-02
-1.570152938365936279e-01
-2.198267281055450439e-01
2.452695667743682861e-01
1.417762041091918945e-01
-5.265579372644424438e-02
-9.039030224084854126e-02
-1.074826940894126892e-01
-1.257546059787273407e-02
-2.021847292780876160e-02
-4.101380705833435059e-02
2.659261785447597504e-02
4.104885458946228027e-02
-4.562040418386459351e-02
-1.107362564653158188e-03
7.566366344690322876e-02
2.994889393448829651e-02
4.673020914196968079e-03
5.684655159711837769e-02
5.400056764483451843e-02
1.035411208868026733e-01
-1.330654323101043701e-02
9.269896894693374634e-02
-2.318987250328063965e-02
-2.400452084839344025e-02
4.908902570605278015e-02
-4.855587612837553024e-03
5.279362574219703674e-02
-3.519126027822494507e-02
-1.853764988481998444e-02
4.459121264517307281e-03
-6.494908593595027924e-03
-6.431536376476287842e-02
-8.364042639732360840e-02
-8.417049795389175415e-02
-5.989515781402587891e-02
8.932625874876976013e-03
5.857175216078758240e-02
-9.486812353134155273e-02
4.308291897177696228e-02
-2.637672051787376404e-02
4.083585366606712341e-02
8.119023591279983521e-02
-8.485390245914459229e-02
7.048226892948150635e-02
1.085931807756423950e-01
1.691971346735954285e-02
-1.361332274973392487e-02
6.419184058904647827e-02
6.091720424592494965e-03
4.771348461508750916e-02
8.955837786197662354e-02
6.059321016073226929e-02
-5.124785378575325012e-02
-6.975761801004409790e-02
-1.358570344746112823e-02
-1.044583320617675781e-02
6.967554241418838501e-02
3.762761503458023071e-02
-7.081314921379089355e-02
7.756713777780532837e-02
1.224610209465026855e-01
5.122863873839378357e-02
-4.021369293332099915e-02
-2.277990989387035370e-02
3.993630781769752502e-02
1.145605146884918213e-01
-1.929933764040470123e-02
-7.075037062168121338e-02
-9.629675745964050293e-02
8.189084008336067200e-03
-1.746749877929687500e-02
7.241961359977722168e-02
7.713243365287780762e-03
-9.346151351928710938e-02
-2.318054251372814178e-02
-7.076856493949890137e-02
-5.435089115053415298e-04
-1.564846932888031006e-01
1.004552282392978668e-02
-1.190989688038825989e-01
2.201763167977333069e-02
-8.594819344580173492e-03
1.793541945517063141e-02
5.374766513705253601e-02
5.798760429024696350e-02
8.760314434766769409e-02
-4.275336489081382751e-02
-1.112293601036071777e-01
4.280714690685272217e-02
1.431092023849487305e-01
5.911022052168846130e-02
-1.009699925780296326e-01
-1.099583059549331665e-01
3.861054405570030212e-02
2.131058089435100555e-02
9.935313835740089417e-03
-2.732721343636512756e-02
-1.124719455838203430e-01
-3.446825779974460602e-03
1.197851356118917465e-02
-1.013793051242828369e-01
-1.154279336333274841e-01
5.201160162687301636e-02
1.172992959618568420e-01
1.013795379549264908e-02
4.716885462403297424e-02
-4.559524729847908020e-02
-8.096397668123245239e-02
-3.579609096050262451e-02
8.123028278350830078e-02
1.786363869905471802e-02
-1.109340116381645203e-01
-7.157853245735168457e-02
-1.915971934795379639e-02
3.158535342663526535e-03
-7.199954241514205933e-02
1.871570572257041931e-02
-7.104677706956863403e-02
4.076173901557922363e-02
7.891105860471725464e-02
8.763095363974571228e-03
-4.344045743346214294e-02
6.860496103763580322e-02
8.695069700479507446e-02
5.468831583857536316e-02
9.936879388988018036e-03
-1.082304194569587708e-01
3.864761814475059509e-02
-9.173519909381866455e-02
-1.571138738654553890e-03
-2.880128799006342888e-03
-9.140441566705703735e-02
-2.556267678737640381e-01
2.418626099824905396e-02
1.296362578868865967e-01
-4.846650734543800354e-02
5.285661295056343079e-02
-5.248411372303962708e-02
1.581633090972900391e-01
2.225994020700454712e-01
-1.234333030879497528e-02
-2.248484455049037933e-02
-1.614328823052346706e-03
1.822884082794189453e-01
1.371541768312454224e-01
1.295441528782248497e-03
-6.766916811466217041e-02
6.739275902509689331e-02
5.067712068557739258e-02
-7.356754690408706665e-02
-7.267042249441146851e-02
4.433639720082283020e-02
5.585018917918205261e-02
-7.432705909013748169e-02
-5.172370001673698425e-02
-1.211265996098518372e-01
3.727223724126815796e-02
-3.387837111949920654e-02
1.410033553838729858e-01
9.089677780866622925e-02
-9.443565458059310913e-02
-1.443188488483428955e-01
-2.047898434102535248e-02
1.393518149852752686e-01
8.940932899713516235e-02
-5.189177766442298889e-02
5.415063351392745972e-02
-1.944544637808576226e-04
8.993812650442123413e-02
7.376953959465026855e-02
7.726562768220901489e-02
-1.695291325449943542e-02
7.875259220600128174e-02
3.311764076352119446e-02
-1.126382201910018921e-01
-1.153481006622314453e-02
8.237565308809280396e-02
4.163533076643943787e-02
-1.241198331117630005e-01
-9.788399934768676758e-02
4.206585139036178589e-02
1.410137712955474854e-01
1.171055063605308533e-01
8.700175583362579346e-02
2.108256891369819641e-02
-7.086247950792312622e-02
-5.782515183091163635e-02
1.600223928689956665e-01
1.772955656051635742e-01
3.352977707982063293e-02
8.726153522729873657e-03
-9.412502497434616089e-02
5.861474946141242981e-02
2.696458809077739716e-02
-5.183904618024826050e-02
-3.394933650270104408e-03
-9.038808941841125488e-02
6.579435616731643677e-02
-1.172517016530036926e-01
-1.080034896731376648e-01
1.171723473817110062e-02
5.587367806583642960e-03
-9.865447878837585449e-02
-1.221813112497329712e-01
-1.157924085855484009e-01
4.474752396345138550e-02
-9.774350561201572418e-03
1.070773005485534668e-01
2.325131744146347046e-01
-6.569947302341461182e-02
-1.331383734941482544e-01
-6.167814508080482483e-02
1.878099292516708374e-01
1.572799235582351685e-01
7.878284901380538940e-02
-1.493264082819223404e-02
-4.457584023475646973e-02
7.545331120491027832e-02
5.653665214776992798e-02
1.128782108426094055e-01
2.371415682137012482e-02
-3.696398809552192688e-02
-3.597860038280487061e-02
7.916585891507565975e-04
1.473815888166427612e-01
1.868229475803673267e-03
-1.000773087143898010e-01
2.316724276170134544e-03
1.850165724754333496e-01
9.064461290836334229e-02
7.615444809198379517e-02
-7.535368949174880981e-02
9.276995062828063965e-02
6.710001826286315918e-02
-1.850880496203899384e-02
-5.061370134353637695e-02
8.546876162290573120e-02
7.071171700954437256e-02
-6.788744125515222549e-03
-6.969171762466430664e-02
1.663802936673164368e-02
-5.761633813381195068e-02
5.596124380826950073e-02
2.313884720206260681e-02
8.224205672740936279e-02
-7.772465795278549194e-02
1.244898419827222824e-02
1.682172343134880066e-02
9.773062169551849365e-02
-3.304733894765377045e-03
4.746379703283309937e-02
-1.923157088458538055e-02
-3.883168473839759827e-02
1.825147569179534912e-01
3.667273372411727905e-02
-1.023503094911575317e-01
-4.153178632259368896e-02
1.046635210514068604e-02
3.523326665163040161e-02
-5.271245539188385010e-02
-8.620039559900760651e-03
-2.772118663415312767e-03
8.820299804210662842e-02
-4.627935960888862610e-02
3.324518352746963501e-02
9.377689659595489502e-02
4.461874067783355713e-02
6.417648494243621826e-02
3.740702942013740540e-02
-9.516180492937564850e-03
-4.232927039265632629e-02
-9.009093046188354492e-02
4.713877104222774506e-03
-4.804556444287300110e-02
7.852674275636672974e-02
3.603779524564743042e-02
-2.707358822226524353e-02
-4.968467354774475098e-02
9.782565385103225708e-02
-3.851239383220672607e-02
3.530349954962730408e-02
-6.677965819835662842e-02
2.673246399353956804e-06
-1.980214267969131470e-01
5.014462769031524658e-02
3.588184416294097900e-01
2.259093374013900757e-01
-1.531998813152313232e-01
-2.659042179584503174e-01
-7.908428460359573364e-02
2.848035395145416260e-01
1.426861733198165894e-01
-1.715292632579803467e-01
-7.142078876495361328e-02
-1.400307118892669678e-01
-1.790791004896163940e-01
2.375259622931480408e-02
1.723882555961608887e-02
2.110699266195297241e-01
9.043794870376586914e-02
-9.878409653902053833e-02
-9.205245971679687500e-02
-9.031324833631515503e-02
1.082578599452972412e-01
8.632889389991760254e-02
-1.692027784883975983e-02
-1.017289161682128906e-01
4.122690856456756592e-02
-2.265198715031147003e-02
4.210426472127437592e-03
-1.168790087103843689e-02
-4.059495404362678528e-03
1.833982393145561218e-02
2.076774276793003082e-02
8.567890524864196777e-02
3.710383549332618713e-02
-1.970064453780651093e-02
5.414329469203948975e-02
7.348853163421154022e-03
-2.744971588253974915e-02
1.020255312323570251e-01
-2.108130231499671936e-02
3.806362301111221313e-02
-3.579890122637152672e-03
3.712620586156845093e-02
2.925013564527034760e-02
-6.619495898485183716e-02
1.229735612869262695e-01
3.390971105545759201e-03
5.916321650147438049e-02
-4.995258897542953491e-02
-5.960356444120407104e-02
6.585343927145004272e-02
2.994108013808727264e-02
-4.487693309783935547e-02
2.539725787937641144e-02
8.662914484739303589e-02
2.638841420412063599e-02
-3.873670473694801331e-02
1.048209238797426224e-02
1.508233696222305298e-01
1.447949651628732681e-02
-1.244693771004676819e-01
-3.038282738998532295e-04
-4.544262308627367020e-03
3.102375753223896027e-02
2.564280852675437927e-02
2.373742870986461639e-02
-1.831019483506679535e-02
-6.632894277572631836e-02
5.832310393452644348e-02
1.068043783307075500e-01
3.911608457565307617e-02
1.199044361710548401e-01
3.647898137569427490e-02
-6.675956398248672485e-02
6.022150069475173950e-02
-4.187129437923431396e-02
-6.158162280917167664e-02
3.305938094854354858e-02
7.664600014686584473e-02
1.518512666225433350e-01
1.355017274618148804e-01
-1.886196248233318329e-02
-4.787065833806991577e-02
8.365959674119949341e-02
1.737792342901229858e-01
1.207405030727386475e-01
4.240889847278594971e-02
-3.794698789715766907e-02
1.006449311971664429e-01
1.974414139986038208e-01
1.309144124388694763e-02
-2.461008541285991669e-02
8.642161265015602112e-03
8.575125783681869507e-02
1.816647350788116455e-01
-1.396696418523788452e-01
-1.634239554405212402e-01
-2.442178279161453247e-01
1.308001428842544556e-01
2.146293520927429199e-01
-6.501638144254684448e-02
5.121931806206703186e-02
-3.325393423438072205e-02
2.168425917625427246e-01
4.181011766195297241e-02
1.171064823865890503e-01
6.860858947038650513e-02
-6.746375560760498047e-02
1.455035507678985596e-01
-6.257014721632003784e-02
-2.417508140206336975e-02
6.354900449514389038e-02
-2.142285462468862534e-03
4.033685103058815002e-02
-7.160871475934982300e-02
1.147731691598892212e-01
-7.056044787168502808e-02
4.284004494547843933e-02
8.780191093683242798e-02
3.496899502351880074e-03
-5.718190222978591919e-02
-1.513330638408660889e-01
4.599807783961296082e-02
2.194230556488037109e-01
5.532040074467658997e-02
-6.134967133402824402e-02
6.320138275623321533e-02
-7.627789862453937531e-03
-2.877457626163959503e-02
-8.196838945150375366e-02
1.205707620829343796e-02
1.168927829712629318e-02
1.811372302472591400e-02
3.523442521691322327e-02
-4.138412326574325562e-02
3.608912974596023560e-02
2.310754731297492981e-02
-3.324278071522712708e-02
6.179882213473320007e-02
-6.989236176013946533e-02
8.182113617658615112e-02
2.051706425845623016e-02
-1.235030777752399445e-02
3.645762056112289429e-02
6.580841261893510818e-03
-5.091468989849090576e-02
-1.267570257186889648e-01
4.157699272036552429e-02
8.197361230850219727e-02
-2.136893384158611298e-02
-1.001302432268857956e-02
1.387299448251724243e-01
6.531879305839538574e-02
-5.281582474708557129e-03
4.023595154285430908e-02
-7.683464884757995605e-02
2.500486560165882111e-02
9.236930310726165771e-02
9.111718088388442993e-02
-6.752776354551315308e-02
-1.588696092367172241e-01
-7.299070805311203003e-02
1.369126886129379272e-01
1.209713369607925415e-01
-1.172724813222885132e-01
-1.671723425388336182e-01
-2.304460480809211731e-02
1.358462721109390259e-01
-7.023688871413469315e-03
-1.038831397891044617e-01
-5.116754025220870972e-02
8.717487566173076630e-03
2.454274445772171021e-01
2.607259526848793030e-02
-2.052007019519805908e-01
-2.886764146387577057e-02
3.683780133724212646e-02
4.108388349413871765e-02
1.632890105247497559e-02
5.022733937948942184e-03
1.126038804650306702e-01
4.967418313026428223e-02
2.125905267894268036e-02
-3.648170456290245056e-02
5.445558205246925354e-02
7.691436260938644409e-02
5.254884809255599976e-02
8.268577605485916138e-02
-4.388281144201755524e-03
4.749709274619817734e-03
5.233733355998992920e-02
3.949294984340667725e-02
1.234014853835105896e-01
1.118457540869712830e-01
-4.857246577739715576e-02
5.400674417614936829e-02
5.521670728921890259e-02
1.392886787652969360e-01
7.138630002737045288e-02
-4.609368368983268738e-02
6.359481811523437500e-02
4.766949266195297241e-02
7.069719582796096802e-02
-8.000910747796297073e-05
-1.027951613068580627e-01
1.292212307453155518e-01
9.268566220998764038e-02
7.777899503707885742e-03
-8.006759732961654663e-02
4.597886651754379272e-02
1.037747412919998169e-01
1.187783330678939819e-01
-2.287703193724155426e-02
-2.081377990543842316e-02
6.782726943492889404e-02
-4.435371607542037964e-02
5.329683050513267517e-02
8.392780274152755737e-02
-2.839111350476741791e-02
-2.505003847181797028e-02
4.576142877340316772e-02
-2.980058081448078156e-02
1.399052441120147705e-01
5.301366373896598816e-02
-1.742496713995933533e-02
2.701284922659397125e-02
-4.268024489283561707e-02
-1.259146034717559814e-01
3.725386038422584534e-02
1.382813137024641037e-02
1.105746999382972717e-01
-6.645966321229934692e-02
-1.730612367391586304e-01
-1.136283427476882935e-01
-8.777032047510147095e-02
-5.852214992046356201e-03
-1.216463819146156311e-01
-1.725220233201980591e-01
-1.636939793825149536e-01
-1.064758747816085815e-01
7.947475463151931763e-02
-1.267398297786712646e-01
-1.749440282583236694e-01
-7.481227070093154907e-02
-1.696254312992095947e-01
8.914272487163543701e-02
-3.751851990818977356e-02
-1.755899190902709961e-01
-1.378060877323150635e-01
-6.187325716018676758e-02
4.994476214051246643e-02
-1.163335889577865601e-01
-7.612010091543197632e-02
-4.149504378437995911e-02
1.166316401213407516e-02
-4.196022078394889832e-02
-1.172804981470108032e-01
-1.156445369124412537e-01
-4.818688705563545227e-02
-6.967117637395858765e-02
-6.915459036827087402e-02
-1.418508887290954590e-01
-1.980235576629638672e-01
-2.758356742560863495e-02
-1.146292220801115036e-02
7.321654260158538818e-02
-1.593129895627498627e-02
-9.409161657094955444e-02
-2.390875667333602905e-02
-8.384507149457931519e-02
-4.662135615944862366e-02
-1.447548568248748779e-01
-1.747094690799713135e-01
-1.231438443064689636e-01
-2.903585880994796753e-02
-2.084898762404918671e-02
-4.640763998031616211e-02
-4.068099893629550934e-03
-2.973445691168308258e-02
4.592731595039367676e-02
-3.839446604251861572e-02
4.938978701829910278e-02
-1.018837764859199524e-01
-7.359496504068374634e-02
-6.450168043375015259e-02
-9.994915127754211426e-02
-1.127178743481636047e-01
-8.193112164735794067e-02
9.153616614639759064e-03
-4.310813173651695251e-02
-2.413382567465305328e-02
-3.944545984268188477e-02
-5.068738479167222977e-03
3.981977328658103943e-02
-4.261652380228042603e-02
-2.746410435065627098e-03
2.011659927666187286e-02
-8.096510916948318481e-02
2.550243152654729784e-05
3.706426545977592468e-02
-6.695492565631866455e-02
-3.494332358241081238e-02
6.121548265218734741e-02
1.523187197744846344e-02
9.892226755619049072e-02
8.501277118921279907e-02
-1.266052573919296265e-02
-4.649840295314788818e-02
2.558412030339241028e-03
3.752761706709861755e-02
-6.140480283647775650e-03
-7.027792930603027344e-02
5.537712201476097107e-02
5.065895617008209229e-02
-1.096210032701492310e-01
7.601346587762236595e-04
3.966692462563514709e-02
-8.865825831890106201e-03
-7.257799152284860611e-03
-9.986689686775207520e-02
1.657765954732894897e-01
-2.817572280764579773e-02
-9.534664452075958252e-02
2.409325912594795227e-02
-3.456266969442367554e-02
-1.379963755607604980e-01
-1.979596354067325592e-02
-3.583412989974021912e-02
-7.984144240617752075e-02
-4.311437159776687622e-02
-3.408540785312652588e-02
3.159275650978088379e-02
2.962119877338409424e-02
-8.307888358831405640e-02
-9.693163447082042694e-04
-6.637463718652725220e-02
5.855709314346313477e-02
8.947897702455520630e-02
4.353090748190879822e-02
-1.041434425860643387e-02
3.994832187891006470e-02
1.025490760803222656e-01
-1.006262674927711487e-01
6.825121492147445679e-02
1.951374858617782593e-02
5.647704005241394043e-03
1.040499210357666016e-01
-9.363958984613418579e-02
-2.337379008531570435e-02
-2.158583840355277061e-03
-1.289801895618438721e-01
2.035259641706943512e-02
1.298333425074815750e-02
-6.137005239725112915e-02
-8.099371194839477539e-02
-3.911093249917030334e-02
6.513532251119613647e-02
-6.876980513334274292e-02
2.889909595251083374e-02
-9.521573036909103394e-02
5.021904036402702332e-02
7.941374182701110840e-02
4.504019767045974731e-02
3.906727954745292664e-02
-6.900154799222946167e-02
2.649878710508346558e-02
6.509016454219818115e-02
-3.940005972981452942e-02
-6.280950456857681274e-02
4.603638872504234314e-02
2.343830466270446777e-02
6.181752681732177734e-02
-2.288271486759185791e-02
-4.150567576289176941e-03
2.669984474778175354e-02
1.484424713999032974e-02
2.780126035213470459e-01
2.498571574687957764e-01
-1.562322676181793213e-02
-1.724116504192352295e-02
-2.662401087582111359e-02
6.984166055917739868e-02
1.345290839672088623e-01
-2.678406052291393280e-02
1.695835404098033905e-02
1.095029562711715698e-01
-9.900422394275665283e-02
2.447268664836883545e-01
-3.913294523954391479e-02
1.949728652834892273e-02
7.124332338571548462e-02
7.579748332500457764e-02
1.132723465561866760e-01
9.312444925308227539e-02
1.341829448938369751e-01
1.010678485035896301e-01
1.138865724205970764e-01
4.625943675637245178e-02
5.925997346639633179e-02
3.257387131452560425e-02
2.342820167541503906e-02
2.527787387371063232e-01
-7.874795049428939819e-02
-3.104180842638015747e-02
-9.756529703736305237e-03
9.538272768259048462e-02
9.984012693166732788e-02
1.178657263517379761e-01
-7.124662399291992188e-02
-4.223732277750968933e-02
2.979060076177120209e-02
-4.314457252621650696e-02
1.534619629383087158e-01
6.234514713287353516e-02
1.039172634482383728e-01
-6.932435184717178345e-02
3.649581968784332275e-02
9.997262060642242432e-02
-7.974369078874588013e-02
-2.245560474693775177e-02
3.334471955895423889e-02
-1.445469073951244354e-02
3.430465236306190491e-02
-1.412127912044525146e-01
-3.859120234847068787e-02
1.818370968103408813e-01
1.147860959172248840e-01
-1.186922118067741394e-01
-5.784156918525695801e-02
-1.804046705365180969e-02
-2.792665362358093262e-02
3.052845224738121033e-02
8.123607188463211060e-02
-3.049350157380104065e-02
9.823936969041824341e-02
5.739092826843261719e-02
-2.712735347449779510e-02
6.234068050980567932e-02
-7.242287695407867432e-02
7.399910688400268555e-02
-2.828972972929477692e-02
7.001633755862712860e-03
5.234561860561370850e-02
3.081969916820526123e-02
6.443335115909576416e-02
6.877987086772918701e-02
1.636744849383831024e-02
2.582888863980770111e-02
-1.256958581507205963e-02
-5.046642851084470749e-03
2.393920868635177612e-01
-7.882444560527801514e-02
-1.585566848516464233e-01
-4.042713344097137451e-02
8.816479146480560303e-02
1.913620233535766602e-01
-7.335907220840454102e-02
-1.556253135204315186e-01
-7.234381884336471558e-02
-5.888454616069793701e-02
7.096681743860244751e-02
-1.913836598396301270e-02
-9.790863841772079468e-02
-4.869173746556043625e-03
3.414061293005943298e-02
1.905284821987152100e-02
4.812550917267799377e-02
-4.352504387497901917e-02
-1.116796433925628662e-01
9.579359740018844604e-02
7.935278117656707764e-02
7.168943434953689575e-02
-5.898067355155944824e-02
-4.222032427787780762e-02
1.387884654104709625e-02
-9.458540007472038269e-03
-4.914818331599235535e-02
5.150654166936874390e-02
1.967504061758518219e-02
1.546669192612171173e-02
1.049239933490753174e-01
1.477099489420652390e-02
-2.418410778045654297e-02
-5.629905313253402710e-02
2.397821284830570221e-02
5.745678395032882690e-02
4.718925803899765015e-02
4.450841993093490601e-02
5.182067304849624634e-02
9.191861748695373535e-02
-7.977593690156936646e-03
5.479457788169384003e-03
9.934607893228530884e-03
7.412519305944442749e-02
8.747334033250808716e-02
7.414425164461135864e-02
-9.822280146181583405e-03
-9.004759043455123901e-02
-8.427749574184417725e-02
8.146886527538299561e-02
5.763746798038482666e-02
-3.905924409627914429e-02
8.596219867467880249e-02
8.784669637680053711e-02
1.574748009443283081e-02
8.135458827018737793e-02
2.737400494515895844e-02
-3.712484240531921387e-02
3.587400540709495544e-02
8.607830107212066650e-02
-2.022130601108074188e-02
5.298111122101545334e-03
4.000408202409744263e-02
-7.579823583364486694e-02
1.035380959510803223e-01
4.506203532218933105e-02
7.244907319545745850e-02
-1.821231096982955933e-02
-3.873156011104583740e-02
-3.107847645878791809e-02
1.079351752996444702e-01
-4.127239342778921127e-03
4.401061683893203735e-02
4.577111080288887024e-02
-2.197000756859779358e-02
3.407807555049657822e-03
-4.536168277263641357e-02
9.647943079471588135e-02
8.076269179582595825e-02
1.943214982748031616e-02
-1.603238843381404877e-02
-9.007977694272994995e-02
7.378313690423965454e-02
2.314409613609313965e-02
1.090629678219556808e-02
4.055295139551162720e-02
-1.024212166666984558e-01
-2.815267071127891541e-02
4.446986317634582520e-02
-8.818027563393115997e-03
2.223789691925048828e-02
1.069175079464912415e-02
-8.788534440100193024e-03
1.184087768197059631e-01
-4.523556679487228394e-02
-5.759836733341217041e-02
7.539393380284309387e-03
-2.752467617392539978e-02
1.101584807038307190e-01
4.170630872249603271e-02
-7.697909325361251831e-02
-4.089618101716041565e-02
1.490295492112636566e-02
4.890891164541244507e-02
-9.958521462976932526e-03
-4.959291592240333557e-02
-8.092034608125686646e-02
-3.727236017584800720e-02
1.088130939751863480e-02
-6.655044853687286377e-02
-6.155980378389358521e-02
4.150061402469873428e-03
-4.031107202172279358e-02
4.617135599255561829e-02
-8.831569552421569824e-02
-4.270357638597488403e-02
-9.751554578542709351e-03
7.023911457508802414e-03
4.919887706637382507e-02
4.063538461923599243e-02
2.631331048905849457e-02
-4.240382462739944458e-02
6.919962354004383087e-03
1.437280774116516113e-01
-5.860796570777893066e-02
-1.483185775578022003e-02
-7.764347642660140991e-02
5.743364989757537842e-02
-3.962914273142814636e-02
-9.554643183946609497e-02
1.382259652018547058e-02
-5.333770439028739929e-02
3.768576309084892273e-02
-7.982904464006423950e-02
-1.202577445656061172e-02
-5.140338093042373657e-02
1.636040396988391876e-02
-4.721234738826751709e-02
-1.921538030728697777e-03
-8.232247084379196167e-03
-9.849337860941886902e-03
6.581067293882369995e-02
6.047474220395088196e-02
2.663692226633429527e-03
2.474811486899852753e-02
-1.253430172801017761e-02
-5.095844389870762825e-04
3.410179540514945984e-02
4.243909195065498352e-02
1.362728513777256012e-02
-1.014394536614418030e-01
2.903107739984989166e-02
-2.693958766758441925e-02
-3.287858888506889343e-02
-1.475987583398818970e-01
-1.312407702207565308e-01
-6.435188651084899902e-02
-2.582813240587711334e-02
-8.659800887107849121e-02
-1.540513634681701660e-01
-1.140807718038558960e-01
-8.875370025634765625e-02
-6.713257730007171631e-02
-6.787954270839691162e-02
-6.199096888303756714e-02
-8.580233156681060791e-02
-3.167099133133888245e-02
-7.149063050746917725e-02
-2.859998680651187897e-02
-7.519304752349853516e-02
-1.959494873881340027e-02
1.003950610756874084e-01
7.340161502361297607e-02
4.176905378699302673e-02
-9.378338605165481567e-02
-2.836387790739536285e-02
6.192924454808235168e-02
-4.609149321913719177e-02
-2.679000422358512878e-02
-2.270421199500560760e-02
5.474342405796051025e-02
1.144531276077032089e-02
7.398019731044769287e-02
-7.127154618501663208e-02
-6.345317512750625610e-02
-6.030342355370521545e-02
-6.583993881940841675e-02
-8.256588876247406006e-02
3.472933918237686157e-02
2.451224438846111298e-02
6.209886074066162109e-02
4.589239135384559631e-03
-3.947595879435539246e-02
-5.165822058916091919e-02
-3.035548143088817596e-02
-3.306458890438079834e-02
6.575238704681396484e-02
-7.257614284753799438e-02
1.437403820455074310e-02
-4.978711903095245361e-02
-3.891151398420333862e-02
-4.402862861752510071e-02
-7.855116575956344604e-02
7.185925543308258057e-02
-2.946830168366432190e-02
-1.918587833642959595e-02
-3.996819257736206055e-02
4.233756044413894415e-04
4.351048171520233154e-02
3.646200895309448242e-02
2.857318520545959473e-02
-3.846945613622665405e-02
7.549715787172317505e-02
-2.869142405688762665e-02
1.516765914857387543e-03
-2.782935462892055511e-02
7.848744094371795654e-02
-1.748162508010864258e-02
-4.092545434832572937e-02
-6.356641650199890137e-02
-1.868388988077640533e-02
4.231466725468635559e-02
1.240184903144836426e-02
-3.679035231471061707e-02
-7.601563632488250732e-02
-8.409966528415679932e-02
-4.586964845657348633e-02
6.455761939287185669e-02
-1.616897620260715485e-02
-3.897011652588844299e-02
7.577056437730789185e-02
6.392745766788721085e-03
6.528813391923904419e-02
-1.357127260416746140e-02
6.096789613366127014e-02
1.011046674102544785e-02
1.237046066671609879e-02
5.921988934278488159e-02
-5.018895491957664490e-02
7.416173815727233887e-02
5.197327584028244019e-02
-4.577426612377166748e-02
-7.312849909067153931e-02
-5.536619573831558228e-02
1.095606200397014618e-02
5.642745643854141235e-02
7.884977012872695923e-02
-1.530508510768413544e-02
7.125141471624374390e-02
-7.382024079561233521e-02
-3.363939747214317322e-02
-3.982618823647499084e-02
-5.466306582093238831e-02
6.869881600141525269e-02
1.199192716740071774e-03
4.141473025083541870e-02
7.269226014614105225e-02
-2.032880298793315887e-02
-4.868217930197715759e-02
-2.360756509006023407e-02
-6.627865135669708252e-02
-3.019417868927121162e-03
-5.358180403709411621e-02
6.600694358348846436e-02
-6.335116177797317505e-02
-7.249943166971206665e-02
-2.965326048433780670e-02
-5.150080099701881409e-02
-2.096620202064514160e-02
7.530163228511810303e-02
2.646313607692718506e-02
-7.712946087121963501e-02
2.832370810210704803e-02
-3.411737736314535141e-03
2.529563196003437042e-02
-5.362980812788009644e-02
-2.991520427167415619e-02
-6.468380987644195557e-02
-3.749544965103268623e-03
-7.407918572425842285e-02
7.806878536939620972e-03
-2.665698342025279999e-02
-3.689609840512275696e-02
5.049630999565124512e-02
-3.748254850506782532e-02
8.776063099503517151e-03
7.596924155950546265e-02
-7.097364217042922974e-02
-5.259514786303043365e-03
-6.420359760522842407e-02
-7.825672626495361328e-02
-6.774146854877471924e-02
1.059657894074916840e-02
7.204321026802062988e-02
7.400202751159667969e-02
7.398477941751480103e-02
-7.976809144020080566e-02
-3.946350887417793274e-02
-2.554221451282501221e-02
1.289124600589275360e-03
-4.887389391660690308e-02
-5.301166698336601257e-02
4.405455291271209717e-02
1.857692189514636993e-02
-1.505723595619201660e-02
1.518203411251306534e-02
3.856751322746276855e-02
2.488559670746326447e-02
8.869886398315429688e-03
-6.762124598026275635e-02
-3.126581897959113121e-03
-6.431127339601516724e-02
-4.168586432933807373e-02
2.768028154969215393e-02
-8.077832311391830444e-02
3.257669508457183838e-02
2.498627826571464539e-02
-1.088162697851657867e-02
6.150748953223228455e-02
-7.627286761999130249e-02
-5.937498062849044800e-02
-3.033921867609024048e-02
7.770022004842758179e-02
-6.555914133787155151e-02
5.986980721354484558e-02
-7.581893354654312134e-02
-6.622278131544589996e-03
-3.478360921144485474e-02
5.396188795566558838e-02
1.332090934738516808e-03
-9.195449203252792358e-02
-1.105725243687629700e-01
1.048843841999769211e-02
-6.906426511704921722e-03
4.581849649548530579e-02
-7.268797606229782104e-02
-6.882410496473312378e-02
-1.284090727567672729e-01
-1.146822720766067505e-01
3.650286793708801270e-02
-6.315680593252182007e-02
2.572705410420894623e-02
-1.830181293189525604e-02
-7.718681544065475464e-02
6.209969520568847656e-03
-5.917791649699211121e-02
-8.994027972221374512e-02
-4.955033585429191589e-02
-1.070320308208465576e-01
-4.737959429621696472e-02
-8.428544551134109497e-02
-1.053647771477699280e-01
-9.794858843088150024e-02
-9.704671055078506470e-02
-9.147907793521881104e-02
-2.801691368222236633e-02
2.594380639493465424e-02
-6.452727317810058594e-02
4.345773905515670776e-02
-1.074656769633293152e-01
-4.942428693175315857e-02
-7.402543723583221436e-02
-6.331898272037506104e-02
-7.506404817104339600e-02
6.032012030482292175e-02
1.593906898051500320e-03
-6.704756617546081543e-02
-1.191156283020973206e-01
1.940385252237319946e-02
-1.862176693975925446e-02
5.401931703090667725e-02
-1.786959357559680939e-02
3.772685071453452110e-03
-1.223424598574638367e-01
2.244335785508155823e-02
-7.780133187770843506e-02
1.233615539968013763e-02
1.362991631031036377e-01
1.700913906097412109e-02
4.524994641542434692e-02
2.789584547281265259e-02
1.291203200817108154e-01
-7.759341038763523102e-03
5.352019518613815308e-02
-8.301109075546264648e-03
1.221341174095869064e-02
1.845690794289112091e-02
1.435734182596206665e-01
1.301061362028121948e-01
4.166887700557708740e-02
3.848228231072425842e-02
1.783163170330226421e-03
1.390126496553421021e-01
1.049809902906417847e-01
-4.948624968528747559e-02
-8.383980393409729004e-02
4.754756763577461243e-02
8.545778691768646240e-02
1.101610288023948669e-01
8.709550648927688599e-02
-8.899715542793273926e-02
6.158147007226943970e-02
1.071945801377296448e-01
3.191904351115226746e-02
1.027008742094039917e-01
-2.048029191792011261e-02
-8.022720925509929657e-03
2.546701580286026001e-02
-3.219288773834705353e-03
9.978177398443222046e-02
-7.049446459859609604e-03
1.135741025209426880e-01
2.965790778398513794e-02
-6.544788181781768799e-02
7.707466930150985718e-02
2.309877797961235046e-02
8.742776513099670410e-02
-3.604475408792495728e-02
1.340633258223533630e-02
7.836302975192666054e-04
-7.947303354740142822e-02
1.463607400655746460e-01
3.311799094080924988e-02
3.420387953519821167e-02
1.212900653481483459e-01
2.517491579055786133e-02
-3.973213583230972290e-02
-9.965736418962478638e-03
-4.950640723109245300e-02
4.865932092070579529e-02
-1.623284188099205494e-03
-5.505543947219848633e-02
-1.009429711848497391e-02
-3.742145001888275146e-02
3.291938826441764832e-02
-8.148268610239028931e-02
1.635561324656009674e-02
3.233294188976287842e-02
5.653662607073783875e-02
5.724667012691497803e-02
-1.740771718323230743e-02
2.494568703696131706e-03
-1.007890794426202774e-02
-6.750862300395965576e-02
6.261096149682998657e-02
3.687549009919166565e-02
8.697546273469924927e-02
-6.151035055518150330e-02
-1.518493704497814178e-02
-2.888534590601921082e-02
-3.544396534562110901e-02
-1.418229192495346069e-02
1.249292027205228806e-02
1.946792751550674438e-02
-8.740005642175674438e-02
-2.716365270316600800e-02
-7.246015965938568115e-02
1.970177330076694489e-02
9.825715422630310059e-02
-5.458007100969552994e-03
-2.459901571273803711e-02
-3.872429206967353821e-02
1.264070421457290649e-01
1.898149847984313965e-01
1.005217581987380981e-01
-6.612159311771392822e-02
-8.443693816661834717e-02
8.641627617180347443e-03
-6.280422094278037548e-04
-1.590468920767307281e-02
-4.838098958134651184e-02
2.626725845038890839e-02
-3.392779454588890076e-02
1.705808639526367188e-01
8.137513697147369385e-02
7.246579229831695557e-02
-7.553994655609130859e-02
-1.921314373612403870e-02
-7.365086674690246582e-02
-1.559234857559204102e-01
-7.259494811296463013e-02
5.399682372808456421e-02
-9.457301348447799683e-03
-6.396401673555374146e-02
-6.433422118425369263e-02
8.692771196365356445e-03
7.123692333698272705e-02
1.827742531895637512e-02
5.021300539374351501e-02
9.344850666821002960e-03
4.362115636467933655e-02
5.632416903972625732e-02
1.000740602612495422e-01
4.544058442115783691e-02
1.211150139570236206e-01
-2.482860721647739410e-02
-4.063262604176998138e-03
6.480008363723754883e-02
1.862251460552215576e-01
1.232172101736068726e-01
-5.816197395324707031e-02
-1.432144194841384888e-01
-1.087369397282600403e-01
-1.468365937471389771e-01
-1.402382254600524902e-01
-1.589625328779220581e-02
-1.301591098308563232e-01
-8.596932888031005859e-02
-9.394651651382446289e-02
-6.670659780502319336e-02
3.893145173788070679e-02
-1.068945452570915222e-01
4.966860637068748474e-02
7.654181867837905884e-02
6.293337047100067139e-02
9.195053577423095703e-02
-1.836368441581726074e-02
-3.783522918820381165e-02
5.625943839550018311e-02
9.260576218366622925e-02
3.367803525179624557e-03
1.756837591528892517e-02
1.190942898392677307e-01
9.020852297544479370e-02
5.863769352436065674e-02
-9.713768959045410156e-04
-4.313396662473678589e-02
7.249105256050825119e-03
-2.286762148141860962e-01
6.255147606134414673e-02
-1.243944093585014343e-02
-8.228477090597152710e-02
8.864483982324600220e-02
-5.930112674832344055e-03
-4.475606605410575867e-02
-6.343328207731246948e-02
-8.778484165668487549e-02
9.500919282436370850e-02
2.002092637121677399e-02
-2.106791362166404724e-02
1.077865958213806152e-01
-6.355980038642883301e-02
-5.275518447160720825e-02
1.229709573090076447e-02
-9.413944184780120850e-02
4.290173947811126709e-02
-1.050239652395248413e-01
-6.114702671766281128e-02
1.542155910283327103e-02
-1.212478131055831909e-01
1.032742392271757126e-02
1.081452220678329468e-01
-2.150618843734264374e-02
6.153238192200660706e-02
1.811624020338058472e-01
1.197764882817864418e-03
5.925511196255683899e-02
4.597673937678337097e-02
-4.385890066623687744e-02
-4.715412110090255737e-02
-1.023464128375053406e-01
8.652263879776000977e-02
-1.579394913278520107e-03
-7.147608697414398193e-02
4.037005081772804260e-02
-4.969772696495056152e-02
3.318534046411514282e-02
5.657208710908889771e-02
-6.386964023113250732e-02
-6.356931477785110474e-02
-3.629875136539340019e-03
6.894151866436004639e-02
1.058013737201690674e-01
1.129425037652254105e-02
-6.537897139787673950e-02
6.767693161964416504e-02
6.925676017999649048e-02
3.820252418518066406e-02
1.061033084988594055e-01
3.282162174582481384e-02
-6.597765535116195679e-02
6.457311660051345825e-02
-1.765262521803379059e-02
1.269302666187286377e-01
1.211983114480972290e-01
3.667643666267395020e-02
1.335260421037673950e-01
-3.267972916364669800e-02
7.255316525697708130e-02
2.061719819903373718e-02
3.783653303980827332e-02
-3.076874278485774994e-02
3.287325671408325434e-04
4.025035724043846130e-02
1.528123859316110611e-03
-3.933767229318618774e-02
-7.899722084403038025e-03
-2.375389449298381805e-02
6.257300823926925659e-02
6.937034428119659424e-02
1.069302782416343689e-01
1.137469802051782608e-02
2.251114547252655029e-01
3.861308395862579346e-01
2.134911864995956421e-01
1.935373544692993164e-01
1.988305747509002686e-01
9.446356445550918579e-02
1.536413133144378662e-01
1.510149240493774414e-01
5.179010797291994095e-03
1.904967986047267914e-02
-7.578378170728683472e-02
-6.346597522497177124e-02
3.201073780655860901e-02
-1.566765159368515015e-01
-1.450036764144897461e-01
-2.535915076732635498e-01
-2.494783103466033936e-01
-2.155975550413131714e-01
-1.398390084505081177e-01
-1.494044959545135498e-01
-1.632373221218585968e-02
-1.844114214181900024e-01
-1.865155994892120361e-01
