1.723561584949493408e-01
1.550321131944656372e-01
-4.035058245062828064e-02
-5.160692334175109863e-02
-3.051055073738098145e-01
-1.720619350671768188e-01
1.323733031749725342e-01
2.930226922035217285e-01
-4.665117338299751282e-02
-1.812999695539474487e-01
1.794092357158660889e-01
2.444212436676025391e-01
9.375310689210891724e-02
1.321336328983306885e-01
1.807313412427902222e-01
2.481843531131744385e-01
1.641281694173812866e-01
2.527189254760742188e-01
2.187819331884384155e-01
1.249062791466712952e-01
8.135927468538284302e-02
2.186254970729351044e-02
1.917364448308944702e-01
1.300110667943954468e-01
1.530796736478805542e-01
2.017063051462173462e-01
1.632012426853179932e-01
1.517557501792907715e-01
2.613214850425720215e-01
7.806538045406341553e-02
1.793234348297119141e-01
2.053403109312057495e-02
1.850781776010990143e-02
2.393040060997009277e-01
2.219110578298568726e-01
1.526457909494638443e-02
2.148153632879257202e-01
2.251784950494766235e-01
1.994086056947708130e-01
2.653703093528747559e-01
2.515890300273895264e-01
4.827448725700378418e-02
1.891552358865737915e-01
2.508929669857025146e-01
9.671009145677089691e-03
2.810500264167785645e-01
4.002322554588317871e-01
3.550628125667572021e-01
1.044925600290298462e-01
1.299641579389572144e-01
-1.812870055437088013e-01
-2.669402360916137695e-01
4.785007238388061523e-01
5.908495560288429260e-02
-8.705740422010421753e-02
-4.109395444393157959e-01
-3.001052737236022949e-01
6.874148249626159668e-01
7.703007757663726807e-02
-6.427957862615585327e-02
-4.215320646762847900e-01
-1.836197376251220703e-01
6.136450171470642090e-01
-2.331841550767421722e-02
2.231202833354473114e-02
-4.111198782920837402e-01
-3.391131758689880371e-01
7.065028548240661621e-01
1.800810545682907104e-01
-1.461957693099975586e-01
-2.540158331394195557e-01
-5.610381960868835449e-01
6.317419409751892090e-01
7.870705425739288330e-02
1.050346344709396362e-01
2.490010261535644531e-01
9.901876561343669891e-03
-2.746405303478240967e-01
2.869709134101867676e-01
4.505407065153121948e-02
9.670659154653549194e-02
-1.108264923095703125e-01
-2.533404529094696045e-01
4.551832675933837891e-01
7.672484964132308960e-02
1.780537515878677368e-01
-3.298316597938537598e-01
-3.630739152431488037e-01
4.935510456562042236e-01
2.098654657602310181e-01
-3.551660776138305664e-01
-3.989090323448181152e-01
-5.246559381484985352e-01
4.982529878616333008e-01
4.135981798171997070e-01
-2.095023542642593384e-01
-4.850437343120574951e-01
-5.063194632530212402e-01
2.236922681331634521e-01
3.241091370582580566e-01
-8.693934231996536255e-02
-1.781401038169860840e-01
-2.682360075414180756e-02
-2.474956214427947998e-01
1.931444555521011353e-01
-2.154242694377899170e-01
-2.385895997285842896e-01
-3.826130330562591553e-01
2.488336861133575439e-01
-1.252385228872299194e-01
5.534996092319488525e-02
5.959947034716606140e-02
-2.501806057989597321e-02
1.369461417198181152e-01
-5.105904862284660339e-02
3.171955943107604980e-01
-4.877923056483268738e-02
-8.904840052127838135e-02
1.406465619802474976e-01
2.459655255079269409e-01
8.639150112867355347e-02
-2.644763700664043427e-02
-1.848371773958206177e-01
2.968386411666870117e-01
8.905467391014099121e-02
-3.436685800552368164e-01
-4.895235300064086914e-01
-6.267725825309753418e-01
-4.189724028110504150e-01
-3.908230662345886230e-01
-2.790124416351318359e-01
-5.624002814292907715e-01
-8.816602826118469238e-01
-7.319804430007934570e-01
-4.303911030292510986e-01
-2.725371904671192169e-02
-4.053089916706085205e-01
-5.344206094741821289e-01
-5.289130806922912598e-01
-1.603892445564270020e-01
-7.123016566038131714e-02
-8.701536804437637329e-02
-7.910913228988647461e-02
-8.800112456083297729e-02
-8.890289068222045898e-02
-1.212608739733695984e-01
-2.612693309783935547e-01
-2.203822880983352661e-01
-2.484590411186218262e-01
-7.507991045713424683e-02
