5.869938060641288757e-02
6.284398585557937622e-02
-3.959561511874198914e-02
-1.761533692479133606e-02
-1.060794480144977570e-02
8.339143544435501099e-02
-2.821355685591697693e-02
-1.583335176110267639e-02
-1.344645768404006958e-01
6.020397692918777466e-02
1.411356925964355469e-01
2.226794660091400146e-01
3.559335321187973022e-02
3.389399498701095581e-02
2.212395332753658295e-02
1.679530292749404907e-01
1.430039554834365845e-01
-8.178736269474029541e-02
7.673233747482299805e-02
9.062027186155319214e-02
1.109814643859863281e-01
-1.005384400486946106e-01
-1.020553894340991974e-02
-5.059737712144851685e-02
1.467770338058471680e-01
-1.259286552667617798e-01
-1.946515031158924103e-02
1.201161742210388184e-01
7.841192930936813354e-02
9.937041252851486206e-02
2.246370613574981689e-01
-6.355453282594680786e-02
9.905176237225532532e-03
-4.508552700281143188e-02
1.096677780151367188e-01
4.236575681716203690e-03
-4.823307320475578308e-02
-3.480808436870574951e-02
1.582221128046512604e-02
-5.878580734133720398e-02
6.831365823745727539e-02
8.029542118310928345e-02
-1.072319746017456055e-01
-1.748423427343368530e-01
-2.532299980521202087e-02
-8.615350723266601562e-02
-5.415498837828636169e-02
5.251668766140937805e-02
7.637020200490951538e-02
1.653111129999160767e-01
5.494177713990211487e-02
2.361612394452095032e-02
3.607228025794029236e-02
4.568945616483688354e-02
2.463929913938045502e-02
-1.422360390424728394e-01
-8.283523470163345337e-02
-1.259805075824260712e-02
-5.396684259176254272e-02
1.248189732432365417e-01
-6.598189473152160645e-02
-1.074957288801670074e-02
3.916806727647781372e-02
-5.580776184797286987e-02
1.113626658916473389e-01
-5.394163727760314941e-02
5.671630613505840302e-03
-7.792727649211883545e-02
1.782050281763076782e-01
7.599900662899017334e-02
4.981050640344619751e-02
1.138938814401626587e-01
-9.439055621623992920e-02
-2.816919796168804169e-02
1.027496308088302612e-01
1.714115380309522152e-03
2.038959860801696777e-01
5.775753408670425415e-03
5.689275916665792465e-03
3.350654244422912598e-02
1.233529299497604370e-01
-1.158539876341819763e-01
3.650464490056037903e-02
6.852646172046661377e-02
3.475753590464591980e-02
-1.501087397336959839e-01
-2.862696535885334015e-02
2.027260139584541321e-03
6.115790084004402161e-02
-1.342337876558303833e-01
6.471353583037853241e-03
1.169560253620147705e-01
1.112981960177421570e-01
2.550228685140609741e-02
-3.385223075747489929e-02
3.835576027631759644e-02
4.351300001144409180e-02
1.745680570602416992e-01
-2.134413830935955048e-02
9.539410471916198730e-02
-9.925719350576400757e-02
-7.676571607589721680e-02
4.322663322091102600e-02
-4.447235539555549622e-02
-2.860570326447486877e-02
3.628496453166007996e-02
1.879007816314697266e-01
5.944273248314857483e-02
4.272701218724250793e-02
-1.545884832739830017e-02
-2.191258035600185394e-02
6.197971105575561523e-02
-9.501348435878753662e-02
1.378212869167327881e-01
-1.057892814278602600e-01
6.621632725000381470e-02
-6.207160651683807373e-03
3.001805394887924194e-02
3.325036086607724428e-04
1.088082045316696167e-02
