1.730140745639801025e-01
-1.034138724207878113e-01
2.355259358882904053e-01
-1.516082882881164551e-01
2.339025139808654785e-01
-1.206468325108289719e-02
-1.287824958562850952e-01
-1.521519720554351807e-01
1.944038458168506622e-02
1.580005697906017303e-02
7.038383185863494873e-02
1.200979948043823242e-01
1.244712155312299728e-02
-1.420923769474029541e-01
-2.765474915504455566e-01
-9.767654538154602051e-02
2.592677436769008636e-02
1.158004105091094971e-01
-2.581818699836730957e-01
-1.073158383369445801e-01
2.591594755649566650e-01
-5.222297832369804382e-02
1.671719700098037720e-01
1.204874590039253235e-01
9.617955237627029419e-02
-1.748650521039962769e-01
-2.078224271535873413e-01
-5.292294025421142578e-01
-2.379172444343566895e-01
-2.641901969909667969e-01
1.776918023824691772e-02
-2.264939695596694946e-01
-7.913289964199066162e-02
-1.433987319469451904e-01
-4.472022950649261475e-01
1.279431488364934921e-02
-7.456886768341064453e-02
3.982938826084136963e-03
-3.001998960971832275e-01
1.812110990285873413e-01
-2.514844387769699097e-02
-9.954249486327171326e-03
3.669493794441223145e-01
1.903456300497055054e-01
7.425834983587265015e-02
1.225652545690536499e-01
8.533833920955657959e-02
-8.865618705749511719e-02
5.812364071607589722e-02
-9.949191473424434662e-03
-7.581885904073715210e-02
3.153200261294841766e-03
1.979038119316101074e-01
-5.534978210926055908e-02
6.182399392127990723e-02
1.382355391979217529e-01
1.872141510248184204e-01
-3.706553578376770020e-02
2.196525037288665771e-01
-1.735092513263225555e-02
-3.348506689071655273e-01
9.630512446165084839e-02
3.195441886782646179e-02
-6.651893258094787598e-02
-2.054518908262252808e-01
7.750843465328216553e-02
-7.009877264499664307e-02
-5.874250549823045731e-03
1.646861433982849121e-01
1.594358235597610474e-01
2.355100214481353760e-02
6.442612968385219574e-03
1.377981752157211304e-01
1.529733985662460327e-01
-3.209398686885833740e-01
-3.497418761253356934e-02
-1.524852472357451916e-03
-3.387902379035949707e-01
-3.608376979827880859e-01
-2.745867669582366943e-01
-2.322581782937049866e-02
8.680141717195510864e-02
3.217477500438690186e-01
3.141839802265167236e-02
-2.105216868221759796e-02
-7.989349775016307831e-03
-1.360456198453903198e-01
-1.409446746110916138e-01
-6.901855021715164185e-02
-2.882171422243118286e-02
2.362219430506229401e-02
-1.188766211271286011e-01
8.935510180890560150e-03
6.065592169761657715e-03
1.165466234087944031e-01
-1.113473786972463131e-03
1.677622646093368530e-01
6.279115378856658936e-02
2.990005165338516235e-02
-3.438834249973297119e-01
-8.160006999969482422e-02
7.673094421625137329e-02
8.306845277547836304e-02
-1.532446965575218201e-02
1.354301720857620239e-01
-2.130454480648040771e-01
2.613025903701782227e-01
-2.179236114025115967e-01
-9.793222695589065552e-02
-2.127530425786972046e-01
4.982381127774715424e-03
1.834041625261306763e-01
-7.954267412424087524e-02
-1.060600057244300842e-01
-1.625118255615234375e-01
-1.409595012664794922e-01
3.928409889340400696e-03
-1.875973790884017944e-01
6.025214865803718567e-02
7.000040262937545776e-02
-2.463774941861629486e-02
2.001464068889617920e-01
4.131254553794860840e-02
6.235591694712638855e-02
1.496551036834716797e-01
7.716989610344171524e-03
7.594087161123752594e-03
-6.336856633424758911e-02
-1.825113743543624878e-01
-1.544865500181913376e-02
-6.458742171525955200e-02
-7.567954063415527344e-02
1.860158331692218781e-02
1.128475591540336609e-01
-6.758847832679748535e-02
-1.910333521664142609e-02
8.111267536878585815e-02
6.958845257759094238e-02
-1.472503691911697388e-01
1.651789247989654541e-01
-1.617124527692794800e-01
-1.505054235458374023e-01
-2.458916157484054565e-01
2.833229117095470428e-02
-1.616758257150650024e-01
-3.478235006332397461e-02
2.113616913557052612e-01
-3.516063094139099121e-01
1.553251221776008606e-02
9.745095670223236084e-02
-3.736712038516998291e-02
-1.340942680835723877e-01
-1.395253986120223999e-01
-1.000522263348102570e-02
9.718573838472366333e-02
1.345423609018325806e-01
-4.157322645187377930e-02
-9.574469178915023804e-03
-1.929968297481536865e-01
6.700085103511810303e-02
-1.201212108135223389e-01
-1.268739551305770874e-01
3.275885432958602905e-02
-2.053922414779663086e-02
-1.558521389961242676e-01
-4.244744777679443359e-02
-2.886844426393508911e-02
5.066129192709922791e-02
2.011550068855285645e-01
-1.878082454204559326e-01
1.943922638893127441e-01
2.549889981746673584e-01
1.642505675554275513e-01
1.158108860254287720e-01
4.583777859807014465e-02
4.509187042713165283e-01
-5.474501103162765503e-02
2.538575790822505951e-02
-1.620842702686786652e-02
-6.790750473737716675e-02
-1.508213579654693604e-01
1.724497228860855103e-01
6.120638921856880188e-02
-1.021599769592285156e-01
2.614821493625640869e-01
-3.181927278637886047e-02
-2.375062257051467896e-01
-6.190580315887928009e-03
3.006438910961151123e-01
8.507293462753295898e-02
3.250834941864013672e-01
6.613562256097793579e-02
8.640258014202117920e-02
2.992696873843669891e-02
2.986337840557098389e-01
1.722867786884307861e-01
5.261671915650367737e-02
8.740685135126113892e-02
4.220340773463249207e-02
-1.108774095773696899e-01
1.474549025297164917e-01
-1.135441660881042480e-01
9.559168666601181030e-02
-1.300767213106155396e-01
2.128832340240478516e-01
8.199212700128555298e-02
2.577466964721679688e-01
-1.801507472991943359e-01
-2.283540964126586914e-01
-2.214121632277965546e-02
-9.593189693987369537e-03
-8.764089643955230713e-02
4.041122272610664368e-02
-7.146471738815307617e-02
1.490224450826644897e-01
6.950958818197250366e-02
7.576836645603179932e-02
4.952597990632057190e-02
1.872335821390151978e-01
3.007539510726928711e-01
-7.484662532806396484e-02
1.573262512683868408e-01
-1.544554233551025391e-01
3.002355992794036865e-01
3.828519955277442932e-02
-3.438068330287933350e-01
-2.545621478930115700e-03
3.018960654735565186e-01
-3.555421531200408936e-02
-9.887819737195968628e-02
1.845721751451492310e-01
1.927292048931121826e-01
3.966492787003517151e-02
-4.150165915489196777e-01
-1.765380054712295532e-01
4.123857989907264709e-02
-3.658603727817535400e-01
-3.699202835559844971e-02
-1.130805388092994690e-01
3.210167214274406433e-02
1.318667083978652954e-01
-1.056059449911117554e-01
-4.026254713535308838e-01
1.292911767959594727e-01
-1.069698408246040344e-01
1.099376566708087921e-02
-7.027099491097033024e-04
8.797426521778106689e-02
-1.474090367555618286e-01
1.122737079858779907e-01
3.620817512273788452e-02
-3.414255082607269287e-01
-2.566709816455841064e-01
6.166208535432815552e-02
-9.646985679864883423e-03
-1.365589350461959839e-02
-3.856337368488311768e-01
1.105447411537170410e-01
-3.930904567241668701e-01
1.934408545494079590e-01
5.216042324900627136e-02
4.228926450014114380e-02
-1.939289122819900513e-01
-1.806380599737167358e-02
-5.487037450075149536e-02
1.253662407398223877e-01
1.616811379790306091e-02
-1.719158142805099487e-01
-6.795162707567214966e-02
-7.895521074533462524e-02
1.706529259681701660e-01
7.492563128471374512e-02
-1.726679317653179169e-02
-2.394982054829597473e-02
1.621931940317153931e-01
-3.667637705802917480e-01
3.099533319473266602e-01
-1.741643399000167847e-01
-1.224541515111923218e-01
-4.976428300142288208e-02
1.528325378894805908e-01
-5.054018460214138031e-03
-2.685217261314392090e-01
-3.112823069095611572e-01
3.590604066848754883e-01
7.299834489822387695e-02
2.557615041732788086e-01
2.780728787183761597e-02
-1.627740263938903809e-01
-2.540882527828216553e-01
6.860663741827011108e-02
-1.113205850124359131e-01
-2.559302449226379395e-01
1.923254579305648804e-01
1.463692337274551392e-01
1.183897033333778381e-01
1.097851097583770752e-01
1.143777593970298767e-01
-3.195604309439659119e-02
1.036742702126502991e-02
-3.040428506210446358e-03
-8.311501704156398773e-03
-4.300163686275482178e-02
-1.556102186441421509e-02
-3.232992440462112427e-02
-3.275703489780426025e-01
2.254836708307266235e-01
9.233774244785308838e-02
2.378301769495010376e-01
-2.438797652721405029e-01
9.470706433057785034e-02
-2.406842261552810669e-02
9.525331854820251465e-02
1.199553385376930237e-01
1.134116873145103455e-01
-1.113843172788619995e-01
-1.422009170055389404e-01
-1.556710600852966309e-01
4.401675611734390259e-02
1.345002502202987671e-01
-1.670724004507064819e-01
9.027706831693649292e-02
-1.328997164964675903e-01
-1.356039103120565414e-02
-9.617940336465835571e-02
-1.463792324066162109e-01
-3.200655281543731689e-01
4.106035828590393066e-01
-3.170943260192871094e-01
4.792483896017074585e-02
9.551665186882019043e-02
2.893356420099735260e-02
1.270356774330139160e-01
-2.261656224727630615e-01
1.634954847395420074e-02
4.363249614834785461e-02
-1.014282461255788803e-02
9.676924347877502441e-02
-1.901714503765106201e-01
-2.379153519868850708e-01
-5.060420557856559753e-02
-2.381181567907333374e-01
2.691131830215454102e-01
1.710009276866912842e-01
-5.356353893876075745e-02
2.167657166719436646e-01
7.180572301149368286e-02
8.652921020984649658e-02
7.754592690616846085e-03
-1.021445393562316895e-01
1.060060486197471619e-01
-1.719677262008190155e-02
-1.544820889830589294e-02
1.227305531501770020e-01
3.121431469917297363e-01
7.347584515810012817e-02
6.827636808156967163e-02
-5.492145195603370667e-02
-1.962771266698837280e-01
4.739913716912269592e-02
1.421231627464294434e-01
5.286527052521705627e-02
-1.952579170465469360e-01
6.648706644773483276e-02
4.025767371058464050e-02
6.231671944260597229e-02
-2.130027562379837036e-01
-2.686825692653656006e-01
-9.132999181747436523e-02
-8.490583300590515137e-02
-8.506765216588973999e-02
-3.978022839874029160e-03
2.353297360241413116e-02
-1.218285877257585526e-02
5.431445688009262085e-02
-1.609118469059467316e-02
1.720959246158599854e-01
1.163964271545410156e-01
-9.402706474065780640e-02
3.419650311116129160e-04
1.359429061412811279e-01
2.264504432678222656e-01
2.757990360260009766e-01
-9.101803600788116455e-02
-4.202903807163238525e-02
-2.059932425618171692e-02
6.194659695029258728e-02
-1.815942078828811646e-01
2.287135571241378784e-01
-2.192595452070236206e-01
-1.407425105571746826e-01
2.669781148433685303e-01
-1.848532259464263916e-01
-1.169713512063026428e-01
1.465853899717330933e-01
-2.977449260652065277e-02
4.039922356605529785e-02
-1.718260794878005981e-01
1.151337027549743652e-01
6.125046405941247940e-03
5.193389952182769775e-02
-4.910148307681083679e-02
-1.087547838687896729e-02
1.825238466262817383e-01
-7.836161553859710693e-02
1.943072229623794556e-01
1.997187286615371704e-01
1.036980897188186646e-01
-1.970404535531997681e-01
1.330136805772781372e-01
1.027616932988166809e-01
-1.064604073762893677e-01
-2.462531626224517822e-01
-1.873848885297775269e-01
-2.480289041996002197e-01
-6.735897064208984375e-02
-6.419134736061096191e-01
7.162859290838241577e-02
2.618234455585479736e-01
4.903496056795120239e-02
-2.999017536640167236e-01
4.134327545762062073e-02
-3.735389187932014465e-02
-1.249708086252212524e-01
-2.997188828885555267e-02
8.598376810550689697e-02
-3.518287849146872759e-04
5.968255549669265747e-02
6.074707582592964172e-02
-2.604530751705169678e-01
-1.574461534619331360e-02
1.246289387345314026e-01
2.794612757861614227e-02
2.750798128545284271e-03
-2.503982558846473694e-02
4.834882542490959167e-02
2.813315093517303467e-01
-2.299186028540134430e-02
7.369435578584671021e-02
-2.510059438645839691e-02
1.601184010505676270e-01
-1.641324311494827271e-01
1.504451483488082886e-01
-3.686186298727989197e-02
-4.172153398394584656e-02
-2.723680734634399414e-01
8.278305828571319580e-02
1.810763180255889893e-01
-2.905860543251037598e-01
3.079903721809387207e-01
-1.498749405145645142e-01
-2.059243153780698776e-03
-2.363235652446746826e-01
7.472134381532669067e-02
8.626868948340415955e-03
2.147314101457595825e-01
1.295706927776336670e-01
1.379158794879913330e-01
7.595754414796829224e-02
-5.764638632535934448e-02
-5.675137042999267578e-02
-1.271266937255859375e-01
-1.696888357400894165e-01
-1.870035231113433838e-01
-3.531176149845123291e-01
3.853175640106201172e-01
3.896259004250168800e-03
-1.112049743533134460e-01
-2.200318872928619385e-01
-1.530618313699960709e-02
1.630652993917465210e-01
1.841078549623489380e-01
-2.004123777151107788e-01
-2.809629775583744049e-02
-1.675378344953060150e-02
-4.632904008030891418e-02
-8.174755424261093140e-02
-2.153823822736740112e-01
-2.377084493637084961e-01
-1.515358388423919678e-01
-4.149354249238967896e-02
-1.588121429085731506e-02
2.819855883717536926e-02
-1.182455942034721375e-02
2.007774710655212402e-01
3.427623808383941650e-01
2.418966442346572876e-01
-1.755223423242568970e-02
3.221891820430755615e-02
-9.874830394983291626e-02
7.639354560524225235e-03
-2.889626286923885345e-02
3.462253138422966003e-02
-8.371856063604354858e-02
-2.611678838729858398e-01
-1.561137735843658447e-01
4.396419972181320190e-02
2.439594715833663940e-01
9.086105227470397949e-02
-7.175796478986740112e-02
1.260424107313156128e-01
6.542317569255828857e-02
1.638644784688949585e-01
8.367546647787094116e-02
-1.535419225692749023e-01
-1.422139555215835571e-01
1.235911399126052856e-01
3.512135520577430725e-02
-8.123596757650375366e-02
1.844452172517776489e-01
-1.295996271073818207e-02
-1.756345927715301514e-01
-2.817729115486145020e-01
-1.132163032889366150e-01
-3.046709112823009491e-02
2.564628422260284424e-01
-1.332685798406600952e-01
-6.656970083713531494e-02
-8.235068060457706451e-03
9.667068719863891602e-02
1.169226020574569702e-01
3.511168470140546560e-04
2.029433846473693848e-01
-1.556042283773422241e-01
-1.237625479698181152e-01
-4.577750563621520996e-01
-3.515608143061399460e-03
3.261639922857284546e-02
1.568580567836761475e-01
-1.476885080337524414e-01
6.863569468259811401e-02
1.479819715023040771e-01
1.177392154932022095e-01
3.260870650410652161e-02
1.384204626083374023e-01
2.961472272872924805e-01
-1.608110517263412476e-01
-9.004282206296920776e-02
-2.301976270973682404e-02
2.747591435909271240e-01
-1.543804258108139038e-01
-5.587378516793251038e-02
-2.109098620712757111e-02
-3.720892071723937988e-01
7.042894512414932251e-02
1.939523816108703613e-01
1.555785685777664185e-01
-1.940787136554718018e-01
-4.365963488817214966e-02
1.795786172151565552e-01
6.243987753987312317e-02
-1.116815675050020218e-02
4.272250458598136902e-02
-4.891780018806457520e-02
-7.485112547874450684e-02
2.018257528543472290e-01
-5.812700092792510986e-02
-6.872384250164031982e-02
-1.915836334228515625e-01
5.738390982151031494e-02
-2.069894075393676758e-01
-2.441936731338500977e-01
3.964765742421150208e-02
2.257230505347251892e-02
-1.759037226438522339e-01
-3.238854184746742249e-02
3.342016600072383881e-03
-2.664292156696319580e-01
2.235061861574649811e-02
6.063989922404289246e-02
3.012658469378948212e-02
-9.260313212871551514e-02
9.943105280399322510e-02
4.215698316693305969e-02
8.434563130140304565e-02
-1.523704677820205688e-01
6.562953442335128784e-02
-2.003642767667770386e-01
6.442757695913314819e-02
1.006356626749038696e-01
-4.646754860877990723e-01
-8.300532400608062744e-02
1.989203989505767822e-01
1.638678461313247681e-01
-1.049479544162750244e-01
-3.402378559112548828e-01
1.007584929466247559e-01
1.261683553457260132e-01
7.354730367660522461e-02
4.518141970038414001e-03
1.482624560594558716e-01
2.534244060516357422e-01
1.549593452364206314e-02
-8.602557331323623657e-02
-1.762115806341171265e-01
-6.220734491944313049e-02
-1.283511891961097717e-02
1.291875690221786499e-01
-2.051283717155456543e-01
4.140423238277435303e-02
1.954305469989776611e-01
2.328402129933238029e-03
5.122176557779312134e-02
-2.246334031224250793e-02
-1.126401647925376892e-01
7.098267972469329834e-02
-1.176105067133903503e-01
9.512863308191299438e-02
-2.998467087745666504e-01
1.346459835767745972e-01
-1.575269997119903564e-01
-3.287747874855995178e-02
-2.201556861400604248e-01
5.147402361035346985e-02
-7.464551180601119995e-02
-1.028998270630836487e-01
-7.347565889358520508e-02
2.031588554382324219e-01
-5.929775908589363098e-02
-1.088557168841362000e-01
1.106218993663787842e-01
1.247488185763359070e-01
-2.004723064601421356e-02
-4.905311018228530884e-02
-1.576339006423950195e-01
3.660120069980621338e-02
-1.110794097185134888e-01
8.151974529027938843e-02
-1.242593768984079361e-02
1.416543126106262207e-01
-2.271889895200729370e-01
-1.828919537365436554e-02
2.901997976005077362e-02
6.439383327960968018e-02
-1.507971808314323425e-02
-4.823236539959907532e-02
-1.820273697376251221e-02
7.968543469905853271e-02
-8.347070217132568359e-02
2.749576047062873840e-02
-2.609282173216342926e-02
3.393269479274749756e-01
6.766353268176317215e-03
-5.080731585621833801e-02
-7.736209779977798462e-02
2.266666386276483536e-03
1.330646593123674393e-02
-1.101053133606910706e-01
-5.210687592625617981e-02
-2.972906688228249550e-03
-1.094520166516304016e-01
2.992514893412590027e-02
-3.717618286609649658e-01
-3.243941962718963623e-01
-1.105344854295253754e-02
1.858331114053726196e-01
1.946620792150497437e-01
-1.942421793937683105e-01
4.584272205829620361e-02
2.156942933797836304e-01
8.985190093517303467e-02
-9.714251011610031128e-02
-8.129778504371643066e-02
-7.672465592622756958e-02
3.171601593494415283e-01
-2.888430356979370117e-01
-1.153072342276573181e-01
-1.247296482324600220e-02
-1.744689494371414185e-01
-2.925509214401245117e-02
-1.360725611448287964e-01
-4.505280256271362305e-01
-2.018345594406127930e-01
7.834728062152862549e-02
-1.809400618076324463e-01
-2.789906263351440430e-01
-2.401424348354339600e-01
2.507963962852954865e-02
-5.317173898220062256e-02
-1.049982160329818726e-01
-5.429270863533020020e-02
9.423243999481201172e-02
3.455775603652000427e-02
-1.753677278757095337e-01
-1.412416249513626099e-01
1.135145407170057297e-02
1.785413771867752075e-01
4.087560519110411406e-04
1.501313298940658569e-01
9.439568221569061279e-02
1.952146291732788086e-01
5.239135399460792542e-02
3.325310349464416504e-01
-1.747572794556617737e-02
-1.373643279075622559e-01
-3.098112903535366058e-02
-2.544147334992885590e-02
-4.413624480366706848e-02
1.084055304527282715e-01
1.132687181234359741e-01
-1.042533144354820251e-01
5.133628472685813904e-02
1.426716521382331848e-02
2.697120010852813721e-01
-4.837986454367637634e-02
1.268705725669860840e-01
-6.938874721527099609e-02
5.165861174464225769e-02
5.663985759019851685e-02
-5.037185549736022949e-02
8.137595653533935547e-02
1.993772536516189575e-01
-1.461215466260910034e-01
9.660754352807998657e-02
-5.809854716062545776e-02
1.102569699287414551e-01
-1.043146252632141113e-01
-1.454590559005737305e-01
-2.671845853328704834e-01
-1.220190525054931641e-01
2.936470508575439453e-01
-1.520320177078247070e-01
-1.470880657434463501e-01
1.837764680385589600e-01
1.869939714670181274e-01
1.688635498285293579e-01
-1.373577956110239029e-02
2.767937183380126953e-01
1.265027672052383423e-01
-1.325438916683197021e-01
-5.678575858473777771e-02
1.247703060507774353e-01
2.957375347614288330e-01
-2.854108624160289764e-02
-3.275332748889923096e-01
-2.072590142488479614e-01
-2.326513826847076416e-01
1.505053639411926270e-01
-7.172430306673049927e-02
3.077962808310985565e-02
3.478330746293067932e-02
1.170583441853523254e-01
-7.010583579540252686e-02
1.987241394817829132e-02
1.110603883862495422e-01
2.083402425050735474e-01
-8.334365487098693848e-02
9.081162512302398682e-03
-2.588484883308410645e-01
5.781763792037963867e-02
-2.363382577896118164e-01
-2.660308033227920532e-02
-2.791503630578517914e-02
2.046671463176608086e-03
2.634803950786590576e-01
-7.489113509654998779e-02
1.099387258291244507e-01
7.034957408905029297e-02
-9.296143054962158203e-02
-1.746068000793457031e-01
9.099311381578445435e-02
1.090804673731327057e-02
-1.121496707201004028e-01
1.045555397868156433e-01
9.955836832523345947e-02
-1.179453879594802856e-01
5.024366080760955811e-02
6.798340380191802979e-02
-1.683117635548114777e-02
-2.914282493293285370e-02
2.762111462652683258e-02
-1.700517162680625916e-02
-9.609330445528030396e-02
-4.796856269240379333e-02
-4.286885727196931839e-03
-7.524078339338302612e-02
-6.796329468488693237e-02
-7.325781881809234619e-02
-6.731145828962326050e-02
-1.032764166593551636e-01
6.253454834222793579e-02
-1.205054670572280884e-02
-3.558511671144515276e-04
-7.745573669672012329e-02
-9.075864404439926147e-02
2.588351443409919739e-02
-1.540769916027784348e-02
-4.388496279716491699e-02
-3.579090908169746399e-02
-1.051744073629379272e-01
-9.635522961616516113e-02
-7.574953138828277588e-02
-4.095112904906272888e-02
2.244069427251815796e-02
-1.369790174067020416e-02
1.767768338322639465e-02
2.128514461219310760e-02
-5.216393619775772095e-02
-4.456892143934965134e-03
-1.966081745922565460e-02
-8.029958605766296387e-02
-3.211203217506408691e-02
7.417327724397182465e-03
-3.301397711038589478e-02
6.047711893916130066e-02
-2.942125685513019562e-02
-1.101310700178146362e-01
-2.921415865421295166e-02
-5.961049720644950867e-02
-1.272615045309066772e-03
4.516978561878204346e-02
-3.209473565220832825e-02
2.177671715617179871e-02
5.507518071681261063e-03
1.712216436862945557e-02
-3.033331036567687988e-02
-7.258965820074081421e-02
-2.591926977038383484e-02
-3.393627470359206200e-03
-1.810351014137268066e-02
-7.268451899290084839e-02
6.683128327131271362e-02
-4.293318837881088257e-02
-9.176768362522125244e-03
1.222027000039815903e-02
-3.049708344042301178e-02
3.246172331273555756e-03
-4.212339967489242554e-02
-3.788329288363456726e-02
-1.397695019841194153e-02
-2.225542906671762466e-03
3.604735434055328369e-02
-8.557008206844329834e-02
1.793491840362548828e-02
-5.026591196656227112e-02
2.193434629589319229e-03
-7.036627829074859619e-02
-9.396094828844070435e-02
-1.412930712103843689e-02
-7.934211171232163906e-04
-7.466439902782440186e-02
-6.960108131170272827e-02
1.807985454797744751e-02
7.096400018781423569e-03
-1.682849717326462269e-03
1.900920644402503967e-02
-6.563857197761535645e-02
-1.282706484198570251e-02
-5.299475416541099548e-02
-9.560955315828323364e-02
-4.629902169108390808e-02
-1.026616245508193970e-01
-6.340397894382476807e-02
-5.962532386183738708e-02
-6.235728040337562561e-02
-8.135950565338134766e-02
4.424088075757026672e-02
-7.678125519305467606e-03
3.611083701252937317e-02
1.193702314049005508e-02
-5.244063585996627808e-02
-6.852424889802932739e-02
2.639490738511085510e-02
8.792157471179962158e-02
-3.575764223933219910e-02
-3.639645583461970091e-04
-9.695019572973251343e-02
9.858613833785057068e-03
-6.291327625513076782e-02
4.442465677857398987e-02
-2.444076910614967346e-02
4.729631170630455017e-02
-7.478715479373931885e-02
-2.679123915731906891e-02
-4.542855918407440186e-02
3.262952342629432678e-02
-1.233507990837097168e-01
-5.532595515251159668e-02
-4.507987573742866516e-02
-5.515082157216966152e-04
-6.346497684717178345e-02
-9.053330123424530029e-02
-1.929317601025104523e-02
-5.493766441941261292e-02
1.462642103433609009e-02
-6.972867995500564575e-02
-6.874155998229980469e-02
-4.729974642395973206e-02
-2.677251584827899933e-02
-5.541657656431198120e-02
4.527077451348304749e-02
-1.335528679192066193e-02
5.244302377104759216e-02
-9.326145052909851074e-02
-4.799651913344860077e-03
2.560247108340263367e-02
-9.159629046916961670e-02
-3.488511964678764343e-02
-6.167022511363029480e-02
-2.136909402906894684e-02
-6.424233317375183105e-02
-5.078697949647903442e-02
-1.848471537232398987e-02
3.584229946136474609e-02
3.999685123562812805e-02
5.988943390548229218e-03
-6.460043042898178101e-02
-4.420096799731254578e-02
-8.610244840383529663e-02
-2.367097325623035431e-02
-5.287121236324310303e-02
-5.319535359740257263e-02
-1.779609359800815582e-02
-6.135440617799758911e-02
-3.219727193936705589e-03
-1.924859918653964996e-02
-4.598378203809261322e-03
-8.337301015853881836e-02
-1.778807304799556732e-02
-2.879525162279605865e-02
-2.288678288459777832e-02
-1.878577657043933868e-02
-8.866824954748153687e-02
-1.016055233776569366e-02
-8.911166340112686157e-03
3.387705190107226372e-03
-8.206164836883544922e-02
-6.970250979065895081e-03
-7.148578763008117676e-02
2.821943350136280060e-02
2.542808465659618378e-02
-6.922784447669982910e-02
1.109569519758224487e-02
-7.065651565790176392e-02
-3.411171212792396545e-02
-6.855848431587219238e-02
-1.059477329254150391e-01
2.961407974362373352e-02
1.778678223490715027e-02
-3.846456855535507202e-02
-7.373252511024475098e-02
3.815100342035293579e-02
-6.606391817331314087e-02
-5.136968567967414856e-02
-1.247674506157636642e-02
1.935042440891265869e-02
1.465020887553691864e-02
-2.499338984489440918e-02
-2.483184076845645905e-02
2.765303477644920349e-02
-1.291623339056968689e-02
1.701133884489536285e-02
-7.615734636783599854e-02
8.173174224793910980e-03
-4.651795327663421631e-02
5.766895413398742676e-02
-9.027615934610366821e-02
-2.093025669455528259e-02
9.508544579148292542e-03
-1.302380673587322235e-02
9.585987776517868042e-03
-3.583423420786857605e-02
1.472372189164161682e-02
3.796873614192008972e-02
-8.066677302122116089e-02
-6.244203448295593262e-02
-3.108664974570274353e-02
4.735119640827178955e-02
-1.102860569953918457e-01
4.647874832153320312e-02
-1.089781057089567184e-02
6.379821151494979858e-02
-5.748584866523742676e-02
8.007649332284927368e-03
7.988409139215946198e-03
-9.544322639703750610e-02
2.736369706690311432e-02
4.290856048464775085e-02
-7.005722820758819580e-02
-7.208685576915740967e-02
3.231270937249064445e-03
2.751810103654861450e-02
-8.671803399920463562e-03
-1.028746068477630615e-01
2.866500616073608398e-02
6.964429467916488647e-02
5.626318603754043579e-02
9.394643828272819519e-03
-3.276300057768821716e-02
-1.865930110216140747e-02
-6.198912858963012695e-03
-7.921041548252105713e-02
-5.401456728577613831e-02
5.786584317684173584e-02
3.401275351643562317e-02
2.622540108859539032e-02
-6.024260073900222778e-02
-3.577181696891784668e-02
6.655273493379354477e-03
-8.264308422803878784e-02
-5.267078429460525513e-02
-7.888937741518020630e-02
1.023288257420063019e-02
-9.346875362098217010e-03
-4.163050651550292969e-02
2.719842270016670227e-02
-8.200617879629135132e-02
3.290256112813949585e-02
6.479474157094955444e-02
-5.223478190600872040e-03
-5.963451415300369263e-02
5.082618445158004761e-03
5.258052051067352295e-02
-5.838339030742645264e-02
8.849571458995342255e-03
-1.687538065016269684e-02
8.408097177743911743e-02
-4.804057255387306213e-02
-2.612922154366970062e-02
-9.550110250711441040e-02
-7.967942953109741211e-02
-1.861480250954627991e-02
-8.254155516624450684e-02
-1.020870357751846313e-01
-1.176639124751091003e-01
3.223341703414916992e-02
2.085037082433700562e-01
-1.147491857409477234e-01
-5.995102226734161377e-02
1.565293073654174805e-01
-4.182475805282592773e-02
-1.490119695663452148e-01
8.073437213897705078e-02
-6.469275057315826416e-02
-3.811004459857940674e-01
-5.101104080677032471e-02
-2.392488867044448853e-01
2.258588522672653198e-01
-4.262970089912414551e-01
-7.650227285921573639e-03
-1.464027166366577148e-01
3.358663246035575867e-02
1.449908614158630371e-01
-3.936107158660888672e-01
-2.511815726757049561e-01
-3.694105893373489380e-02
2.106339335441589355e-01
-2.289717644453048706e-02
2.077975124120712280e-01
-2.500737905502319336e-01
-1.047640219330787659e-01
8.367183059453964233e-02
2.329988777637481689e-02
-8.980543911457061768e-02
-2.732900679111480713e-01
-5.598031729459762573e-02
1.440051645040512085e-01
-1.299003511667251587e-02
-1.812407225370407104e-01
-3.241765797138214111e-01
-5.614387989044189453e-01
-1.511357352137565613e-02
1.165782436728477478e-01
-4.164876788854598999e-02
2.429312765598297119e-01
-1.420408189296722412e-01
-1.502711474895477295e-01
-1.514985263347625732e-01
-9.769580513238906860e-02
-2.904877997934818268e-03
1.671542823314666748e-01
3.643295764923095703e-01
7.708285748958587646e-02
9.702616184949874878e-02
4.222427308559417725e-02
3.056444041430950165e-02
-4.484086483716964722e-02
-2.931993454694747925e-02
-6.114758178591728210e-02
1.344539970159530640e-02
-1.058253645896911621e-01
-1.123046353459358215e-01
1.419138759374618530e-01
1.679662168025970459e-01
-7.921851426362991333e-02
1.056966781616210938e-01
3.218290805816650391e-01
4.650278389453887939e-02
-4.428889602422714233e-02
-6.594271957874298096e-02
-8.931792527437210083e-02
5.269510671496391296e-02
1.671102643013000488e-01
2.270010411739349365e-01
-4.856783151626586914e-02
2.381580509245395660e-02
-3.723559081554412842e-01
3.109141886234283447e-01
-5.481042712926864624e-02
-1.256347298622131348e-01
-1.346298400312662125e-02
1.912449598312377930e-01
1.536857038736343384e-01
-8.307921141386032104e-02
-3.633049130439758301e-01
-2.362305521965026855e-01
-6.432215869426727295e-02
-1.677949875593185425e-01
4.743085056543350220e-02
9.936175495386123657e-02
2.277328222990036011e-01
-3.461356461048126221e-01
-2.849460393190383911e-02
8.551158010959625244e-02
-7.353966590017080307e-03
-3.155510425567626953e-01
9.081041067838668823e-02
-1.172797307372093201e-01
7.953345030546188354e-02
-1.506483405828475952e-01
-1.433428227901458740e-01
3.329739347100257874e-02
-2.226927578449249268e-01
-1.188023984432220459e-01
6.586436182260513306e-02
-1.344978157430887222e-02
1.063098534941673279e-01
-9.219256043434143066e-02
4.346241801977157593e-02
-8.182958513498306274e-02
-1.681545525789260864e-01
-1.637122482061386108e-01
1.893721148371696472e-02
-1.051426753401756287e-01
-9.855369478464126587e-02
5.391273647546768188e-02
-4.159029200673103333e-02
2.447988241910934448e-01
3.408864140510559082e-01
-3.499439656734466553e-01
1.274897754192352295e-01
-1.024815514683723450e-01
1.407059431076049805e-01
-1.015613153576850891e-01
2.791127264499664307e-01
-4.282205924391746521e-02
-1.257967948913574219e-01
-1.239959336817264557e-02
1.000970527529716492e-01
-1.098385900259017944e-01
-2.279735058546066284e-01
-8.696130663156509399e-02
-6.705482304096221924e-02
5.703401938080787659e-02
9.362190961837768555e-02
-1.558378785848617554e-01
-1.869923174381256104e-01
-1.893885806202888489e-02
-1.887841969728469849e-01
-1.582805067300796509e-01
-1.734317839145660400e-01
-1.332522034645080566e-01
2.914201021194458008e-01
1.590834232047200203e-03
1.668418198823928833e-01
-3.126920461654663086e-01
3.012424707412719727e-01
1.978718191385269165e-01
1.680540144443511963e-01
-2.140456587076187134e-01
1.890517771244049072e-03
1.078624054789543152e-01
3.634854853153228760e-01
1.289799809455871582e-01
-3.393938019871711731e-02
-3.839066028594970703e-01
-3.190913423895835876e-02
2.127974629402160645e-01
-1.368075050413608551e-02
-4.137987643480300903e-02
1.424244046211242676e-01
-2.430598251521587372e-02
5.504438653588294983e-02
-6.403069496154785156e-01
4.011706113815307617e-01
7.985805720090866089e-02
1.619508862495422363e-01
8.313579857349395752e-02
3.871545195579528809e-01
-5.596288945525884628e-03
-8.313742280006408691e-02
-3.112521255388855934e-03
9.506784379482269287e-02
-3.621796146035194397e-02
6.189024448394775391e-02
-1.269694417715072632e-02
1.950906515121459961e-01
-1.373197883367538452e-03
1.730280518531799316e-01
-8.830612897872924805e-02
-3.591745495796203613e-01
6.133720744401216507e-03
-2.877237200736999512e-01
1.562303453683853149e-01
9.941544383764266968e-02
1.815119832754135132e-01
-1.132824197411537170e-01
1.339159756898880005e-01
1.010643225163221359e-02
4.663239419460296631e-01
-3.203149884939193726e-02
3.625145927071571350e-02
2.163264304399490356e-01
1.420724838972091675e-01
5.084426403045654297e-01
-7.580496370792388916e-02
1.776063740253448486e-01
2.026325762271881104e-01
2.542922832071781158e-02
1.556488126516342163e-01
7.266947627067565918e-02
4.719922691583633423e-02
3.761627525091171265e-02
2.245968431234359741e-01
4.369488954544067383e-01
1.866083294153213501e-01
4.317739605903625488e-02
-1.962966620922088623e-01
7.099578529596328735e-02
-1.247962936758995056e-01
-3.515138924121856689e-01
-1.701928526163101196e-01
3.630072996020317078e-02
-1.185359805822372437e-01
-7.062631100416183472e-02
4.702945053577423096e-02
8.904542773962020874e-02
9.498029202222824097e-02
-2.496015466749668121e-02
1.576027274131774902e-01
3.397096320986747742e-02
1.471554040908813477e-01
-1.900820881128311157e-01
-6.304329633712768555e-02
-2.327081263065338135e-01
-1.035382002592086792e-01
2.192887961864471436e-01
-3.301991522312164307e-01
1.263024955987930298e-01
1.911448091268539429e-01
5.898249521851539612e-02
-7.768995314836502075e-02
-1.126028895378112793e-01
1.720292866230010986e-01
1.648715734481811523e-01
1.720658130943775177e-02
-4.478182643651962280e-02
-2.533105015754699707e-01
1.435026973485946655e-01
-5.418946221470832825e-02
1.992478966712951660e-02
-4.644604399800300598e-02
-1.764791668392717838e-03
4.200207889080047607e-01
6.541605293750762939e-02
3.205763548612594604e-02
9.975257515907287598e-02
-4.757366143167018890e-03
-1.704140752553939819e-01
-1.413392182439565659e-02
5.073099210858345032e-02
-9.557620435953140259e-02
-3.255586326122283936e-01
-1.854940056800842285e-01
5.579218268394470215e-03
1.598468422889709473e-01
-1.513553261756896973e-01
-2.434719204902648926e-01
2.773542106151580811e-01
6.668858975172042847e-02
2.277678698301315308e-01
1.664069294929504395e-01
-3.234572941437363625e-03
-2.180349975824356079e-01
1.299807578325271606e-01
1.843882203102111816e-01
-7.634405791759490967e-02
-2.078978419303894043e-01
-2.513525076210498810e-02
3.187437057495117188e-01
3.600699603557586670e-01
-4.016698896884918213e-01
9.166454523801803589e-02
3.245622813701629639e-01
1.658329516649246216e-01
-1.297327727079391479e-01
1.922683417797088623e-01
-4.205268248915672302e-02
-2.579602599143981934e-01
-4.026946425437927246e-01
-2.151572704315185547e-01
1.707249730825424194e-01
2.508785389363765717e-02
4.278118535876274109e-02
-3.620609641075134277e-01
1.193727180361747742e-01
1.278474330902099609e-01
-2.154918164014816284e-01
-7.554499804973602295e-02
3.127771914005279541e-01
3.172460496425628662e-01
1.118601262569427490e-01
-8.386654406785964966e-02
1.210025046020746231e-02
-5.492945387959480286e-02
-3.071219921112060547e-01
-1.456948220729827881e-01
1.704222708940505981e-02
-1.992608904838562012e-01
-1.726635843515396118e-01
-1.147476211190223694e-01
-3.211272060871124268e-01
-5.081890150904655457e-02
-1.621705889701843262e-01
-1.930922120809555054e-01
-2.656907774507999420e-02
5.746649950742721558e-02
-9.272178635001182556e-03
-1.002186089754104614e-01
6.476030498743057251e-02
-1.544847637414932251e-01
-2.666403055191040039e-01
-3.013874292373657227e-01
-2.268504910171031952e-02
7.397715002298355103e-02
-5.521512776613235474e-02
1.542321033775806427e-02
7.140341401100158691e-02
2.451129257678985596e-01
-1.023992337286472321e-02
3.683204576373100281e-02
-1.586389988660812378e-01
4.498672485351562500e-01
3.441545367240905762e-02
1.313385963439941406e-01
-1.356173120439052582e-02
-5.100538730621337891e-01
-5.505986046046018600e-03
1.290884017944335938e-01
1.993571966886520386e-01
-6.327022332698106766e-03
-3.846706077456474304e-02
4.708296805620193481e-02
1.645262539386749268e-01
-1.199288740754127502e-01
-7.927010208368301392e-02
3.252632021903991699e-01
2.132831364870071411e-01
-4.732345417141914368e-02
1.481030583381652832e-01
-2.897032536566257477e-02
-2.169676125049591064e-01
1.703135110437870026e-02
2.335025817155838013e-01
6.084324046969413757e-02
3.476183488965034485e-02
1.071652844548225403e-01
-4.051852524280548096e-01
1.886646598577499390e-01
-1.262982487678527832e-01
-2.000557780265808105e-01
5.502143502235412598e-02
1.112091448158025742e-02
-1.157371178269386292e-01
-4.762711748480796814e-02
1.480860859155654907e-01
2.913093753159046173e-02
-5.931513011455535889e-02
-2.369456179440021515e-02
1.665870100259780884e-01
-1.951435208320617676e-01
1.183188334107398987e-01
5.422873049974441528e-02
9.843410551548004150e-02
-2.234267741441726685e-01
2.122290730476379395e-01
-5.537392199039459229e-02
1.370743662118911743e-01
-2.384844124317169189e-01
-2.151471376419067383e-02
-2.944749593734741211e-02
4.094629585742950439e-01
1.908103972673416138e-01
-8.149313926696777344e-02
6.429898738861083984e-02
1.545450091361999512e-02
1.525077223777770996e-01
2.115498185157775879e-01
-9.724500030279159546e-02
2.405877411365509033e-02
3.143142759799957275e-01
-8.259035646915435791e-02
-5.220897123217582703e-02
-4.700480494648218155e-03
9.574637748301029205e-03
-1.374122127890586853e-02
4.936369508504867554e-02
-2.666175365447998047e-01
1.120054274797439575e-01
-5.437383055686950684e-02
-4.778267070651054382e-02
-2.238250821828842163e-01
-1.489581167697906494e-01
1.388857811689376831e-01
9.118492156267166138e-02
-2.552736401557922363e-01
1.042135152965784073e-02
-1.067766994237899780e-01
-5.457749217748641968e-02
-2.246974259614944458e-01
2.971036732196807861e-01
2.071390748023986816e-01
3.469444513320922852e-01
-1.136376857757568359e-01
1.590034179389476776e-02
2.457974702119827271e-01
-1.047159358859062195e-01
-2.600726187229156494e-01
2.625536639243364334e-03
4.145675525069236755e-02
8.495879918336868286e-02
-1.068753972649574280e-01
5.528294295072555542e-02
5.657961592078208923e-02
2.045104056596755981e-01
2.573753893375396729e-01
-7.755116373300552368e-02
-2.266597449779510498e-01
-2.260538190603256226e-02
2.430503629148006439e-02
1.842776536941528320e-01
1.755459308624267578e-01
1.842212080955505371e-01
1.083826199173927307e-01
-6.560539826750755310e-03
-5.230609327554702759e-02
2.892174124717712402e-01
-1.848618686199188232e-01
5.781800951808691025e-03
1.596181243658065796e-01
3.284534811973571777e-01
-1.141331791877746582e-01
3.118279762566089630e-02
-2.072935998439788818e-01
-2.140534222126007080e-01
9.506990760564804077e-02
-1.622988134622573853e-01
-3.419916331768035889e-01
-1.627606526017189026e-02
1.443266272544860840e-01
-2.323542833328247070e-01
-6.882952898740768433e-02
1.079373285174369812e-01
8.412315696477890015e-02
-2.387991361320018768e-02
2.864816188812255859e-01
2.037506997585296631e-01
1.685159951448440552e-01
-6.558333337306976318e-02
-2.829056046903133392e-02
4.300259426236152649e-02
1.179048195481300354e-01
2.608057111501693726e-02
-1.004976481199264526e-01
-5.369491577148437500e-01
2.132661044597625732e-01
1.208608224987983704e-01
1.655430160462856293e-02
2.358328737318515778e-02
2.892332617193460464e-03
1.736389398574829102e-01
1.700587570667266846e-02
-4.959991946816444397e-02
-1.974480897188186646e-01
7.148678600788116455e-02
-1.597891449928283691e-01
-4.957638215273618698e-03
-1.582498103380203247e-01
2.441634796559810638e-02
1.891508884727954865e-02
-1.436840146780014038e-01
-1.053098402917385101e-02
1.814551353454589844e-01
3.748164698481559753e-02
-1.456577181816101074e-01
-4.983977228403091431e-02
-7.083408534526824951e-03
-9.046037681400775909e-03
6.797043234109878540e-02
1.828113049268722534e-01
-4.362393543124198914e-02
-2.078676670789718628e-01
4.287508875131607056e-02
3.338304534554481506e-02
1.722543090581893921e-01
1.319458633661270142e-01
3.533694520592689514e-02
6.792133301496505737e-02
-5.905159562826156616e-02
1.283038556575775146e-01
1.272611040621995926e-02
1.096327528357505798e-01
-7.077442109584808350e-02
-4.637690261006355286e-02
1.141006126999855042e-01
2.194642573595046997e-01
2.082046419382095337e-01
-6.359519064426422119e-02
-2.141838371753692627e-01
5.309122055768966675e-02
2.878659963607788086e-01
6.639036536216735840e-02
-3.261902928352355957e-02
-3.028738200664520264e-01
-9.583403915166854858e-02
1.279516518115997314e-01
-6.496985256671905518e-02
-1.373735368251800537e-01
-1.044790744781494141e-01
1.061846613883972168e-01
6.285776197910308838e-02
1.964897811412811279e-01
6.067635491490364075e-02
1.432523280382156372e-01
-6.175860296934843063e-03
-4.174724593758583069e-02
-1.016671583056449890e-01
4.239578247070312500e-01
2.200146019458770752e-02
1.413030549883842468e-04
-2.605052106082439423e-02
1.297668665647506714e-01
-8.102580904960632324e-02
-8.400504291057586670e-02
3.979185596108436584e-02
1.847559064626693726e-01
5.850245803594589233e-02
2.294530905783176422e-02
-1.403096616268157959e-01
-4.197530448436737061e-02
-4.444183409214019775e-02
-2.473046444356441498e-02
-1.814550906419754028e-01
6.416264176368713379e-02
2.246413379907608032e-01
-7.908166199922561646e-02
-8.673308789730072021e-02
-3.633406162261962891e-01
7.769791781902313232e-02
-1.196592375636100769e-01
6.576257944107055664e-02
-1.850289851427078247e-01
-7.695255801081657410e-03
-8.474382758140563965e-02
-3.709313571453094482e-01
-8.268538117408752441e-02
1.214514076709747314e-01
-3.146985471248626709e-01
-1.815202534198760986e-01
-1.230051591992378235e-01
-9.130533784627914429e-02
1.760142445564270020e-01
-8.411656320095062256e-02
-1.632358282804489136e-01
-9.399303048849105835e-02
-9.789437800645828247e-02
1.291482150554656982e-01
-1.131051257252693176e-01
1.050934195518493652e-02
6.038745632395148277e-04
7.276985049247741699e-02
1.088180169463157654e-01
2.282660156488418579e-01
2.305709570646286011e-01
2.592535316944122314e-01
1.765246540307998657e-01
4.323050007224082947e-02
-1.650744080543518066e-01
4.606302455067634583e-02
-1.219303235411643982e-01
6.278209388256072998e-02
-2.731740660965442657e-02
1.161058396100997925e-01
1.326240003108978271e-01
9.310592897236347198e-03
-1.136401370167732239e-01
-2.411073148250579834e-01
1.607656329870223999e-01
8.620222657918930054e-02
1.676206849515438080e-02
2.849323116242885590e-02
6.506427377462387085e-02
7.383304834365844727e-02
-5.888494849205017090e-02
1.367763876914978027e-01
5.153885111212730408e-02
2.642273344099521637e-02
7.584956288337707520e-02
-5.152022093534469604e-02
1.072256416082382202e-01
-1.207146141678094864e-02
-1.960163116455078125e-01
1.609106510877609253e-01
2.329150885343551636e-01
1.085754670202732086e-02
-2.049563080072402954e-01
-3.168758451938629150e-01
-1.032568067312240601e-01
-1.729739755392074585e-01
3.683379292488098145e-01
2.854666113853454590e-01
-1.769764162600040436e-02
-5.177519097924232483e-02
1.257459283806383610e-03
7.342550158500671387e-02
-2.511995136737823486e-01
6.067253649234771729e-03
4.714670404791831970e-02
-5.541617050766944885e-02
6.025946512818336487e-02
-1.690949648618698120e-01
-1.238904446363449097e-01
1.209022328257560730e-01
1.088241189718246460e-01
-2.351180911064147949e-01
-1.738261133432388306e-01
9.018634445965290070e-03
4.684103280305862427e-02
-4.614198207855224609e-02
2.364195585250854492e-01
-8.023410919122397900e-05
-2.248744517564773560e-01
-1.598733961582183838e-01
-1.150939837098121643e-01
1.953491009771823883e-02
-1.557089295238256454e-02
-3.941590487957000732e-01
-2.520870566368103027e-01
-1.929906010627746582e-01
6.522660702466964722e-02
3.128475546836853027e-01
2.551586031913757324e-01
7.020586729049682617e-02
-5.817363038659095764e-03
-7.381129264831542969e-02
2.031584829092025757e-01
3.519335761666297913e-02
1.102342456579208374e-01
-1.851895302534103394e-01
-7.045365869998931885e-02
3.351640999317169189e-01
1.083400249481201172e-01
-5.671096965670585632e-02
-2.854540571570396423e-02
-2.526542246341705322e-01
1.896206736564636230e-01
2.505212128162384033e-01
-3.054698705673217773e-01
-3.731279075145721436e-01
-1.698060780763626099e-01
-1.225049495697021484e-01
9.004656225442886353e-02
-1.219476759433746338e-01
-1.720425337553024292e-01
1.881264597177505493e-01
-2.349092662334442139e-01
1.169525012373924255e-01
-1.243225671350955963e-02
1.608078777790069580e-01
5.388585105538368225e-02
5.344379693269729614e-02
1.682166159152984619e-01
1.784166693687438965e-01
-2.056821808218955994e-02
1.196213662624359131e-01
1.233772337436676025e-01
5.177551880478858948e-02
-2.136293351650238037e-01
-2.300409227609634399e-01
-3.329193964600563049e-02
6.676585972309112549e-02
-1.249420195817947388e-01
-1.112321913242340088e-01
1.876886188983917236e-02
-5.194986239075660706e-02
-1.013972908258438110e-01
7.096397876739501953e-02
1.296042371541261673e-02
1.056955903768539429e-01
-5.422088131308555603e-02
-5.685149505734443665e-02
-5.261669680476188660e-02
-1.348170638084411621e-01
9.346198290586471558e-02
3.021077625453472137e-02
2.069102376699447632e-01
1.173556520370766521e-04
-1.408262848854064941e-01
1.544645875692367554e-01
-3.024346753954887390e-02
2.658293545246124268e-01
1.075208112597465515e-01
-3.393863439559936523e-01
-4.604833945631980896e-02
-3.085169196128845215e-01
-1.197751238942146301e-01
2.233241498470306396e-02
-2.118916958570480347e-01
2.069205194711685181e-01
1.000267490744590759e-01
-1.282300353050231934e-01
-1.710614711046218872e-01
5.624889582395553589e-02
1.559480577707290649e-01
1.318069994449615479e-01
-4.152468591928482056e-02
-1.341465711593627930e-01
3.181814253330230713e-01
1.436299979686737061e-01
4.089188873767852783e-01
-1.113445609807968140e-01
-1.912494748830795288e-01
-2.054508775472640991e-02
1.246877908706665039e-01
1.211854889988899231e-01
-3.948098793625831604e-02
1.449128091335296631e-01
-6.952030211687088013e-02
2.401875108480453491e-01
-1.678314208984375000e-01
2.463377565145492554e-01
2.190062105655670166e-01
1.924352496862411499e-01
-1.471830159425735474e-01
-1.670773029327392578e-01
3.402261734008789062e-01
-1.785145998001098633e-01
8.420100808143615723e-02
2.753037512302398682e-01
5.638333782553672791e-02
1.271534562110900879e-01
1.756281256675720215e-01
7.436655461788177490e-02
-5.300126969814300537e-02
-1.159575805068016052e-01
-5.544963106513023376e-02
1.139473393559455872e-01
-2.983117289841175079e-02
6.749183684587478638e-02
-8.247438818216323853e-02
1.902758032083511353e-01
4.398455917835235596e-01
2.476419955492019653e-01
-6.956452876329421997e-02
-5.392516255378723145e-01
-1.023860648274421692e-01
-8.595515787601470947e-02
-1.531401462852954865e-02
-5.059263110160827637e-01
-1.553976684808731079e-01
-5.133023485541343689e-02
-3.172243833541870117e-01
-3.853393346071243286e-02
-1.576685756444931030e-01
2.372524514794349670e-02
-1.107026413083076477e-01
1.492512822151184082e-01
3.489495813846588135e-01
5.779558792710304260e-02
-2.861250638961791992e-01
-2.827806174755096436e-01
-1.235542073845863342e-01
1.475430279970169067e-01
-3.297168016433715820e-01
-7.257246971130371094e-02
1.039016097784042358e-01
1.543912887573242188e-01
-4.656755626201629639e-01
4.404379054903984070e-02
-6.351298838853836060e-02
3.257328271865844727e-02
-2.286906689405441284e-01
-4.501542821526527405e-02
1.808051206171512604e-02
-4.928401112556457520e-02
9.498367086052894592e-03
5.428957194089889526e-02
-2.044149674475193024e-03
-4.898055270314216614e-02
-1.345983054488897324e-02
3.732803091406822205e-02
-1.619008369743824005e-02
2.396001480519771576e-02
5.333566293120384216e-02
-6.209901720285415649e-02
-8.666352368891239166e-03
-5.579038523137569427e-03
-5.739936605095863342e-03
-2.119348384439945221e-02
-1.591985113918781281e-02
4.905766621232032776e-02
1.464923750609159470e-02
-4.819206148386001587e-02
-1.085059065371751785e-02
-4.576607421040534973e-02
-2.630243077874183655e-02
-3.266631625592708588e-03
5.426734313368797302e-02
-7.074934896081686020e-03
9.609083645045757294e-03
-4.623628035187721252e-02
2.691255882382392883e-02
-3.381565585732460022e-02
8.075701072812080383e-03
-2.758774161338806152e-02
-3.610280528664588928e-02
-1.177741121500730515e-02
3.622073680162429810e-02
3.595590218901634216e-02
4.206609725952148438e-02
-6.070407852530479431e-02
-4.774665087461471558e-02
-6.916957348585128784e-02
-6.936552375555038452e-02
1.040040235966444016e-02
5.344189776224084198e-05
-5.873647704720497131e-02
1.776845380663871765e-02
-5.846528336405754089e-02
-1.162033714354038239e-02
-3.936540335416793823e-02
4.608151316642761230e-02
-5.373074859380722046e-02
-2.588441967964172363e-02
5.196210741996765137e-02
-5.112566426396369934e-02
-4.810846224427223206e-02
-1.962353009730577469e-03
1.355281844735145569e-02
3.749747760593891144e-03
4.891999810934066772e-02
-6.155338138341903687e-02
-1.766927354037761688e-02
-1.285714097321033478e-02
-4.179201647639274597e-02
-3.437083214521408081e-02
1.698024012148380280e-02
2.673317678272724152e-02
-8.007033728063106537e-03
-1.563297584652900696e-02
-1.304183807224035263e-02
-2.293075062334537506e-02
-1.393913663923740387e-02
3.460377827286720276e-02
-2.745441533625125885e-02
4.396798461675643921e-02
-3.166670352220535278e-02
3.427947312593460083e-02
-4.148638993501663208e-02
-2.869995124638080597e-02
-6.716391444206237793e-02
-2.062294632196426392e-02
2.888600341975688934e-03
-5.087200924754142761e-02
1.875457201094832271e-05
4.029387782793492079e-04
-2.122661843895912170e-02
4.535495117306709290e-02
3.787536919116973877e-02
-5.415834859013557434e-02
-3.818388283252716064e-02
2.775883488357067108e-02
-5.170178040862083435e-02
-2.634599246084690094e-02
1.895395293831825256e-02
-5.375208333134651184e-02
5.042701028287410736e-03
-1.640253141522407532e-02
4.569860920310020447e-02
-6.743793189525604248e-02
4.364407435059547424e-02
-4.790695011615753174e-02
-2.054233290255069733e-02
2.240876480937004089e-02
-3.687485679984092712e-02
5.533231794834136963e-02
3.539367392659187317e-02
5.173888057470321655e-02
-8.997774682939052582e-03
5.103005096316337585e-02
-5.338853225111961365e-02
-1.100800093263387680e-02
4.541559889912605286e-02
-3.764622658491134644e-02
4.018317908048629761e-02
2.297702245414257050e-02
-3.702855855226516724e-02
1.974387466907501221e-02
-6.130386888980865479e-02
1.946219988167285919e-02
-3.431834653019905090e-02
-1.112586911767721176e-02
-3.739480674266815186e-02
-6.641574203968048096e-02
5.729055963456630707e-03
-3.816607221961021423e-02
-3.602658212184906006e-02
-4.735961183905601501e-02
1.419062167406082153e-02
1.803353242576122284e-02
-2.265675924718379974e-02
4.008672386407852173e-02
1.556755416095256805e-02
-5.016520619392395020e-02
4.019727930426597595e-02
-1.470464281737804413e-02
2.943871542811393738e-02
4.019198566675186157e-02
1.093673706054687500e-02
2.562302723526954651e-02
-4.503186047077178955e-02
-6.148612126708030701e-02
-8.104372769594192505e-03
-4.876023158431053162e-02
2.818604698404669762e-03
8.479258976876735687e-03
2.393632568418979645e-02
-1.410215813666582108e-02
-6.162101775407791138e-02
4.506703838706016541e-02
-6.624590605497360229e-02
-5.002154037356376648e-03
6.367747671902179718e-03
1.088331267237663269e-02
-1.272093039005994797e-02
-2.755652926862239838e-02
-4.918695613741874695e-02
-3.903158009052276611e-02
-6.368218362331390381e-02
-2.009971812367439270e-02
-4.908130690455436707e-02
-6.940484046936035156e-03
-6.777229905128479004e-02
-2.584447897970676422e-02
-4.980703815817832947e-03
-6.159898638725280762e-02
-2.744671655818820000e-04
2.651810832321643829e-02
-3.769263625144958496e-02
-4.652235284447669983e-02
5.152396485209465027e-02
-1.622309349477291107e-02
3.148116916418075562e-02
-2.535138279199600220e-02
9.301941841840744019e-03
4.111713916063308716e-02
-1.526447292417287827e-02
-1.433178596198558807e-02
9.121052920818328857e-03
2.455450035631656647e-02
-6.534207612276077271e-02
6.734301801770925522e-03
-4.742002859711647034e-02
2.913334174081683159e-03
2.504088543355464935e-02
-5.852217972278594971e-02
-5.906493216753005981e-02
-4.845422506332397461e-02
1.828738488256931305e-02
-1.226061023771762848e-02
-6.459087133407592773e-02
-4.035707190632820129e-02
-3.174416348338127136e-02
4.709584638476371765e-02
2.737679705023765564e-02
4.763547796756029129e-03
-4.738192632794380188e-02
-6.163175031542778015e-02
4.956147074699401855e-02
-2.579733543097972870e-02
-7.163616828620433807e-03
-3.043195605278015137e-02
-5.866514984518289566e-03
-2.972205914556980133e-02
2.949527837336063385e-02
2.835159562528133392e-02
-4.972581565380096436e-02
1.066574733704328537e-02
-4.546765238046646118e-02
-6.839541345834732056e-02
-7.282918319106101990e-03
1.668045483529567719e-02
4.044291749596595764e-02
-3.379589691758155823e-02
-6.668159365653991699e-02
-5.306146293878555298e-02
5.276427045464515686e-02
5.208747461438179016e-02
-6.131649762392044067e-02
-4.672253038734197617e-03
-1.823167316615581512e-02
1.444636099040508270e-02
2.635986916720867157e-02
4.202761501073837280e-02
2.795866318047046661e-02
-2.948500774800777435e-02
-1.127445790916681290e-02
-3.616553172469139099e-02
2.252661623060703278e-02
-1.171581540256738663e-02
4.548818245530128479e-02
-2.000211924314498901e-02
5.077068135142326355e-02
-6.696289032697677612e-02
2.293539792299270630e-02
2.775838226079940796e-02
-5.016241967678070068e-02
-2.559248358011245728e-02
-5.912788957357406616e-02
-5.075470730662345886e-02
-7.628180552273988724e-03
-6.706678867340087891e-02
3.885242342948913574e-02
-1.893145963549613953e-02
5.314095690846443176e-02
-1.966867223381996155e-02
1.390937599353492260e-03
-5.914360284805297852e-02
-4.496483877301216125e-02
2.047103270888328552e-02
1.149316038936376572e-02
-6.424819678068161011e-02
-4.386809840798377991e-02
1.877909339964389801e-02
-6.387757137417793274e-03
3.026066161692142487e-02
-4.155394434928894043e-02
-5.618197843432426453e-02
-8.078356832265853882e-02
-2.456904649734497070e-01
1.205895841121673584e-01
-6.252793222665786743e-02
1.431674510240554810e-02
-1.482809633016586304e-01
-9.639672189950942993e-02
-9.260876476764678955e-02
-1.181408166885375977e-01
-1.883055418729782104e-01
-9.010118991136550903e-02
2.421244233846664429e-01
-2.904111146926879883e-02
2.331289499998092651e-01
-2.516929991543292999e-02
-5.701475962996482849e-02
-1.318466514348983765e-01
-2.269142307341098785e-02
-7.071654498577117920e-02
-1.955273598432540894e-01
2.116701751947402954e-01
-1.104950997978448868e-02
-1.195839717984199524e-01
1.253091394901275635e-01
2.078480124473571777e-01
-2.240181416273117065e-01
7.707946747541427612e-02
-2.250612229108810425e-01
2.013531699776649475e-02
6.848324835300445557e-02
4.305205866694450378e-02
-2.185258716344833374e-01
-2.975181937217712402e-01
2.417977526783943176e-02
4.156220331788063049e-02
7.873757183551788330e-02
9.948392212390899658e-02
7.206074893474578857e-02
-1.457243561744689941e-01
1.383990794420242310e-01
-7.434837520122528076e-02
5.485139787197113037e-02
1.271786689758300781e-01
-4.379911720752716064e-02
8.076929301023483276e-02
9.063299745321273804e-02
8.027318120002746582e-02
-1.399252265691757202e-01
2.249389328062534332e-02
-1.819113790988922119e-01
5.364859476685523987e-02
-7.931318134069442749e-02
1.235753819346427917e-01
-9.781248122453689575e-02
-4.352476447820663452e-02
1.983338296413421631e-01
3.146075010299682617e-01
1.666343808174133301e-01
6.773748993873596191e-02
-5.265044793486595154e-02
3.527408242225646973e-01
2.005791962146759033e-01
-1.012870147824287415e-01
-6.122719869017601013e-02
8.978693187236785889e-02
2.476165741682052612e-01
-4.235952347517013550e-02
-1.167491972446441650e-01
3.386772274971008301e-01
3.961572796106338501e-02
7.456592284142971039e-04
-1.743242591619491577e-01
1.121844798326492310e-01
1.124342009425163269e-01
-1.254028081893920898e-01
2.014240622520446777e-02
9.597284346818923950e-02
-1.453388482332229614e-01
-4.662301018834114075e-02
6.543042510747909546e-02
-3.066169917583465576e-01
8.005556464195251465e-02
1.349233388900756836e-01
1.647358685731887817e-01
1.940347552299499512e-01
-1.346712261438369751e-01
2.652769982814788818e-01
2.818643152713775635e-01
9.023146331310272217e-02
-4.912550374865531921e-02
1.407092958688735962e-01
-1.724018901586532593e-02
-3.631052076816558838e-01
-6.058040075004100800e-03
8.530537039041519165e-02
-9.357460588216781616e-02
-1.350875049829483032e-01
-1.297030318528413773e-02
-2.223584949970245361e-01
-1.174579188227653503e-01
5.349853634834289551e-02
-4.974682629108428955e-02
-1.664085686206817627e-01
1.081834062933921814e-01
2.350322306156158447e-01
-2.619415223598480225e-01
7.333291321992874146e-02
-7.997485250234603882e-02
-2.990393340587615967e-01
-7.758115977048873901e-02
9.307208657264709473e-02
-1.455470621585845947e-01
-8.777661621570587158e-02
1.560850888490676880e-01
9.082639217376708984e-02
-5.407402664422988892e-02
-1.783597171306610107e-01
-7.233940064907073975e-02
2.047402709722518921e-01
4.349394515156745911e-02
-1.686591506004333496e-01
2.691665431484580040e-03
1.612914502620697021e-01
1.387330740690231323e-01
-2.989827096462249756e-01
-3.425588831305503845e-02
7.944758236408233643e-02
-1.527132540941238403e-01
1.524473074823617935e-02
3.734464570879936218e-02
-1.008774712681770325e-01
-3.738525211811065674e-01
-1.656721718609333038e-02
1.829974912106990814e-02
1.474837306886911392e-02
-2.121601998805999756e-02
1.040399074554443359e-01
1.496807187795639038e-01
2.412172853946685791e-01
1.491236388683319092e-01
6.004060059785842896e-02
-2.213488668203353882e-01
2.567888498306274414e-01
9.710478782653808594e-02
-6.565613299608230591e-02
-1.718636043369770050e-02
2.897028625011444092e-01
-1.690659075975418091e-01
9.049504064023494720e-03
8.023005723953247070e-02
-7.543965429067611694e-02
-1.703179925680160522e-01
-1.342142820358276367e-01
-1.405881345272064209e-02
6.797213852405548096e-02
-1.366017293184995651e-02
-2.087177932262420654e-01
-1.093655675649642944e-01
-4.151229560375213623e-02
1.762447357177734375e-01
-2.023111879825592041e-01
1.332396827638149261e-02
6.261000037193298340e-02
2.051909714937210083e-01
-2.026066184043884277e-01
-1.924856565892696381e-02
-6.141066178679466248e-02
2.394585758447647095e-01
1.687977313995361328e-01
-7.209996879100799561e-02
1.078900843858718872e-01
2.509140968322753906e-01
1.488180905580520630e-01
3.743661940097808838e-02
1.731271147727966309e-01
2.182272374629974365e-01
-2.426715753972530365e-02
1.983975321054458618e-01
-1.516658216714859009e-01
-2.045394480228424072e-01
-1.424153894186019897e-02
1.799193471670150757e-01
1.323176771402359009e-01
-1.088988184928894043e-01
4.318452253937721252e-02
1.213420256972312927e-01
-1.192029379308223724e-02
-1.631408184766769409e-01
2.697016894817352295e-01
2.231255732476711273e-02
3.234125971794128418e-01
6.174908205866813660e-02
-2.040241211652755737e-01
3.478036522865295410e-01
2.213760614395141602e-01
1.551206558942794800e-01
-2.136280201375484467e-02
-1.049823537468910217e-01
1.241657137870788574e-01
-1.087068915367126465e-01
7.703852374106645584e-03
-8.266858756542205811e-02
1.245544105768203735e-01
-1.046722847968339920e-02
5.714416503906250000e-02
-1.145917698740959167e-01
-2.548197209835052490e-01
1.451399326324462891e-01
-3.476728796958923340e-01
-1.284488141536712646e-01
5.464626848697662354e-02
-3.062461614608764648e-01
-4.382664859294891357e-01
-1.747670210897922516e-02
-3.561965748667716980e-02
1.261272430419921875e-01
-3.628510534763336182e-01
-7.175639271736145020e-02
4.133030772209167480e-02
4.007514938712120056e-02
-3.842429071664810181e-02
4.324670508503913879e-02
3.341769874095916748e-01
6.062045320868492126e-02
1.029561012983322144e-01
1.519944816827774048e-01
-9.811340272426605225e-02
9.769626706838607788e-02
-1.902593299746513367e-02
3.766136616468429565e-02
1.223803162574768066e-01
9.991285204887390137e-02
-2.082558572292327881e-01
-2.373912632465362549e-01
5.612972751259803772e-02
9.495496004819869995e-02
-2.125224471092224121e-01
-1.105027794837951660e-01
2.302695810794830322e-01
9.644007682800292969e-02
2.612394094467163086e-01
1.168718114495277405e-01
-1.075524017214775085e-01
2.411868721246719360e-01
-3.134401887655258179e-02
-4.160218313336372375e-02
1.363090127706527710e-01
-5.182924866676330566e-02
2.849290706217288971e-02
1.075723841786384583e-01
1.037115603685379028e-01
-4.720617551356554031e-03
-1.110580489039421082e-01
-1.335643380880355835e-01
2.438065707683563232e-01
-3.788575530052185059e-01
2.931085973978042603e-02
8.637756109237670898e-02
5.488508939743041992e-02
-2.670903317630290985e-02
8.926860988140106201e-02
-1.652338057756423950e-01
-1.993988454341888428e-01
-7.725571841001510620e-02
2.918033003807067871e-01
-2.558069527149200439e-01
1.486777514219284058e-01
-1.601872295141220093e-01
-7.146645337343215942e-02
-1.266968399286270142e-01
6.959522515535354614e-02
3.857042789459228516e-01
1.433043628931045532e-01
-2.188831269741058350e-01
1.087173968553543091e-01
-1.009611636400222778e-01
2.723751403391361237e-02
-1.788042485713958740e-01
1.509795710444450378e-02
-7.850991934537887573e-02
1.586995832622051239e-02
1.927530318498611450e-01
2.219277173280715942e-01
1.669930107891559601e-02
9.660119563341140747e-02
1.504643261432647705e-01
1.978034377098083496e-01
1.128197014331817627e-01
1.639863699674606323e-01
1.262854933738708496e-01
2.916393876075744629e-01
-3.943876549601554871e-02
1.392493676394224167e-02
9.681546688079833984e-02
1.321257203817367554e-01
-1.014666929841041565e-01
1.763416230678558350e-01
-1.471730619668960571e-01
-1.357710957527160645e-01
-4.937868937849998474e-02
-8.074409514665603638e-02
-3.641308844089508057e-02
-7.977852225303649902e-02
1.197233274579048157e-01
1.178727820515632629e-01
6.809495389461517334e-02
-9.132959693670272827e-02
1.278351247310638428e-01
-1.243297755718231201e-01
6.160883232951164246e-03
-1.169830709695816040e-01
3.769907727837562561e-02
-2.955991327762603760e-01
-2.489934861660003662e-01
-1.509116142988204956e-01
-1.457573100924491882e-02
-2.688482999801635742e-01
-6.643237918615341187e-02
-5.656692013144493103e-02
-1.390824913978576660e-01
1.944621354341506958e-01
-3.127348050475120544e-02
-1.658583581447601318e-01
4.386898502707481384e-02
2.312427759170532227e-01
1.615232825279235840e-01
-6.375784426927566528e-02
1.927825212478637695e-01
1.618774384260177612e-01
6.867674738168716431e-02
1.233825460076332092e-01
2.235949272289872169e-03
1.343087553977966309e-01
-1.354348510503768921e-01
4.726355522871017456e-02
9.169085323810577393e-02
1.920003145933151245e-01
-6.525433063507080078e-02
1.008873134851455688e-01
1.180674955248832703e-01
-1.147878989577293396e-01
6.291363388299942017e-02
1.081561073660850525e-01
3.066404759883880615e-01
-4.007181897759437561e-02
5.526489019393920898e-02
-1.761932624503970146e-03
-2.206813544034957886e-01
5.244848132133483887e-02
1.553884148597717285e-02
-5.448346585035324097e-02
1.659097708761692047e-02
-5.009139329195022583e-02
-6.658010929822921753e-02
1.014382913708686829e-01
-2.418777793645858765e-01
-2.281571179628372192e-02
3.227031603455543518e-02
4.828351736068725586e-02
-4.447076097130775452e-02
-5.236274749040603638e-02
-1.743098944425582886e-01
-2.265567928552627563e-01
-6.445607542991638184e-02
2.236674167215824127e-02
1.425054948776960373e-02
-9.131504595279693604e-02
-1.527337878942489624e-01
9.469053149223327637e-02
2.465525418519973755e-01
1.504727452993392944e-01
7.880875840783119202e-03
1.851472705602645874e-01
1.876173168420791626e-02
1.082817688584327698e-01
2.589038908481597900e-01
1.550356745719909668e-01
-8.563378453254699707e-02
-1.017154846340417862e-02
-2.326572313904762268e-02
-1.699051558971405029e-01
9.300307184457778931e-02
1.230187639594078064e-01
-4.891939088702201843e-02
-1.143167540431022644e-01
-2.949069067835807800e-02
6.321083009243011475e-02
2.982081845402717590e-02
6.493467092514038086e-02
8.878268301486968994e-02
1.030103191733360291e-01
1.963920146226882935e-01
1.476471498608589172e-02
2.528216876089572906e-02
-7.555624935775995255e-03
-8.111598342657089233e-02
5.808373913168907166e-02
1.590372174978256226e-01
-1.168247610330581665e-01
-2.593117952346801758e-01
-1.189403608441352844e-01
8.792822249233722687e-03
-9.982901066541671753e-02
-2.062904648482799530e-02
-8.772534877061843872e-02
-7.194872200489044189e-02
6.856328994035720825e-02
-9.864652156829833984e-02
-2.423283457756042480e-01
-1.535572558641433716e-01
-2.250867784023284912e-01
-5.251371767371892929e-03
2.621086239814758301e-01
-2.522894740104675293e-02
7.187151908874511719e-02
1.643377840518951416e-01
-1.512390226125717163e-01
5.994342267513275146e-02
1.941270977258682251e-01
2.585414983332157135e-02
1.597543656826019287e-01
2.988448441028594971e-01
1.858455240726470947e-01
2.903079148381948471e-03
-3.523048385977745056e-02
-2.165450006723403931e-01
2.381201386451721191e-01
1.029866784811019897e-01
6.570640206336975098e-02
-2.223875075578689575e-01
2.683042883872985840e-01
-3.203422427177429199e-01
-1.781837046146392822e-01
3.123604459688067436e-03
-1.154346466064453125e-01
-5.553822219371795654e-02
9.998919069766998291e-02
1.491777747869491577e-01
-2.663881778717041016e-01
-8.538921177387237549e-02
-2.762952446937561035e-01
8.808986097574234009e-02
6.685881875455379486e-03
1.399331092834472656e-01
-2.741615474224090576e-01
-2.355313301086425781e-01
-3.408383429050445557e-01
1.183876767754554749e-01
1.116781383752822876e-01
2.843460068106651306e-02
-9.901971369981765747e-02
-6.358066946268081665e-02
1.957853138446807861e-02
-3.776673227548599243e-02
-5.150539427995681763e-02
3.715435415506362915e-02
-2.816302329301834106e-02
2.433671429753303528e-02
1.061932891607284546e-01
1.825844869017601013e-02
1.493522822856903076e-01
-5.334200337529182434e-02
2.278450131416320801e-01
1.016874313354492188e-01
-1.023566275835037231e-01
1.599110066890716553e-01
-5.747358128428459167e-02
3.116844892501831055e-01
1.897642463445663452e-01
-8.397565037012100220e-02
-4.219546169042587280e-02
-8.729062974452972412e-02
6.094766780734062195e-02
-1.664362847805023193e-01
2.547893300652503967e-02
8.731482550501823425e-03
-6.631243973970413208e-02
-2.302192747592926025e-01
-2.063059955835342407e-01
-1.506275087594985962e-01
-1.222949177026748657e-01
-1.043744161725044250e-01
-7.681410759687423706e-02
7.409136742353439331e-02
3.693697154521942139e-01
-2.360824942588806152e-01
2.551916241645812988e-01
1.046576648950576782e-01
-1.630511321127414703e-02
-3.187606632709503174e-01
-5.506849884986877441e-01
-4.596570879220962524e-02
8.934657275676727295e-02
-2.260434255003929138e-02
-2.014067173004150391e-01
-3.069031238555908203e-01
-9.512599557638168335e-02
3.353817015886306763e-02
-3.526392206549644470e-02
-3.372284397482872009e-02
-3.506119847297668457e-01
1.561021199449896812e-03
1.741375923156738281e-01
2.327564656734466553e-01
1.039768531918525696e-01
-3.322926163673400879e-02
2.644132263958454132e-02
-1.320874243974685669e-01
2.440055906772613525e-01
1.898473948240280151e-01
-4.912294074892997742e-02
2.716184966266155243e-02
-1.409987807273864746e-01
-1.620968617498874664e-02
-1.934288186021149158e-03
-4.333938285708427429e-02
1.111691892147064209e-01
-4.037930071353912354e-02
-1.392567753791809082e-01
-5.360923707485198975e-02
-1.584872454404830933e-01
-3.215462267398834229e-01
-2.047616690397262573e-01
4.740393161773681641e-02
-9.140946716070175171e-02
-1.304930746555328369e-01
1.487831119447946548e-02
-3.673112764954566956e-02
1.860284805297851562e-02
-5.155454948544502258e-02
-2.430306933820247650e-02
1.229719817638397217e-01
1.272492557764053345e-01
1.251642256975173950e-01
3.719337880611419678e-01
1.620468795299530029e-01
2.171038836240768433e-02
-2.111595682799816132e-02
1.344959735870361328e-01
-2.470604777336120605e-01
-1.692443788051605225e-01
6.044463068246841431e-02
-3.190013393759727478e-02
-4.213682711124420166e-01
-3.584123849868774414e-01
6.550043821334838867e-02
-2.832413315773010254e-01
-2.973844110965728760e-01
5.803570966236293316e-04
-2.675453126430511475e-01
-1.489134877920150757e-01
-1.645289212465286255e-01
1.517263427376747131e-02
-2.551809698343276978e-02
-1.579354852437973022e-01
-6.506180018186569214e-02
2.580953529104590416e-03
-5.345617607235908508e-02
-2.050552889704704285e-02
-1.385080665349960327e-01
-2.874896861612796783e-02
2.182074487209320068e-01
4.012028127908706665e-02
-8.501740545034408569e-02
6.288305670022964478e-02
-3.855156302452087402e-01
1.961707770824432373e-01
5.059721693396568298e-02
-4.094290137290954590e-01
-2.670161724090576172e-01
-1.308842301368713379e-01
7.893455028533935547e-02
2.086389623582363129e-02
-1.901969760656356812e-01
-3.212763369083404541e-01
-5.870113149285316467e-02
-1.600118875503540039e-01
1.312622129917144775e-01
8.372306823730468750e-02
-7.368665933609008789e-02
1.712772995233535767e-01
2.318429760634899139e-02
-5.337574705481529236e-02
8.056587725877761841e-02
-2.295001894235610962e-01
-1.178684011101722717e-01
3.502748673781752586e-03
-4.699115455150604248e-02
2.715281248092651367e-01
-5.238000676035881042e-02
-1.067127808928489685e-01
1.559201776981353760e-01
-2.993963956832885742e-01
-5.633319914340972900e-02
-1.457682956242933869e-04
-8.521675318479537964e-02
-6.229151412844657898e-02
1.557642370462417603e-01
1.489973366260528564e-01
2.739080786705017090e-01
-1.046588495373725891e-01
-6.096864864230155945e-02
-4.930666182190179825e-03
7.372823357582092285e-02
2.412021607160568237e-01
-1.024362444877624512e-01
1.368702575564384460e-02
-4.742197692394256592e-02
-1.043585594743490219e-02
-6.482721120119094849e-02
2.594416737556457520e-01
2.708296477794647217e-02
-2.421565055847167969e-01
-8.845666050910949707e-02
7.274894416332244873e-02
-5.092872772365808487e-03
-5.420068651437759399e-02
-1.999174952507019043e-01
2.347716689109802246e-01
1.479375734925270081e-02
2.055168598890304565e-01
-2.278662621974945068e-01
1.954603344202041626e-01
2.255277149379253387e-02
2.275792323052883148e-02
-2.916860394179821014e-02
-1.914019286632537842e-01
8.822873234748840332e-02
4.635329544544219971e-02
-7.205370068550109863e-02
-2.266788780689239502e-01
-3.733201697468757629e-02
4.144690930843353271e-02
7.132640108466148376e-03
2.950537391006946564e-02
-1.163381859660148621e-01
1.214172765612602234e-01
6.602746993303298950e-02
7.664100825786590576e-02
-4.901104047894477844e-02
3.084963262081146240e-01
1.054337099194526672e-01
1.772267222404479980e-01
1.260663941502571106e-02
4.368608817458152771e-02
4.090103134512901306e-02
4.564069211483001709e-03
-8.613709360361099243e-03
-1.957486718893051147e-01
-7.562911510467529297e-02
2.488609030842781067e-02
-2.546194195747375488e-02
-2.454733252525329590e-01
-2.343342453241348267e-01
1.097433567047119141e-01
4.695152640342712402e-01
2.483692914247512817e-01
2.168023437261581421e-01
-1.138321403414011002e-02
-2.208750881254673004e-02
-1.381506770849227905e-01
8.807292580604553223e-02
7.234656810760498047e-02
2.375833094120025635e-01
2.155018597841262817e-02
2.611596286296844482e-01
-1.567131839692592621e-02
-1.819876395165920258e-02
-5.996955186128616333e-02
-4.033654928207397461e-02
-3.572573065757751465e-01
-5.698706209659576416e-02
2.393306000158190727e-03
1.803537905216217041e-01
4.598823375999927521e-03
2.309908159077167511e-02
-1.364455968141555786e-01
1.720229834318161011e-01
-2.124824374914169312e-01
-3.389563560485839844e-01
4.117943942546844482e-01
3.836653381586074829e-02
-6.249062344431877136e-02
-1.283215284347534180e-01
2.089332789182662964e-02
7.175239152275025845e-04
1.738344132900238037e-01
1.580307185649871826e-01
2.593938410282135010e-01
-2.997159771621227264e-02
8.057060837745666504e-02
-1.255187988281250000e-01
3.845767378807067871e-01
3.286951035261154175e-02
1.103508919477462769e-01
1.653663516044616699e-01
3.375594019889831543e-01
1.283065378665924072e-01
-9.524192661046981812e-02
5.141073372215032578e-03
1.510366201400756836e-01
-2.095724344253540039e-01
-2.071322351694107056e-01
3.675114363431930542e-02
4.439489915966987610e-02
1.059701293706893921e-01
-2.138006389141082764e-01
1.038320064544677734e-01
1.094509847462177277e-03
2.701922655105590820e-01
1.319127976894378662e-01
2.993698716163635254e-01
-1.065470948815345764e-01
2.750449478626251221e-01
-1.175204217433929443e-01
-2.009019553661346436e-01
-5.152029544115066528e-02
-1.256262958049774170e-01
-3.725057467818260193e-02
2.250745594501495361e-01
-2.227443456649780273e-01
2.031942158937454224e-01
-3.950265645980834961e-01
-2.259514182806015015e-01
-2.581912279129028320e-01
-3.260337561368942261e-02
2.370169907808303833e-01
-3.204372823238372803e-01
-3.287011682987213135e-01
1.043041869997978210e-01
-7.778467983007431030e-02
-2.075926810503005981e-01
-6.333966851234436035e-01
1.943032145500183105e-01
-2.066685110330581665e-01
-2.481189817190170288e-01
2.693886868655681610e-02
7.712102681398391724e-02
-2.915651164948940277e-02
3.016132488846778870e-02
-1.120905727148056030e-01
6.774144619703292847e-02
3.126255869865417480e-01
-1.215512230992317200e-01
1.079948246479034424e-01
-7.479586452245712280e-02
6.273555755615234375e-02
9.561133384704589844e-02
2.599070668220520020e-01
-2.076485380530357361e-02
-2.963184751570224762e-02
1.498020589351654053e-01
1.315161865204572678e-02
1.704111397266387939e-01
1.586892008781433105e-01
5.720564723014831543e-02
4.518074169754981995e-02
5.059834942221641541e-02
9.607900679111480713e-02
-3.652750253677368164e-01
1.160466894507408142e-01
-8.682721108198165894e-02
-1.866845041513442993e-01
-1.988851130008697510e-01
3.832292854785919189e-01
9.771177172660827637e-02
-9.500869363546371460e-02
-3.278651833534240723e-01
1.196981370449066162e-01
5.766712501645088196e-02
-1.117819547653198242e-02
-1.129134818911552429e-01
2.258124388754367828e-02
-2.108880728483200073e-01
-4.261669889092445374e-02
-1.790197938680648804e-01
3.138552606105804443e-01
-2.910385727882385254e-01
1.995988190174102783e-02
-2.526730597019195557e-01
1.689645349979400635e-01
-1.197345405817031860e-01
3.528323024511337280e-02
3.141325339674949646e-02
-1.441090367734432220e-02
1.256496459245681763e-01
3.223805427551269531e-01
5.148145928978919983e-02
5.301136523485183716e-02
-6.600189208984375000e-02
4.283747170120477676e-03
-4.308415949344635010e-02
-8.191113173961639404e-02
3.785061836242675781e-01
-1.295416206121444702e-01
1.115294322371482849e-01
-3.139670565724372864e-02
3.678026795387268066e-01
-1.086602881550788879e-01
1.714339852333068848e-01
2.478526681661605835e-01
4.326292499899864197e-02
-2.126595675945281982e-01
-2.159068435430526733e-01
-4.410219490528106689e-01
7.840861380100250244e-02
-1.209579408168792725e-01
-2.083188481628894806e-02
-2.133359201252460480e-02
4.844977706670761108e-02
-3.310399129986763000e-02
-9.747819975018501282e-03
-2.083431482315063477e-01
-2.225599437952041626e-01
-1.880436986684799194e-01
2.685166895389556885e-01
7.455672323703765869e-02
-5.916785821318626404e-02
-1.912745833396911621e-01
-1.378559619188308716e-01
2.073685172945261002e-03
-5.333238467574119568e-02
-8.488447219133377075e-02
-1.598364710807800293e-01
-2.641725540161132812e-01
4.854867607355117798e-02
-7.858038693666458130e-02
9.588871896266937256e-02
-2.945058345794677734e-01
1.564265228807926178e-02
-1.034604981541633606e-01
-2.793625593185424805e-01
1.466116756200790405e-01
2.493569701910018921e-01
4.751126095652580261e-02
-3.621820360422134399e-02
2.341622561216354370e-01
1.790400035679340363e-02
-5.945093464106321335e-03
8.737978339195251465e-02
-1.973110064864158630e-02
-1.787943542003631592e-01
1.753271520137786865e-01
-2.196388095617294312e-01
2.631394937634468079e-02
-2.760818302631378174e-01
6.592885591089725494e-03
3.165555000305175781e-02
1.497570704668760300e-02
7.457660883665084839e-02
4.446443170309066772e-02
-3.225499689579010010e-01
1.256167739629745483e-01
-1.493192166090011597e-01
-2.158587723970413208e-01
1.108261346817016602e-01
-6.928190588951110840e-02
-1.219286024570465088e-01
-1.053545176982879639e-01
2.103842049837112427e-02
2.346187978982925415e-01
1.301979124546051025e-01
-5.079665407538414001e-02
-5.198761075735092163e-02
-1.046330034732818604e-01
-1.905849426984786987e-01
1.184948012232780457e-01
3.108954131603240967e-01
1.257557868957519531e-01
-4.967831969261169434e-01
-2.383633702993392944e-01
-6.670663505792617798e-02
3.771997615694999695e-02
-1.134130880236625671e-01
-1.133100613951683044e-01
-1.056165993213653564e-01
1.928518414497375488e-01
7.513002306222915649e-02
1.050345152616500854e-01
-2.634606361389160156e-01
-1.858741343021392822e-01
-5.480682477355003357e-02
4.082528501749038696e-02
-8.395420759916305542e-02
-1.243080571293830872e-01
-9.043394029140472412e-02
4.159890860319137573e-02
-2.569598853588104248e-01
6.521769613027572632e-02
-1.482405066490173340e-01
-4.340479895472526550e-02
1.664411276578903198e-01
9.119784832000732422e-02
-1.946837455034255981e-02
-5.121714994311332703e-02
7.751035690307617188e-02
-1.064136996865272522e-01
-3.259603083133697510e-01
-9.063237905502319336e-02
1.993640363216400146e-01
6.057433784008026123e-03
-7.615260034799575806e-02
-8.412465453147888184e-02
-1.902242451906204224e-01
1.451251655817031860e-01
-7.090871036052703857e-02
-3.039056658744812012e-01
-1.093982160091400146e-01
9.055047482252120972e-02
-5.658888816833496094e-02
1.085591688752174377e-02
6.641379743814468384e-02
-1.089607737958431244e-02
-2.345989942550659180e-01
-1.154204756021499634e-01
-7.348614186048507690e-02
2.199403047561645508e-01
-9.015534073114395142e-02
7.548660039901733398e-02
-2.941512167453765869e-01
3.871407359838485718e-02
1.268830299377441406e-01
-2.690609395503997803e-01
-8.471763879060745239e-02
1.684683859348297119e-01
-2.022840380668640137e-01
-3.645092546939849854e-01
2.323337085545063019e-02
-2.097019404172897339e-01
-1.003467217087745667e-01
1.055130138993263245e-01
-1.695910841226577759e-01
-1.317484211176633835e-02
-1.322055459022521973e-01
-4.063897766172885895e-03
2.629123926162719727e-01
-1.344621330499649048e-01
1.418292224407196045e-01
4.425933957099914551e-02
1.194306686520576477e-01
-5.495848134160041809e-02
-7.810296118259429932e-02
2.603944949805736542e-02
-1.372927217744290829e-03
-3.044632449746131897e-02
1.045961901545524597e-01
1.075287610292434692e-01
-1.061668712645769119e-02
-4.446224123239517212e-02
1.971220821142196655e-01
2.248427122831344604e-01
-2.600302919745445251e-02
-8.098679780960083008e-02
1.985473632812500000e-01
-1.003897935152053833e-01
2.256093323230743408e-01
7.063625007867813110e-02
-3.124117292463779449e-02
-2.377315908670425415e-01
-2.346011549234390259e-01
3.443276137113571167e-02
-2.598335966467857361e-03
4.199347496032714844e-01
-3.579521924257278442e-02
-1.658377796411514282e-01
-1.886036098003387451e-01
2.049189209938049316e-01
1.216100007295608521e-01
-1.395667940378189087e-01
2.250028103590011597e-01
7.921501994132995605e-02
-1.498489975929260254e-01
-3.551186621189117432e-02
2.211264818906784058e-01
1.262994110584259033e-01
5.569186806678771973e-02
-3.712922632694244385e-01
-2.635611407458782196e-02
1.663931608200073242e-01
1.481146067380905151e-01
3.265988081693649292e-02
-1.747843772172927856e-01
-9.391507133841514587e-03
-5.562227964401245117e-02
4.965339601039886475e-02
1.181049272418022156e-01
1.575058400630950928e-01
-3.431977927684783936e-01
-1.538610011339187622e-01
-2.222778648138046265e-02
4.215076193213462830e-02
-2.684891521930694580e-01
-1.387144811451435089e-02
2.183370478451251984e-02
-5.401349440217018127e-02
2.285088300704956055e-01
1.271332204341888428e-01
-4.348268732428550720e-02
-2.628825306892395020e-01
4.105056077241897583e-02
3.373167812824249268e-01
2.797000408172607422e-01
-1.689832359552383423e-01
2.828809432685375214e-02
2.756352424621582031e-01
2.728628218173980713e-01
-1.639208048582077026e-01
-4.058044031262397766e-02
-1.827485300600528717e-02
2.036593407392501831e-01
7.388512790203094482e-02
1.274583339691162109e-01
4.374756664037704468e-02
-1.484164744615554810e-01
1.138861179351806641e-01
-1.293098181486129761e-02
-7.468625903129577637e-02
-9.160354733467102051e-02
-1.096426025032997131e-01
-5.159885436296463013e-02
2.363732159137725830e-01
2.460298538208007812e-01
-1.080939322710037231e-01
5.594581738114356995e-02
-4.080490395426750183e-02
1.576390862464904785e-02
-2.262179367244243622e-02
-4.386481642723083496e-02
-1.667013019323348999e-02
-4.074104502797126770e-02
-5.336238443851470947e-02
3.024760074913501740e-02
1.155628077685832977e-02
-2.441771700978279114e-02
4.517958313226699829e-02
-7.542499899864196777e-02
-7.315114140510559082e-02
-1.681549660861492157e-02
-5.973706766963005066e-02
2.308131195604801178e-02
3.156679123640060425e-02
-1.733164675533771515e-02
-6.151084601879119873e-02
-5.610153079032897949e-02
-4.824078828096389771e-02
2.375502511858940125e-02
-1.476322999224066734e-03
-2.201516926288604736e-02
2.123964764177799225e-02
-9.298512339591979980e-02
-7.370719313621520996e-02
-7.446265220642089844e-02
-5.702915042638778687e-02
-3.111645206809043884e-02
-5.405158270150423050e-03
-2.083962317556142807e-03
-7.560154795646667480e-02
3.902349993586540222e-02
1.716708764433860779e-02
-6.843630224466323853e-02
-5.460374057292938232e-02
1.128362491726875305e-03
-6.331232190132141113e-02
-3.619226440787315369e-02
-2.122263237833976746e-02
-1.541892997920513153e-02
-1.777125289663672447e-03
-8.727975934743881226e-02
-2.362411096692085266e-02
-6.232210248708724976e-02
2.188226766884326935e-02
-6.372503191232681274e-02
3.244807571172714233e-02
-6.594969332218170166e-02
5.822990462183952332e-02
1.086228713393211365e-02
-2.195735834538936615e-02
3.600476682186126709e-02
7.738803047686815262e-03
-4.091807454824447632e-02
-5.365238711237907410e-02
2.716207690536975861e-02
5.513572320342063904e-02
2.823650091886520386e-02
5.191121995449066162e-02
2.806033752858638763e-02
-3.382733091711997986e-02
-2.543023088946938515e-03
1.712461747229099274e-02
3.226810693740844727e-02
-5.617001280188560486e-02
-9.496921673417091370e-03
-8.853874355554580688e-02
2.357289008796215057e-02
-2.543694153428077698e-02
4.378541186451911926e-02
1.369482371956110001e-02
2.222624607384204865e-02
2.829141216352581978e-03
-7.523373514413833618e-02
6.630447227507829666e-03
-1.656461879611015320e-02
-2.966536581516265869e-02
-3.247802704572677612e-02
-4.116039350628852844e-02
-2.438324689865112305e-02
6.217608600854873657e-02
4.046440497040748596e-02
-6.113490462303161621e-02
2.194035798311233521e-02
-6.142172217369079590e-02
-2.697397768497467041e-02
-6.533870100975036621e-02
-8.523109555244445801e-02
-3.706515207886695862e-02
-4.609804973006248474e-02
-1.644853129982948303e-02
-4.114350304007530212e-02
-5.477579310536384583e-02
-6.693132966756820679e-02
-6.907321978360414505e-03
3.492655977606773376e-02
2.963089384138584137e-02
-3.816596232354640961e-03
1.825641654431819916e-02
-1.842952519655227661e-02
-7.429753988981246948e-02
-3.240885958075523376e-02
-2.756123663857579231e-03
-1.616985723376274109e-02
-4.095370694994926453e-02
-4.697559401392936707e-02
-4.128788784146308899e-02
2.321009524166584015e-02
-5.169010162353515625e-02
4.177798703312873840e-02
7.189650088548660278e-02
3.218830004334449768e-02
-7.316584140062332153e-02
-4.265385866165161133e-02
-2.827281132340431213e-02
-1.764570921659469604e-02
-5.551619827747344971e-02
-1.797094382345676422e-02
-3.530392050743103027e-02
2.349385060369968414e-02
-8.626684546470642090e-02
-2.800249122083187103e-02
4.650688171386718750e-02
-2.857908979058265686e-02
-5.406600236892700195e-02
-4.488649219274520874e-02
5.238630808889865875e-03
1.602066494524478912e-02
-4.234630614519119263e-02
-8.869089931249618530e-02
-7.510349154472351074e-02
-9.116085618734359741e-02
3.614853695034980774e-02
-7.855647057294845581e-02
-3.061295486986637115e-02
-7.557277381420135498e-02
6.022064760327339172e-02
6.861053872853517532e-03
-3.410330042243003845e-02
3.165906667709350586e-02
8.165396749973297119e-03
-2.794876880943775177e-02
-4.339626058936119080e-02
-2.637526020407676697e-02
-6.881063338369131088e-03
-6.928592175245285034e-02
-7.497325539588928223e-02
-2.441376075148582458e-02
-5.753342807292938232e-02
-4.406987875699996948e-02
-1.840707845985889435e-02
3.180240467190742493e-02
-1.156655838713049889e-03
-1.801006682217121124e-02
-1.043619960546493530e-02
-2.701459266245365143e-02
4.655683785676956177e-02
-2.796476893126964569e-02
-1.629699021577835083e-02
5.485660582780838013e-02
1.528588309884071350e-02
9.759519249200820923e-03
-2.370192669332027435e-02
-2.437727153301239014e-02
-3.703539073467254639e-02
-8.211068809032440186e-02
1.553254015743732452e-02
3.637582436203956604e-02
-3.263358399271965027e-02
-5.937572941184043884e-02
-6.877531111240386963e-02
-2.960181050002574921e-02
-5.122603103518486023e-02
5.271741189062595367e-03
-3.002770245075225830e-02
-2.539351768791675568e-02
-3.677642345428466797e-02
-2.201766707003116608e-02
-5.029133171774446964e-05
3.121919929981231689e-02
-3.852161392569541931e-02
-6.207640469074249268e-02
-5.376474186778068542e-02
-5.720629543066024780e-02
3.220910951495170593e-02
7.731142104603350163e-04
-6.253890693187713623e-02
5.747586488723754883e-03
3.988480940461158752e-02
-3.042204119265079498e-02
-3.266828507184982300e-02
-4.682657122611999512e-02
-4.338779672980308533e-02
1.581784151494503021e-02
-6.079227104783058167e-02
-6.066191941499710083e-02
-6.139705330133438110e-02
-6.173670664429664612e-02
-1.453941687941551208e-02
-5.992158781737089157e-03
-4.453384503722190857e-02
5.490405112504959106e-02
2.659207955002784729e-02
-2.101475186645984650e-02
-3.267382457852363586e-02
-5.545625463128089905e-02
-5.351889878511428833e-02
-3.169434890151023865e-02
3.202876821160316467e-02
-1.700307801365852356e-02
-1.810226473025977612e-03
4.139577969908714294e-02
-2.400801330804824829e-02
-3.288403153419494629e-02
-5.032112821936607361e-02
-6.371080409735441208e-03
-4.965117946267127991e-02
1.062508299946784973e-02
-2.148280292749404907e-02
3.165503963828086853e-02
-2.236833050847053528e-02
-6.741270422935485840e-02
-5.631766468286514282e-02
-5.509946122765541077e-02
2.279702946543693542e-02
-3.795342519879341125e-02
-7.836378365755081177e-02
9.341993369162082672e-03
-2.019622549414634705e-02
4.595340788364410400e-02
7.023167330771684647e-03
-5.656478181481361389e-02
-1.717062853276729584e-02
-6.918040663003921509e-02
3.475210070610046387e-02
-9.108898043632507324e-02
-2.956962399184703827e-02
-6.449726223945617676e-02
5.713458359241485596e-02
9.236847050487995148e-03
4.254256933927536011e-02
-4.799558594822883606e-02
6.176402047276496887e-02
-1.575167290866374969e-02
-2.391786873340606689e-02
-3.586872294545173645e-02
-4.073191061615943909e-02
2.290751039981842041e-02
-4.643921554088592529e-02
-3.221102431416511536e-02
-4.251374676823616028e-02
4.537237063050270081e-02
-1.988049224019050598e-02
-2.938582189381122589e-02
4.853607341647148132e-02
-4.649314284324645996e-02
-2.922178059816360474e-02
-9.695561975240707397e-02
1.629433035850524902e-01
-9.865570068359375000e-02
2.657948620617389679e-02
9.107024525292217731e-04
-1.732695847749710083e-02
-1.719145029783248901e-01
7.347317785024642944e-02
2.619430124759674072e-01
9.053464978933334351e-02
-1.808252632617950439e-01
1.124430820345878601e-01
3.246207162737846375e-02
-1.777480542659759521e-01
-7.741965353488922119e-02
7.533796131610870361e-02
-7.585906982421875000e-02
3.167683631181716919e-02
-5.660426989197731018e-02
-9.576064534485340118e-03
-8.491149544715881348e-02
-2.499588578939437866e-01
-2.711321599781513214e-02
-1.689047515392303467e-01
-1.882671117782592773e-01
1.071082428097724915e-01
-2.563960254192352295e-01
-3.619594573974609375e-01
3.299849852919578552e-02
3.401120603084564209e-01
-3.149117901921272278e-02
-2.314024716615676880e-01
-9.249231219291687012e-02
-3.743231296539306641e-02
-1.702456027269363403e-01
2.766501158475875854e-02
2.268824130296707153e-01
1.924513876438140869e-01
-2.464692853391170502e-02
3.415516763925552368e-02
8.905463851988315582e-03
8.980713039636611938e-02
1.433928906917572021e-01
1.603105068206787109e-01
9.350151568651199341e-02
3.614579141139984131e-01
-8.428152650594711304e-02
-1.951976306736469269e-02
8.470159769058227539e-02
-1.482864259742200375e-03
1.202966943383216858e-01
-2.268130928277969360e-01
2.700224518775939941e-01
5.640233308076858521e-02
5.379536747932434082e-02
6.690526753664016724e-02
1.617320328950881958e-01
6.533039361238479614e-02
1.585491150617599487e-01
2.660191953182220459e-01
-2.011599838733673096e-01
-2.448924928903579712e-01
-2.320354431867599487e-01
-3.678321605548262596e-03
6.886017322540283203e-02
1.219884827733039856e-01
-9.891074895858764648e-02
-1.239884644746780396e-01
2.278443574905395508e-01
-2.999970922246575356e-03
1.531089004129171371e-02
3.106053359806537628e-02
7.207687199115753174e-02
-3.626605272293090820e-01
-4.654906094074249268e-01
-1.620741933584213257e-01
-1.197925582528114319e-02
-1.280815340578556061e-02
-3.649292290210723877e-01
-2.938907444477081299e-01
-1.545538902282714844e-01
-1.924802809953689575e-01
-4.492407664656639099e-02
-2.730948328971862793e-01
-1.305558234453201294e-01
1.194456443190574646e-01
1.545104086399078369e-01
1.789197772741317749e-01
-2.411679327487945557e-01
5.278043821454048157e-02
1.314514577388763428e-01
1.406834125518798828e-01
-8.502729237079620361e-02
2.565564960241317749e-02
-1.290358509868383408e-02
-2.490990906953811646e-01
-1.581290662288665771e-01
3.072681464254856110e-02
-1.394636463373899460e-02
-6.400294601917266846e-02
-2.054518610239028931e-01
1.027815137058496475e-02
6.126310676336288452e-02
-1.927486807107925415e-01
-1.079654507339000702e-02
-2.016723304986953735e-01
-1.236145794391632080e-01
-2.232417613267898560e-01
2.636793553829193115e-01
2.708102948963642120e-02
-5.242817103862762451e-02
1.741780489683151245e-01
-8.118128180503845215e-01
-2.192118912935256958e-01
-4.990474134683609009e-02
-1.226377040147781372e-01
-1.488335877656936646e-01
7.096555083990097046e-02
-6.151543557643890381e-02
8.297733962535858154e-02
-3.017188049852848053e-02
3.660641908645629883e-01
9.206032752990722656e-02
-5.336313322186470032e-02
-7.255940139293670654e-02
-2.608691751956939697e-01
-8.636192977428436279e-02
1.973091065883636475e-02
1.780888736248016357e-01
6.781429797410964966e-02
1.358034461736679077e-01
-2.925807237625122070e-02
6.179314106702804565e-03
-6.005943194031715393e-02
1.022762805223464966e-01
1.699990034103393555e-02
-1.256966143846511841e-01
4.867680370807647705e-01
-1.122141815721988678e-02
6.921560317277908325e-02
-1.207392290234565735e-01
-6.627739220857620239e-02
3.593496233224868774e-02
-1.193014383316040039e-01
-1.853407472372055054e-01
-3.223333135247230530e-02
-6.413061171770095825e-02
1.925074905157089233e-01
-1.185439378023147583e-01
2.195722460746765137e-01
-5.187423154711723328e-02
5.625896900892257690e-02
7.844716310501098633e-02
3.128343448042869568e-02
-2.690359354019165039e-01
-8.165925741195678711e-02
-1.254709810018539429e-02
7.365239318460226059e-03
9.357296675443649292e-02
2.500030994415283203e-01
-5.502822995185852051e-01
-6.769554316997528076e-02
2.109700590372085571e-01
1.130580306053161621e-01
2.507111988961696625e-02
-1.283249855041503906e-01
-2.031024247407913208e-01
5.385370552539825439e-02
1.349107027053833008e-01
-2.200535386800765991e-01
5.602263659238815308e-02
1.349211633205413818e-01
1.781384050846099854e-01
-8.209435641765594482e-02
1.112771853804588318e-01
-1.908476836979389191e-02
7.220242917537689209e-02
6.944031268358230591e-02
-2.492425739765167236e-01
7.852598093450069427e-03
7.969474792480468750e-02
1.656765937805175781e-01
-1.288002878427505493e-01
2.727670827880501747e-03
-1.957276314496994019e-01
1.484844535589218140e-01
-1.390888988971710205e-01
1.384590566158294678e-01
1.065126731991767883e-01
2.730979770421981812e-02
3.695009648799896240e-01
1.479736417531967163e-01
-1.324690729379653931e-01
1.766550242900848389e-01
-4.089074581861495972e-02
2.018384449183940887e-02
-8.432169258594512939e-02
2.784440815448760986e-01
-4.101414233446121216e-02
1.723213493824005127e-01
4.380100965499877930e-02
4.113038629293441772e-02
1.323288977146148682e-01
-9.283987432718276978e-02
1.421703025698661804e-02
-2.467646263539791107e-02
5.224345996975898743e-02
1.269044876098632812e-01
-1.460062414407730103e-01
-1.195847019553184509e-01
-1.264466494321823120e-01
-1.010598018765449524e-01
-1.356729418039321899e-01
6.623929738998413086e-02
2.426954545080661774e-02
9.651865810155868530e-02
1.237197890877723694e-01
9.056990966200828552e-03
-3.652166202664375305e-02
-1.260041147470474243e-01
1.016024406999349594e-02
1.824911311268806458e-02
3.167298808693885803e-02
2.451536655426025391e-01
1.369924843311309814e-01
-9.148974902927875519e-03
-2.775963246822357178e-01
-8.117341250181198120e-02
1.527046859264373779e-01
1.440808624029159546e-01
-6.671217083930969238e-02
1.491023227572441101e-02
-1.319728344678878784e-01
2.587476968765258789e-01
4.666961729526519775e-02
3.714721500873565674e-01
1.295543164014816284e-01
1.810102164745330811e-01
5.315705016255378723e-02
-8.711002022027969360e-02
1.279883682727813721e-01
-4.283234104514122009e-02
9.795068763196468353e-03
-2.733393907546997070e-01
-1.996159106492996216e-01
-1.648880839347839355e-01
3.979235887527465820e-02
6.130189821124076843e-02
-2.302522361278533936e-01
-4.157811403274536133e-01
-7.154510356485843658e-03
8.205485530197620392e-03
-2.707056999206542969e-01
-2.160711735486984253e-01
1.160727217793464661e-01
3.620941936969757080e-02
2.505942881107330322e-01
3.522320836782455444e-02
-7.864000648260116577e-02
-1.412122994661331177e-01
-1.059240177273750305e-01
5.766632407903671265e-02
-1.312997490167617798e-01
-2.618553042411804199e-01
-1.310279667377471924e-01
-2.660080790519714355e-01
-1.327869296073913574e-01
-4.902988672256469727e-01
-1.134308949112892151e-01
-8.657047897577285767e-02
-1.226075142621994019e-01
1.328354328870773315e-01
1.386558562517166138e-01
-3.233814984560012817e-02
-3.964116051793098450e-02
1.404078155755996704e-01
7.215000689029693604e-02
-2.835369855165481567e-02
-3.766001388430595398e-02
-4.878077283501625061e-02
5.350272357463836670e-02
-1.605168879032135010e-01
-2.806434780359268188e-02
-2.192640602588653564e-01
-3.806368708610534668e-01
-6.822229921817779541e-02
-4.884499311447143555e-02
9.522566199302673340e-02
6.313818693161010742e-02
-3.646558849141001701e-03
4.217425361275672913e-02
-3.897353261709213257e-02
-3.149061799049377441e-01
-1.233698893338441849e-02
1.764071434736251831e-01
1.634023040533065796e-01
-1.850696355104446411e-01
1.091219782829284668e-01
-1.782597154378890991e-01
-1.628524810075759888e-01
1.410031020641326904e-01
-3.227702975273132324e-01
1.351448427885770798e-02
9.863714873790740967e-02
1.031099855899810791e-01
-1.640368849039077759e-01
-8.073748648166656494e-02
2.144585251808166504e-01
-4.688922464847564697e-01
3.756676614284515381e-02
1.366126835346221924e-01
-4.532494768500328064e-02
-2.891964316368103027e-01
2.864917814731597900e-01
-2.288067489862442017e-01
-9.147025644779205322e-02
-2.527475953102111816e-01
1.687566488981246948e-01
2.306918799877166748e-02
1.238809823989868164e-01
3.012303821742534637e-02
-2.432846128940582275e-01
3.314340487122535706e-02
7.158842682838439941e-02
-7.291726768016815186e-02
-9.607876092195510864e-02
-1.985010057687759399e-01
-7.555611431598663330e-03
-2.739852964878082275e-01
-1.215350348502397537e-02
7.930233329534530640e-02
6.534379720687866211e-02
9.170137345790863037e-02
1.857267469167709351e-01
2.732716798782348633e-01
1.711486577987670898e-01
-1.613815277814865112e-01
1.271263659000396729e-01
6.042090803384780884e-02
-1.856761425733566284e-02
-3.558348715305328369e-01
-1.187065336853265762e-02
-7.065844692988321185e-05
3.045006189495325089e-03
7.444754987955093384e-02
-2.510896511375904083e-02
1.144444104284048080e-02
-6.316201388835906982e-02
2.016210705041885376e-01
3.540624678134918213e-02
1.134578585624694824e-01
9.644123911857604980e-02
9.741419553756713867e-02
3.472770005464553833e-02
-2.139496207237243652e-01
-2.811791002750396729e-01
-1.155150160193443298e-01
-7.125594466924667358e-02
9.753277897834777832e-02
-2.894836366176605225e-01
-3.143058717250823975e-02
7.636682130396366119e-03
5.409681424498558044e-02
2.855966053903102875e-02
-1.748460680246353149e-01
6.237095966935157776e-02
-5.169643089175224304e-02
-3.838203549385070801e-01
7.101438194513320923e-02
3.893695175647735596e-01
-1.292318701744079590e-01
-1.518414616584777832e-01
-2.219689339399337769e-01
1.083403676748275757e-01
2.142282761633396149e-02
-7.388419657945632935e-02
-8.792408555746078491e-02
6.817583739757537842e-02
4.408572614192962646e-02
-1.617823168635368347e-02
2.588812410831451416e-01
-4.389849677681922913e-02
4.165044054388999939e-02
8.194037526845932007e-02
1.188668143004179001e-02
-3.282903879880905151e-02
-2.217943035066127777e-02
2.609765343368053436e-02
8.667852729558944702e-02
-7.892099767923355103e-02
-1.123957410454750061e-01
-2.613526880741119385e-01
1.135883033275604248e-01
-5.960519984364509583e-02
-1.612230390310287476e-01
4.127961397171020508e-02
1.687427163124084473e-01
1.029536277055740356e-01
-1.784529350697994232e-02
-4.675875231623649597e-02
-3.154355287551879883e-01
2.583066523075103760e-01
9.986825287342071533e-02
-7.527557760477066040e-02
9.430117905139923096e-02
7.293909788131713867e-02
2.780734002590179443e-01
-2.697166204452514648e-01
-1.434281170368194580e-01
-7.500836253166198730e-02
3.486377000808715820e-01
2.804790064692497253e-02
-2.975826561450958252e-01
3.460616767406463623e-01
3.140352666378021240e-01
-2.468544542789459229e-01
-2.465675175189971924e-01
1.689572930335998535e-01
-2.282391488552093506e-01
-3.114466965198516846e-01
2.096630185842514038e-01
-7.776346802711486816e-02
2.059223353862762451e-01
-9.240451455116271973e-02
-2.455466538667678833e-01
1.880907118320465088e-01
2.591804265975952148e-01
-4.248657450079917908e-02
-1.664360612630844116e-01
4.661022499203681946e-02
-1.093246638774871826e-01
1.737405657768249512e-01
2.121074795722961426e-01
8.720811456441879272e-02
1.236499994993209839e-01
-3.181122243404388428e-02
9.342335909605026245e-02
-2.325733602046966553e-01
1.610401570796966553e-01
1.754209995269775391e-01
1.297617107629776001e-01
7.043964415788650513e-02
1.125370189547538757e-01
-4.331048205494880676e-02
-9.529886394739151001e-02
1.808764636516571045e-01
-1.792335659265518188e-01
-1.084560379385948181e-01
6.506109237670898438e-02
1.041174232959747314e-01
-1.491215638816356659e-02
4.181083664298057556e-02
8.732184022665023804e-02
-1.493337899446487427e-01
8.385905623435974121e-02
-1.661988794803619385e-01
9.644334018230438232e-02
-6.591320782899856567e-02
4.258145391941070557e-02
-5.735854506492614746e-01
-5.299353599548339844e-01
-6.462202966213226318e-02
1.985353603959083557e-02
-3.076202049851417542e-02
-1.147325243800878525e-02
-1.590494364500045776e-01
7.016585767269134521e-02
-5.764552578330039978e-02
-3.799718022346496582e-01
1.604763045907020569e-02
-1.601960882544517517e-02
4.180685058236122131e-02
-6.615606695413589478e-02
2.354086190462112427e-01
8.874317258596420288e-02
4.745800420641899109e-02
-2.025634050369262695e-01
3.838195651769638062e-02
1.725647300481796265e-01
1.027165353298187256e-01
-5.661738663911819458e-02
-6.921783089637756348e-02
1.264304369688034058e-01
8.646223694086074829e-02
-5.357603356242179871e-02
8.661444485187530518e-02
2.427122443914413452e-01
2.222948670387268066e-01
1.606196016073226929e-01
5.899508483707904816e-03
3.112986683845520020e-02
-7.929868996143341064e-03
-6.192811951041221619e-02
-2.857273221015930176e-01
-3.827900439500808716e-02
3.394164443016052246e-01
-2.453061342239379883e-01
1.044211983680725098e-01
1.033897139132022858e-02
7.768569886684417725e-02
-7.007235288619995117e-02
2.293140254914760590e-02
-1.161487028002738953e-02
-3.725205315276980400e-03
2.029332071542739868e-01
3.865147829055786133e-01
-2.480465546250343323e-02
-2.939520180225372314e-01
5.159723162651062012e-01
-8.921348303556442261e-02
-1.416148692369461060e-01
-4.432921484112739563e-02
1.315489560365676880e-01
-1.186038181185722351e-01
3.702192008495330811e-01
-2.677994966506958008e-01
1.010972931981086731e-01
-7.714401930570602417e-03
6.570129841566085815e-02
5.491815879940986633e-02
5.829006433486938477e-02
-2.624382078647613525e-02
-1.178188174962997437e-01
2.060580998659133911e-01
6.658502668142318726e-02
1.752488464117050171e-01
1.616254448890686035e-02
-8.858395367860794067e-02
-1.386089920997619629e-01
8.774135261774063110e-02
4.560003429651260376e-02
-1.355677545070648193e-01
-1.904907375574111938e-01
-1.196071784943342209e-02
1.130781844258308411e-01
-3.958753049373626709e-01
7.100094854831695557e-02
1.315082162618637085e-01
-1.568708270788192749e-01
-7.667130231857299805e-02
7.362739741802215576e-02
4.088560864329338074e-02
4.384218528866767883e-02
8.237712085247039795e-02
-2.410765290260314941e-01
-1.567052453756332397e-01
2.040957808494567871e-01
7.547678798437118530e-02
5.518623068928718567e-02
-4.323990046977996826e-01
1.287593971937894821e-02
-9.433811902999877930e-02
-1.473871022462844849e-01
-4.823841154575347900e-02
-1.273044198751449585e-01
-3.084588050842285156e-01
1.834679841995239258e-01
8.877272158861160278e-02
-3.409689068794250488e-01
1.669242680072784424e-01
2.142790555953979492e-01
2.210231274366378784e-01
6.405357271432876587e-02
4.907689616084098816e-02
3.581387922167778015e-02
-2.534862235188484192e-02
-4.627705737948417664e-02
1.756301615387201309e-03
-4.738446697592735291e-02
-6.742961704730987549e-02
-2.980161905288696289e-01
6.964866071939468384e-02
-5.519257113337516785e-02
2.401098906993865967e-01
-2.299175113439559937e-01
8.162683993577957153e-02
2.113187909126281738e-01
-1.339566856622695923e-01
-2.761527001857757568e-01
-7.705017924308776855e-02
-2.244158834218978882e-02
4.353481903672218323e-02
6.858468055725097656e-02
-1.163955181837081909e-01
1.631948202848434448e-01
