1.056191921234130859e-01
5.507677793502807617e-03
-6.599625945091247559e-02
-7.460018247365951538e-02
1.274456679821014404e-01
-3.786716982722282410e-02
2.491313591599464417e-02
-3.905369341373443604e-02
1.264338791370391846e-01
-2.787751145660877228e-02
5.844796821475028992e-02
-4.672862589359283447e-03
-2.989670028910040855e-04
4.537382721900939941e-02
3.478487581014633179e-02
1.793642528355121613e-02
-7.891744375228881836e-02
3.123245574533939362e-02
1.514708739705383778e-03
-8.671312034130096436e-02
1.476646028459072113e-02
1.998034305870532990e-02
-1.410096767358481884e-03
-3.029075264930725098e-02
-1.285406667739152908e-02
-1.329354383051395416e-02
-2.448050864040851593e-02
-3.340621292591094971e-02
-6.117021292448043823e-02
-9.567099809646606445e-02
-4.413750022649765015e-02
7.226867228746414185e-02
1.968618482351303101e-02
5.107216536998748779e-02
1.631750143133103848e-03
1.559095736593008041e-02
-4.232199117541313171e-02
7.417679764330387115e-03
-1.934368535876274109e-02
-1.629569940268993378e-02
-5.828630551695823669e-02
-4.738875851035118103e-02
-1.989049464464187622e-02
4.910166934132575989e-02
3.047172911465167999e-02
-4.810260981321334839e-02
-1.277800276875495911e-02
5.077742785215377808e-02
7.204353809356689453e-02
-9.838479571044445038e-03
1.055249106138944626e-02
-3.912807628512382507e-02
-4.458834417164325714e-03
3.035473451018333435e-02
-5.391271412372589111e-02
3.351955115795135498e-02
-5.595032498240470886e-02
-4.959526658058166504e-02
3.643114864826202393e-02
-2.541782334446907043e-02
-5.208456888794898987e-02
-2.535795979201793671e-02
9.805431962013244629e-02
-3.329545259475708008e-02
-7.282365858554840088e-02
-8.578299731016159058e-02
1.849599368870258331e-02
-8.835409767925739288e-03
6.015202775597572327e-02
-4.714090377092361450e-03
1.115140225738286972e-02
6.572892516851425171e-02
4.724472388625144958e-02
4.275613650679588318e-02
2.364702755585312843e-03
-1.108885649591684341e-02
5.839389748871326447e-03
3.807670436799526215e-03
4.443833976984024048e-02
-1.235193945467472076e-02
4.402333498001098633e-02
5.050639808177947998e-02
6.211318075656890869e-02
-1.601395942270755768e-02
-4.847500100731849670e-02
4.646495729684829712e-02
5.765162408351898193e-02
-3.515069931745529175e-02
-5.906314775347709656e-02
-2.328962646424770355e-02
-5.059805512428283691e-02
-1.362481992691755295e-02
-5.862054973840713501e-02
-5.643576011061668396e-02
4.963477700948715210e-02
7.974861562252044678e-02
-3.225658833980560303e-02
-6.329112499952316284e-02
-6.163584068417549133e-02
4.570556804537773132e-02
1.004914101213216782e-02
-5.806932970881462097e-02
4.977146163582801819e-02
-1.783271320164203644e-02
-1.305812597274780273e-02
-9.172300808131694794e-03
-3.726749867200851440e-02
-5.786429345607757568e-02
6.280477344989776611e-02
-6.074913218617439270e-02
-2.806420996785163879e-02
8.536769449710845947e-02
-1.691253855824470520e-02
-5.080209299921989441e-02
3.763562440872192383e-02
5.473581328988075256e-02
-1.552310399711132050e-02
6.361542642116546631e-02
-2.102398313581943512e-02
-7.694759964942932129e-02
1.387722231447696686e-02
5.962999537587165833e-02
-6.369787454605102539e-02
-7.294402457773685455e-03
4.372303932905197144e-02
-5.723800510168075562e-02
4.099727049469947815e-02
2.773484960198402405e-02
-4.735613241791725159e-02
-4.563892632722854614e-02
-1.285558473318815231e-02
-3.053030185401439667e-02
5.611136555671691895e-03
5.162797495722770691e-02
-3.709661215543746948e-02
-1.023737266659736633e-01
8.382398635149002075e-02
-4.469107463955879211e-02
3.136784955859184265e-02
-1.422880962491035461e-02
6.963456422090530396e-02
2.181927673518657684e-02
4.118438344448804855e-03
1.759416889399290085e-03
-5.577986687421798706e-02
5.787340179085731506e-02
-3.948428854346275330e-02
-7.196145504713058472e-02
-4.076202958822250366e-02
-3.146098926663398743e-02
-2.379592135548591614e-02
1.630606595426797867e-03
-4.034752026200294495e-02
-1.357738301157951355e-02
1.795164123177528381e-02
6.324253976345062256e-02
2.029226347804069519e-02
-2.931932732462882996e-02
1.474956329911947250e-02
1.563421450555324554e-02
-3.450015187263488770e-02
6.038670614361763000e-02
8.395556360483169556e-03
2.653086557984352112e-02
-5.955097265541553497e-03
-5.841898545622825623e-02
-4.082480445504188538e-02
-5.160182714462280273e-02
-1.424485817551612854e-02
2.056898362934589386e-02
-4.793203249573707581e-02
-2.088285423815250397e-02
3.878786694258451462e-03
4.044693894684314728e-03
3.233574703335762024e-02
3.330357745289802551e-02
3.300837427377700806e-02
-6.016630306839942932e-02
-6.708521395921707153e-03
-7.387448102235794067e-02
-8.859816938638687134e-03
-3.781727328896522522e-02
8.316514641046524048e-02
-7.833807170391082764e-02
7.899721711874008179e-02
-5.054003000259399414e-02
5.595834180712699890e-02
-6.545867025852203369e-02
1.152051687240600586e-01
-2.463132375851273537e-03
-7.308345288038253784e-02
2.626067027449607849e-02
4.177489504218101501e-02
1.262680906802415848e-02
-6.104008108377456665e-02
5.216628685593605042e-02
-1.241727359592914581e-02
5.315301194787025452e-02
4.353848099708557129e-02
2.449642121791839600e-02
-4.792044684290885925e-02
-5.465445667505264282e-02
6.147055327892303467e-02
-3.644311800599098206e-02
4.142922908067703247e-02
-5.481965094804763794e-02
4.564057663083076477e-02
1.546744257211685181e-02
-6.735164206475019455e-03
4.108984395861625671e-02
-1.152749452739953995e-02
1.431160140782594681e-02
-2.342625148594379425e-02
4.295831173658370972e-02
5.383526533842086792e-02
5.830915644764900208e-02
-3.489676490426063538e-02
-5.654674768447875977e-02
1.521894708275794983e-02
4.888722300529479980e-02
-5.030139535665512085e-02
1.791114732623100281e-02
4.028965160250663757e-02
5.193736031651496887e-02
-2.786156907677650452e-02
2.607564814388751984e-02
5.714851245284080505e-02
-7.156045734882354736e-02
7.106819748878479004e-02
-1.606172136962413788e-02
4.431909415870904922e-03
1.093394681811332703e-02
6.916515529155731201e-02
-2.561546675860881805e-02
2.335382392629981041e-03
5.990516766905784607e-02
8.737504482269287109e-03
3.655746951699256897e-02
5.117235239595174789e-03
5.328318476676940918e-02
3.636614233255386353e-02
-5.657460540533065796e-02
4.665800929069519043e-02
-4.717482626438140869e-02
-5.341699346899986267e-02
2.249059826135635376e-02
6.576085835695266724e-02
1.462268922477960587e-02
5.003443732857704163e-02
8.485301397740840912e-03
-3.390567004680633545e-02
2.320807427167892456e-02
9.167652577161788940e-02
1.503042294643819332e-03
6.603672169148921967e-03
-8.971584588289260864e-02
8.102112263441085815e-02
-4.310495778918266296e-02
-3.554228693246841431e-02
1.063171103596687317e-01
-1.953190565109252930e-02
9.086580015718936920e-03
1.774083706550300121e-03
5.804202705621719360e-02
-3.490235283970832825e-02
-7.135813683271408081e-02
-6.110176444053649902e-02
-2.318192087113857269e-02
9.579306468367576599e-03
-3.995029255747795105e-02
-1.049646958708763123e-01
-1.680515110492706299e-01
2.601542277261614799e-03
2.727451175451278687e-02
-5.931862071156501770e-02
7.449996471405029297e-02
2.709493413567543030e-02
2.491394802927970886e-02
-3.244267078116536140e-03
5.738877505064010620e-02
-2.877507172524929047e-02
-1.663394458591938019e-02
6.385597400367259979e-03
7.099365815520286560e-03
1.256561465561389923e-02
9.127257764339447021e-02
-5.851646885275840759e-02
-1.335078924894332886e-01
2.804668992757797241e-02
-1.516634039580821991e-02
4.118226841092109680e-02
1.573566943407058716e-01
-1.019099354743957520e-02
-6.965152174234390259e-02
-1.473446842283010483e-02
-6.388226896524429321e-02
2.996196597814559937e-02
-1.809044368565082550e-02
-1.194789307191967964e-03
4.980137199163436890e-02
5.633891001343727112e-02
1.962611265480518341e-02
6.761166453361511230e-02
6.686704605817794800e-02
-8.791246451437473297e-03
-9.387560188770294189e-02
4.695059359073638916e-02
4.344164952635765076e-02
-2.689175540581345558e-03
-4.574686661362648010e-02
4.434286803007125854e-02
8.821206539869308472e-02
-6.886264774948358536e-03
-2.827326394617557526e-02
1.748793758451938629e-03
8.545943349599838257e-02
1.909580528736114502e-01
-9.348534047603607178e-02
-1.262740939855575562e-01
3.966039046645164490e-02
-2.434290573000907898e-02
4.810321703553199768e-02
9.641002863645553589e-03
-2.043011831119656563e-03
3.251942619681358337e-02
-5.822084099054336548e-02
-2.787493169307708740e-02
-4.547227546572685242e-02
5.976460408419370651e-03
3.785672783851623535e-02
6.273685395717620850e-02
-7.493563741445541382e-02
-9.462729096412658691e-03
2.309726178646087646e-02
4.619067162275314331e-02
8.454081416130065918e-02
-8.721236139535903931e-02
8.617743849754333496e-03
7.966424524784088135e-02
-6.062079966068267822e-02
-7.147352397441864014e-02
-8.944189758040010929e-04
-2.889465168118476868e-02
-8.172418177127838135e-02
-4.163442179560661316e-02
6.227407604455947876e-02
6.268289685249328613e-02
-1.217095274478197098e-02
9.835231304168701172e-02
-1.809685677289962769e-02
1.059705112129449844e-02
6.593655049800872803e-02
-4.118871688842773438e-02
-8.586468547582626343e-02
5.002164095640182495e-02
-4.634508118033409119e-02
4.755506757646799088e-03
5.977817997336387634e-02
9.198598563671112061e-03
2.611872553825378418e-02
7.732852548360824585e-02
6.564785540103912354e-02
4.283845052123069763e-02
3.079729340970516205e-02
4.918288812041282654e-02
1.135658845305442810e-02
-3.513265401124954224e-03
2.630043961107730865e-02
1.518309116363525391e-02
-6.170477718114852905e-02
2.226246520876884460e-02
-8.745480328798294067e-02
-8.924616267904639244e-04
5.280065163969993591e-02
-3.035161877050995827e-03
-4.826516844332218170e-03
6.731244921684265137e-02
-1.437394972890615463e-02
6.415132433176040649e-02
-3.884284198284149170e-02
3.496155375614762306e-03
-1.995198428630828857e-02
-6.605145055800676346e-03
1.779941841959953308e-02
4.545012023299932480e-03
1.971571333706378937e-02
1.562760770320892334e-02
-2.704372256994247437e-02
8.868961781263351440e-02
2.148483181372284889e-04
-7.980350404977798462e-02
5.848134867846965790e-03
3.632612898945808411e-02
-4.408248513936996460e-02
-5.437432974576950073e-02
5.357097089290618896e-02
1.762132719159126282e-02
9.500055573880672455e-03
5.310690402984619141e-02
-2.669963287189602852e-03
-4.420249164104461670e-02
7.917917519807815552e-02
-2.239863388240337372e-02
-6.543033570051193237e-02
-2.627398632466793060e-02
-6.621262431144714355e-02
-4.322738200426101685e-02
2.531689591705799103e-02
5.079190433025360107e-02
-2.920475788414478302e-02
-3.671131329610943794e-03
2.347235195338726044e-02
-1.106405630707740784e-02
3.282428532838821411e-02
2.594124712049961090e-02
-3.794350102543830872e-02
-7.093944400548934937e-02
2.601136267185211182e-02
-3.945384547114372253e-02
-1.495036110281944275e-02
-1.156729180365800858e-02
-6.131149828433990479e-02
6.469318643212318420e-03
4.486146196722984314e-02
-2.073967643082141876e-02
-2.454129979014396667e-02
1.097570806741714478e-01
2.516379021108150482e-02
7.382477074861526489e-02
3.243783488869667053e-02
8.762288838624954224e-02
7.921191304922103882e-02
3.902728110551834106e-02
2.136365137994289398e-02
-3.152966499328613281e-02
-3.220128640532493591e-02
-2.231532149016857147e-02
-6.309179961681365967e-02
-7.569170743227005005e-02
1.460874080657958984e-02
3.396521136164665222e-02
2.878091670572757721e-02
2.520130015909671783e-02
-5.265382677316665649e-02
-9.594836272299289703e-03
7.300634682178497314e-02
-2.568400464951992035e-02
-1.023939996957778931e-01
-6.300188601016998291e-02
-8.672487456351518631e-04
-3.163972124457359314e-02
3.692425787448883057e-02
-2.098933607339859009e-02
-3.582973778247833252e-02
5.119282752275466919e-02
1.559640001505613327e-02
-2.312225662171840668e-02
5.235124379396438599e-02
2.830272167921066284e-02
1.984382234513759613e-02
5.251382291316986084e-02
-6.267263088375329971e-03
2.278462238609790802e-02
6.047296151518821716e-02
4.256207868456840515e-02
3.537558764219284058e-02
-3.003256209194660187e-02
3.042558208107948303e-02
4.300927370786666870e-02
9.733175858855247498e-03
-3.273816034197807312e-02
-3.590529412031173706e-02
5.031890794634819031e-02
2.344720810651779175e-02
-5.109727382659912109e-02
5.973872169852256775e-02
-3.286609426140785217e-02
-4.928804561495780945e-02
4.291350953280925751e-03
4.948545247316360474e-02
2.821814827620983124e-02
-2.634465880692005157e-02
-8.011797815561294556e-02
-2.014757879078388214e-02
-2.976692980155348778e-03
-4.515962675213813782e-02
-2.744533121585845947e-02
-1.056992635130882263e-02
-2.763229981064796448e-02
-5.842440947890281677e-02
-1.190339308232069016e-02
-1.296056061983108521e-02
3.548941016197204590e-02
8.449425222352147102e-04
-7.008279860019683838e-02
7.924812287092208862e-02
2.754088491201400757e-02
-3.470328822731971741e-02
2.202342031523585320e-03
2.746986597776412964e-02
5.269681662321090698e-02
1.632162742316722870e-02
-9.445833414793014526e-02
-1.901507191359996796e-02
4.868331365287303925e-03
-3.457864373922348022e-02
-3.654697537422180176e-02
7.043490558862686157e-02
6.043588370084762573e-02
-4.106298089027404785e-02
-4.025840759277343750e-02
7.433369010686874390e-02
-9.667615592479705811e-02
-6.328083574771881104e-02
5.910372361540794373e-02
-2.528888173401355743e-02
-6.068186461925506592e-02
-2.618193812668323517e-02
5.889104679226875305e-02
-3.623987734317779541e-02
8.650840073823928833e-02
5.409824475646018982e-02
1.089965626597404480e-01
5.320243164896965027e-02
2.298435941338539124e-02
5.490992963314056396e-02
1.435873061418533325e-01
6.696901470422744751e-02
7.939863950014114380e-03
1.509796455502510071e-02
-4.584523290395736694e-02
1.865973137319087982e-02
-4.640754684805870056e-02
3.180418396368622780e-03
-4.288608953356742859e-02
-2.459018118679523468e-02
2.167387120425701141e-02
9.972600266337394714e-03
2.770179882645606995e-02
2.830011025071144104e-02
4.857455939054489136e-02
-6.160442251712083817e-03
4.988107457756996155e-02
4.710588976740837097e-02
-4.024351760745048523e-02
-3.684406727552413940e-02
5.498914513736963272e-03
-5.262985825538635254e-02
-3.921400289982557297e-03
2.617438323795795441e-02
7.013730704784393311e-02
4.500587657094001770e-02
2.699200622737407684e-02
5.986351519823074341e-02
1.709251292049884796e-02
6.109059974551200867e-02
-5.110498890280723572e-02
-2.279059030115604401e-03
6.475386209785938263e-03
-1.223340630531311035e-02
2.246130444109439850e-02
-4.369003325700759888e-02
-8.710563182830810547e-02
6.037347391247749329e-02
-3.855617484077811241e-03
2.672582864761352539e-02
-5.714064091444015503e-02
2.398991212248802185e-02
-8.199883624911308289e-03
3.477486222982406616e-02
-4.256059473846107721e-04
4.087979719042778015e-02
-9.785154461860656738e-02
-4.993094876408576965e-02
-5.860116705298423767e-02
3.850429202429950237e-04
-3.440483286976814270e-02
-2.287351712584495544e-02
2.151483669877052307e-02
-1.494658552110195160e-02
4.762971028685569763e-02
-6.319652497768402100e-02
-1.603666506707668304e-02
3.309425339102745056e-02
-8.684814907610416412e-03
-4.283100739121437073e-02
3.790881484746932983e-02
-2.804224193096160889e-02
2.505570463836193085e-02
-1.055576000362634659e-02
3.521375730633735657e-02
-4.377171024680137634e-02
2.846431732177734375e-02
8.374286442995071411e-02
2.332157827913761139e-02
4.806884750723838806e-02
-9.493950754404067993e-03
7.069518417119979858e-02
2.443634159862995148e-02
7.195875793695449829e-02
-7.457117899321019650e-04
6.419147551059722900e-02
1.757036894559860229e-02
3.645751252770423889e-02
-1.038396582007408142e-01
-2.292406186461448669e-02
-7.307657599449157715e-02
-7.680376619100570679e-02
4.370258748531341553e-02
3.614400327205657959e-02
-8.896515518426895142e-02
3.373469412326812744e-02
1.378209516406059265e-02
4.468104988336563110e-02
-8.545357733964920044e-02
5.089496076107025146e-02
-3.327747806906700134e-03
-1.163985207676887512e-01
-4.621082916855812073e-02
5.985499545931816101e-02
-2.405640482902526855e-02
9.001817554235458374e-03
-7.293111085891723633e-02
2.166356891393661499e-02
7.464796304702758789e-02
1.033390592783689499e-02
1.994987949728965759e-02
-5.599183961749076843e-02
1.840356551110744476e-02
-2.460375614464282990e-02
-1.088217645883560181e-02
1.300401054322719574e-02
-4.793140664696693420e-02
-5.604445934295654297e-02
1.136540155857801437e-02
7.569016516208648682e-02
-3.794108703732490540e-02
-1.193878706544637680e-02
4.189600050449371338e-02
-4.396040365099906921e-02
5.684642819687724113e-04
4.527802020311355591e-02
-1.075039058923721313e-01
-8.300857245922088623e-02
2.441588416695594788e-02
5.567531287670135498e-02
1.944878697395324707e-02
-5.569776147603988647e-02
-2.701041102409362793e-02
-5.483989790081977844e-02
8.943466097116470337e-02
6.650430709123611450e-02
-1.446080580353736877e-02
1.882978715002536774e-02
2.532451041042804718e-02
-2.835026569664478302e-02
-9.554265998303890228e-03
-4.495930299162864685e-02
-9.917410463094711304e-02
3.676988556981086731e-02
3.589792177081108093e-03
5.729598179459571838e-02
8.611388504505157471e-03
2.678610570728778839e-02
1.081745699048042297e-02
1.058543920516967773e-01
-2.177932299673557281e-02
7.051386684179306030e-02
-1.398962736129760742e-02
-1.693050377070903778e-02
-5.322739481925964355e-02
4.501453787088394165e-02
-5.584122240543365479e-02
4.620951041579246521e-02
3.904798254370689392e-02
4.842785000801086426e-02
-6.347505003213882446e-02
7.458079606294631958e-02
-3.983208909630775452e-02
-2.488797530531883240e-02
4.780002683401107788e-02
-9.183993563055992126e-03
-3.574247285723686218e-02
4.390984401106834412e-02
-1.605319418013095856e-02
-3.248213231563568115e-02
3.180425986647605896e-02
5.789565294981002808e-02
-6.070820242166519165e-02
-2.109245955944061279e-02
-1.133721321821212769e-01
-8.387628942728042603e-02
-9.350810945034027100e-02
3.028664924204349518e-02
2.461325563490390778e-02
-6.687492877244949341e-02
-5.826314538717269897e-02
6.607112288475036621e-02
-5.407536868005990982e-03
-6.019255146384239197e-02
-5.223027989268302917e-02
7.421954721212387085e-02
5.251293629407882690e-02
6.612792611122131348e-02
3.410725668072700500e-02
-1.247619278728961945e-02
7.531423121690750122e-03
4.482371360063552856e-02
-1.489371643401682377e-03
4.102475196123123169e-02
4.082427546381950378e-02
-5.941984709352254868e-03
5.107547715306282043e-02
4.377343878149986267e-02
-1.728791161440312862e-03
1.661165617406368256e-02
4.815671220421791077e-02
2.039297483861446381e-02
2.769219689071178436e-02
5.712018534541130066e-02
-5.635121092200279236e-02
6.151101365685462952e-02
2.273187600076198578e-02
6.164152547717094421e-02
2.369620464742183685e-02
-3.474806994199752808e-02
-2.814439125359058380e-02
-4.384811036288738251e-03
3.910988569259643555e-02
4.274210706353187561e-02
-5.874795839190483093e-02
-5.504146218299865723e-02
-5.885324999690055847e-02
-4.465378448367118835e-02
3.789831325411796570e-02
2.881610766053199768e-03
1.988899707794189453e-02
3.822689503431320190e-02
6.190755218267440796e-02
6.124050915241241455e-02
-1.735124550759792328e-02
3.778061643242835999e-02
3.763452917337417603e-02
-2.899639122188091278e-02
2.640036493539810181e-02
3.736869245767593384e-02
2.084088977426290512e-03
-5.727530643343925476e-02
-2.121464163064956665e-02
6.990253925323486328e-02
-1.592796854674816132e-02
-4.695329070091247559e-02
-1.208412367850542068e-02
-2.404738590121269226e-02
-5.698958411812782288e-03
3.277738019824028015e-02
-2.647022157907485962e-02
1.873299665749073029e-02
-1.394550967961549759e-02
5.095754563808441162e-02
-3.804571554064750671e-02
2.735804952681064606e-02
-2.081265673041343689e-02
3.679236769676208496e-02
1.079173665493726730e-02
-5.053319782018661499e-02
4.389257170259952545e-03
-1.654172316193580627e-02
1.058410573750734329e-02
5.031147971749305725e-02
-2.778451330959796906e-02
-3.050885163247585297e-02
3.949580714106559753e-02
4.065446928143501282e-02
8.605606853961944580e-03
-3.139873966574668884e-02
-1.530852634459733963e-02
-5.793709307909011841e-03
-5.726955831050872803e-03
-2.588178776204586029e-02
-4.701691120862960815e-02
-4.738567396998405457e-02
-2.508442103862762451e-02
-3.278143703937530518e-02
-1.968884095549583435e-02
3.801861777901649475e-03
-2.087341621518135071e-03
1.125991344451904297e-02
2.710261754691600800e-02
-3.509501367807388306e-02
-5.939902365207672119e-02
5.848914384841918945e-03
-9.767101146280765533e-03
2.974457107484340668e-02
3.023518947884440422e-03
-6.460445374250411987e-02
-4.417510703206062317e-02
4.410349205136299133e-02
4.518118500709533691e-02
-3.291018656454980373e-04
1.263262331485748291e-02
1.885565370321273804e-02
-4.706020653247833252e-02
-6.054948270320892334e-02
2.757937647402286530e-02
-6.177297234535217285e-02
-4.433018341660499573e-02
3.547532856464385986e-02
2.680300362408161163e-02
2.794010192155838013e-02
-5.771305412054061890e-03
-7.275008410215377808e-02
-2.128718420863151550e-02
1.180104259401559830e-02
4.535920917987823486e-02
-1.878905668854713440e-02
6.327814608812332153e-02
-8.267116732895374298e-03
-6.289344280958175659e-02
-2.722412161529064178e-02
-4.798345267772674561e-02
-5.427414551377296448e-02
-2.627323754131793976e-02
-1.940417289733886719e-02
3.772078827023506165e-02
-4.323785006999969482e-02
2.626983076333999634e-02
-1.650862395763397217e-02
-5.380804836750030518e-02
5.092802457511425018e-03
5.552778765559196472e-02
-3.003908134996891022e-02
1.223872788250446320e-02
3.805581852793693542e-02
-6.712996214628219604e-02
-1.069926992058753967e-01
-6.231375411152839661e-02
3.451709076762199402e-02
-5.547294393181800842e-02
-5.385635793209075928e-02
4.806783422827720642e-02
4.532731138169765472e-03
2.435165457427501678e-02
-6.272694468498229980e-02
-6.059853360056877136e-02
-3.954391181468963623e-02
4.386871587485074997e-03
-1.251196861267089844e-02
-4.693777486681938171e-02
-6.988557428121566772e-02
-3.859133645892143250e-02
-1.664785668253898621e-02
1.338678877800703049e-02
3.256309777498245239e-02
-5.389245599508285522e-02
-4.728045314550399780e-03
-3.121935762465000153e-02
-3.935819119215011597e-02
-5.833489447832107544e-02
-4.802522435784339905e-02
3.458637744188308716e-02
1.886182650923728943e-02
3.469813987612724304e-02
-2.294196281582117081e-03
4.551360756158828735e-02
3.374566137790679932e-02
1.229150127619504929e-02
1.014695968478918076e-02
7.725501805543899536e-02
7.246091496199369431e-03
-4.113726317882537842e-02
-5.353351309895515442e-02
4.242937266826629639e-02
5.094948410987854004e-02
-2.368421293795108795e-03
4.876904189586639404e-02
4.583170264959335327e-02
-8.955381810665130615e-03
1.270407810807228088e-02
-5.821364000439643860e-02
2.944709546864032745e-02
-2.718153595924377441e-02
2.566833049058914185e-02
-2.129151113331317902e-02
6.392800062894821167e-02
-1.859499886631965637e-02
4.942553490400314331e-02
-3.903694078326225281e-02
6.606712471693754196e-03
5.437794700264930725e-02
5.271280184388160706e-02
9.217971935868263245e-03
-3.027491644024848938e-02
3.257722407579421997e-02
-4.098434466868638992e-03
3.926182165741920471e-02
1.068140566349029541e-02
-1.871323096565902233e-03
-1.363562885671854019e-03
2.499402686953544617e-02
-5.827232263982295990e-03
-3.025382757186889648e-02
-1.151792518794536591e-02
-2.975613810122013092e-02
-5.972072109580039978e-02
-2.571793459355831146e-02
4.750177264213562012e-02
-5.061882734298706055e-02
6.293282378464937210e-03
-1.944750547409057617e-03
6.846457719802856445e-02
-6.618011742830276489e-02
-4.569356678985059261e-04
3.053210489451885223e-02
-3.521101549267768860e-02
-1.443734765052795410e-02
4.580845683813095093e-02
-3.049797192215919495e-02
-7.404278963804244995e-03
-4.335426166653633118e-02
-1.398106571286916733e-02
-1.760928705334663391e-02
-2.288167923688888550e-02
-1.923329010605812073e-02
6.148521602153778076e-02
4.186404496431350708e-02
-3.481966629624366760e-02
3.685294464230537415e-02
-5.408167466521263123e-02
-5.804573372006416321e-02
-5.990836303681135178e-03
4.373085871338844299e-02
3.169544506818056107e-04
-2.836736291646957397e-02
1.585838757455348969e-02
1.287582330405712128e-02
-1.507095620036125183e-02
9.758641012012958527e-03
-4.924052581191062927e-02
1.680271513760089874e-02
6.726711988449096680e-02
4.966799169778823853e-02
4.020354151725769043e-02
5.251070484519004822e-02
3.827901184558868408e-02
2.920601284131407738e-03
5.148138478398323059e-02
-1.450231671333312988e-02
-3.034910373389720917e-02
2.483155811205506325e-03
-3.592424467206001282e-02
-5.775838717818260193e-02
-4.960466548800468445e-02
7.396380603313446045e-02
-3.474656119942665100e-02
3.730295598506927490e-02
4.769442230463027954e-02
7.516280561685562134e-02
3.262042254209518433e-02
1.487368997186422348e-02
-3.754170238971710205e-02
-2.928007766604423523e-02
-5.563170090317726135e-02
2.391128242015838623e-02
-3.447367623448371887e-02
4.051055759191513062e-02
5.685811117291450500e-02
5.934047326445579529e-02
2.990142069756984711e-02
-1.475891191512346268e-02
1.250835601240396500e-02
7.468762993812561035e-02
-5.978070944547653198e-02
-2.337524667382240295e-02
3.053785301744937897e-02
3.885264508426189423e-03
3.581365197896957397e-02
5.731603130698204041e-02
-2.646994404494762421e-02
5.480069294571876526e-02
-9.285762906074523926e-03
1.054292195476591587e-03
3.494904190301895142e-02
-1.412670221179723740e-02
-5.151930451393127441e-02
1.129178330302238464e-02
-3.269616141915321350e-02
-8.779388153925538063e-04
-5.447508022189140320e-02
-2.138595096766948700e-02
1.712449127808213234e-03
4.588392749428749084e-02
-1.098285149782896042e-02
4.054050520062446594e-02
3.692854940891265869e-02
4.070879518985748291e-02
-9.822766296565532684e-03
-2.692076610401272774e-03
6.406987551599740982e-03
4.122823104262351990e-02
3.277086466550827026e-02
-5.298081412911415100e-02
-5.579247325658798218e-02
-3.969646245241165161e-02
9.403750300407409668e-03
2.264982089400291443e-02
-5.260304547846317291e-03
-5.342008173465728760e-02
5.978563800454139709e-02
1.445308979600667953e-02
4.666761308908462524e-02
4.883297532796859741e-02
-8.484257385134696960e-03
-5.397287011146545410e-02
3.907431662082672119e-02
5.971191078424453735e-02
4.200984537601470947e-02
4.863893613219261169e-02
-4.028238356113433838e-02
-5.079236254096031189e-02
1.796546392142772675e-02
7.858498953282833099e-03
-5.017372965812683105e-02
-4.816104471683502197e-02
-3.731543198227882385e-02
9.856605902314186096e-03
-3.476042300462722778e-02
4.399722814559936523e-02
-2.140583470463752747e-02
4.696938768029212952e-02
3.647082671523094177e-02
1.841402053833007812e-02
-2.013986930251121521e-02
-3.391376882791519165e-02
2.318370342254638672e-02
1.546522136777639389e-02
-3.365946561098098755e-02
-5.949011072516441345e-02
-4.303951561450958252e-02
-6.058361008763313293e-02
-2.681470848619937897e-02
1.952050253748893738e-02
-3.198672086000442505e-02
-2.181654796004295349e-02
2.474797703325748444e-02
3.205081447958946228e-02
-3.160114213824272156e-02
5.877511575818061829e-02
-3.405142202973365784e-02
1.051014568656682968e-02
-3.224769234657287598e-02
5.421773344278335571e-02
3.348455205559730530e-02
1.632490195333957672e-02
-1.260943245142698288e-02
6.656669080257415771e-02
-3.575815260410308838e-02
4.210869222879409790e-02
-8.319826796650886536e-03
-2.506184391677379608e-02
-2.037704177200794220e-02
-2.888011187314987183e-02
3.871768014505505562e-03
4.288864880800247192e-02
-4.586778581142425537e-02
1.396701671183109283e-02
-7.265833672136068344e-03
-1.866274164058268070e-03
-4.839246347546577454e-02
4.089900478720664978e-02
-1.191733125597238541e-02
8.993479423224925995e-03
-4.691977519541978836e-03
6.125764176249504089e-02
-5.875332653522491455e-02
3.366554901003837585e-02
-3.489263355731964111e-02
-3.648841520771384239e-03
5.668517202138900757e-02
-3.463038429617881775e-02
2.772239223122596741e-02
-3.875153511762619019e-02
-2.153239585459232330e-02
-1.352224312722682953e-02
-3.461957350373268127e-02
9.012808091938495636e-03
1.185233891010284424e-02
-4.640751332044601440e-02
4.806403443217277527e-02
-5.051998049020767212e-02
-3.405620902776718140e-02
3.722897917032241821e-02
5.057113710790872574e-03
3.184143453836441040e-02
-4.610237106680870056e-02
1.822153478860855103e-02
5.201972275972366333e-02
-5.614798888564109802e-02
2.025316841900348663e-02
-3.481907397508621216e-02
-3.970850631594657898e-02
-3.110098838806152344e-02
2.950895112007856369e-03
-1.632728055119514465e-02
-2.583584934473037720e-02
-5.577543005347251892e-02
8.478556759655475616e-03
-3.662662208080291748e-02
-4.058746248483657837e-02
2.035444229841232300e-02
1.726897433400154114e-02
1.124444045126438141e-02
2.382752718403935432e-03
-3.487075679004192352e-03
-2.852056175470352173e-02
-4.248582199215888977e-02
-1.461616624146699905e-02
4.416944831609725952e-02
-5.720575526356697083e-02
3.642983734607696533e-02
4.874020349234342575e-03
1.718364469707012177e-02
3.680633008480072021e-02
2.253543585538864136e-03
3.405636921525001526e-02
-3.066947124898433685e-02
-4.192836210131645203e-02
-3.412638604640960693e-02
2.090180292725563049e-02
5.276655033230781555e-02
1.963426172733306885e-02
-1.622142456471920013e-02
3.282282501459121704e-02
1.148842833936214447e-02
3.400218859314918518e-02
1.702076010406017303e-02
1.733765937387943268e-02
-5.440292879939079285e-02
1.112969592213630676e-02
1.634901762008666992e-02
-5.395786836743354797e-02
-1.031916122883558273e-02
-2.167530730366706848e-02
-2.677556127309799194e-02
-1.652783341705799103e-02
1.055874861776828766e-02
1.448039337992668152e-02
-4.057440161705017090e-02
4.448251798748970032e-02
-4.383767396211624146e-02
5.743528530001640320e-02
4.074013233184814453e-02
-5.991943925619125366e-02
3.314159810543060303e-03
5.992129072546958923e-02
-4.646493121981620789e-03
9.312348440289497375e-03
1.696608401834964752e-02
-3.552117943763732910e-02
1.841854862868785858e-02
7.304128259420394897e-03
5.462899059057235718e-02
-3.277009353041648865e-02
5.977469310164451599e-02
-2.595753781497478485e-02
-5.985104292631149292e-02
-5.651918798685073853e-02
3.292796760797500610e-02
-4.880784824490547180e-02
-4.289238154888153076e-02
4.859227687120437622e-02
3.682112693786621094e-02
-4.335324838757514954e-02
-4.216466099023818970e-02
1.964761316776275635e-02
4.906830936670303345e-02
-4.144961014389991760e-02
1.652142405509948730e-02
-3.173997253179550171e-02
-5.347376689314842224e-02
-5.429457873106002808e-02
-4.898347705602645874e-02
1.918618567287921906e-02
-5.247911438345909119e-02
-4.365209117531776428e-02
-3.222812339663505554e-02
5.941618233919143677e-02
-2.052446827292442322e-02
-1.206732820719480515e-02
-5.325205251574516296e-02
5.193926393985748291e-02
2.047800272703170776e-02
-2.582494355738162994e-02
5.500981118530035019e-03
-3.366461023688316345e-02
-6.579262670129537582e-03
-4.019754007458686829e-02
4.309282451868057251e-02
-3.147475048899650574e-02
-3.617451339960098267e-02
2.010660432279109955e-02
-5.326076596975326538e-02
-1.833191327750682831e-02
-5.600313097238540649e-02
-7.618675474077463150e-03
1.506665535271167755e-02
-4.763642325997352600e-03
-6.099812686443328857e-03
-1.561423111706972122e-02
6.050234287977218628e-02
-1.609836588613688946e-03
5.603105574846267700e-02
3.296347707509994507e-02
4.082309082150459290e-03
4.897266626358032227e-02
-4.937468841671943665e-02
-5.416677333414554596e-03
-2.946470677852630615e-02
2.205092832446098328e-02
4.429427534341812134e-02
2.738428674638271332e-02
3.595845773816108704e-02
-4.217299446463584900e-02
-4.458227008581161499e-02
2.695957198739051819e-02
-2.945489436388015747e-02
-3.080133534967899323e-02
2.388309128582477570e-02
3.233966976404190063e-02
-1.951680518686771393e-02
-1.063580345362424850e-02
1.776600815355777740e-02
4.169430583715438843e-03
-4.255688562989234924e-02
4.919615387916564941e-02
4.959765821695327759e-02
6.490895058959722519e-03
-3.366406261920928955e-02
-2.874660119414329529e-02
-1.902152970433235168e-02
5.661607533693313599e-02
4.439348727464675903e-02
-5.876667797565460205e-02
-3.825765848159790039e-02
-4.515625163912773132e-02
-3.076582960784435272e-02
-4.114478826522827148e-02
-5.552421510219573975e-02
4.062157124280929565e-02
-2.220308124378789216e-05
-5.050389096140861511e-02
-8.342732675373554230e-03
3.310506418347358704e-02
-2.647139132022857666e-02
-5.081076920032501221e-02
3.413021191954612732e-02
7.323286496102809906e-03
1.280340459197759628e-02
-2.923668920993804932e-02
-5.596710368990898132e-02
5.080666765570640564e-02
3.841926809400320053e-03
6.197837367653846741e-02
1.983570633456110954e-03
-4.146112129092216492e-02
3.856503590941429138e-02
4.097813740372657776e-02
-1.969351805746555328e-02
-1.109343115240335464e-02
1.954794861376285553e-02
-4.284014180302619934e-02
5.303989350795745850e-02
5.110994679853320122e-04
-1.478259637951850891e-02
-5.736396089196205139e-02
6.091637536883354187e-02
1.847040280699729919e-02
3.572768718004226685e-02
-4.011981189250946045e-02
4.316373541951179504e-02
1.207691710442304611e-02
5.042043980211019516e-03
4.923975560814142227e-03
-7.434489578008651733e-02
1.474060025066137314e-02
6.377286463975906372e-02
1.070591434836387634e-02
4.111352562904357910e-02
3.690238296985626221e-02
-3.145017474889755249e-02
-2.537001273594796658e-04
-3.310438990592956543e-02
-3.459241986274719238e-02
-2.430725097656250000e-02
4.311935231089591980e-02
5.709855817258358002e-03
-3.310836385935544968e-03
-3.464092314243316650e-02
7.360911369323730469e-02
-1.984321512281894684e-02
2.028713934123516083e-02
-3.068764880299568176e-02
3.523172438144683838e-02
7.997192442417144775e-02
4.121013917028903961e-03
6.611270457506179810e-02
-4.020531848073005676e-02
6.678339093923568726e-02
2.988888509571552277e-02
4.576465487480163574e-02
1.072052028030157089e-02
-7.122988253831863403e-02
5.132340639829635620e-02
-4.236220382153987885e-03
-1.098786853253841400e-02
-6.003993377089500427e-02
6.770709063857793808e-03
6.043584551662206650e-03
-6.644364446401596069e-02
6.162907183170318604e-02
-7.218264788389205933e-02
-5.103199277073144913e-03
3.373118862509727478e-02
9.777470678091049194e-02
-5.917412787675857544e-02
-8.821752853691577911e-03
-3.899186104536056519e-02
8.878329768776893616e-03
3.018360771238803864e-02
2.394215762615203857e-02
5.053219571709632874e-02
8.079500496387481689e-02
5.455388687551021576e-03
3.422140330076217651e-02
4.017408564686775208e-02
1.034829020500183105e-02
-6.600381433963775635e-02
3.126963973045349121e-02
3.804741799831390381e-02
-7.689444348216056824e-03
-6.647250801324844360e-02
7.115284353494644165e-02
-7.158713560784235597e-05
3.027567453682422638e-02
-1.128081581555306911e-03
3.815891919657588005e-03
-4.886060208082199097e-02
7.280331104993820190e-03
2.651377581059932709e-02
4.070980101823806763e-02
1.368665974587202072e-02
-3.053835965692996979e-02
6.074795965105295181e-03
3.149698674678802490e-02
7.701397687196731567e-02
-1.321205962449312210e-02
-1.707893423736095428e-02
1.029850798659026623e-03
1.516120880842208862e-01
-8.956723660230636597e-02
4.996615275740623474e-02
-1.265514083206653595e-02
-8.992154896259307861e-02
4.490493610501289368e-02
1.904956623911857605e-02
6.464885920286178589e-02
5.637837108224630356e-03
-4.059626255184412003e-03
-8.118782937526702881e-02
-3.286240994930267334e-02
3.877501189708709717e-02
3.664198890328407288e-02
-3.240180388092994690e-02
3.175491467118263245e-02
3.635079413652420044e-02
-1.721801422536373138e-02
1.560235023498535156e-02
6.727618724107742310e-02
8.308986201882362366e-03
5.992501601576805115e-02
-5.256110429763793945e-02
-2.411541528999805450e-02
-4.018440097570419312e-02
7.804879546165466309e-02
-3.263831604272127151e-03
-3.141805902123451233e-02
4.970772191882133484e-02
4.726363718509674072e-02
-1.271017594262957573e-03
1.911336183547973633e-02
3.344589471817016602e-02
1.313887983560562134e-01
2.614321745932102203e-02
-8.792497217655181885e-03
-2.761504147201776505e-04
-2.442828007042407990e-02
3.724968060851097107e-02
-2.219765260815620422e-02
-1.050902064889669418e-02
6.706793326884508133e-03
-6.061429157853126526e-02
-1.745292730629444122e-02
4.804083611816167831e-03
-3.722977265715599060e-02
2.892352640628814697e-02
-3.214729949831962585e-02
-2.921545878052711487e-02
5.114332959055900574e-02
-3.156591439619660378e-03
5.088376998901367188e-02
-8.098151534795761108e-02
2.012841589748859406e-02
-1.804338023066520691e-02
5.811365321278572083e-02
-6.098194513469934464e-03
-2.155283465981483459e-02
-7.142017781734466553e-02
-1.646305434405803680e-02
3.507928922772407532e-02
1.251961290836334229e-02
-4.289379343390464783e-02
-4.149872437119483948e-02
-3.728030622005462646e-02
2.896293625235557556e-02
6.226427853107452393e-02
4.289247095584869385e-02
-6.167310103774070740e-02
-3.671838715672492981e-02
5.084675550460815430e-02
-3.075451962649822235e-02
-1.371470373123884201e-02
-4.756447300314903259e-02
-2.396429143846035004e-02
3.862469643354415894e-02
-1.108603086322546005e-02
2.310299687087535858e-02
1.486974209547042847e-02
8.715926855802536011e-02
-6.453839689493179321e-02
7.845709472894668579e-02
3.765843436121940613e-02
-3.599100746214389801e-03
-2.257793582975864410e-02
-1.891895756125450134e-02
1.019914541393518448e-02
5.472182482481002808e-02
-1.365024689584970474e-02
-4.540004208683967590e-02
-5.222856253385543823e-02
5.497148633003234863e-02
-1.647892966866493225e-02
-7.996517419815063477e-02
3.482576832175254822e-02
1.008664220571517944e-01
9.022878110408782959e-02
7.782952487468719482e-02
-4.146606475114822388e-02
2.629462862387299538e-03
-3.553589060902595520e-02
-8.074153959751129150e-02
-1.400021929293870926e-02
5.141823366284370422e-02
-4.755833372473716736e-02
3.592687845230102539e-02
7.072387263178825378e-03
5.599444732069969177e-02
3.581292927265167236e-02
-1.982577610760927200e-03
4.587649181485176086e-02
-6.799353286623954773e-03
-5.246511101722717285e-02
8.200744539499282837e-02
-1.308491360396146774e-02
5.147078260779380798e-02
-3.849247097969055176e-02
-6.390989571809768677e-02
-1.170606166124343872e-02
2.999751828610897064e-02
3.101060725748538971e-02
2.989269979298114777e-02
-5.488451197743415833e-02
2.635542489588260651e-02
-1.457430608570575714e-02
-7.940445095300674438e-02
-5.367466807365417480e-02
2.117961645126342773e-02
-7.114775013178586960e-03
-4.149683564901351929e-02
4.009547084569931030e-02
5.907273665070533752e-02
-8.686388842761516571e-03
-3.409057483077049255e-02
-3.284056112170219421e-02
1.236046943813562393e-02
-5.039954930543899536e-02
2.203715592622756958e-02
8.279195055365562439e-03
-3.446515277028083801e-02
4.820840805768966675e-02
2.705272287130355835e-02
-2.524290047585964203e-02
4.973450209945440292e-03
-2.170374989509582520e-02
4.157776013016700745e-02
-5.079427361488342285e-02
-2.778539992868900299e-02
3.583629056811332703e-02
-4.517227038741111755e-02
3.856125846505165100e-02
-5.211745947599411011e-02
-3.139621391892433167e-02
4.044735804200172424e-02
-4.086453933268785477e-03
2.942852303385734558e-02
5.360080301761627197e-02
-1.056177262216806412e-02
-9.064784273505210876e-03
-6.349453330039978027e-02
9.405241347849369049e-03
-5.618671639240346849e-05
-3.499625623226165771e-02
7.940361648797988892e-02
2.964531816542148590e-02
6.296653300523757935e-02
-2.762299031019210815e-02
-4.457985982298851013e-02
9.723606705665588379e-02
-1.978227682411670685e-02
-6.088019534945487976e-02
-2.224254049360752106e-02
3.372347354888916016e-02
1.702816411852836609e-02
9.362855553627014160e-02
-3.612681175582110882e-04
9.239610284566879272e-03
-7.950834929943084717e-02
-4.610780999064445496e-02
3.606247249990701675e-03
3.519832342863082886e-02
1.266244892030954361e-02
4.728142172098159790e-02
5.738026928156614304e-03
-2.178506739437580109e-02
3.612017259001731873e-03
4.545641131699085236e-03
4.516213014721870422e-02
-3.590412065386772156e-02
2.469040639698505402e-02
4.725769627839326859e-03
3.305182978510856628e-02
-6.456238776445388794e-02
-5.682458728551864624e-02
-5.772605910897254944e-02
-1.156549528241157532e-01
7.333176210522651672e-03
-5.911594256758689880e-03
-5.286651477217674255e-02
5.246654152870178223e-02
-6.437492370605468750e-02
8.518202602863311768e-02
-2.849533967673778534e-02
-5.693111196160316467e-02
-9.222550317645072937e-03
3.702711686491966248e-02
-1.523305079899728298e-03
-8.814541250467300415e-02
5.290556699037551880e-02
1.432449743151664734e-02
-3.794743865728378296e-02
-8.226689696311950684e-02
4.404540359973907471e-02
-1.084757298231124878e-01
6.419406086206436157e-02
-7.924392819404602051e-02
-4.273630678653717041e-02
3.428753931075334549e-03
6.640883535146713257e-02
1.729007810354232788e-02
5.379448831081390381e-02
-1.617997884750366211e-02
-7.289184629917144775e-02
-4.663765896111726761e-03
-3.284394368529319763e-02
3.579426184296607971e-02
5.300150066614151001e-02
-3.536065295338630676e-02
2.850104682147502899e-02
-7.276526093482971191e-02
1.115032061934471130e-01
3.382356837391853333e-02
-1.365683320909738541e-02
-4.397365450859069824e-02
4.940645024180412292e-02
-6.060288473963737488e-02
-2.784222550690174103e-02
4.669097810983657837e-02
9.925334714353084564e-03
-8.639752119779586792e-02
1.276933550834655762e-01
8.027755469083786011e-02
-7.218516618013381958e-02
-2.594400942325592041e-02
-1.170674711465835571e-01
-2.809866890311241150e-02
-2.846299111843109131e-02
1.961244124686345458e-04
2.331789210438728333e-02
2.734912931919097900e-02
-4.627717286348342896e-02
-2.475759014487266541e-02
7.660739123821258545e-02
6.649351119995117188e-02
-4.906620830297470093e-02
-5.791695043444633484e-02
-4.452871158719062805e-02
1.072067767381668091e-01
-1.842977013438940048e-03
8.647355251014232635e-03
3.315977752208709717e-02
-5.444349721074104309e-03
5.918778106570243835e-02
-7.987695932388305664e-02
6.140259094536304474e-03
5.356181040406227112e-02
6.727208197116851807e-02
2.577321603894233704e-02
5.425344035029411316e-02
7.666370365768671036e-03
4.807920753955841064e-02
-4.420349001884460449e-02
2.353294380009174347e-02
1.112070679664611816e-02
6.939790910109877586e-04
4.413364827632904053e-02
-1.637362316250801086e-02
-6.803422421216964722e-02
-8.935961872339248657e-02
-2.114425040781497955e-02
3.317777067422866821e-02
-6.671821326017379761e-02
3.526988252997398376e-02
-5.481988191604614258e-02
5.192647874355316162e-02
-2.418755739927291870e-02
-6.136011332273483276e-03
1.127868741750717163e-01
4.454683512449264526e-02
-1.131687760353088379e-01
5.953231453895568848e-02
-4.586525261402130127e-02
4.319981671869754791e-03
2.641239762306213379e-02
4.634252563118934631e-02
6.492735445499420166e-02
-1.214055996388196945e-02
4.635943472385406494e-02
4.024028033018112183e-02
-6.228068843483924866e-02
5.202676355838775635e-02
2.718179114162921906e-02
-9.222252410836517811e-04
2.942853793501853943e-02
3.583328332751989365e-03
-4.076172038912773132e-02
-1.197371724992990494e-02
2.434151247143745422e-02
-5.517787858843803406e-02
1.826587133109569550e-03
-4.806407541036605835e-02
-3.105039149522781372e-02
6.918125599622726440e-02
2.033511362969875336e-02
5.491656437516212463e-02
-1.495915581472218037e-03
2.274199650855734944e-04
1.870376430451869965e-02
2.430552244186401367e-02
2.763692988082766533e-03
3.071166574954986572e-03
-6.020969152450561523e-02
-1.824742765165865421e-03
-4.500216618180274963e-02
-2.983097918331623077e-02
-2.010809723287820816e-03
-3.314595436677336693e-03
-5.969122052192687988e-02
3.140758723020553589e-02
-2.071152208372950554e-03
-7.922429591417312622e-02
-4.727742075920104980e-02
6.084723398089408875e-03
-1.372560858726501465e-02
-1.227159053087234497e-01
-2.384779416024684906e-02
4.335157573223114014e-02
-1.406582444906234741e-02
2.914466708898544312e-02
-3.119782358407974243e-02
-2.774600125849246979e-02
2.496708184480667114e-03
-2.654581144452095032e-02
5.853653699159622192e-02
4.783222079277038574e-02
1.567884907126426697e-02
-1.477130781859159470e-02
2.674585953354835510e-02
5.830200389027595520e-02
2.188545092940330505e-02
-4.698568210005760193e-02
4.126059636473655701e-02
8.401513844728469849e-02
-4.477250576019287109e-02
4.001360014081001282e-02
8.053439110517501831e-02
-1.012576837092638016e-02
1.872853934764862061e-02
1.110326498746871948e-02
3.798410296440124512e-02
3.856661543250083923e-02
-6.341297179460525513e-02
8.378488942980766296e-03
5.934688448905944824e-02
-3.828947991132736206e-02
-1.492170430719852448e-02
-9.543792344629764557e-03
2.832389436662197113e-02
4.187317192554473877e-02
-1.393841113895177841e-02
-3.195986896753311157e-02
-5.230061337351799011e-02
-3.239405527710914612e-02
-5.202501267194747925e-02
1.611111126840114594e-02
4.807401075959205627e-02
-4.120100289583206177e-02
-3.093019500374794006e-02
1.386054418981075287e-02
-4.550855234265327454e-02
-5.165937915444374084e-02
1.183198951184749603e-02
-5.455031618475914001e-02
-4.015462100505828857e-02
-1.515961531549692154e-02
-9.128684550523757935e-02
-5.035341531038284302e-02
5.866765603423118591e-02
-5.109786242246627808e-02
1.761425472795963287e-02
-4.128027334809303284e-02
-1.625052094459533691e-02
-3.612976148724555969e-02
-4.008626192808151245e-02
6.010846421122550964e-02
-5.729245021939277649e-02
-1.655209623277187347e-02
-1.248357817530632019e-02
5.387390404939651489e-02
-7.426648866385221481e-03
6.141158938407897949e-02
2.527527511119842529e-02
-5.541957914829254150e-02
-8.393737673759460449e-02
-7.980425655841827393e-02
3.711511939764022827e-02
5.537758395075798035e-02
-7.859309017658233643e-02
2.950379438698291779e-02
3.298038383945822716e-03
-1.941766962409019470e-02
-5.921186134219169617e-02
2.623726846650242805e-03
4.079081863164901733e-02
-1.926516368985176086e-02
4.333575256168842316e-03
3.470938280224800110e-02
-1.126471441239118576e-02
-3.573684021830558777e-02
1.964918151497840881e-02
5.261580646038055420e-02
4.773069918155670166e-02
1.564831472933292389e-02
-2.721910923719406128e-02
3.266198560595512390e-02
-4.110862687230110168e-02
4.356250539422035217e-02
5.140035063959658146e-04
1.075052842497825623e-02
8.282220922410488129e-03
-7.567986100912094116e-02
-2.120113000273704529e-02
8.612353354692459106e-02
-2.982371114194393158e-02
1.132527217268943787e-01
-3.591617941856384277e-02
-5.869985744357109070e-02
4.860587418079376221e-02
6.731060892343521118e-02
-6.994149088859558105e-02
1.734044030308723450e-02
2.224301546812057495e-02
-3.417098522186279297e-02
1.605848222970962524e-02
1.233616610988974571e-03
9.417419135570526123e-02
-2.968540787696838379e-02
6.756614893674850464e-02
7.054054737091064453e-02
2.706330083310604095e-02
-5.632285773754119873e-02
-2.023965679109096527e-02
4.569664597511291504e-02
4.967141523957252502e-02
1.209944486618041992e-02
2.607070840895175934e-02
-3.965464420616626740e-03
2.238670736551284790e-02
-1.586424373090267181e-02
-9.912462905049324036e-03
2.449582144618034363e-02
9.093396365642547607e-02
4.468299075961112976e-02
6.339321285486221313e-02
-1.003712415695190430e-02
1.729134283959865570e-02
4.705808311700820923e-02
6.818010937422513962e-03
-5.542620643973350525e-02
2.675162255764007568e-02
-5.502570420503616333e-03
-3.923524171113967896e-03
-2.481718175113201141e-02
5.519683286547660828e-02
-5.683890078216791153e-03
-2.348216809332370758e-02
8.213145285844802856e-02
6.499874591827392578e-02
-3.740162029862403870e-02
-9.175243973731994629e-02
-5.713746696710586548e-02
-1.155306003056466579e-03
8.508591353893280029e-02
5.182292312383651733e-02
-3.213849291205406189e-02
-7.102677226066589355e-02
8.586788922548294067e-02
-8.692756295204162598e-02
2.254996635019779205e-02
-1.718266680836677551e-02
-1.412857696413993835e-02
1.528627797961235046e-02
-4.706900939345359802e-02
-3.464695438742637634e-02
-8.427724242210388184e-02
4.029604792594909668e-02
-8.606962114572525024e-02
-5.036399140954017639e-02
-4.776274412870407104e-02
-2.135070040822029114e-02
1.386643573641777039e-02
3.568888083100318909e-02
3.128986433148384094e-02
-3.997940197587013245e-02
3.925035148859024048e-02
2.742533758282661438e-02
-5.424212291836738586e-02
2.158709987998008728e-02
4.281282890588045120e-03
-4.062838852405548096e-02
-6.392615288496017456e-02
3.221588954329490662e-02
1.038749366998672485e-01
-1.444263756275177002e-02
4.731746762990951538e-02
-2.947510406374931335e-02
-1.695832237601280212e-02
1.142651587724685669e-01
-5.180073902010917664e-02
-1.674073189496994019e-02
7.071959227323532104e-02
8.183826506137847900e-02
2.739913947880268097e-02
-3.663766384124755859e-02
1.941762398928403854e-03
6.216188427060842514e-03
-8.245489001274108887e-02
6.705644726753234863e-02
-4.870811849832534790e-02
1.951409387402236462e-03
-2.573578804731369019e-02
-8.616010844707489014e-02
8.029479533433914185e-03
1.300243195146322250e-02
-1.131811439990997314e-01
-6.941296905279159546e-02
4.413767717778682709e-03
-4.587483033537864685e-02
-1.888551935553550720e-02
-5.113569274544715881e-02
2.785795927047729492e-02
-9.331896435469388962e-04
-5.502523388713598251e-03
9.549400955438613892e-02
-3.397159278392791748e-02
-5.469795316457748413e-02
3.237478062510490417e-02
-9.455674327909946442e-03
1.853333413600921631e-02
4.123330116271972656e-02
-5.942344292998313904e-02
3.075014799833297729e-02
1.451527792960405350e-02
1.128862332552671432e-02
-8.323232643306255341e-03
1.367664081044495106e-03
-4.508351162075996399e-02
5.840866267681121826e-02
-9.406159818172454834e-02
-3.274789080023765564e-02
-2.506695874035358429e-02
4.139978438615798950e-02
4.760778322815895081e-02
-1.713073067367076874e-02
1.295481715351343155e-02
1.456663459539413452e-01
5.995962023735046387e-02
-2.080458216369152069e-02
-4.369569197297096252e-02
-9.878425858914852142e-03
1.151131466031074524e-02
-1.705208607017993927e-02
-4.989246651530265808e-02
-4.156314581632614136e-02
-1.280306465923786163e-02
-7.588135078549385071e-03
2.753024175763130188e-02
-2.913794666528701782e-02
-8.824164979159832001e-03
3.214817121624946594e-02
5.089535564184188843e-02
-3.504053130745887756e-02
-2.540500089526176453e-02
-3.703038021922111511e-02
-6.081128958612680435e-03
-3.588298335671424866e-02
-2.140339463949203491e-02
-2.750052697956562042e-02
-1.882119104266166687e-02
-4.629324004054069519e-02
6.204085052013397217e-02
-4.857305809855461121e-02
1.191243808716535568e-02
2.796752937138080597e-02
-8.241779170930385590e-03
2.262302301824092865e-02
3.047858364880084991e-02
-1.928098686039447784e-02
4.474513977766036987e-02
3.103409893810749054e-02
-4.706675931811332703e-02
9.683646261692047119e-03
7.379785925149917603e-02
-5.951992794871330261e-02
-3.196828067302703857e-02
-4.159196838736534119e-02
-2.766701159998774529e-03
-3.620297834277153015e-02
3.797947242856025696e-02
2.826995216310024261e-02
-4.931745305657386780e-02
2.357160486280918121e-02
9.305533953011035919e-03
3.872348368167877197e-02
4.706320818513631821e-03
-4.879070445895195007e-03
-5.289756879210472107e-02
1.643283478915691376e-02
-7.383442670106887817e-02
-6.863828003406524658e-02
-8.029529452323913574e-02
2.532524988055229187e-02
8.113037794828414917e-02
3.413628414273262024e-02
-3.322064876556396484e-02
-1.491735130548477173e-02
1.677932590246200562e-02
-2.982310391962528229e-02
2.425595885142683983e-03
1.193013601005077362e-02
2.368183806538581848e-02
4.413042962551116943e-02
6.494845729321241379e-03
6.707353144884109497e-02
-3.356844186782836914e-02
-5.012232065200805664e-02
-6.541697774082422256e-03
2.627005334943532944e-03
5.122051108628511429e-03
-4.494415968656539917e-02
-2.194038033485412598e-02
2.932348288595676422e-02
-1.712298393249511719e-02
4.358422884251922369e-04
5.143957585096359253e-02
5.751413479447364807e-02
-2.501712553203105927e-02
-2.503428794443607330e-02
3.132326900959014893e-02
5.231959372758865356e-02
-4.974309727549552917e-02
1.738765276968479156e-02
-5.861647054553031921e-02
-3.033122420310974121e-02
-3.170004487037658691e-02
-3.883614018559455872e-02
-3.979576751589775085e-02
-1.762959361076354980e-02
-4.206050559878349304e-02
-3.956123813986778259e-02
6.126825138926506042e-02
9.083138406276702881e-02
-3.683981299400329590e-02
-7.946887635625898838e-04
-3.823308739811182022e-03
5.441144853830337524e-02
-9.529783390462398529e-03
-6.503127515316009521e-02
2.308281324803829193e-02
3.546409308910369873e-02
5.009719729423522949e-02
4.033173620700836182e-02
2.580158226191997528e-02
-8.127617649734020233e-03
-3.886850550770759583e-02
-1.854090392589569092e-02
-3.367230668663978577e-02
9.100208431482315063e-02
-3.826351463794708252e-02
-6.722627580165863037e-02
3.594005852937698364e-02
7.062965631484985352e-02
-8.678670227527618408e-02
-2.812561392784118652e-02
-2.988493442535400391e-02
3.182725980877876282e-02
-6.625414639711380005e-02
-3.192208707332611084e-02
2.785141766071319580e-02
7.388555095531046391e-04
-8.535183966159820557e-03
4.215703159570693970e-02
-4.893360659480094910e-02
4.464127123355865479e-02
-8.030465990304946899e-02
5.699728429317474365e-02
2.909020148217678070e-02
3.751077130436897278e-02
-7.480980711989104748e-04
-3.895805403590202332e-02
7.644981611520051956e-03
3.624457400292158127e-03
-7.000135257840156555e-03
5.192994326353073120e-02
2.372611872851848602e-02
5.384225863963365555e-03
-1.349760964512825012e-02
-6.128379609435796738e-03
-8.087024092674255371e-02
2.413788624107837677e-02
-4.387435689568519592e-02
1.202189270406961441e-02
-3.061767853796482086e-02
1.276251766830682755e-02
1.466705650091171265e-02
1.024679932743310928e-02
6.941629946231842041e-02
-5.062968656420707703e-02
1.725146733224391937e-02
4.056204110383987427e-02
2.155471220612525940e-02
-5.116408690810203552e-02
8.066326379776000977e-02
2.275359147461131215e-04
-5.122414603829383850e-02
3.972643241286277771e-02
-1.827217638492584229e-02
3.276675194501876831e-02
4.832837358117103577e-02
-6.942446809262037277e-03
-1.177125843241810799e-03
-1.412983145564794540e-02
-3.973279614001512527e-03
1.230940502136945724e-02
8.064291626214981079e-02
3.720373287796974182e-02
6.272800266742706299e-02
-2.344920858740806580e-02
5.376360192894935608e-02
2.733807824552059174e-02
-2.657366730272769928e-02
5.866205319762229919e-02
2.598690800368785858e-02
3.865153063088655472e-03
1.041476801037788391e-02
-1.213903818279504776e-02
-5.027163401246070862e-02
5.879134312272071838e-02
-4.474062100052833557e-02
-2.840156294405460358e-02
2.204104140400886536e-02
3.668437525629997253e-02
6.059799809008836746e-03
2.092223986983299255e-02
3.914292901754379272e-02
4.697704687714576721e-03
1.891151815652847290e-02
-7.196485251188278198e-02
-3.947874158620834351e-02
4.568655043840408325e-03
2.395888231694698334e-02
-6.961429119110107422e-02
-4.801432788372039795e-02
-2.009584754705429077e-02
5.888548120856285095e-02
-3.664606437087059021e-02
-1.249909028410911560e-02
4.576902464032173157e-02
3.708145022392272949e-02
8.944931626319885254e-02
-7.882069796323776245e-02
6.065860390663146973e-02
-1.601565256714820862e-02
7.190156262367963791e-03
-2.584050223231315613e-02
-3.280272334814071655e-02
-3.353833407163619995e-02
2.822317928075790405e-02
1.272839773446321487e-02
-5.921453610062599182e-02
-2.039804309606552124e-02
-4.784103482961654663e-02
-3.592405840754508972e-02
1.378447562456130981e-02
-2.656389400362968445e-02
-1.491181086748838425e-02
-6.171686202287673950e-02
-7.064629346132278442e-02
5.229207873344421387e-02
3.213155642151832581e-02
2.426314353942871094e-02
4.563479498028755188e-02
5.611480772495269775e-02
-1.864185929298400879e-02
8.464349061250686646e-02
1.635015197098255157e-02
2.957167290151119232e-02
-3.187091276049613953e-02
-3.203044831752777100e-02
5.541094392538070679e-02
6.648691743612289429e-02
-9.565553069114685059e-02
-1.295514963567256927e-02
5.812192335724830627e-02
-2.968885377049446106e-02
-1.247010426595807076e-03
-7.116913050413131714e-02
3.521897643804550171e-02
3.756731376051902771e-02
6.460064090788364410e-03
-1.493708416819572449e-02
2.296937815845012665e-02
4.160077869892120361e-02
2.027603797614574432e-02
-1.532594393938779831e-02
3.473885357379913330e-02
3.653167933225631714e-02
-1.328120566904544830e-02
-3.793001919984817505e-02
-1.354204211384057999e-02
9.591119736433029175e-02
1.576403714716434479e-02
6.965395063161849976e-02
4.059670865535736084e-02
4.505864903330802917e-02
-8.448628336191177368e-02
-7.208702154457569122e-03
-1.103439182043075562e-02
6.478679180145263672e-02
4.782660864293575287e-03
-2.536470629274845123e-02
3.407038003206253052e-02
-4.451090842485427856e-02
3.173812851309776306e-02
2.123779058456420898e-02
9.292487986385822296e-03
4.068747907876968384e-02
3.753299638628959656e-02
1.711708121001720428e-02
-2.161472663283348083e-02
-1.342664193361997604e-02
3.585838153958320618e-02
2.097038319334387779e-03
-5.289541184902191162e-02
-5.246121063828468323e-02
4.027772322297096252e-02
5.271041393280029297e-02
2.529172599315643311e-02
1.234727445989847183e-02
1.000000908970832825e-02
-1.051609031856060028e-02
2.127259783446788788e-02
-2.547185309231281281e-02
2.019081450998783112e-02
-3.126454353332519531e-02
2.007822506129741669e-02
1.698437705636024475e-02
-6.649015005677938461e-03
1.716869324445724487e-02
-1.381585188210010529e-02
-2.295657433569431305e-02
3.172136470675468445e-02
5.861371383070945740e-02
-1.360900513827800751e-02
-4.644030705094337463e-03
-3.496676310896873474e-02
-5.849574506282806396e-02
-8.251991122961044312e-03
5.304933711886405945e-02
-3.001441806554794312e-02
-6.884427368640899658e-02
-4.759524762630462646e-02
1.089667156338691711e-02
4.423009231686592102e-02
-3.383342921733856201e-02
-3.033126005902886391e-03
-1.159575488418340683e-02
-3.838975727558135986e-02
-2.867425233125686646e-02
1.815706118941307068e-02
2.785455062985420227e-02
5.331476032733917236e-02
3.880875883623957634e-03
-6.270352751016616821e-02
-2.548922039568424225e-02
5.678253248333930969e-02
1.054035313427448273e-02
5.578194186091423035e-02
3.639275953173637390e-02
4.667425528168678284e-02
3.697072342038154602e-02
3.061085753142833710e-02
-6.103326752781867981e-02
-3.945102915167808533e-02
-4.237997531890869141e-02
-6.224723905324935913e-02
-6.418718397617340088e-02
1.493242383003234863e-02
-9.614553418941795826e-04
-4.781226813793182373e-02
-4.562494158744812012e-02
-1.418762002140283585e-02
4.065206646919250488e-02
4.373234510421752930e-02
5.086702108383178711e-02
2.457658946514129639e-02
5.104812607169151306e-02
9.714304469525814056e-03
-3.219392523169517517e-02
2.653169818222522736e-02
9.585419669747352600e-03
1.415705028921365738e-02
-3.878350183367729187e-02
-5.840099230408668518e-02
4.250261187553405762e-02
-1.907324232161045074e-02
5.865848157554864883e-03
1.359081827104091644e-03
-4.998651146888732910e-02
6.393996626138687134e-02
-2.088717184960842133e-02
2.024393901228904724e-02
3.067561890929937363e-03
8.590693026781082153e-02
-3.443731740117073059e-02
7.351658307015895844e-03
1.646002568304538727e-02
-1.735268160700798035e-02
-5.434203892946243286e-02
-3.088269010186195374e-02
6.479565054178237915e-02
1.458425167948007584e-02
-4.971525073051452637e-02
3.206744417548179626e-02
3.393297642469406128e-02
-4.993002861738204956e-02
-4.658497124910354614e-02
-7.769102603197097778e-02
-1.179372426122426987e-02
-5.666789039969444275e-02
1.147888321429491043e-02
4.795331135392189026e-02
-4.747098311781883240e-02
-5.839002504944801331e-02
3.672590106725692749e-02
-2.183259651064872742e-02
-5.583587661385536194e-02
-2.867684233933687210e-03
-2.395641990005970001e-02
-5.292073823511600494e-03
6.647381186485290527e-02
-1.102291513234376907e-02
-2.861216850578784943e-02
1.863667555153369904e-02
1.294122636318206787e-02
-6.905939895659685135e-03
-3.533559385687112808e-03
-2.411816641688346863e-02
4.413973167538642883e-02
-3.066171333193778992e-02
1.621662452816963196e-02
-1.100794412195682526e-02
-2.144644781947135925e-02
4.719116538763046265e-02
-4.162663593888282776e-02
-7.636500522494316101e-04
-3.177694231271743774e-02
3.834763308987021446e-03
4.872683435678482056e-02
-6.308741122484207153e-02
-7.393319159746170044e-02
-2.410199865698814392e-02
7.671474665403366089e-02
-8.388871699571609497e-02
-1.288602501153945923e-01
7.905010879039764404e-02
3.649178892374038696e-02
-6.997104734182357788e-02
-2.682397142052650452e-02
8.697580546140670776e-03
1.058657765388488770e-01
2.977574057877063751e-02
2.593374997377395630e-02
-4.527360666543245316e-03
4.126910120248794556e-02
8.412281423807144165e-02
-4.474411532282829285e-02
-7.627463783137500286e-04
-2.691451087594032288e-02
4.247365146875381470e-02
-5.820741131901741028e-02
-3.160542249679565430e-02
1.850605569779872894e-02
-1.337712910026311874e-02
9.684196114540100098e-02
1.422030036337673664e-03
-1.223353203386068344e-02
-2.196851931512355804e-02
-9.637195616960525513e-04
4.948227852582931519e-02
3.234032914042472839e-02
-5.007934570312500000e-02
-7.364542782306671143e-02
-2.825799770653247833e-02
-3.857065364718437195e-02
-2.030805451795458794e-03
-9.231206774711608887e-02
4.531758278608322144e-02
2.968300692737102509e-02
-5.604160204529762268e-02
3.727200627326965332e-02
-6.480789929628372192e-02
6.049315258860588074e-02
5.380922928452491760e-03
3.335908427834510803e-02
-5.679965391755104065e-02
-1.405147369951009750e-02
-3.176210448145866394e-02
4.947325214743614197e-03
-3.508833004161715508e-03
-7.945495098829269409e-02
1.599462120793759823e-03
-2.834911271929740906e-02
1.308643259108066559e-02
-8.490051329135894775e-02
6.340627372264862061e-02
3.874431550502777100e-02
4.658142477273941040e-02
-4.703747481107711792e-02
-4.590310901403427124e-02
-3.123955987393856049e-02
2.600595168769359589e-02
1.691722683608531952e-02
2.208489924669265747e-02
-3.754266723990440369e-02
-2.543117851018905640e-03
2.080638520419597626e-02
-5.018246173858642578e-02
-2.148279175162315369e-02
5.423813685774803162e-02
-2.308627963066101074e-02
-1.347547397017478943e-02
2.485393732786178589e-02
5.519292503595352173e-02
-6.555564701557159424e-02
-4.028703644871711731e-02
5.994447320699691772e-02
1.161845307797193527e-02
-3.319760039448738098e-02
-5.436145141720771790e-02
1.538428571075201035e-02
-6.541755795478820801e-02
-1.963108591735363007e-02
-6.172145903110504150e-02
1.878276094794273376e-02
-1.186171080917119980e-02
-7.764002308249473572e-03
3.499384224414825439e-02
-2.686999365687370300e-02
3.292328864336013794e-02
1.049324311316013336e-02
6.628298759460449219e-02
-3.964408859610557556e-02
1.182240527123212814e-02
1.921932026743888855e-02
-3.063675947487354279e-03
2.269736304879188538e-02
4.318876937031745911e-02
3.336143493652343750e-02
-2.285800129175186157e-02
-8.830578997731208801e-03
-2.537262253463268280e-02
2.894664183259010315e-02
-6.359678506851196289e-02
4.801737889647483826e-02
-4.813756793737411499e-02
1.618316024541854858e-02
4.280411824584007263e-02
6.333914399147033691e-02
-1.681035012006759644e-02
5.548312515020370483e-02
1.971291191875934601e-02
-2.936461381614208221e-02
-3.981802985072135925e-02
-1.332120876759290695e-02
8.045855164527893066e-02
-5.047666491009294987e-04
-3.194031014572829008e-04
-3.378628566861152649e-02
1.576005667448043823e-02
-1.401448063552379608e-02
-3.108229301869869232e-02
-3.878302872180938721e-02
4.612519219517707825e-02
1.879519596695899963e-02
-3.850572928786277771e-02
3.615206480026245117e-02
6.707688421010971069e-02
3.527422621846199036e-02
7.292381674051284790e-02
-2.571406215429306030e-02
2.180697768926620483e-02
-3.886074945330619812e-02
4.410451650619506836e-02
2.895308192819356918e-03
-1.201415285468101501e-01
4.934684559702873230e-02
-5.761646851897239685e-02
1.175307203084230423e-02
-3.642700985074043274e-02
-4.300471767783164978e-02
-4.129830747842788696e-03
7.093181461095809937e-02
6.095749139785766602e-02
-3.866284713149070740e-02
3.298460692167282104e-02
1.501757185906171799e-02
1.146559789776802063e-02
1.865151454694569111e-03
-9.151664562523365021e-03
-3.358872979879379272e-02
3.112125582993030548e-02
3.122707456350326538e-02
-3.099341690540313721e-02
-7.575614005327224731e-02
-5.195998772978782654e-02
6.621157377958297729e-02
3.588824346661567688e-02
-1.264521107077598572e-02
5.606044456362724304e-02
-1.009260863065719604e-02
3.608874231576919556e-02
-1.134591363370418549e-02
4.931899160146713257e-02
5.034005269408226013e-02
-7.441920042037963867e-02
-4.455045610666275024e-02
-8.365217596292495728e-03
6.710800807923078537e-03
1.804858632385730743e-02
3.494859486818313599e-02
3.034094534814357758e-02
5.778003484010696411e-02
-2.866864204406738281e-02
1.335154660046100616e-02
-2.719735167920589447e-02
-3.179045021533966064e-02
-2.708560228347778320e-02
-5.180715769529342651e-02
-3.679782897233963013e-02
1.114210486412048340e-02
5.439193919301033020e-02
6.861016899347305298e-02
4.713706672191619873e-02
-1.311783120036125183e-02
1.587886363267898560e-02
1.616840017959475517e-03
9.811738273128867149e-04
-1.177046168595552444e-02
9.228684939444065094e-03
-1.966423587873578072e-03
1.742140576243400574e-02
-4.129280522465705872e-02
4.065613076090812683e-02
-5.248712375760078430e-02
-2.301436476409435272e-02
-5.061643570661544800e-02
-4.774312302470207214e-02
-5.428785830736160278e-02
2.506671845912933350e-02
5.239865183830261230e-02
9.770818985998630524e-03
-1.284088473767042160e-02
1.024725288152694702e-02
5.412009358406066895e-02
-5.281175673007965088e-02
-5.229426547884941101e-02
5.785284563899040222e-02
-1.399303693324327469e-02
-8.290803991258144379e-03
-1.588828489184379578e-02
-2.266364637762308121e-03
-5.490598827600479126e-02
7.237186282873153687e-02
-4.780714586377143860e-02
-2.169338258681818843e-04
3.011909313499927521e-02
3.779105842113494873e-02
-7.903865724802017212e-02
-6.198294088244438171e-02
-1.921452581882476807e-02
-2.349849045276641846e-02
1.153951231390237808e-02
3.222409263253211975e-02
5.210901424288749695e-02
-2.672762051224708557e-02
7.672262936830520630e-02
3.968910127878189087e-02
-4.301943257451057434e-02
-2.677280455827713013e-02
6.205696985125541687e-02
4.271674156188964844e-02
-2.003903500735759735e-02
-2.488780394196510315e-02
1.157769747078418732e-02
8.829555660486221313e-02
1.570012792944908142e-02
-7.290053367614746094e-02
-5.153298377990722656e-02
-3.840587660670280457e-02
3.529147431254386902e-02
-8.751190453767776489e-02
-5.606253445148468018e-02
-1.636814326047897339e-02
6.579991430044174194e-02
-4.339979216456413269e-02
-1.734110340476036072e-02
2.149084582924842834e-02
7.066930830478668213e-02
2.006520330905914307e-02
-1.101849414408206940e-02
-7.122476119548082352e-03
3.048964589834213257e-02
1.482227351516485214e-02
-3.376202657818794250e-02
-8.323393762111663818e-02
-2.342925406992435455e-02
9.937875438481569290e-04
-2.077610045671463013e-02
5.878677964210510254e-02
-8.797555416822433472e-02
5.235668737441301346e-03
-1.814423501491546631e-02
5.973098333925008774e-03
-3.342807525768876076e-03
-5.984070524573326111e-02
2.454831264913082123e-02
5.146693810820579529e-02
-4.047124646604061127e-03
-8.433739840984344482e-02
-3.962204977869987488e-02
-2.784341573715209961e-02
4.094786942005157471e-02
5.187378451228141785e-02
4.727644845843315125e-02
1.719618961215019226e-02
-2.401610463857650757e-02
3.949123248457908630e-02
-2.532135322690010071e-02
3.599115833640098572e-02
-5.550941079854965210e-02
-3.797286376357078552e-02
2.571011334657669067e-02
-2.174243144690990448e-02
4.223694652318954468e-02
5.599332042038440704e-03
-4.780893772840499878e-02
1.145866233855485916e-02
7.362024858593940735e-03
9.170767851173877716e-03
2.186648920178413391e-02
-1.035130489617586136e-02
5.323882400989532471e-02
-4.642600193619728088e-02
-1.943190395832061768e-02
4.593599960207939148e-02
5.878857895731925964e-02
-2.762332186102867126e-02
3.061587363481521606e-02
4.157285671681165695e-03
2.262023277580738068e-03
-5.526918917894363403e-03
-1.320232078433036804e-02
5.598795786499977112e-02
-4.719305783510208130e-02
2.115448936820030212e-02
8.219645917415618896e-02
-6.758378352969884872e-03
5.102777481079101562e-02
3.148529911413788795e-03
-5.153966695070266724e-02
-5.482558161020278931e-03
-3.312583267688751221e-02
1.649987325072288513e-02
-2.429896499961614609e-03
-6.272851675748825073e-02
1.032164087519049644e-03
3.735058382153511047e-02
5.081464722752571106e-02
-4.161566495895385742e-02
-4.735617339611053467e-02
3.131879493594169617e-02
5.092885345220565796e-02
3.099817037582397461e-02
3.979952260851860046e-02
-6.509681697934865952e-03
-1.625961624085903168e-02
4.007217939943075180e-03
-1.945154555141925812e-02
-4.213150590658187866e-02
-5.004857107996940613e-02
-9.611723013222217560e-03
6.816219538450241089e-02
2.824489586055278778e-02
6.974605470895767212e-02
-6.605905946344137192e-03
-5.921929702162742615e-02
7.243878394365310669e-02
-2.481245994567871094e-02
1.336658746004104614e-02
5.193930584937334061e-03
-7.620825618505477905e-02
-7.353548705577850342e-02
-5.889208614826202393e-02
-2.962261205539107323e-03
5.997090414166450500e-02
6.670591421425342560e-03
-1.307915663346648216e-03
-6.661577522754669189e-02
-4.946526139974594116e-03
-1.017052121460437775e-02
4.097776114940643311e-02
-3.022438473999500275e-02
-2.160334959626197815e-02
-4.895037272945046425e-04
-2.290567569434642792e-02
3.178002312779426575e-02
3.264024853706359863e-02
4.812826216220855713e-02
5.864538624882698059e-02
-6.837018579244613647e-02
-3.576224669814109802e-02
6.621688604354858398e-02
-5.422693863511085510e-02
-2.747201547026634216e-02
7.980015128850936890e-02
2.399949170649051666e-02
-5.172953382134437561e-02
4.131390526890754700e-02
-5.542203318327665329e-03
4.564020410180091858e-02
-3.623089194297790527e-02
5.044545978307723999e-02
-3.132000938057899475e-02
4.491952806711196899e-02
7.423252612352371216e-02
5.251441616564989090e-03
-3.580401465296745300e-02
2.120285108685493469e-02
3.677219152450561523e-02
-1.897444250062108040e-03
5.481855571269989014e-02
2.225110866129398346e-02
-4.221304506063461304e-02
-5.287773162126541138e-02
1.770411990582942963e-02
-5.318105593323707581e-02
1.897402107715606689e-02
-5.855010077357292175e-02
-1.338776014745235443e-02
-7.626261096447706223e-03
3.915406018495559692e-02
6.908859941177070141e-04
4.950012639164924622e-02
5.207609385251998901e-02
-1.447639986872673035e-02
6.688666064292192459e-03
5.963075160980224609e-02
6.158912926912307739e-02
1.562259509228169918e-03
-3.488215059041976929e-02
3.625760227441787720e-02
-2.987359836697578430e-02
-1.576510444283485413e-02
6.800770759582519531e-02
2.056627534329891205e-02
4.322706162929534912e-02
-5.814389139413833618e-02
3.894868865609169006e-02
-5.873005464673042297e-02
5.333196371793746948e-02
8.668398484587669373e-03
-3.995192423462867737e-02
2.461183816194534302e-03
5.220599472522735596e-02
-9.404072538018226624e-03
-3.131633996963500977e-02
2.964823879301548004e-02
-9.384969598613679409e-04
-6.764358282089233398e-02
6.895091384649276733e-02
-5.067100748419761658e-02
3.121111541986465454e-02
-3.724989667534828186e-02
-6.307031027972698212e-03
7.090777903795242310e-02
2.792437560856342316e-02
5.135472863912582397e-02
-4.252038151025772095e-02
-2.508162707090377808e-02
3.915661200881004333e-02
7.242891937494277954e-02
6.561003625392913818e-02
3.123876824975013733e-02
2.412836439907550812e-02
-2.917681448161602020e-02
2.825362840667366982e-03
-4.074492305517196655e-02
4.571798071265220642e-02
8.225623518228530884e-02
-1.841299422085285187e-02
-3.316405788064002991e-02
-4.610550776124000549e-02
1.795133017003536224e-02
-5.808844417333602905e-02
1.779441535472869873e-02
4.031179100275039673e-02
-1.230758521705865860e-02
-1.490281149744987488e-02
5.567422509193420410e-02
9.573086164891719818e-03
5.569522827863693237e-02
5.326759815216064453e-02
5.555257573723793030e-02
4.887467995285987854e-02
-5.327444151043891907e-02
5.154180899262428284e-02
2.071475982666015625e-02
3.336984431371092796e-03
3.162732720375061035e-02
3.329626843333244324e-02
1.004807557910680771e-02
4.456668719649314880e-02
-1.787688210606575012e-02
4.282637313008308411e-02
6.379853188991546631e-02
3.427524119615554810e-02
3.340449649840593338e-03
9.136842936277389526e-02
2.210852876305580139e-02
3.467775508761405945e-02
8.249374479055404663e-02
-1.193064451217651367e-02
-7.255541533231735229e-02
-2.801993116736412048e-02
-3.643316030502319336e-02
8.513949811458587646e-03
-2.572149410843849182e-02
-7.555366307497024536e-02
4.680592101067304611e-03
3.309167921543121338e-02
-4.498632333707064390e-04
-1.041876804083585739e-02
7.513735443353652954e-02
3.464973066002130508e-03
5.698781833052635193e-02
3.553379699587821960e-02
3.773639351129531860e-02
9.846423566341400146e-02
-2.613370679318904877e-02
1.835601963102817535e-02
-4.052395746111869812e-02
-3.450834006071090698e-02
-5.109187588095664978e-02
4.456116259098052979e-02
-3.063646331429481506e-02
-9.137327782809734344e-03
-1.022948417812585831e-02
-1.733064465224742889e-02
-5.524456873536109924e-02
-5.937778577208518982e-02
5.744554474949836731e-02
7.593479473143815994e-03
3.976129367947578430e-02
-8.530724793672561646e-02
2.228856086730957031e-03
-3.868044912815093994e-02
5.927642434835433960e-02
-5.823876708745956421e-03
2.357510291039943695e-02
-6.944505870342254639e-02
-1.093733124434947968e-02
1.720044389367103577e-02
-5.426427349448204041e-02
5.730000510811805725e-02
-8.975253999233245850e-02
7.157131284475326538e-02
5.580790713429450989e-02
-3.519545122981071472e-02
-8.021792024374008179e-02
1.139123737812042236e-01
5.100798234343528748e-02
-4.621224105358123779e-02
9.362863749265670776e-02
-6.462948769330978394e-02
4.818808287382125854e-02
-4.500566865317523479e-04
9.346284717321395874e-02
-6.840568035840988159e-02
-2.048707194626331329e-02
8.162037469446659088e-03
7.271537557244300842e-03
5.638278089463710785e-03
-4.253574833273887634e-02
-7.631758600473403931e-02
-4.391726478934288025e-02
-4.404228180646896362e-02
7.463185489177703857e-02
-1.160405762493610382e-02
-1.149193663150072098e-02
6.406433880329132080e-02
-2.961630374193191528e-02
-2.323423512279987335e-02
4.540362395346164703e-03
-5.723309703171253204e-03
-3.436308726668357849e-02
-4.786664620041847229e-02
-1.257078051567077637e-01
-4.944555461406707764e-03
5.840372294187545776e-02
-6.048614159226417542e-02
1.862083934247493744e-02
6.144697964191436768e-02
5.180181935429573059e-02
2.496324293315410614e-02
8.632493019104003906e-02
5.699091404676437378e-02
4.391068220138549805e-02
1.155255641788244247e-02
-4.899451974779367447e-03
3.393654152750968933e-02
-2.837305329740047455e-02
1.938167959451675415e-03
7.735301554203033447e-02
-7.323008775711059570e-02
-4.633841104805469513e-03
4.888662695884704590e-02
1.947008632123470306e-02
-3.082891227677464485e-03
-5.536598339676856995e-02
2.052880637347698212e-02
1.010768488049507141e-01
-3.609944880008697510e-02
-2.244365215301513672e-02
1.365160755813121796e-02
2.808221988379955292e-02
-3.440780192613601685e-02
3.691770508885383606e-02
3.871259465813636780e-02
4.845223203301429749e-02
4.201011732220649719e-02
2.674653194844722748e-02
3.570840507745742798e-02
5.722330138087272644e-02
-1.010740734636783600e-02
-1.610692939721047878e-03
2.420638687908649445e-03
-5.303218960762023926e-02
-7.257782667875289917e-02
-3.357492759823799133e-02
-7.095289975404739380e-02
-6.512111425399780273e-02
4.375452920794487000e-02
-3.194507583975791931e-02
-8.108715526759624481e-03
4.792920872569084167e-02
8.405837416648864746e-02
-3.794512897729873657e-02
-4.987675696611404419e-02
-1.173453032970428467e-02
6.854019314050674438e-02
3.087017126381397247e-02
-9.262719191610813141e-03
-1.294871326535940170e-02
-8.270168304443359375e-02
-1.029718946665525436e-02
-5.212581902742385864e-02
1.234616618603467941e-02
-1.347632706165313721e-02
-1.365167554467916489e-02
1.336448476649820805e-03
4.212795570492744446e-02
-1.096787769347429276e-02
-1.598424836993217468e-02
3.408138453960418701e-02
6.453136354684829712e-02
5.109237879514694214e-02
-5.750323832035064697e-02
7.881603389978408813e-02
5.457642674446105957e-02
-9.341651457361876965e-04
-6.188714876770973206e-03
-3.093915432691574097e-02
-7.233504205942153931e-02
6.489830464124679565e-02
-5.603544786572456360e-02
-3.194543346762657166e-02
6.774303037673234940e-03
-4.909825697541236877e-02
4.043096303939819336e-02
1.475340127944946289e-02
-1.624749414622783661e-02
8.334739133715629578e-03
-4.523397982120513916e-02
4.574589058756828308e-02
8.690746128559112549e-02
-5.473282188177108765e-02
6.566333025693893433e-02
6.061698868870735168e-02
7.348109502345323563e-03
1.971123972907662392e-03
6.640699692070484161e-03
3.140340745449066162e-02
-6.523924879729747772e-03
3.891719877719879150e-02
5.713576078414916992e-02
-6.869349163025617599e-03
-6.978292018175125122e-02
7.813896983861923218e-02
-2.572085708379745483e-02
-4.214712243992835283e-04
1.865180442109704018e-03
2.403773553669452667e-02
6.356088072061538696e-02
-3.600269183516502380e-02
-5.931355524808168411e-03
5.219639837741851807e-02
4.188595712184906006e-02
-4.643776267766952515e-02
-1.686305925250053406e-02
-5.179752781987190247e-02
2.059271559119224548e-02
-1.666148938238620758e-02
6.171626225113868713e-02
5.194820091128349304e-02
-3.474815189838409424e-02
3.205078840255737305e-02
4.828431084752082825e-02
-3.099913150072097778e-02
-1.203170418739318848e-01
-8.823655545711517334e-02
-1.915673166513442993e-02
-3.202246502041816711e-02
2.702973596751689911e-02
-4.924142267554998398e-03
1.173351984471082687e-02
-5.650006607174873352e-02
2.239835448563098907e-02
1.359880156815052032e-02
7.557271420955657959e-02
4.982611909508705139e-02
-2.529771439731121063e-02
2.409569453448057175e-03
5.201079323887825012e-02
2.060004882514476776e-02
1.765924319624900818e-02
1.332464395090937614e-03
3.280692733824253082e-03
-4.255693405866622925e-02
4.100892320275306702e-02
3.136847866699099541e-03
2.535860985517501831e-02
-3.868937492370605469e-02
5.198809877038002014e-02
9.765440598130226135e-03
-5.351703241467475891e-02
3.920347243547439575e-02
8.916528895497322083e-03
4.733181744813919067e-02
1.102995942346751690e-03
-5.479835905134677887e-03
-1.881112228147685528e-03
4.647771641612052917e-02
6.266400683671236038e-03
4.789165407419204712e-02
4.507707431912422180e-02
3.267538174986839294e-02
-5.122176557779312134e-02
-5.755336955189704895e-02
4.838787391781806946e-02
2.753726579248905182e-02
-5.858144164085388184e-02
4.765073955059051514e-02
2.361163496971130371e-02
2.561125345528125763e-02
9.340203553438186646e-02
-6.404838711023330688e-02
2.080759033560752869e-02
5.340384691953659058e-02
3.598399460315704346e-02
-2.047429606318473816e-02
5.020391941070556641e-02
-3.269607201218605042e-02
4.644307494163513184e-02
-3.626555576920509338e-02
9.426263161003589630e-03
2.301167510449886322e-02
-3.222798183560371399e-02
-6.521257106214761734e-03
7.102490216493606567e-02
3.926314413547515869e-03
-5.899987369775772095e-02
6.481549702584743500e-03
-3.567212447524070740e-02
2.734288573265075684e-02
6.568367034196853638e-02
-7.496006321161985397e-03
-9.346995502710342407e-02
-4.490417242050170898e-02
1.199747249484062195e-02
-1.018053013831377029e-02
-1.033556386828422546e-01
-9.344028681516647339e-02
-7.080405950546264648e-02
4.232764709740877151e-03
-2.531571127474308014e-02
-5.333525314927101135e-02
-5.728748161345720291e-03
6.014236807823181152e-02
2.175624854862689972e-02
-3.072984330356121063e-02
-3.482473269104957581e-02
2.564239874482154846e-02
4.816378001123666763e-03
-4.879034310579299927e-02
5.981472879648208618e-02
-5.924768373370170593e-02
6.636857241392135620e-02
1.571796135976910591e-03
-1.248676329851150513e-02
1.419471856206655502e-02
1.740227192640304565e-01
-1.273478865623474121e-01
-1.387986540794372559e-02
-6.964145600795745850e-02
3.209697082638740540e-02
-6.657631695270538330e-02
4.122523218393325806e-02
-2.295199595391750336e-02
-3.333109617233276367e-02
1.272646617144346237e-02
1.355509459972381592e-01
-5.877094343304634094e-02
-3.048415295779705048e-02
6.809005048125982285e-03
1.641690433025360107e-01
-1.327883638441562653e-02
1.267410814762115479e-01
-4.410243034362792969e-02
3.944003582000732422e-02
-6.021482497453689575e-02
-1.328389905393123627e-02
4.548582434654235840e-02
8.856212720274925232e-03
3.043625131249427795e-02
8.803632110357284546e-02
2.276336401700973511e-02
2.624521777033805847e-02
-1.084333378821611404e-02
-7.459419220685958862e-02
3.672423958778381348e-02
2.803863957524299622e-02
4.693392291665077209e-02
5.044294055551290512e-03
8.660303056240081787e-02
1.687512034550309181e-03
-5.688766483217477798e-03
-1.638607122004032135e-02
-2.153171226382255554e-03
3.667783737182617188e-02
-4.394496232271194458e-02
-4.374203458428382874e-02
2.447929792106151581e-02
1.007069051265716553e-01
-6.623511016368865967e-02
-2.410383149981498718e-02
2.238799259066581726e-02
-3.667205339297652245e-03
-7.809920702129602432e-03
-4.356523603200912476e-02
-1.538053061813116074e-02
-1.102700755000114441e-01
9.455130249261856079e-02
6.644708663225173950e-02
2.768700011074542999e-02
-1.526413299143314362e-02
1.112803369760513306e-01
1.011638194322586060e-01
-2.149189822375774384e-02
-9.791690111160278320e-02
9.611523710191249847e-03
-1.935406215488910675e-02
5.223019979894161224e-04
-1.284987479448318481e-01
-3.306439146399497986e-02
3.925865516066551208e-02
5.779888108372688293e-02
3.128779307007789612e-02
3.063864447176456451e-02
-2.910232171416282654e-03
-2.438410371541976929e-02
-2.229288406670093536e-02
-6.951224058866500854e-02
5.368910729885101318e-02
4.406235739588737488e-02
2.333653345704078674e-02
5.436699837446212769e-02
8.603011816740036011e-02
7.783969491720199585e-02
7.608821988105773926e-02
-2.446765080094337463e-02
1.869148388504981995e-02
-7.861333340406417847e-02
4.928112030029296875e-02
1.466820854693651199e-02
-3.291902691125869751e-02
4.583275690674781799e-02
2.372610149905085564e-03
-1.078788414597511292e-01
4.478654265403747559e-02
-4.490085318684577942e-02
4.040549974888563156e-04
2.400084212422370911e-02
-2.462358679622411728e-04
-2.056910656392574310e-02
1.474909186363220215e-01
-4.560761153697967529e-02
5.043358355760574341e-02
1.850176136940717697e-03
7.509049959480762482e-03
-3.549115033820271492e-03
1.321205776184797287e-02
-7.282712031155824661e-03
-2.885837294161319733e-02
-4.014116898179054260e-02
9.749985486268997192e-02
-3.794380277395248413e-02
7.148913294076919556e-02
-7.266162335872650146e-02
4.425193369388580322e-02
2.863487415015697479e-02
6.867890805006027222e-02
-1.248769462108612061e-02
5.123739317059516907e-02
3.428699448704719543e-03
-8.758435398340225220e-02
3.142198175191879272e-02
1.212515402585268021e-02
7.456819061189889908e-03
-8.552835881710052490e-02
5.677594617009162903e-02
1.010985230095684528e-03
-4.816883429884910583e-02
3.051103158213663846e-05
3.767100721597671509e-02
-3.772027790546417236e-02
-9.130188822746276855e-02
1.159475892782211304e-01
3.502731397747993469e-02
3.738208487629890442e-02
-4.732412099838256836e-02
-5.559622868895530701e-02
3.155669569969177246e-02
-4.482393153011798859e-03
4.125272110104560852e-02
-4.491015337407588959e-03
4.683226346969604492e-02
5.573466420173645020e-02
5.087026581168174744e-02
2.592995204031467438e-02
4.818476364016532898e-02
-6.269600987434387207e-02
4.655956104397773743e-02
2.881444245576858521e-02
-6.676454358967021108e-05
-3.370183706283569336e-02
3.219481557607650757e-02
2.462373301386833191e-02
8.516801893711090088e-02
-3.558686375617980957e-02
2.804272808134555817e-02
-7.581171393394470215e-02
-3.477768972516059875e-02
-2.653108350932598114e-02
-3.000169247388839722e-02
-2.515718899667263031e-02
-5.951985716819763184e-02
-2.642752416431903839e-02
-1.635389402508735657e-02
-4.666358232498168945e-02
5.350059643387794495e-02
6.013464648276567459e-03
6.967012584209442139e-02
-1.664693839848041534e-02
9.074649214744567871e-02
-3.737697750329971313e-02
-4.685515910387039185e-02
1.990717090666294098e-02
-9.272580791730433702e-05
-5.985983461141586304e-02
-1.075308397412300110e-02
1.935950107872486115e-02
-4.818286001682281494e-02
-5.222744494676589966e-02
-1.627868786454200745e-02
5.397748947143554688e-02
5.732185766100883484e-02
-6.283444818109273911e-03
4.229116067290306091e-02
-2.624707669019699097e-02
-1.513347681611776352e-02
1.827180944383144379e-02
9.887889958918094635e-03
5.746180191636085510e-02
3.124761953949928284e-02
-4.991042241454124451e-02
7.498515397310256958e-02
3.442945331335067749e-02
-2.626407705247402191e-02
-3.421769663691520691e-02
3.740500658750534058e-02
3.542599081993103027e-02
1.839760690927505493e-02
-2.317948080599308014e-02
5.940034240484237671e-02
5.765482038259506226e-02
1.566362380981445312e-02
2.021551877260208130e-02
-4.746003821492195129e-02
-3.975630551576614380e-02
1.380580384284257889e-02
-5.475693568587303162e-02
-4.137400165200233459e-02
4.209321737289428711e-02
-1.457796990871429443e-02
-5.382567644119262695e-03
2.416002191603183746e-02
-4.195589572191238403e-02
-2.389241009950637817e-03
3.562179580330848694e-02
-2.994992397725582123e-02
-3.089504688978195190e-02
3.208145126700401306e-02
-3.858288377523422241e-02
-1.110233366489410400e-02
-1.174954231828451157e-02
8.221146650612354279e-03
2.250961959362030029e-02
-3.192046657204627991e-02
7.128068711608648300e-03
-5.229009687900543213e-02
5.072282627224922180e-02
2.002036897465586662e-03
-2.476704120635986328e-02
-1.022523362189531326e-02
-1.113207787275314331e-01
-4.315451160073280334e-02
1.175704877823591232e-02
-3.210817277431488037e-02
-8.273994177579879761e-02
6.014103442430496216e-02
5.974055454134941101e-02
1.054671593010425568e-02
2.344006672501564026e-03
3.039440698921680450e-02
-1.403830759227275848e-02
3.723983839154243469e-02
-1.365220360457897186e-02
-3.245742246508598328e-02
6.711722165346145630e-02
7.304399460554122925e-02
9.655644744634628296e-02
4.151513054966926575e-02
-5.077866464853286743e-02
-4.140726849436759949e-02
9.398780018091201782e-02
2.278668619692325592e-02
6.809267401695251465e-02
-5.035625770688056946e-02
3.078320994973182678e-02
-7.007165998220443726e-02
5.724172666668891907e-02
2.306969836354255676e-02
1.570246927440166473e-02
-8.279575407505035400e-02
1.207032054662704468e-02
1.267004758119583130e-02
2.916096337139606476e-02
1.766795292496681213e-02
3.314842283725738525e-02
-1.206461619585752487e-02
-2.345570363104343414e-03
2.906650491058826447e-02
-2.931611612439155579e-02
-5.144603177905082703e-02
5.729402974247932434e-02
-6.971529126167297363e-02
9.009956568479537964e-02
5.955492332577705383e-02
-5.098825320601463318e-02
-3.502026945352554321e-02
4.293443635106086731e-02
2.453810535371303558e-02
1.792569644749164581e-02
-6.728882901370525360e-03
8.921330422163009644e-02
-8.086457848548889160e-03
1.141754444688558578e-02
7.643237709999084473e-02
6.282395683228969574e-03
3.630522638559341431e-02
4.398101195693016052e-02
7.487031817436218262e-02
2.286439947783946991e-02
1.142100617289543152e-02
-9.725490957498550415e-02
-2.589662931859493256e-02
-2.251870930194854736e-02
5.151914805173873901e-02
5.911962315440177917e-02
4.415772110223770142e-02
-7.452188432216644287e-02
-6.551649421453475952e-02
2.236873097717761993e-02
-5.064228549599647522e-02
-3.669404238462448120e-02
-9.356071799993515015e-02
2.247223816812038422e-02
1.242107897996902466e-02
-5.708008632063865662e-02
-4.682390019297599792e-02
-5.884343013167381287e-02
-7.382916752249002457e-03
-2.051143348217010498e-02
4.321897402405738831e-02
-5.303433164954185486e-02
9.020344913005828857e-02
-1.057658530771732330e-02
3.594264015555381775e-02
-7.869058288633823395e-03
4.058061540126800537e-02
-3.049442358314990997e-02
-4.056067392230033875e-02
2.155018970370292664e-02
-3.998857736587524414e-02
1.118073519319295883e-02
-6.563831865787506104e-02
-2.472123689949512482e-02
-3.733051195740699768e-02
-5.748847872018814087e-02
4.562964290380477905e-02
2.598714828491210938e-02
-2.130601555109024048e-03
1.900397799909114838e-02
-9.301992505788803101e-02
6.147254630923271179e-02
-3.365771472454071045e-02
4.210051894187927246e-02
-7.670931518077850342e-02
6.817242503166198730e-02
-3.844768553972244263e-02
2.616566140204668045e-03
-7.827591150999069214e-02
-2.033698186278343201e-02
-7.400053739547729492e-02
1.534408330917358398e-02
-4.638145677745342255e-03
-6.619329750537872314e-02
-3.520045895129442215e-03
5.599539354443550110e-02
-6.090391054749488831e-02
-4.625549539923667908e-03
-2.931496594101190567e-03
-7.626363635063171387e-02
-5.143671855330467224e-02
-3.616679087281227112e-02
6.494224537163972855e-03
-3.921296074986457825e-02
-2.256461791694164276e-02
-1.606401056051254272e-02
-3.494549915194511414e-02
2.303412742912769318e-02
-4.323807358741760254e-02
6.282446533441543579e-02
1.699709519743919373e-02
4.828561842441558838e-02
8.425516076385974884e-03
-3.051267750561237335e-02
1.323073916137218475e-02
-6.588733196258544922e-02
-1.252885162830352783e-02
4.478039592504501343e-02
1.817097514867782593e-02
1.219087559729814529e-02
-6.837128847837448120e-02
-2.803476341068744659e-02
-1.268974971026182175e-02
-1.150991022586822510e-02
-5.078557506203651428e-02
5.548475682735443115e-02
-9.729807265102863312e-03
-5.800535157322883606e-02
3.955927491188049316e-02
-8.529697544872760773e-03
-2.322774752974510193e-02
-5.459237843751907349e-02
-1.686958782374858856e-02
3.607756271958351135e-02
2.741590887308120728e-02
-5.128505080938339233e-02
4.534196108579635620e-02
-3.123716451227664948e-03
2.665189839899539948e-02
7.132817059755325317e-02
4.354354366660118103e-02
3.042324632406234741e-02
-1.411693729460239410e-02
-2.691712789237499237e-02
1.301602553576231003e-02
-4.008180275559425354e-02
5.307995900511741638e-02
1.970375515520572662e-02
6.197953969240188599e-02
-1.230485853739082813e-03
5.304245278239250183e-02
-4.052277654409408569e-02
9.472529590129852295e-02
3.758854418992996216e-02
6.348253786563873291e-02
3.544325381517410278e-02
5.012868344783782959e-02
-3.867445141077041626e-02
1.859105564653873444e-02
1.199253462255001068e-02
4.263065382838249207e-02
3.788506984710693359e-02
4.658915475010871887e-02
-2.771992981433868408e-02
-2.227541804313659668e-02
3.870934620499610901e-02
-3.059550374746322632e-02
-5.234433710575103760e-02
-9.386485442519187927e-03
6.778087466955184937e-02
5.541592836380004883e-02
-7.488710805773735046e-03
1.535046263597905636e-03
2.814301662147045135e-02
5.888406932353973389e-02
-9.960356168448925018e-03
1.729633845388889313e-02
1.491916086524724960e-02
5.045972066000103951e-04
-2.851080708205699921e-02
-8.382199704647064209e-02
-2.006540447473526001e-02
-5.717989429831504822e-02
1.783795841038227081e-02
1.839300803840160370e-02
8.133824914693832397e-02
-5.637028813362121582e-02
5.403909832239151001e-02
-3.698325529694557190e-02
2.130285277962684631e-02
4.712525382637977600e-02
-2.876753546297550201e-02
8.986991830170154572e-03
-2.783337142318487167e-03
-5.978447850793600082e-03
5.858909338712692261e-02
2.172208204865455627e-02
-4.387544840574264526e-02
1.907448843121528625e-02
4.392576217651367188e-02
-5.335611477494239807e-02
-7.023368030786514282e-02
3.512641042470932007e-02
-3.459275886416435242e-02
1.530009694397449493e-02
7.625231053680181503e-03
6.189027428627014160e-02
-6.249111145734786987e-02
-2.998316101729869843e-02
2.724132314324378967e-02
-5.459727346897125244e-02
-1.140792015939950943e-02
2.301900275051593781e-02
1.952368952333927155e-02
3.706735000014305115e-02
3.975268453359603882e-02
3.654475882649421692e-02
1.182870473712682724e-02
-3.922160714864730835e-02
-7.224827073514461517e-03
2.243063971400260925e-02
5.087943375110626221e-02
3.635770082473754883e-02
1.607315149158239365e-03
1.029897015541791916e-02
2.127408236265182495e-02
7.349985186010599136e-03
4.254420474171638489e-02
1.446308102458715439e-02
-1.698726601898670197e-02
4.824459925293922424e-02
2.107778098434209824e-03
-5.947472527623176575e-02
-6.166249513626098633e-02
-5.321512743830680847e-02
-4.479048773646354675e-02
5.299048498272895813e-02
-3.318830952048301697e-02
4.627250880002975464e-02
2.481629140675067902e-02
3.003247780725359917e-03
1.963023096323013306e-02
8.725980669260025024e-02
3.303502500057220459e-02
-3.047180920839309692e-02
-3.603959083557128906e-02
-2.719852328300476074e-02
-5.339745059609413147e-02
-4.532346036285161972e-03
3.149662539362907410e-02
2.993822842836380005e-02
8.010217547416687012e-02
3.530718386173248291e-02
8.947579562664031982e-02
7.929646223783493042e-02
2.393053146079182625e-03
1.165934130549430847e-01
-6.908696889877319336e-02
-9.262752719223499298e-03
5.321516841650009155e-02
8.330692350864410400e-02
2.118042297661304474e-02
1.896135509014129639e-02
-1.198680419474840164e-02
-5.266300216317176819e-02
-1.144447326660156250e-01
5.052559822797775269e-02
6.572110950946807861e-02
-3.143811598420143127e-02
2.180344052612781525e-02
1.014058291912078857e-01
-1.179919615387916565e-01
7.366511970758438110e-02
2.130468375980854034e-02
-2.489857748150825500e-02
-6.825970858335494995e-02
-1.478615589439868927e-02
5.966272577643394470e-02
-9.315145015716552734e-02
-2.755913184955716133e-03
-6.913251429796218872e-02
-3.530422225594520569e-02
-2.659338526427745819e-02
-4.417510703206062317e-02
1.436342746019363403e-01
1.906882971525192261e-01
-6.878039333969354630e-03
1.090952232480049133e-01
3.124038130044937134e-02
-3.786481916904449463e-02
3.175755217671394348e-02
-2.783465199172496796e-02
2.732016518712043762e-02
6.763330101966857910e-02
-6.839639693498611450e-02
-5.817154794931411743e-02
-4.083327576518058777e-02
3.909026086330413818e-02
3.936027933377772570e-04
1.209263340570032597e-03
-3.528416529297828674e-02
1.927522942423820496e-02
-8.417741209268569946e-02
-5.454057361930608749e-03
-7.532297819852828979e-02
2.938001602888107300e-02
2.236250787973403931e-02
-4.810403287410736084e-02
-8.419710211455821991e-03
2.330492809414863586e-02
-2.732652053236961365e-02
3.349806368350982666e-02
-1.363504398614168167e-02
8.174975216388702393e-02
6.243084371089935303e-02
6.872405856847763062e-02
5.619416385889053345e-02
-7.297201454639434814e-02
2.231842093169689178e-02
-9.351065009832382202e-02
-1.569129526615142822e-02
-2.815096266567707062e-02
-7.671467214822769165e-02
-2.894155122339725494e-02
1.386031322181224823e-02
3.491022065281867981e-02
-9.316159039735794067e-02
3.810978960245847702e-03
-1.183675834909081459e-03
-1.317352335900068283e-02
1.112690195441246033e-01
-4.607390984892845154e-02
6.897737085819244385e-02
-2.435250207781791687e-02
4.335168749094009399e-03
-6.241879612207412720e-02
-5.973242223262786865e-03
2.482700161635875702e-03
-2.329119294881820679e-02
-2.621433511376380920e-02
4.318932536989450455e-03
7.386346813291311264e-03
-3.879228606820106506e-02
-4.950772225856781006e-02
-1.119188219308853149e-02
5.148546770215034485e-03
4.228798672556877136e-03
7.892984896898269653e-02
-5.979676730930805206e-03
4.625729343388229609e-04
-8.963428437709808350e-02
-2.932190895080566406e-02
2.004475891590118408e-02
5.563370883464813232e-02
-6.855396181344985962e-02
-3.311936929821968079e-02
4.975750111043453217e-03
-2.156134881079196930e-02
-3.477805107831954956e-02
-2.137917652726173401e-02
2.959714643657207489e-02
-1.306345593184232712e-02
-4.964452702552080154e-03
5.606311932206153870e-02
9.516082354821264744e-04
3.644458949565887451e-02
7.198549341410398483e-03
-5.691135674715042114e-02
4.011291265487670898e-02
-3.986580297350883484e-02
5.466077476739883423e-02
3.015024960041046143e-02
-7.370909443125128746e-04
-6.538819521665573120e-02
-4.922267422080039978e-02
-1.842828467488288879e-02
5.482924357056617737e-02
4.325710982084274292e-02
-6.942517589777708054e-03
7.449899613857269287e-02
-7.295465469360351562e-02
6.094980984926223755e-03
8.300592005252838135e-02
-1.214760243892669678e-01
4.247296601533889771e-02
-7.580731809139251709e-02
-1.538673881441354752e-02
-1.126517876982688904e-01
-3.039060533046722412e-02
4.340500384569168091e-02
-4.919723793864250183e-02
-5.074897781014442444e-02
3.238141536712646484e-02
-2.114481478929519653e-02
2.187711931765079498e-02
4.828870669007301331e-02
2.340768091380596161e-02
6.400340795516967773e-02
-1.813230849802494049e-02
5.633207410573959351e-02
-3.403060883283615112e-02
-1.741610653698444366e-02
-2.790793403983116150e-02
1.360449381172657013e-02
1.269133109599351883e-02
1.229748036712408066e-02
-2.362933196127414703e-02
-5.005571618676185608e-02
9.380996227264404297e-02
4.194002598524093628e-02
3.852473571896553040e-02
-1.089765205979347229e-01
-5.749315768480300903e-02
-2.850083261728286743e-02
5.708391219377517700e-02
8.329145610332489014e-02
7.738564163446426392e-03
3.070022724568843842e-02
-2.539408020675182343e-02
-5.996772646903991699e-02
6.074928492307662964e-02
1.057637631893157959e-01
2.826770953834056854e-02
-6.125302985310554504e-03
1.428807899355888367e-02
1.010391637682914734e-01
2.321256138384342194e-02
7.751340419054031372e-02
-4.868242144584655762e-02
5.816857516765594482e-02
-2.604376524686813354e-02
-3.832367807626724243e-02
2.788618905469775200e-03
-4.581720381975173950e-02
-3.095553442835807800e-02
4.178024828433990479e-03
-2.786477468907833099e-02
-6.526685506105422974e-02
-3.727354481816291809e-02
4.985199496150016785e-02
2.339223586022853851e-02
-5.154815688729286194e-02
-3.584262728691101074e-02
-4.456772468984127045e-03
-1.028336863964796066e-02
-1.353004627162590623e-04
-2.244704961776733398e-02
-5.466334521770477295e-02
1.469916664063930511e-02
1.802141428925096989e-03
-5.277529708109796047e-04
6.081244349479675293e-02
-2.551153674721717834e-02
1.439785491675138474e-02
7.444783300161361694e-02
1.270859688520431519e-02
-4.858488216996192932e-02
5.378539487719535828e-02
-4.834965875488705933e-05
5.019501596689224243e-02
-2.142830751836299896e-02
-1.167997345328330994e-02
3.212321922183036804e-02
1.790116168558597565e-02
7.535671102232299745e-06
-5.848139990121126175e-04
-5.047840252518653870e-02
-2.742534130811691284e-02
-2.087181434035301208e-02
3.143984824419021606e-02
5.394159257411956787e-02
7.644351106137037277e-03
4.491863772273063660e-02
-6.218682229518890381e-02
4.819124564528465271e-02
5.456984043121337891e-02
8.229549974203109741e-02
4.626768932212144136e-04
5.435713008046150208e-02
7.112605497241020203e-03
3.789359703660011292e-02
-1.542104780673980713e-02
-5.214938148856163025e-02
3.458547964692115784e-02
-1.528916042298078537e-02
-2.584850043058395386e-02
4.291564598679542542e-02
4.001585766673088074e-02
-5.606003105640411377e-02
-3.618734329938888550e-02
-7.433592341840267181e-03
-2.527650445699691772e-02
5.961589142680168152e-02
3.197405114769935608e-02
3.205147385597229004e-02
-6.690453737974166870e-02
1.144375726580619812e-01
6.284958869218826294e-02
5.704155564308166504e-02
-2.779167518019676208e-02
6.090283021330833435e-02
1.577558927237987518e-02
-2.434798330068588257e-02
3.462942317128181458e-02
1.456786096096038818e-01
8.215501904487609863e-02
3.689557686448097229e-02
-4.973224829882383347e-03
9.476934373378753662e-02
4.140400514006614685e-02
1.953654550015926361e-02
-7.735051214694976807e-02
3.005403093993663788e-02
-4.953156784176826477e-02
3.010581713169813156e-03
-3.522704541683197021e-02
-1.401789486408233643e-02
-4.576497524976730347e-02
4.120746161788702011e-03
3.738399595022201538e-02
-1.633928716182708740e-02
-3.174088522791862488e-02
7.468052953481674194e-02
-5.870650056749582291e-03
1.664875075221061707e-03
3.448393568396568298e-02
-2.656621299684047699e-02
-7.282868772745132446e-02
-3.833359107375144958e-02
2.695686370134353638e-02
6.902909372001886368e-03
-4.795768111944198608e-02
2.373662590980529785e-02
4.722133278846740723e-02
-9.783683344721794128e-03
4.933086410164833069e-02
2.327605849131941795e-03
-7.756943814456462860e-03
-1.147837936878204346e-02
-6.720370799303054810e-02
7.634402252733707428e-03
-5.093423649668693542e-02
-2.316650748252868652e-02
-1.941647008061408997e-02
-9.602857381105422974e-02
-5.056594312191009521e-02
-5.107505246996879578e-02
-2.247299440205097198e-02
-3.561120480298995972e-02
3.804318606853485107e-03
6.684019416570663452e-02
1.844096556305885315e-02
-3.230051323771476746e-02
-1.800717599689960480e-02
4.723465070128440857e-02
4.012303799390792847e-02
-1.153418794274330139e-02
4.485876858234405518e-02
-3.181121498346328735e-02
1.506026252172887325e-03
-1.317523303441703320e-03
5.996870808303356171e-03
2.071913331747055054e-02
-1.566216163337230682e-02
3.467085212469100952e-02
9.797006845474243164e-02
7.061732560396194458e-02
7.006919384002685547e-02
-8.621957898139953613e-02
-5.826976150274276733e-03
1.491940207779407501e-02
-2.764558792114257812e-02
2.642224077135324478e-03
7.109421771019697189e-03
-2.663150057196617126e-02
-1.566447690129280090e-02
-4.647170426324009895e-04
3.792029991745948792e-02
-8.730728924274444580e-02
5.319201573729515076e-02
-2.775474824011325836e-02
4.338602349162101746e-02
2.757879719138145447e-02
-2.863436751067638397e-02
3.778290003538131714e-02
6.015200167894363403e-02
1.117840111255645752e-01
-3.128973022103309631e-02
-1.455769408494234085e-02
-2.257571369409561157e-02
4.309956356883049011e-02
