5.486968904733657837e-02
5.918420851230621338e-02
-5.472804605960845947e-02
-5.236095748841762543e-03
-5.064946040511131287e-02
-5.342374369502067566e-02
-4.250565171241760254e-02
3.899169340729713440e-02
-4.753129556775093079e-02
-2.360833808779716492e-02
7.250876724720001221e-02
-2.917252480983734131e-02
4.206491634249687195e-02
6.611004471778869629e-02
-1.406404562294483185e-02
-4.113752394914627075e-02
5.444002896547317505e-02
-3.548248484730720520e-02
8.082976937294006348e-02
-8.874045684933662415e-03
5.668791010975837708e-03
3.333649411797523499e-02
1.524678803980350494e-02
-2.704383991658687592e-02
1.059686671942472458e-02
-1.343678589910268784e-02
-6.318277865648269653e-02
-5.994019098579883575e-03
5.248309299349784851e-02
-7.223734166473150253e-03
-1.500974688678979874e-02
2.052428014576435089e-02
2.193784713745117188e-02
-8.211226202547550201e-03
5.315266549587249756e-02
4.182855784893035889e-02
2.137671038508415222e-02
-2.416027709841728210e-02
8.889206498861312866e-02
-5.485155805945396423e-02
1.233155466616153717e-02
-4.877667501568794250e-02
-1.646293140947818756e-02
5.906102806329727173e-02
3.977554151788353920e-04
7.440879940986633301e-03
-9.216841310262680054e-03
2.268619276583194733e-02
2.153171226382255554e-02
-4.178506787866353989e-03
6.011179462075233459e-02
-3.485770523548126221e-02
-2.680441737174987793e-02
6.271746009588241577e-03
5.458797514438629150e-02
4.338448867201805115e-02
-1.670280657708644867e-02
-5.362043902277946472e-02
4.626461863517761230e-02
4.900087043642997742e-02
-2.293778769671916962e-02
-5.285442620515823364e-02
5.868367850780487061e-02
6.455498933792114258e-02
-1.201218273490667343e-02
5.837446451187133789e-02
4.125644639134407043e-02
-4.715495556592941284e-02
-4.082431271672248840e-02
-4.876062273979187012e-02
6.982009857892990112e-02
-2.074140869081020355e-02
-1.328050158917903900e-02
-5.744945257902145386e-02
6.371827423572540283e-02
4.461332410573959351e-02
2.169844694435596466e-02
7.492466270923614502e-02
-3.249500691890716553e-02
-6.199692375957965851e-03
6.048494204878807068e-02
-6.008915230631828308e-02
3.392012044787406921e-02
-5.027987062931060791e-03
-9.763259440660476685e-03
5.571214854717254639e-02
4.231896251440048218e-02
-6.661847233772277832e-02
-2.342498861253261566e-02
6.858832202851772308e-03
-3.265568986535072327e-02
5.544881895184516907e-02
4.485935717821121216e-02
5.722523480653762817e-02
2.913769520819187164e-02
-4.127994924783706665e-02
9.225814603269100189e-03
2.012870274484157562e-02
-1.107469853013753891e-02
1.080590998753905296e-03
3.989357128739356995e-02
2.365757524967193604e-02
3.461069986224174500e-02
2.163765579462051392e-02
-5.081839859485626221e-03
-2.219601534307003021e-02
5.345924571156501770e-02
2.360932156443595886e-02
-4.534554854035377502e-02
-4.743136093020439148e-02
2.638208866119384766e-02
2.178057096898555756e-02
7.296178489923477173e-02
-6.375547498464584351e-03
-5.126355960965156555e-02
-3.690979210659861565e-03
-2.206300944089889526e-02
1.355859450995922089e-03
-5.305897817015647888e-02
-6.341089960187673569e-03
