8.733274415135383606e-03
1.273368597030639648e-01
4.656595364212989807e-02
5.424711480736732483e-02
-7.685772329568862915e-02
-1.207936778664588928e-01
-1.031610146164894104e-01
1.639444008469581604e-02
5.969914048910140991e-02
4.957100842148065567e-03
8.204395323991775513e-02
1.950625702738761902e-02
9.976067394018173218e-02
-6.372199207544326782e-02
-8.904249221086502075e-02
-1.955310627818107605e-02
1.253328919410705566e-01
-1.089271996170282364e-02
1.374341398477554321e-01
-6.289261579513549805e-02
-6.215421482920646667e-02
-2.389153465628623962e-02
-1.494031399488449097e-01
3.415041416883468628e-02
1.670894771814346313e-02
-1.537768840789794922e-01
6.159598939120769501e-03
-1.053510606288909912e-01
8.806682378053665161e-02
-1.081575360149145126e-02
6.425549089908599854e-02
7.778822630643844604e-02
4.241630434989929199e-02
-8.071943372488021851e-02
3.861619532108306885e-02
-1.164796352386474609e-01
-6.529244035482406616e-02
-4.512513428926467896e-02
-3.334203734993934631e-02
1.481855940073728561e-02
1.090804934501647949e-01
-8.121784776449203491e-02
-7.986359298229217529e-02
-9.384228289127349854e-02
1.568156480789184570e-01
3.409210592508316040e-02
2.334800774406176060e-05
-2.268122136592864990e-02
4.500699788331985474e-02
1.443685311824083328e-02
-6.320585310459136963e-02
-5.997614562511444092e-02
9.290017932653427124e-02
-9.251903742551803589e-03
5.237941816449165344e-02
-6.305635720491409302e-02
6.365195661783218384e-02
-9.235168248414993286e-02
1.063562557101249695e-01
6.933082640171051025e-02
-1.210522949695587158e-01
-3.569345548748970032e-02
3.888642415404319763e-03
5.956921353936195374e-02
7.078410685062408447e-02
3.049627877771854401e-02
7.048232108354568481e-02
1.138716563582420349e-02
-7.510033249855041504e-02
1.697016879916191101e-02
5.912518128752708435e-02
-8.994180709123611450e-02
-1.018252316862344742e-02
5.531362071633338928e-02
-1.634866893291473389e-01
6.620635092258453369e-02
7.766078691929578781e-03
-1.518891192972660065e-02
-5.361152067780494690e-02
7.043108344078063965e-02
1.688579320907592773e-01
-5.460077151656150818e-02
2.147969417273998260e-02
4.664645344018936157e-02
-8.786004036664962769e-02
-5.273755267262458801e-02
-6.817631423473358154e-02
6.954258680343627930e-02
1.283056437969207764e-01
6.052999198436737061e-02
-8.546501398086547852e-02
1.461104955524206161e-02
-1.089180167764425278e-02
9.130522608757019043e-02
3.417011117562651634e-03
6.443750113248825073e-02
-2.831927500665187836e-03
-1.002023071050643921e-01
-1.402890533208847046e-01
1.075457781553268433e-02
5.003738030791282654e-02
3.103723376989364624e-02
8.654367178678512573e-02
-7.016934454441070557e-02
-7.341561373323202133e-03
4.021793603897094727e-03
-2.787715196609497070e-02
-1.204565260559320450e-02
-6.521313637495040894e-02
-3.376020863652229309e-02
7.132562994956970215e-02
3.920613974332809448e-02
8.099552243947982788e-02
7.159885764122009277e-02
8.500824123620986938e-02
-8.295723050832748413e-02
3.563329949975013733e-02
-5.756146088242530823e-02
-1.719473488628864288e-02
-1.421734839677810669e-01
1.402907539159059525e-02
5.624016746878623962e-02
3.846422210335731506e-02
-5.907564610242843628e-02
4.229689761996269226e-02
-1.229239441454410553e-02
1.089849695563316345e-02
3.293880820274353027e-02
6.500015407800674438e-02
9.798069298267364502e-02
-9.356059879064559937e-02
-7.005367428064346313e-02
-8.157350122928619385e-03
2.958252280950546265e-02
4.453744739294052124e-02
-3.049011714756488800e-02
-5.131722241640090942e-02
3.909787535667419434e-02
9.899301081895828247e-02
-7.159504294395446777e-02
-2.608146332204341888e-02
-6.007971987128257751e-02
2.846710011363029480e-02
-5.059530958533287048e-02
-6.485887616872787476e-02
-3.585027996450662613e-03
1.046175416558980942e-02
-1.270883902907371521e-02
-1.447532139718532562e-02
3.527601808309555054e-02
3.924823179841041565e-02
-7.737231254577636719e-02
-5.475569143891334534e-02
-1.915797963738441467e-02
-5.650566145777702332e-02
4.868908971548080444e-02
8.888330310583114624e-02
-2.470491454005241394e-02
4.274214152246713638e-03
-8.532711863517761230e-02
-7.376114279031753540e-02
-7.122483849525451660e-02
-8.903429657220840454e-02
8.251069486141204834e-02
2.194579504430294037e-02
9.000808000564575195e-02
8.539649657905101776e-03
7.890456914901733398e-02
-3.043914213776588440e-02
8.650498837232589722e-02
-7.159494608640670776e-02
9.750563651323318481e-02
3.084269538521766663e-02
8.820030093193054199e-02
-2.878157421946525574e-02
-7.320287078619003296e-02
1.011100132018327713e-02
4.899630695581436157e-02
1.752734929323196411e-02
2.763954689726233482e-03
-6.911503523588180542e-02
4.038276150822639465e-02
-3.685824200510978699e-02
3.298611566424369812e-02
-1.386952959001064301e-02
1.355124358087778091e-02
-1.023809611797332764e-02
-5.292094498872756958e-02
-9.632980823516845703e-02
5.306820198893547058e-02
-4.271547775715589523e-03
7.644927501678466797e-02
-7.553203403949737549e-02
8.739385753870010376e-02
-6.604075431823730469e-02
7.450962811708450317e-02
-1.825930923223495483e-02
-9.093184024095535278e-03
-8.301876485347747803e-02
-8.948813192546367645e-03
7.276614010334014893e-02
4.961443319916725159e-02
5.325652286410331726e-02
-2.233085222542285919e-02
3.845374658703804016e-02
-1.417208928614854813e-02
-4.834189265966415405e-02
3.427579998970031738e-02
-7.271381467580795288e-02
-9.443072974681854248e-02
1.629557833075523376e-02
-5.152995139360427856e-02
-2.475796081125736237e-02
-6.335509568452835083e-02
4.417616501450538635e-02
4.615784063935279846e-02
4.702421650290489197e-02
1.676931604743003845e-02
-8.502929657697677612e-02
-1.051497831940650940e-02
-9.962852299213409424e-02
2.260963991284370422e-02
4.374147392809391022e-03
5.456665158271789551e-02
-7.166153937578201294e-02
3.208843618631362915e-02
2.547757932916283607e-03
3.765163570642471313e-02
9.386358782649040222e-03
-9.079691022634506226e-02
3.731399029493331909e-02
-1.859481073915958405e-02
1.842627674341201782e-02
-2.497693896293640137e-02
4.874897375702857971e-02
-8.415722846984863281e-02
6.159460917115211487e-02
-2.195833623409271240e-02
5.989409238100051880e-02
-3.677812218666076660e-02
3.540270775556564331e-02
4.080172255635261536e-02
5.761561170220375061e-02
-2.960361540317535400e-02
-9.043915569782257080e-02
3.719652444124221802e-02
-7.126621156930923462e-02
-1.715524345636367798e-01
-7.148424535989761353e-02
7.998147606849670410e-02
-3.571977466344833374e-02
-8.782513439655303955e-02
1.198842748999595642e-01
-6.909633427858352661e-02
2.039440274238586426e-01
4.582573473453521729e-02
-1.013605222105979919e-01
2.308188937604427338e-02
-1.772740632295608521e-01
5.447389185428619385e-02
3.682742360979318619e-03
-5.872889980673789978e-02
-9.360650181770324707e-02
-7.433681190013885498e-02
-7.709816098213195801e-02
-6.402590870857238770e-02
-6.194890663027763367e-02
-5.552088841795921326e-02
-2.496160194277763367e-02
-3.513579070568084717e-02
-1.690026558935642242e-02
9.168552607297897339e-02
-1.503632366657257080e-01
-1.627418994903564453e-01
7.702109217643737793e-02
1.523773819208145142e-01
-6.137627735733985901e-02
1.013337001204490662e-01
-9.511905722320079803e-03
3.734344616532325745e-02
1.034811139106750488e-01
-4.128285124897956848e-02
-1.333343237638473511e-01
-2.421252429485321045e-02
3.462442383170127869e-02
3.284284844994544983e-02
1.944632828235626221e-02
7.243126630783081055e-02
-2.020194195210933685e-02
1.842714250087738037e-01
-1.487297713756561279e-01
6.666266918182373047e-02
9.246976673603057861e-02
-5.234726145863533020e-02
-6.335006654262542725e-02
1.033643782138824463e-01
-1.175559014081954956e-01
1.043066233396530151e-01
-1.210165321826934814e-01
8.392110466957092285e-02
7.636632025241851807e-02
-8.485048078000545502e-03
-9.107076376676559448e-02
-9.863423556089401245e-02
-3.747558221220970154e-03
8.088051527738571167e-02
1.648631691932678223e-01
-8.561030030250549316e-02
4.690748080611228943e-02
9.940773248672485352e-02
-1.702479422092437744e-01
4.576732590794563293e-02
4.762908071279525757e-02
1.217068508267402649e-01
-1.262661814689636230e-01
-7.454019039869308472e-02
1.162644252181053162e-01
7.236911356449127197e-02
-4.736864566802978516e-02
4.266568645834922791e-02
-5.981480702757835388e-02
6.371712684631347656e-02
-2.656672708690166473e-02
6.969832628965377808e-02
7.268295437097549438e-02
-5.513487383723258972e-02
-6.056287884712219238e-02
1.694560865871608257e-03
-7.640898227691650391e-02
9.034421294927597046e-02
-5.021572113037109375e-02
8.017414365895092487e-04
-2.918932959437370300e-02
-4.813274741172790527e-02
-6.702123582363128662e-02
-7.466129213571548462e-02
5.079971160739660263e-03
-6.728606671094894409e-02
2.283998532220721245e-03
-3.784977272152900696e-02
-1.006177812814712524e-01
1.257670391350984573e-02
-4.258970730006694794e-03
7.398237287998199463e-02
-3.197067230939865112e-02
1.490629762411117554e-01
-3.487927839159965515e-02
4.457042366266250610e-02
-8.727809414267539978e-03
-4.763865843415260315e-02
-3.511496633291244507e-02
3.201923519372940063e-02
-8.837503381073474884e-03
-6.134825199842453003e-02
-5.949844419956207275e-02
2.125417441129684448e-02
5.038987845182418823e-02
-1.098573431372642517e-01
9.721708483994007111e-03
4.488828033208847046e-02
-8.432155847549438477e-02
-9.364853613078594208e-03
-1.463491190224885941e-02
-4.214618727564811707e-02
3.088168054819107056e-02
4.211518913507461548e-02
-7.819236069917678833e-02
-3.401227667927742004e-02
9.103062562644481659e-03
7.668847590684890747e-02
4.479564353823661804e-02
-2.348105795681476593e-02
6.043990701436996460e-02
-6.913128495216369629e-02
-7.368753850460052490e-02
-3.899039234966039658e-03
-3.242427110671997070e-02
-4.523737356066703796e-03
-1.048938855528831482e-01
-5.233751609921455383e-03
3.439681604504585266e-02
-5.825661122798919678e-02
-4.623509198427200317e-02
-8.122505992650985718e-02
7.521362602710723877e-02
-8.922201395034790039e-02
6.493322551250457764e-02
8.873131871223449707e-02
-7.327669300138950348e-03
-5.418057739734649658e-02
3.584740683436393738e-02
3.594444319605827332e-02
-1.082871761173009872e-02
4.317637905478477478e-02
8.871532976627349854e-02
6.388623733073472977e-03
8.397781103849411011e-02
-1.850576512515544891e-02
-7.650332152843475342e-02
7.777041196823120117e-02
4.792884364724159241e-02
-1.707206293940544128e-02
3.282460616901516914e-03
7.887966930866241455e-02
8.501873165369033813e-02
-1.050481456331908703e-03
1.824112795293331146e-02
-4.932935908436775208e-02
-1.110650878399610519e-02
6.194767728447914124e-02
-6.820410490036010742e-02
5.942157283425331116e-02
7.219661027193069458e-02
-7.891657948493957520e-02
3.960338234901428223e-02
3.582872450351715088e-02
-3.579062968492507935e-02
-4.707645624876022339e-02
7.135584205389022827e-02
-3.541693836450576782e-02
4.806185141205787659e-02
3.788054361939430237e-02
2.586089633405208588e-02
5.245056003332138062e-02
-4.466871917247772217e-02
2.163293398916721344e-02
-7.502567768096923828e-02
7.888474315404891968e-02
-1.820778474211692810e-02
-3.425502404570579529e-02
5.510479211807250977e-02
5.841587111353874207e-02
-7.539606094360351562e-02
-8.605094254016876221e-02
-2.432176843285560608e-02
-3.294434770941734314e-02
7.802630309015512466e-03
-4.119196673855185509e-04
7.036635279655456543e-02
3.191847354173660278e-02
4.375236574560403824e-03
-6.561844050884246826e-02
-5.082713067531585693e-02
-6.381588429212570190e-02
-1.500949449837207794e-02
6.995716691017150879e-02
-7.104971446096897125e-03
1.513525377959012985e-02
-5.452425405383110046e-02
-3.338162600994110107e-02
-9.636813774704933167e-03
-2.778265066444873810e-02
-4.125189408659934998e-02
-2.538112550973892212e-02
-7.126640528440475464e-02
-7.653794437646865845e-02
1.231690496206283569e-02
-6.411955505609512329e-02
-8.759102225303649902e-02
1.341342739760875702e-02
-2.021183073520660400e-02
5.537041579373180866e-04
-6.404772400856018066e-02
-9.987469017505645752e-02
5.411799997091293335e-02
2.772460319101810455e-02
-7.378841936588287354e-02
8.916445076465606689e-03
-7.053492218255996704e-02
1.682711206376552582e-02
-3.029046207666397095e-02
-3.809765726327896118e-02
-2.502476051449775696e-02
8.960337191820144653e-02
-3.313519433140754700e-02
-7.492706179618835449e-02
-8.851689845323562622e-02
-6.286820769309997559e-02
-1.359289139509201050e-02
-8.545618038624525070e-04
-2.600446902215480804e-02
9.785766899585723877e-02
1.121609658002853394e-01
-1.037327572703361511e-03
-9.283795952796936035e-03
2.237283997237682343e-02
2.418592013418674469e-02
1.509709190577268600e-02
2.918490581214427948e-02
1.040432676672935486e-01
-2.703083679080009460e-02
3.006361238658428192e-02
-8.733215183019638062e-02
-6.453635543584823608e-02
-9.290655702352523804e-02
3.130723536014556885e-02
-6.557777523994445801e-02
-7.304644584655761719e-02
2.351240441203117371e-02
9.384032338857650757e-02
-2.489854395389556885e-02
4.114381596446037292e-02
5.704820156097412109e-02
1.265029013156890869e-01
-1.005656570196151733e-01
-1.013469975441694260e-02
-6.097195297479629517e-02
-8.099295198917388916e-02
9.822063893079757690e-02
-1.487400941550731659e-02
-2.153578586876392365e-02
6.370592862367630005e-02
1.244496479630470276e-01
7.664991915225982666e-02
-7.613234966993331909e-02
-1.353273633867502213e-02
4.033499583601951599e-02
5.360324680805206299e-02
3.044141829013824463e-02
-5.096211284399032593e-02
8.067362010478973389e-02
6.983319181017577648e-04
-8.874792605638504028e-02
1.338419169187545776e-01
-1.405214052647352219e-02
-5.587265826761722565e-03
4.428839311003684998e-02
7.391491532325744629e-02
-8.939201384782791138e-02
-5.101661384105682373e-02
2.104851789772510529e-02
2.673122100532054901e-03
8.990412205457687378e-02
8.477293699979782104e-02
-1.480853855609893799e-01
1.709293574094772339e-02
-8.409349247813224792e-04
1.265257000923156738e-01
6.752014160156250000e-02
8.267538249492645264e-02
-8.694248646497726440e-02
-6.507952511310577393e-02
2.470885403454303741e-02
-2.159542217850685120e-02
1.708642579615116119e-02
6.841288506984710693e-02
1.806742139160633087e-02
-6.177531555294990540e-02
1.025434657931327820e-01
1.848034560680389404e-03
-8.797741681337356567e-02
-4.566501826047897339e-02
-8.067127317190170288e-02
-1.448341179639101028e-02
-8.985217660665512085e-02
-5.262932740151882172e-03
-7.118001580238342285e-02
-2.145650610327720642e-02
4.005444049835205078e-02
-8.696688339114189148e-03
-1.111683845520019531e-01
3.868357092142105103e-02
-1.393795851618051529e-02
-8.287547528743743896e-02
-9.549669176340103149e-02
-4.262849316000938416e-02
5.131952837109565735e-02
1.687310636043548584e-02
3.977399319410324097e-02
3.005567006766796112e-02
6.710723042488098145e-02
1.332117617130279541e-01
-7.796578854322433472e-02
7.779090851545333862e-02
-5.971590057015419006e-02
4.134992510080337524e-02
-5.894974619150161743e-02
8.754460513591766357e-02
1.452889107167720795e-02
-3.511346131563186646e-02
7.010199129581451416e-02
6.376587599515914917e-02
8.340720087289810181e-02
-1.048848703503608704e-01
-5.209063179790973663e-03
-4.795539379119873047e-02
-9.190732613205909729e-03
-8.127903565764427185e-03
-3.976795449852943420e-02
3.211225941777229309e-02
1.335543394088745117e-01
6.718979775905609131e-02
-1.138263270258903503e-01
-2.337790839374065399e-02
-8.315999060869216919e-02
7.304781675338745117e-02
1.051156669855117798e-01
-1.535394549136981368e-04
3.774453699588775635e-02
-1.003701165318489075e-01
8.926912397146224976e-02
-5.658355355262756348e-02
1.076739355921745300e-01
-7.837661355733871460e-02
6.260273605585098267e-02
3.717131167650222778e-02
-3.637228906154632568e-02
1.162781491875648499e-01
7.580653578042984009e-02
-8.206839114427566528e-02
-7.519063353538513184e-02
7.643600925803184509e-03
1.944301091134548187e-02
-8.566381782293319702e-02
-5.496574193239212036e-02
-2.485916391015052795e-02
3.365043178200721741e-02
-8.500778116285800934e-03
-1.508700847625732422e-01
9.855770319700241089e-02
-8.169866353273391724e-02
9.218893945217132568e-02
1.517188642174005508e-02
8.178571239113807678e-03
-2.312405034899711609e-02
6.819652020931243896e-02
8.395941928029060364e-03
-1.461373865604400635e-01
7.837308943271636963e-02
-3.201254829764366150e-02
-3.499537706375122070e-02
1.584832184016704559e-02
-2.918832749128341675e-02
8.813479542732238770e-02
3.807401284575462341e-02
-6.621670722961425781e-02
9.580811113119125366e-02
-6.743394583463668823e-02
4.460803791880607605e-02
6.726349890232086182e-02
6.081639230251312256e-02
8.337160944938659668e-02
3.854185715317726135e-02
7.418633252382278442e-02
3.558055311441421509e-02
-1.147198211401700974e-02
4.736413806676864624e-02
-8.115585893392562866e-02
6.426697224378585815e-02
-1.032268628478050232e-01
8.959773927927017212e-02
1.325793191790580750e-02
4.098321497440338135e-02
8.463713526725769043e-02
-7.749447226524353027e-02
1.854743226431310177e-03
-9.962600655853748322e-03
-1.656457781791687012e-02
9.463319182395935059e-02
1.343785971403121948e-01
-9.372519701719284058e-02
5.644202604889869690e-02
-2.029677107930183411e-02
-1.006259918212890625e-01
7.227480411529541016e-02
-1.689644530415534973e-02
1.303489133715629578e-02
1.349285840988159180e-01
6.906923651695251465e-02
5.607341974973678589e-02
-6.538873165845870972e-02
-8.750883489847183228e-02
7.884392514824867249e-03
-4.381486028432846069e-02
5.118156597018241882e-02
-3.814428299665451050e-02
-3.640444204211235046e-02
-3.415108844637870789e-02
5.822984501719474792e-02
-5.053738877177238464e-02
4.298854619264602661e-02
-6.610637903213500977e-02
-6.583140045404434204e-02
4.312450811266899109e-02
-8.713162690401077271e-02
-3.246778622269630432e-02
-1.122352555394172668e-01
-1.634903810918331146e-02
4.706932604312896729e-02
-5.748728662729263306e-02
1.019438356161117554e-01
-8.953429758548736572e-02
-1.522462517023086548e-01
5.745271220803260803e-02
-9.348863735795021057e-03
1.742100715637207031e-02
4.954371601343154907e-02
4.841113463044166565e-02
1.839717663824558258e-02
5.087484791874885559e-02
-1.416987180709838867e-01
7.761686295270919800e-02
-1.806609146296977997e-02
-1.310545951128005981e-01
-1.006833277642726898e-02
3.090349398553371429e-02
-8.114162087440490723e-02
-4.816249758005142212e-02
-2.485562348738312721e-03
-7.259380817413330078e-02
-2.325199358165264130e-02
7.961155474185943604e-02
5.292242765426635742e-02
1.282993406057357788e-01
-2.997221052646636963e-02
1.230685040354728699e-01
3.547105565667152405e-02
-8.242847025394439697e-02
7.159206271171569824e-02
3.812131658196449280e-02
-3.792425990104675293e-02
5.862589552998542786e-02
9.413845837116241455e-02
5.743653699755668640e-02
2.169811166822910309e-02
-6.080084666609764099e-02
4.293179139494895935e-02
-6.561166793107986450e-02
7.385978847742080688e-02
-7.798546925187110901e-03
2.561789564788341522e-02
-4.427459090948104858e-02
-7.084788382053375244e-02
7.544764876365661621e-02
1.679605841636657715e-01
-9.341743588447570801e-02
-1.781040281057357788e-01
-4.341368563473224640e-03
-1.049533858895301819e-02
4.242445901036262512e-02
-4.856532067060470581e-02
-6.242877990007400513e-02
9.079056233167648315e-02
-9.369866549968719482e-02
1.906404271721839905e-02
3.261235076934099197e-03
2.138574235141277313e-02
-5.786888301372528076e-02
-4.372875019907951355e-02
-8.041367679834365845e-02
-1.734147779643535614e-02
-5.427396297454833984e-02
-5.748444795608520508e-02
-4.178506880998611450e-02
-1.509923636913299561e-01
1.411815285682678223e-01
-7.774849981069564819e-02
-3.197778761386871338e-02
1.047173812985420227e-01
-2.642258256673812866e-02
1.174154803156852722e-01
-6.796493381261825562e-02
-6.626711040735244751e-02
1.735059358179569244e-02
5.992722138762474060e-02
3.861133009195327759e-02
7.362556457519531250e-02
1.824163347482681274e-01
8.709162473678588867e-02
1.544927805662155151e-01
-1.182240843772888184e-01
-9.142069518566131592e-02
2.074398472905158997e-02
-3.363235294818878174e-02
-8.931776136159896851e-02
-2.724752388894557953e-02
-3.383120149374008179e-02
3.577786264941096306e-04
-3.916192054748535156e-02
-1.184315904974937439e-01
1.099863350391387939e-01
1.112277619540691376e-03
-6.714395713061094284e-03
5.281747318804264069e-03
2.837323956191539764e-02
-7.813289761543273926e-02
1.524982452392578125e-01
3.745751688256859779e-03
-3.909936919808387756e-02
4.688686877489089966e-02
-7.574611157178878784e-02
1.812675781548023224e-02
-1.077597066760063171e-01
7.274026423692703247e-02
-7.252829521894454956e-02
1.273921038955450058e-02
2.116649411618709564e-02
-1.511938171461224556e-03
-8.016075938940048218e-02
2.581849321722984314e-02
3.248829022049903870e-02
2.115380205214023590e-02
1.283579170703887939e-01
-8.107724599540233612e-03
1.942886039614677429e-02
1.375207751989364624e-01
-1.117998082190752029e-02
-9.234655648469924927e-02
2.306444384157657623e-02
1.158495917916297913e-01
-7.513619959354400635e-02
9.786122292280197144e-02
-2.987802028656005859e-02
1.255217045545578003e-01
-2.578030712902545929e-02
1.077895052731037140e-03
1.978272758424282074e-02
1.130379736423492432e-01
-1.662172004580497742e-02
-9.338640421628952026e-02
-2.104461565613746643e-02
6.185737252235412598e-02
-8.729790151119232178e-02
3.152818605303764343e-02
-4.935844615101814270e-02
1.672652214765548706e-01
8.572423458099365234e-02
1.238877326250076294e-02
2.568635391071438789e-03
4.336027428507804871e-02
-8.133532479405403137e-03
-6.300279498100280762e-02
2.409593435004353523e-04
-8.595731109380722046e-02
-3.602244332432746887e-02
-3.431820496916770935e-02
2.351259589195251465e-01
8.129448443651199341e-02
-3.995341807603836060e-02
2.827498503029346466e-02
2.273015677928924561e-02
-2.968838810920715332e-02
-3.317187726497650146e-02
2.657842123880982399e-03
-8.758589625358581543e-02
-6.407368183135986328e-02
6.726368516683578491e-02
-7.546894252300262451e-02
1.860734820365905762e-02
4.569609835743904114e-02
-9.277481585741043091e-02
2.846643887460231781e-02
1.346607878804206848e-02
4.250951111316680908e-02
6.247549131512641907e-02
-7.980146259069442749e-02
-2.880287542939186096e-02
-2.755011804401874542e-02
5.946527421474456787e-02
7.936932891607284546e-02
-7.615913450717926025e-02
-7.646873593330383301e-02
7.850397378206253052e-02
-5.888984352350234985e-02
-3.906055167317390442e-02
9.230253100395202637e-02
7.949301041662693024e-03
6.200180947780609131e-02
-4.718235507607460022e-02
7.701817899942398071e-02
3.184753656387329102e-02
9.628874249756336212e-03
2.341565676033496857e-02
-7.321089506149291992e-02
9.011249989271163940e-02
6.253400444984436035e-02
-5.827874690294265747e-02
-1.719861989840865135e-03
-3.478734195232391357e-02
-4.260490834712982178e-02
5.382092669606208801e-02
8.254585415124893188e-02
-4.085357114672660828e-02
-9.027143009006977081e-03
5.896991863846778870e-02
4.861272498965263367e-02
-4.913773015141487122e-02
5.669428408145904541e-02
-3.638846054673194885e-02
3.318257629871368408e-02
-4.002199694514274597e-02
2.568218298256397247e-02
1.087016910314559937e-01
-5.995322018861770630e-02
5.633847042918205261e-02
-9.113048762083053589e-02
-7.570156455039978027e-02
-1.260486431419849396e-02
4.728134348988533020e-02
-7.359763234853744507e-02
-5.975039675831794739e-03
4.390801861882209778e-02
-5.000727251172065735e-02
-6.631955504417419434e-02
7.240784913301467896e-02
-7.790166884660720825e-02
-4.354302212595939636e-02
-6.242030486464500427e-02
-4.237693920731544495e-02
5.208055954426527023e-03
-3.279516473412513733e-02
-1.644565537571907043e-02
-8.319384604692459106e-02
-5.476721376180648804e-02
-2.178547717630863190e-02
-4.300860688090324402e-03
-8.899630606174468994e-02
1.775959134101867676e-02
8.901251479983329773e-03
4.249051213264465332e-02
-3.205283358693122864e-02
2.609124407172203064e-02
-7.794193923473358154e-02
1.710064359940588474e-03
-8.141821622848510742e-02
-4.773377254605293274e-02
-3.696481138467788696e-02
6.788816303014755249e-02
-7.057458907365798950e-02
-3.350416943430900574e-02
-5.515666306018829346e-02
-5.795653164386749268e-02
5.513260886073112488e-02
-8.582480251789093018e-02
-2.294718660414218903e-02
4.463310167193412781e-02
-9.860108047723770142e-02
-5.473218113183975220e-02
2.654457651078701019e-02
1.280445605516433716e-03
3.804147243499755859e-02
1.653221994638442993e-02
-1.354803424328565598e-02
5.810892581939697266e-02
-7.018885761499404907e-02
-6.020751595497131348e-02
1.273543573915958405e-02
-1.019278466701507568e-01
-2.190515957772731781e-02
-3.241413086652755737e-02
2.397357486188411713e-03
2.186365984380245209e-02
-3.421083465218544006e-02
4.630249738693237305e-02
1.379553042352199554e-02
-4.461246728897094727e-02
7.503835856914520264e-02
2.039376646280288696e-02
8.383913338184356689e-02
2.065132744610309601e-02
1.178611516952514648e-01
2.562952227890491486e-02
9.154871851205825806e-02
1.035534292459487915e-01
-1.942166127264499664e-02
1.178121566772460938e-02
-5.259093269705772400e-02
1.605289801955223083e-02
-3.925129305571317673e-03
1.118487417697906494e-01
5.653117597103118896e-02
9.040424972772598267e-02
-5.166349187493324280e-02
8.040860295295715332e-02
2.013607174158096313e-01
5.623969435691833496e-02
-8.427374064922332764e-02
-4.590981453657150269e-02
8.341912925243377686e-02
7.934653013944625854e-02
-2.364147603511810303e-01
1.295415610074996948e-01
1.417893022298812866e-01
-1.578816771507263184e-02
-1.140436753630638123e-01
-2.218459919095039368e-02
-5.511609092354774475e-02
1.077067852020263672e-01
3.216531127691268921e-02
1.095164846628904343e-02
-8.018495887517929077e-02
1.029285490512847900e-01
1.053647547960281372e-01
-3.049141541123390198e-02
-6.984146684408187866e-02
-1.064569037407636642e-02
8.785163611173629761e-02
4.395975917577743530e-02
4.739016294479370117e-04
-2.939744293689727783e-02
-7.105805724859237671e-02
1.144621670246124268e-01
-6.260097771883010864e-02
5.511022731661796570e-02
3.656761720776557922e-02
8.505016565322875977e-03
-5.769532918930053711e-02
-5.043921992182731628e-02
-4.525668453425168991e-03
9.818311780691146851e-02
-4.789982363581657410e-02
-1.327667832374572754e-01
1.239783540368080139e-01
-5.401638150215148926e-02
-1.186657473444938660e-01
-9.754411131143569946e-02
2.048192359507083893e-02
1.511941943317651749e-02
2.732651121914386749e-02
-1.112262904644012451e-01
1.131796762347221375e-01
2.334936149418354034e-02
1.464109867811203003e-02
5.493746697902679443e-02
-9.145970642566680908e-02
-6.151556968688964844e-02
-4.519862681627273560e-02
-4.726908728480339050e-02
-7.925838977098464966e-02
1.359860785305500031e-02
-3.531968593597412109e-02
-1.334769185632467270e-02
-7.874687761068344116e-02
-5.176443979144096375e-02
1.152835786342620850e-01
1.794486679136753082e-02
-1.538538932800292969e-01
2.299603447318077087e-02
-1.131411194801330566e-01
9.547462314367294312e-02
2.042758837342262268e-02
3.562043979763984680e-02
-3.344107791781425476e-02
8.239655196666717529e-02
-7.908260822296142578e-02
9.711441397666931152e-02
1.699479110538959503e-02
-3.935552015900611877e-02
8.435294032096862793e-02
8.432132750749588013e-02
-5.023160949349403381e-02
6.268545985221862793e-02
5.525126680731773376e-02
2.286323532462120056e-02
7.494448870420455933e-02
9.380795992910861969e-03
1.406735479831695557e-01
6.227499991655349731e-02
-2.344421856105327606e-02
9.006196632981300354e-03
1.378957629203796387e-01
-1.083603687584400177e-02
3.090707771480083466e-02
4.600629210472106934e-02
-5.115593597292900085e-02
2.309745550155639648e-02
4.057690501213073730e-02
-5.757459998130798340e-02
-2.336237346753478050e-03
-9.066437929868698120e-02
-7.291252911090850830e-02
3.095758333802223206e-02
-2.814206760376691818e-03
-4.564338922500610352e-02
3.447607625275850296e-03
6.074683368206024170e-02
1.100235432386398315e-01
3.079532086849212646e-02
-1.397603657096624374e-02
1.018839478492736816e-01
2.684352360665798187e-02
4.603016749024391174e-02
-6.876375526189804077e-02
9.594032913446426392e-02
-6.991960853338241577e-02
3.795905783772468567e-02
-1.246172040700912476e-01
-3.091842308640480042e-02
-4.935579001903533936e-02
5.059137195348739624e-02
3.874529525637626648e-02
6.727438420057296753e-02
1.087862849235534668e-01
-3.712580725550651550e-02
3.148261830210685730e-02
1.508298888802528381e-02
-7.206535339355468750e-02
3.725264593958854675e-02
5.340971052646636963e-02
5.041879788041114807e-02
1.666134968400001526e-02
5.876854062080383301e-02
-1.593272946774959564e-02
-5.722650513052940369e-02
4.424010962247848511e-02
-5.716400686651468277e-03
2.445773221552371979e-02
-3.626398369669914246e-02
-9.532684087753295898e-02
1.615641266107559204e-02
-1.169245615601539612e-01
-4.173411801457405090e-02
4.092741757631301880e-02
1.060711313039064407e-02
1.629691384732723236e-02
4.843275621533393860e-02
1.174421235918998718e-02
1.387533079832792282e-02
-7.529143244028091431e-02
-8.521971106529235840e-02
2.348363213241100311e-02
-6.825906783342361450e-02
-1.171312779188156128e-01
-1.539392303675413132e-02
9.625312872231006622e-03
-3.569122776389122009e-02
-6.314124166965484619e-02
-5.507784895598888397e-03
2.514334628358483315e-03
5.582913011312484741e-02
5.850560497492551804e-03
3.214383125305175781e-02
8.756117313168942928e-04
1.309669669717550278e-02
2.137206122279167175e-02
-2.964936569333076477e-02
-1.145596504211425781e-01
-1.251657307147979736e-01
9.022890031337738037e-02
-1.033634785562753677e-02
1.393778808414936066e-02
8.033476769924163818e-03
-8.295507729053497314e-02
-2.495021745562553406e-02
-8.164969086647033691e-02
-5.106590688228607178e-02
-4.509434103965759277e-02
-4.630085080862045288e-02
2.101770974695682526e-02
7.329989224672317505e-02
6.788356602191925049e-02
7.535752654075622559e-02
-1.284486148506402969e-02
-2.364601753652095795e-02
-6.064702197909355164e-02
-2.029963955283164978e-02
-1.706632226705551147e-02
3.537953272461891174e-02
2.368023060262203217e-02
-2.713052369654178619e-02
5.417280271649360657e-02
4.625498503446578979e-02
-1.930116117000579834e-02
3.826186759397387505e-03
-2.199637005105614662e-03
6.525355577468872070e-02
1.023718118667602539e-01
-1.313002780079841614e-02
7.632516324520111084e-02
4.803302884101867676e-02
-8.252157270908355713e-02
1.869936659932136536e-02
4.918193910270929337e-03
-8.651448041200637817e-02
-7.829520851373672485e-02
-1.408734265714883804e-02
9.956778585910797119e-02
-9.939602762460708618e-02
6.944459676742553711e-02
9.523537755012512207e-02
-8.728349953889846802e-02
-8.612479269504547119e-02
-3.095053322613239288e-02
1.519440114498138428e-01
-8.550001680850982666e-02
-8.939589560031890869e-02
-4.804071504622697830e-04
3.535566851496696472e-02
-8.666162937879562378e-02
9.249224513769149780e-02
6.627704016864299774e-03
7.769653201103210449e-02
-9.514740109443664551e-02
-9.445932507514953613e-02
7.353165745735168457e-02
5.074035376310348511e-02
1.133856549859046936e-02
9.915489703416824341e-02
-6.504134088754653931e-02
-8.809217065572738647e-02
-2.170672640204429626e-02
7.128115743398666382e-02
-6.149056926369667053e-02
-9.247495979070663452e-02
3.160887397825717926e-03
-9.111590683460235596e-02
4.298630170524120331e-03
2.022059075534343719e-02
5.553722381591796875e-02
3.900216519832611084e-02
1.026752442121505737e-01
-5.722224712371826172e-02
2.275884337723255157e-02
3.700374159961938858e-03
-1.196824908256530762e-01
2.261290512979030609e-02
4.530870169401168823e-02
-3.823520243167877197e-02
1.080284416675567627e-01
8.427310734987258911e-02
1.416587922722101212e-02
-6.569498777389526367e-02
1.276492923498153687e-01
-4.351661726832389832e-02
-1.644109934568405151e-02
-1.421671658754348755e-01
-1.931393705308437347e-02
4.231251776218414307e-02
4.094871878623962402e-02
-5.935152992606163025e-02
3.116802498698234558e-02
1.793534867465496063e-02
-1.571018993854522705e-01
-5.939061194658279419e-02
-1.091885147616267204e-03
-3.468619287014007568e-02
5.075401440262794495e-02
-9.031568467617034912e-02
9.262252599000930786e-02
8.889983594417572021e-02
-7.639159262180328369e-02
1.278398483991622925e-01
-1.031031180173158646e-02
6.829029007349163294e-05
8.732107281684875488e-02
-8.076213300228118896e-02
8.018920198082923889e-03
9.880083799362182617e-02
-6.152082234621047974e-02
-7.625420391559600830e-02
1.492325030267238617e-02
-2.235797233879566193e-02
-1.710489019751548767e-02
8.444444090127944946e-02
3.321948647499084473e-02
1.150131747126579285e-01
1.035655438899993896e-01
-8.774214982986450195e-02
7.164373248815536499e-02
-2.262809313833713531e-02
-4.350454360246658325e-02
-5.700282379984855652e-02
7.517004013061523438e-02
-2.020158246159553528e-02
2.507386915385723114e-02
-3.600500151515007019e-02
4.927432537078857422e-02
4.973680526018142700e-02
7.269076257944107056e-02
-4.321870952844619751e-02
-3.541297465562820435e-02
6.292372941970825195e-02
-3.440279141068458557e-02
-1.071525923907756805e-02
1.092820602934807539e-04
1.858148537576198578e-02
9.203346818685531616e-02
7.133148610591888428e-02
1.584751754999160767e-01
5.060020834207534790e-02
6.379155814647674561e-02
-1.148895174264907837e-01
1.339223533868789673e-01
-4.150408133864402771e-02
5.872412025928497314e-02
-5.982982367277145386e-02
-1.635850667953491211e-01
-1.295611858367919922e-01
-1.968528889119625092e-02
-2.229130826890468597e-02
-1.747646369040012360e-02
-3.357141837477684021e-02
8.558154106140136719e-02
1.678936034440994263e-01
-9.065059572458267212e-02
1.285077165812253952e-02
-1.659454405307769775e-01
7.199026644229888916e-02
1.284800320863723755e-01
-6.545737385749816895e-02
1.555054336786270142e-01
5.467217415571212769e-02
5.889857560396194458e-02
-1.709725409746170044e-01
-2.362019568681716919e-02
9.007501602172851562e-02
1.234138906002044678e-01
3.244670853018760681e-02
-1.914889924228191376e-02
1.189238429069519043e-01
-1.432712003588676453e-02
-3.129153326153755188e-02
9.431567788124084473e-02
-7.865708321332931519e-04
2.429099287837743759e-03
5.665148422122001648e-02
4.907513409852981567e-02
8.337912708520889282e-02
4.127507284283638000e-02
-1.204785630106925964e-01
-8.899081498384475708e-02
5.980201438069343567e-02
1.505916472524404526e-02
-1.598584838211536407e-02
-4.172023013234138489e-02
-8.994238451123237610e-03
5.318589683156460524e-05
-8.654105663299560547e-02
-7.078664004802703857e-02
-1.435018517076969147e-02
-5.898478627204895020e-02
-3.230047598481178284e-02
8.984450995922088623e-02
5.321809649467468262e-02
-3.098071552813053131e-02
5.144975334405899048e-02
4.370528087019920349e-02
5.288220196962356567e-02
-3.671310469508171082e-02
7.555246353149414062e-02
-7.271072268486022949e-02
5.599416419863700867e-02
1.872829534113407135e-02
1.766926422715187073e-02
8.060777932405471802e-02
3.081452287733554840e-02
-9.112706407904624939e-03
-1.502009760588407516e-02
8.570981770753860474e-02
-2.328089810907840729e-02
-8.303004503250122070e-02
3.576770797371864319e-02
6.623373925685882568e-02
3.648349270224571228e-02
1.338782068341970444e-02
4.196652770042419434e-02
-7.149256765842437744e-02
5.173118412494659424e-02
1.900583878159523010e-02
-1.295297872275114059e-02
-4.961465671658515930e-02
-5.535716190934181213e-02
-2.815665118396282196e-02
5.717371031641960144e-02
-6.715053319931030273e-02
2.593998983502388000e-02
-8.476772904396057129e-02
3.265531361103057861e-02
-2.928661927580833435e-02
2.186303958296775818e-02
3.191326186060905457e-02
-7.919251918792724609e-02
8.238729089498519897e-02
3.000462800264358521e-02
6.509553175419569016e-03
-3.899314999580383301e-02
-1.540804281830787659e-02
2.941951388493180275e-03
-6.052527949213981628e-02
-5.831377208232879639e-02
-1.832271739840507507e-02
-7.169479131698608398e-02
-2.632801420986652374e-03
-7.140765432268381119e-03
-7.723978161811828613e-02
5.805049091577529907e-02
-6.821803003549575806e-02
6.724673509597778320e-02
6.256487220525741577e-02
-8.405222743749618530e-02
-7.953760772943496704e-02
2.895571105182170868e-02
2.992990659549832344e-03
-8.588874340057373047e-02
3.779967129230499268e-02
1.661777868866920471e-02
3.593355789780616760e-02
5.471540242433547974e-02
-5.961218848824501038e-02
8.992382884025573730e-02
-4.547543451189994812e-02
-2.869442477822303772e-02
5.527744442224502563e-02
-2.168684825301170349e-02
5.471164360642433167e-02
-2.142196148633956909e-02
7.397892326116561890e-02
-4.275975748896598816e-02
2.723034843802452087e-02
3.504203259944915771e-02
-8.510133624076843262e-02
-2.979917451739311218e-02
5.260824784636497498e-02
-3.727278485894203186e-02
3.252604976296424866e-02
6.751232594251632690e-02
4.212963208556175232e-02
2.020940184593200684e-02
-7.970914244651794434e-02
-8.690497279167175293e-02
8.738868683576583862e-02
-4.863959923386573792e-02
-2.790868654847145081e-02
4.237400740385055542e-02
-8.791858702898025513e-02
4.955861717462539673e-02
-3.520876541733741760e-02
8.105171471834182739e-02
7.509959489107131958e-02
-5.876152217388153076e-02
-2.917156368494033813e-02
-1.283897645771503448e-02
-6.324982643127441406e-02
-8.631911873817443848e-02
-4.237473383545875549e-02
-2.140433713793754578e-02
-5.167951062321662903e-02
6.141787022352218628e-02
8.034816384315490723e-02
-6.356788426637649536e-02
2.223651297390460968e-02
2.282619103789329529e-02
9.587188810110092163e-02
-7.153709977865219116e-02
-2.917470969259738922e-02
-2.135207317769527435e-02
-8.768217265605926514e-02
6.167675554752349854e-02
3.149894624948501587e-02
-6.742435693740844727e-02
2.913196012377738953e-02
4.421813413500785828e-02
-6.118940934538841248e-02
-2.671159431338310242e-02
3.822869062423706055e-02
-8.415682241320610046e-03
-1.294370088726282120e-02
-9.220055490732192993e-02
8.735573291778564453e-02
-5.112185142934322357e-03
-3.001760505139827728e-02
-1.693033576011657715e-01
1.123830229043960571e-01
-9.643170237541198730e-02
8.699978142976760864e-02
5.706620216369628906e-02
-5.362853780388832092e-02
-8.795545995235443115e-02
-8.964303135871887207e-02
-5.496839527040719986e-03
7.712005823850631714e-02
-1.352155022323131561e-02
4.720403626561164856e-02
1.193987280130386353e-01
-1.746927388012409210e-02
-4.039526451379060745e-03
8.381900936365127563e-02
7.508786767721176147e-02
6.392673403024673462e-02
2.540424279868602753e-02
6.007642671465873718e-02
-6.038107350468635559e-02
7.933153957128524780e-02
-8.685756474733352661e-02
-1.304916478693485260e-02
-3.629591688513755798e-02
1.162720918655395508e-01
4.844034090638160706e-02
2.639180608093738556e-02
8.567257225513458252e-02
-4.487227648496627808e-02
4.710638523101806641e-02
7.567077875137329102e-02
-4.917678982019424438e-02
-5.023801326751708984e-02
-5.138330906629562378e-02
-3.799846768379211426e-02
9.007272869348526001e-02
-2.766107767820358276e-02
-1.517259143292903900e-02
-7.635263353586196899e-02
5.637914687395095825e-02
3.428360447287559509e-02
5.287696793675422668e-02
3.494271636009216309e-02
-1.328554935753345490e-02
3.598034009337425232e-02
-8.571687340736389160e-02
5.507902801036834717e-02
7.979674264788627625e-03
-7.959278672933578491e-02
-6.900965422391891479e-02
-3.787263855338096619e-02
1.434052269905805588e-02
-5.622832104563713074e-02
-5.284629017114639282e-02
8.567629009485244751e-02
5.739185214042663574e-02
6.657631695270538330e-02
-4.666554555296897888e-02
-1.032177060842514038e-01
-1.425724625587463379e-01
-2.751209831330925226e-04
-1.943163946270942688e-02
5.242872238159179688e-02
-1.133969705551862717e-02
2.176561392843723297e-02
-3.127436339855194092e-02
-6.391735374927520752e-02
-3.753376379609107971e-02
-6.145801022648811340e-02
7.082563638687133789e-02
1.728760823607444763e-02
9.390410780906677246e-02
-9.978877007961273193e-02
2.012576442211866379e-03
6.852948665618896484e-02
1.003694832324981689e-01
-3.019399382174015045e-02
5.944969132542610168e-03
5.590378306806087494e-03
-7.147925347089767456e-02
-6.195371504873037338e-03
3.870744025334715843e-03
1.227239117724820971e-04
5.814184248447418213e-02
-4.315399006009101868e-02
6.480675935745239258e-02
5.978817120194435120e-03
3.398454189300537109e-02
-1.113466080278158188e-02
7.206628471612930298e-02
7.001667749136686325e-03
9.713533520698547363e-02
-3.838087618350982666e-02
4.746139794588088989e-02
4.639910906553268433e-02
6.091305986046791077e-02
6.954023987054824829e-02
-5.750140175223350525e-02
2.538176812231540680e-02
-1.045291051268577576e-01
7.907026261091232300e-02
-5.714619159698486328e-02
7.282605767250061035e-02
4.711757227778434753e-02
8.796124160289764404e-02
-1.038837209343910217e-01
-5.068529769778251648e-02
7.880227267742156982e-02
3.915671259164810181e-02
-9.651258587837219238e-02
-6.392702460289001465e-02
3.996109217405319214e-02
2.415061555802822113e-02
-2.369953878223896027e-02
1.047317460179328918e-01
6.261391937732696533e-02
-1.828897930681705475e-02
-9.203607589006423950e-02
9.629999846220016479e-02
-2.336997725069522858e-02
-4.071320965886116028e-02
4.687330219894647598e-03
-1.102954521775245667e-02
-1.183407083153724670e-01
-5.545894964598119259e-04
2.405708096921443939e-02
8.371190167963504791e-03
-1.061475928872823715e-02
-7.263753563165664673e-02
-1.025057956576347351e-01
-5.165695771574974060e-02
-6.844913959503173828e-02
-6.889176368713378906e-02
-4.105332493782043457e-02
7.259787619113922119e-02
-6.220601964741945267e-03
-8.652374893426895142e-02
-5.108730494976043701e-02
7.696165144443511963e-02
-4.311352968215942383e-02
-1.084012165665626526e-01
-7.196802645921707153e-02
1.006670296192169189e-01
1.600460708141326904e-02
-7.221092283725738525e-02
1.629491746425628662e-01
1.819711737334728241e-02
7.014811784029006958e-02
-1.940032280981540680e-02
2.451377920806407928e-02
1.069903094321489334e-02
-8.378015458583831787e-02
7.425734400749206543e-02
3.005166538059711456e-02
1.251114159822463989e-01
7.074533402919769287e-02
-1.013184785842895508e-01
3.639340400695800781e-02
1.558145415037870407e-02
-2.861451171338558197e-02
-6.791661679744720459e-02
-5.924113839864730835e-02
3.269702196121215820e-02
-9.389233775436878204e-03
8.283738046884536743e-02
-4.562789574265480042e-02
2.350598879274912179e-05
5.291344225406646729e-02
-1.396916955709457397e-01
-1.888884976506233215e-02
4.785510152578353882e-02
6.965984404087066650e-02
-1.418675202876329422e-02
-7.457260787487030029e-02
-3.724000183865427971e-03
1.210603863000869751e-01
-1.392190228216350079e-03
-8.971582353115081787e-02
6.074474379420280457e-02
9.541504830121994019e-02
8.607284724712371826e-02
-1.299904007464647293e-02
-1.856157556176185608e-02
-1.652427315711975098e-01
-2.850380726158618927e-02
-6.124889105558395386e-02
6.558787077665328979e-02
-3.668156638741493225e-02
2.783087268471717834e-02
1.398526597768068314e-02
4.464833810925483704e-02
4.527704790234565735e-02
8.338128030300140381e-02
5.922736134380102158e-03
-9.864840656518936157e-02
-3.233345458284020424e-03
-4.339715093374252319e-02
-6.023091729730367661e-03
-1.195447966456413269e-01
-4.710028320550918579e-02
-7.044591475278139114e-03
3.954260051250457764e-02
-7.276114076375961304e-02
1.648528128862380981e-02
5.598914809525012970e-03
-1.296439208090305328e-02
1.136944256722927094e-02
1.186395343393087387e-02
6.725151836872100830e-02
-5.521792173385620117e-02
-5.452708154916763306e-02
-5.179001018404960632e-02
-6.624326854944229126e-02
3.127072472125291824e-03
-2.622102946043014526e-02
-8.445996791124343872e-02
-7.094044238328933716e-02
-1.818629167973995209e-02
-2.469992265105247498e-02
6.324610207229852676e-03
9.591568261384963989e-02
7.289855927228927612e-02
-9.034638851881027222e-02
-4.879206046462059021e-02
-1.580601371824741364e-02
-4.662396386265754700e-02
-6.339636445045471191e-02
9.271969646215438843e-02
-5.127520486712455750e-02
5.968571174889802933e-03
-6.588341295719146729e-02
3.286533802747726440e-02
-4.447528044693171978e-04
1.692303642630577087e-02
1.754845492541790009e-02
4.826530814170837402e-02
2.082978375256061554e-02
-1.974995806813240051e-02
-1.544215232133865356e-01
7.625529915094375610e-02
5.652642808854579926e-03
9.834794700145721436e-02
3.050453774631023407e-02
6.119420751929283142e-02
3.827145695686340332e-02
8.291433006525039673e-02
5.482307448983192444e-02
2.780080027878284454e-02
3.548407927155494690e-02
7.287483662366867065e-02
-4.338245093822479248e-02
7.864663749933242798e-02
-1.564060710370540619e-02
-6.307811476290225983e-03
-6.174376606941223145e-02
-2.457495965063571930e-02
1.007833108305931091e-01
6.086969375610351562e-02
7.831192761659622192e-02
9.743817895650863647e-02
1.225807219743728638e-01
9.361255913972854614e-02
-4.928710404783487320e-03
-6.646239757537841797e-02
-1.858189515769481659e-02
-1.095915865153074265e-02
1.389063335955142975e-02
-3.001803159713745117e-02
4.509427398443222046e-02
-8.818417042493820190e-02
1.567163132131099701e-02
-1.575980521738529205e-02
7.045832276344299316e-02
-4.241869971156120300e-02
7.302380353212356567e-02
1.490262430161237717e-02
-3.302594646811485291e-02
9.429685771465301514e-02
-7.089328765869140625e-02
5.751448497176170349e-02
4.844543337821960449e-02
3.960877284407615662e-02
4.373323544859886169e-02
5.019161477684974670e-02
5.673746392130851746e-02
-5.942304152995347977e-03
4.861609637737274170e-02
6.729754060506820679e-02
3.910413756966590881e-02
-5.913172848522663116e-03
4.782212153077125549e-02
-6.193138659000396729e-02
-8.027788251638412476e-02
-9.547822177410125732e-02
-1.752753183245658875e-02
5.635853856801986694e-02
2.566580893471837044e-03
-7.422742247581481934e-02
-4.402125719934701920e-03
-6.301484256982803345e-02
7.069664448499679565e-02
8.085662126541137695e-02
-6.495722383260726929e-02
-5.898242443799972534e-02
8.733527362346649170e-02
9.211257845163345337e-02
4.173719324171543121e-03
-9.460637718439102173e-02
7.822982221841812134e-02
2.805116772651672363e-02
-2.333684451878070831e-02
7.269787043333053589e-02
-5.843273550271987915e-02
-3.964504227042198181e-02
-4.202590137720108032e-02
-9.771436452865600586e-02
-9.533573687076568604e-02
3.773199394345283508e-03
4.094937443733215332e-02
8.454219996929168701e-02
-8.501359820365905762e-02
3.679943829774856567e-02
6.037820503115653992e-02
4.311076551675796509e-02
2.367687644436955452e-03
7.024548947811126709e-03
2.825769037008285522e-02
-7.767181843519210815e-02
-6.475295871496200562e-02
-3.473926335573196411e-02
7.196876406669616699e-02
1.248926594853401184e-01
-5.292363092303276062e-02
3.089102543890476227e-02
-1.801901869475841522e-02
-1.913888007402420044e-02
8.436267822980880737e-02
1.065830439329147339e-01
-8.180914074182510376e-02
-2.320962399244308472e-02
-6.679379194974899292e-02
8.337783068418502808e-02
-3.538361564278602600e-02
-7.044445723295211792e-02
1.338214576244354248e-01
6.077541504055261612e-03
8.606113493442535400e-02
3.576746955513954163e-02
-6.858362257480621338e-02
1.300071738660335541e-02
-2.619394473731517792e-02
-8.230360597372055054e-02
-9.468229254707694054e-04
-5.222720280289649963e-02
4.853616654872894287e-02
5.568883940577507019e-02
7.384067028760910034e-02
-7.033500075340270996e-02
-1.335079371929168701e-01
1.410596910864114761e-02
-7.745288312435150146e-02
5.688100308179855347e-02
1.547865942120552063e-02
-3.697797656059265137e-02
-5.082086846232414246e-02
1.536043286323547363e-01
-1.054263412952423096e-01
-5.227366462349891663e-02
1.646524667739868164e-02
4.348717257380485535e-02
-7.979941368103027344e-02
-9.350899606943130493e-02
6.438126415014266968e-02
1.056415736675262451e-01
-2.542771212756633759e-02
-9.467721730470657349e-02
-3.712913766503334045e-02
-8.251895196735858917e-03
9.994857758283615112e-02
2.333218790590763092e-02
9.917551279067993164e-02
-2.159195207059383392e-02
-1.216719523072242737e-01
-9.303944557905197144e-02
-1.101069450378417969e-01
8.550775051116943359e-02
2.374293841421604156e-02
-5.356403067708015442e-02
4.557082429528236389e-02
6.381362676620483398e-02
-1.183806359767913818e-01
2.541698515415191650e-02
-2.780377119779586792e-02
-6.574909389019012451e-02
1.223646253347396851e-01
-2.433923073112964630e-03
4.562744125723838806e-02
8.927890658378601074e-02
4.881769418716430664e-02
5.092372745275497437e-02
5.924442410469055176e-02
1.233180239796638489e-01
6.232541054487228394e-03
-4.123684391379356384e-02
4.068568721413612366e-02
-8.922973647713661194e-03
1.452308427542448044e-02
-1.987770572304725647e-02
-1.397974193096160889e-01
-4.295867681503295898e-02
-7.173256482928991318e-03
-1.003239974379539490e-01
-5.996601656079292297e-02
9.594684094190597534e-02
9.229598194360733032e-02
9.348694980144500732e-02
5.971226096153259277e-02
3.462208062410354614e-02
8.234662562608718872e-02
6.731157749891281128e-02
1.052375603467226028e-02
9.655557572841644287e-02
3.708995878696441650e-02
5.163414031267166138e-02
-8.140131086111068726e-02
1.828225404024124146e-01
1.784758083522319794e-02
1.104776188731193542e-01
1.029865443706512451e-01
-8.029727637767791748e-02
9.691279381513595581e-02
8.792109787464141846e-02
8.407788351178169250e-03
7.915215194225311279e-02
-7.805335521697998047e-02
-1.687659323215484619e-02
-4.764622077345848083e-02
5.260064266622066498e-03
6.020228192210197449e-02
4.056504741311073303e-02
3.068169578909873962e-03
-7.829644531011581421e-02
9.946492314338684082e-02
1.178212016820907593e-01
-1.500441692769527435e-03
-7.059491425752639771e-02
2.907161414623260498e-02
-3.666365891695022583e-02
-5.960670486092567444e-02
-3.438828885555267334e-02
5.629293620586395264e-02
6.857908517122268677e-02
-1.499444246292114258e-01
-5.156861618161201477e-02
9.039640426635742188e-02
-9.722381085157394409e-02
-2.680492959916591644e-02
1.431967914104461670e-01
9.348757565021514893e-02
-7.713755965232849121e-02
1.155488844960927963e-02
7.309754937887191772e-02
2.794003300368785858e-02
7.174136489629745483e-02
2.541986107826232910e-02
-5.942145828157663345e-03
-3.981976583600044250e-02
1.736612059175968170e-02
-1.060468181967735291e-01
2.123954147100448608e-02
-1.556087518110871315e-03
-5.724029242992401123e-02
-1.662192195653915405e-01
7.132928073406219482e-02
-7.494268566370010376e-02
-8.978793025016784668e-02
1.474851462990045547e-02
8.013020269572734833e-03
-1.456038206815719604e-01
1.193571239709854126e-01
-4.764031618833541870e-02
-2.453083917498588562e-02
-3.588664904236793518e-02
-2.630894072353839874e-02
-5.009571462869644165e-02
2.865547873079776764e-02
-4.253056272864341736e-02
1.787723414599895477e-02
7.385031878948211670e-02
-2.518920414149761200e-02
2.882204577326774597e-02
-4.780973494052886963e-02
2.791204676032066345e-02
-4.956206772476434708e-03
2.411595918238162994e-02
-7.375031709671020508e-02
1.887893676757812500e-02
6.927729398012161255e-02
5.999282374978065491e-02
2.342913299798965454e-02
4.454367235302925110e-02
1.614258438348770142e-02
-4.454717040061950684e-02
8.933680504560470581e-02
2.454536035656929016e-02
7.197745610028505325e-03
-5.305481329560279846e-02
-1.393092679791152477e-03
5.456514284014701843e-02
4.974315688014030457e-02
-3.931408375501632690e-02
2.192863263189792633e-02
-4.046078771352767944e-02
4.480781406164169312e-02
1.495199836790561676e-02
-2.027212455868721008e-02
2.005831338465213776e-02
3.053935617208480835e-02
-4.053591936826705933e-02
5.272174626588821411e-02
6.637456268072128296e-02
8.387061208486557007e-02
1.574764959514141083e-02
1.977964490652084351e-02
4.791065678000450134e-02
1.114038750529289246e-02
3.290095552802085876e-02
9.872204810380935669e-02
7.568399608135223389e-02
-1.440075784921646118e-02
7.126874756067991257e-03
-3.034398704767227173e-02
1.475555077195167542e-02
-5.168755538761615753e-03
-1.470593921840190887e-02
-3.804352879524230957e-02
2.238181419670581818e-02
1.480882987380027771e-02
1.017418727278709412e-01
2.121941931545734406e-02
-4.307031631469726562e-02
2.299233525991439819e-02
-8.086251467466354370e-02
-1.204621717333793640e-01
5.670201405882835388e-02
-1.572226756252348423e-03
-6.966042518615722656e-02
4.093816503882408142e-02
-4.461457952857017517e-02
-1.081141903996467590e-01
-8.400230109691619873e-02
9.612664580345153809e-02
1.134770140051841736e-01
-7.003313302993774414e-02
3.259694494772702456e-04
-9.819551371037960052e-03
3.153863549232482910e-02
9.018906205892562866e-02
4.102034494280815125e-02
6.864827126264572144e-02
7.634204626083374023e-02
-8.191825449466705322e-02
-4.561193659901618958e-02
-8.486040681600570679e-02
-8.745973557233810425e-02
-8.970116823911666870e-02
3.445332869887351990e-02
8.491986244916915894e-02
6.236816197633743286e-02
4.599435254931449890e-02
-2.666618302464485168e-02
-2.625482529401779175e-02
-5.518977716565132141e-02
1.009969785809516907e-01
6.099992897361516953e-03
-7.352235913276672363e-02
-5.154075101017951965e-02
1.200310811400413513e-01
-3.213182091712951660e-02
-1.197878643870353699e-01
9.529959410429000854e-02
-4.620403796434402466e-02
-6.180100142955780029e-02
1.012751385569572449e-01
1.381835900247097015e-02
-5.335092544555664062e-02
-7.518744561821222305e-03
5.345837771892547607e-02
-1.045759487897157669e-02
-2.056039869785308838e-02
8.242039382457733154e-02
5.040121078491210938e-02
1.247323527932167053e-01
-6.508699804544448853e-02
-1.512967515736818314e-02
-9.266318753361701965e-03
4.489556699991226196e-02
-2.952402271330356598e-02
7.951696962118148804e-02
8.612283319234848022e-02
7.913094013929367065e-02
-9.855938702821731567e-02
3.136747516691684723e-03
-4.916026070713996887e-02
2.192880213260650635e-02
-1.784468768164515495e-03
-3.237825632095336914e-02
-7.986348122358322144e-02
-4.819813370704650879e-02
3.652118518948554993e-02
-1.813973672688007355e-02
-3.749760985374450684e-02
-9.078591316938400269e-02
-5.101933609694242477e-03
-9.963155724108219147e-03
4.680442437529563904e-02
-4.731607064604759216e-02
-1.123543456196784973e-02
1.075169593095779419e-01
4.517398774623870850e-02
-5.901787057518959045e-02
-2.305618673563003540e-02
6.558869779109954834e-02
5.044735968112945557e-02
1.501378044486045837e-02
1.449954360723495483e-01
-3.814478963613510132e-02
5.662654992192983627e-03
7.808451354503631592e-02
3.494703397154808044e-02
-4.508716613054275513e-02
-8.794259279966354370e-02
3.820625692605972290e-02
1.360281258821487427e-01
-2.841873839497566223e-02
6.640197336673736572e-02
-1.218039635568857193e-02
1.648772135376930237e-02
-1.462194416671991348e-02
-7.385733723640441895e-02
-4.582740738987922668e-02
-8.820187300443649292e-02
-5.768898129463195801e-02
8.747004903852939606e-03
1.201348230242729187e-01
-8.159375935792922974e-02
-2.696623094379901886e-02
4.841336049139499664e-03
-2.506974898278713226e-02
8.981898427009582520e-02
-2.365245483815670013e-02
8.234829455614089966e-02
-7.096529006958007812e-02
5.080820992588996887e-02
-3.181674703955650330e-02
-4.190045874565839767e-03
-5.875300243496894836e-02
-8.609785139560699463e-02
4.816595837473869324e-02
1.740309596061706543e-01
-1.672914810478687286e-02
-7.004033774137496948e-02
3.619752824306488037e-03
-1.087391451001167297e-01
-2.861855737864971161e-02
-1.154402084648609161e-02
3.160782158374786377e-03
-9.311490505933761597e-02
-2.727139741182327271e-02
-6.890164222568273544e-03
-9.463160485029220581e-02
1.641924679279327393e-02
1.075752377510070801e-01
6.792867928743362427e-02
-1.184233203530311584e-01
7.207567244768142700e-02
7.332316040992736816e-02
8.087751455605030060e-03
-9.034813940525054932e-02
-4.826150089502334595e-02
5.064466223120689392e-02
5.455819144845008850e-02
-3.564685210585594177e-02
1.221171468496322632e-01
2.264696732163429260e-02
-3.928726911544799805e-02
8.153584599494934082e-02
2.802158240228891373e-03
1.238983031362295151e-02
-5.250579491257667542e-02
1.045480603352189064e-03
-1.708640158176422119e-02
-1.006864756345748901e-01
-3.734518215060234070e-02
5.550983920693397522e-02
-3.563428297638893127e-02
-8.882334083318710327e-02
3.055183961987495422e-02
-1.098626255989074707e-01
-2.949567325413227081e-02
-4.911741241812705994e-02
5.350585281848907471e-02
-8.965291082859039307e-02
-2.034978382289409637e-02
-7.176884263753890991e-02
-2.904258295893669128e-02
-5.435523390769958496e-02
-3.145180270075798035e-02
-5.489618331193923950e-02
4.002834111452102661e-02
2.816722728312015533e-02
-1.044819205999374390e-01
-2.060993574559688568e-02
-1.155568510293960571e-01
-1.395101547241210938e-01
-6.524664908647537231e-02
-4.029511287808418274e-02
-1.955624856054782867e-02
7.163056731224060059e-02
-7.965705543756484985e-02
-8.177042007446289062e-02
-8.821422606706619263e-02
7.663309574127197266e-02
-5.929147452116012573e-02
-2.640891121700406075e-03
-1.117838323116302490e-01
-6.141106411814689636e-02
-1.990528032183647156e-02
-4.000181332230567932e-02
7.985018938779830933e-02
-1.088832095265388489e-01
-2.382014319300651550e-02
-6.636185944080352783e-02
1.762624979019165039e-01
-1.539345947094261646e-03
-4.838973283767700195e-02
2.456200122833251953e-02
-3.342888876795768738e-02
8.172000199556350708e-02
-4.382137581706047058e-02
-1.069521717727184296e-02
-1.561744213104248047e-01
-1.348465830087661743e-01
1.889657974243164062e-02
-8.338228613138198853e-02
8.955266326665878296e-02
-4.875292629003524780e-02
1.077652946114540100e-01
4.995257779955863953e-02
-3.668783977627754211e-02
-8.479882031679153442e-02
-5.177889764308929443e-02
-1.836028695106506348e-02
6.320066750049591064e-03
3.754482837393879890e-03
5.663275346159934998e-02
-9.612351655960083008e-02
1.459138095378875732e-02
-7.685883902013301849e-03
-2.736418507993221283e-02
5.319241806864738464e-02
-3.138359636068344116e-02
-7.993092387914657593e-02
6.420420110225677490e-02
-3.301556408405303955e-02
8.519097417593002319e-02
4.069752991199493408e-02
3.601107373833656311e-02
-2.171319164335727692e-02
-2.399010956287384033e-02
-1.226061135530471802e-01
-8.808580040931701660e-02
2.505838498473167419e-02
4.657355323433876038e-02
3.741268068552017212e-02
-6.187439337372779846e-02
4.129259660840034485e-02
-7.883139699697494507e-02
-1.888748444616794586e-02
3.943633660674095154e-02
5.346847325563430786e-02
-2.121213264763355255e-02
-3.213772084563970566e-03
-2.835911698639392853e-02
-5.323129892349243164e-02
1.886470243334770203e-02
-4.285924509167671204e-02
1.125934794545173645e-01
8.599556237459182739e-02
1.381805445998907089e-02
1.376858167350292206e-02
5.019866675138473511e-02
-1.059767976403236389e-01
1.416182611137628555e-02
-6.362708657979965210e-02
-1.004718244075775146e-02
-5.608024448156356812e-02
-1.931400038301944733e-02
7.514388859272003174e-02
-7.332733273506164551e-02
3.366927802562713623e-02
-9.657981991767883301e-02
3.764182794839143753e-03
8.883385360240936279e-02
-4.638935439288616180e-03
1.824200525879859924e-02
4.169984906911849976e-02
-7.882475852966308594e-02
-8.195062167942523956e-03
-8.309886325150728226e-04
7.728383690118789673e-02
-3.196367993950843811e-02
7.121177017688751221e-02
8.475578576326370239e-02
1.602683216333389282e-01
-1.412185747176408768e-02
7.022565603256225586e-02
-5.029521510004997253e-02
5.346626415848731995e-02
-6.028668954968452454e-02
-2.387334592640399933e-02
4.262011498212814331e-02
-4.595478065311908722e-03
-3.286617249250411987e-02
-3.434874862432479858e-02
-4.856331646442413330e-02
2.310565672814846039e-02
-8.095447719097137451e-02
8.201103657484054565e-02
3.265391290187835693e-02
1.215391233563423157e-02
1.651679351925849915e-02
8.447818458080291748e-02
2.749071456491947174e-02
7.594395428895950317e-02
-1.716583408415317535e-02
-2.015138743445277214e-03
-1.000836417078971863e-01
1.096994876861572266e-01
7.326002418994903564e-02
-8.756840229034423828e-02
-7.403461635112762451e-02
5.913022160530090332e-02
4.915455356240272522e-02
-8.780749514698982239e-03
1.060502380132675171e-01
-1.011983528733253479e-01
6.326600909233093262e-02
-6.691295653581619263e-02
-7.090134080499410629e-03
-1.169206649065017700e-01
2.090227603912353516e-02
1.390604525804519653e-01
5.718842148780822754e-03
-1.206875778734683990e-02
8.731465041637420654e-02
-1.687380820512771606e-01
7.724414765834808350e-02
-4.336158931255340576e-02
-9.936781972646713257e-02
-8.725848793983459473e-02
4.029675573110580444e-02
-5.346209183335304260e-02
3.430569078773260117e-03
4.407913982868194580e-02
-1.756848581135272980e-02
-4.233855754137039185e-02
1.001091673970222473e-01
-5.642621964216232300e-02
7.444426417350769043e-02
1.151175722479820251e-01
-1.621621474623680115e-02
1.862989366054534912e-02
-9.582700580358505249e-02
2.240418270230293274e-02
3.664765879511833191e-02
7.523535192012786865e-02
-4.137885570526123047e-02
-3.249647095799446106e-02
5.671066045761108398e-02
6.167340651154518127e-02
1.954918541014194489e-02
-1.066824304871261120e-03
-6.465388834476470947e-02
-1.011847332119941711e-01
2.789261564612388611e-02
5.983494222164154053e-02
-1.033005937933921814e-01
-7.623172551393508911e-02
2.056114003062248230e-02
-3.645840287208557129e-02
-3.856116905808448792e-02
-4.781264066696166992e-02
-4.280752316117286682e-02
-4.061908274888992310e-02
8.208005130290985107e-02
1.319889444857835770e-02
-5.910785403102636337e-03
-7.627497613430023193e-02
1.073163151741027832e-01
-9.526238776743412018e-03
-9.940937161445617676e-03
1.030249521136283875e-01
5.607360601425170898e-02
5.023426562547683716e-02
2.116133272647857666e-02
4.170560277998447418e-03
3.884594887495040894e-02
-5.501622334122657776e-03
-3.947914764285087585e-02
1.084686443209648132e-01
2.373496443033218384e-02
-6.819603592157363892e-02
3.010659851133823395e-02
7.660970091819763184e-02
1.245910208672285080e-02
-3.724077716469764709e-02
-4.629324004054069519e-02
8.462391793727874756e-02
-7.789177447557449341e-02
-1.080884225666522980e-02
1.280389726161956787e-01
8.749084919691085815e-02
3.791102766990661621e-02
-7.076318562030792236e-02
6.109632924199104309e-02
-1.210116874426603317e-02
5.092815682291984558e-02
-1.464939955621957779e-02
-4.261844232678413391e-02
7.338495552539825439e-02
-1.163656357675790787e-02
6.308855116367340088e-02
-9.184839576482772827e-02
6.999020278453826904e-02
7.831964641809463501e-02
9.868187457323074341e-02
1.550249755382537842e-02
-6.821035873144865036e-03
6.138107553124427795e-02
1.409978140145540237e-02
3.965536598116159439e-03
-8.158794045448303223e-02
-4.475279711186885834e-03
1.314396969974040985e-03
2.246205136179924011e-02
9.882406890392303467e-02
6.367413699626922607e-02
-5.160873010754585266e-02
7.994738221168518066e-02
-5.600949376821517944e-02
-7.558975368738174438e-02
-6.780850701034069061e-03
-3.535795956850051880e-03
2.656622044742107391e-02
-1.976690255105495453e-03
2.987763658165931702e-02
-8.534082025289535522e-02
-4.172416031360626221e-02
5.739561282098293304e-03
2.582081966102123260e-02
-6.843380630016326904e-02
-1.788266003131866455e-02
8.805432170629501343e-02
-6.695065647363662720e-02
1.151156239211559296e-02
-6.966052949428558350e-02
5.894009768962860107e-02
-6.499920506030321121e-03
-8.666472882032394409e-02
6.509626656770706177e-02
-4.909834265708923340e-02
-9.704337269067764282e-02
9.979071468114852905e-02
-6.249062716960906982e-02
4.825465008616447449e-02
-6.774041801691055298e-02
-6.634952127933502197e-02
5.411731824278831482e-02
8.945838361978530884e-02
8.019135147333145142e-02
-4.945211485028266907e-02
-9.185110777616500854e-02
8.653490990400314331e-02
1.649792678654193878e-02
5.521821230649948120e-02
-2.391073852777481079e-02
-6.810245662927627563e-02
-3.996250033378601074e-02
-4.740616679191589355e-02
-1.087537966668605804e-03
-6.228765845298767090e-02
-5.907929316163063049e-02
6.886222958564758301e-02
4.156662896275520325e-02
-1.866220869123935699e-02
-2.190009981859475374e-04
-1.119688525795936584e-01
-5.962207540869712830e-02
3.276157379150390625e-02
-8.663931488990783691e-02
-6.908599287271499634e-02
6.912249606102705002e-03
8.851451426744461060e-02
8.192157000303268433e-02
-9.187372028827667236e-02
-2.891541644930839539e-02
-5.774118937551975250e-03
-3.740587830543518066e-02
1.997000351548194885e-02
2.826559543609619141e-02
5.662728473544120789e-02
7.508337497711181641e-02
1.394567918032407761e-02
-8.302676491439342499e-03
3.890039399266242981e-02
-8.943413849920034409e-04
5.018803104758262634e-02
-7.706979662179946899e-02
-1.240478549152612686e-02
-2.189572714269161224e-02
2.605406381189823151e-02
-5.514017120003700256e-02
8.090904355049133301e-02
-9.752438217401504517e-02
-4.347700998187065125e-02
5.694493651390075684e-02
-2.309248223900794983e-02
-6.883405614644289017e-03
6.604021042585372925e-02
-7.408741861581802368e-02
-4.824919998645782471e-02
-8.890659362077713013e-02
9.138399362564086914e-02
-1.937733404338359833e-02
9.765809774398803711e-02
2.519683539867401123e-02
-8.210954815149307251e-02
-4.251924157142639160e-02
5.641956999897956848e-02
1.216721814125776291e-02
-4.592071473598480225e-02
9.371533989906311035e-02
-5.355915799736976624e-02
1.861486211419105530e-02
9.757507592439651489e-02
-9.031409770250320435e-02
-1.012305766344070435e-01
-3.060101158916950226e-02
-3.715390712022781372e-02
2.994794957339763641e-02
-6.160856038331985474e-02
1.083181425929069519e-02
-7.874745642766356468e-04
1.137721464037895203e-01
5.148808285593986511e-02
9.668406099081039429e-02
6.227245554327964783e-02
1.306518167257308960e-01
-3.762321081012487411e-03
-2.866477519273757935e-02
1.776195317506790161e-02
-6.149912253022193909e-03
7.640485465526580811e-02
-8.810601383447647095e-02
4.543745890259742737e-02
-8.715044707059860229e-02
5.385936796665191650e-02
-2.068333141505718231e-02
-1.103111822158098221e-02
1.088616177439689636e-01
6.832971703261137009e-03
5.909344553947448730e-02
-7.170284539461135864e-02
1.128604188561439514e-01
6.425788253545761108e-02
3.519595414400100708e-02
2.424660325050354004e-02
-1.038565561175346375e-01
4.037960991263389587e-02
-1.502879615873098373e-02
4.565578326582908630e-02
-1.097761616110801697e-01
-8.503308892250061035e-02
1.844027079641819000e-02
8.440515026450157166e-03
-8.584579080343246460e-02
-4.839612171053886414e-02
-1.174661964178085327e-01
4.402353242039680481e-02
1.008106470108032227e-01
3.089313767850399017e-02
-1.149437949061393738e-01
-1.198797393590211868e-02
5.938735604286193848e-02
-4.543943330645561218e-02
1.080904155969619751e-01
4.791975393891334534e-02
3.432470187544822693e-02
-6.889174878597259521e-02
-1.264996379613876343e-01
-6.105639785528182983e-02
9.772744774818420410e-02
-4.997869580984115601e-02
7.940541952848434448e-03
7.535734027624130249e-02
1.653334312140941620e-02
8.215519785881042480e-02
-1.059084609150886536e-01
-6.619580835103988647e-02
9.768947958946228027e-02
1.925602182745933533e-02
-9.602297842502593994e-02
1.465423125773668289e-02
-4.476758837699890137e-02
5.668803676962852478e-02
-1.065400894731283188e-02
-8.838910609483718872e-02
8.412934094667434692e-02
-4.488847404718399048e-02
-9.176165610551834106e-02
-5.564355850219726562e-02
7.700627297163009644e-02
-1.384625118225812912e-02
-6.292916089296340942e-02
-1.032582074403762817e-01
4.763763397932052612e-02
-1.016243174672126770e-02
-2.734635025262832642e-02
7.374438643455505371e-02
6.516718864440917969e-02
-7.159231608966365457e-05
-4.475181549787521362e-02
-6.472323834896087646e-02
4.072600975632667542e-02
4.788523539900779724e-02
-9.561516344547271729e-02
-5.703688040375709534e-02
6.841220706701278687e-02
-3.231092705391347408e-04
5.980013683438301086e-02
2.564054727554321289e-02
4.125456511974334717e-02
-2.793476171791553497e-02
-5.494369938969612122e-02
-1.020144522190093994e-01
9.226105362176895142e-02
-4.035085067152976990e-02
8.013360202312469482e-02
8.344502747058868408e-02
-4.262983426451683044e-02
-1.017651334404945374e-01
-2.649130485951900482e-02
3.176259575411677361e-03
6.381709128618240356e-02
-5.259466543793678284e-02
6.187590956687927246e-02
-4.501171410083770752e-02
1.021993681788444519e-01
2.108539640903472900e-02
2.422956004738807678e-02
5.789653956890106201e-02
-8.106312900781631470e-02
6.181794777512550354e-02
3.197046928107738495e-03
2.111178636550903320e-02
-5.449503660202026367e-02
-9.432945400476455688e-02
3.428997471928596497e-02
7.877426594495773315e-02
1.287822145968675613e-02
-1.898840628564357758e-02
-3.175010904669761658e-03
9.350851178169250488e-02
-2.096720226109027863e-02
2.444020286202430725e-02
-9.343124181032180786e-02
4.248569905757904053e-02
-9.215652942657470703e-02
4.285173863172531128e-02
9.054199606180191040e-02
6.239657104015350342e-02
2.837837673723697662e-02
-9.056770801544189453e-02
7.234720885753631592e-02
1.858239434659481049e-02
-7.793926447629928589e-02
3.597197309136390686e-02
8.256369829177856445e-02
-2.076466009020805359e-02
5.897969752550125122e-02
-4.967183247208595276e-02
6.226788461208343506e-02
-4.851885139942169189e-02
-1.427884399890899658e-02
-3.540102019906044006e-02
-7.644522935152053833e-02
5.837089195847511292e-02
-9.814186021685600281e-03
1.859464123845100403e-02
-8.183148503303527832e-02
-4.627887159585952759e-02
4.036505520343780518e-02
-6.452445685863494873e-02
-4.623429849743843079e-02
5.733992904424667358e-02
-3.395306318998336792e-02
8.250840753316879272e-02
-5.781742930412292480e-02
-2.572494186460971832e-02
-1.378826703876256943e-02
-7.471015304327011108e-02
8.972367644309997559e-02
3.993533551692962646e-03
-4.394016787409782410e-02
-7.832045108079910278e-02
3.639525547623634338e-02
4.010451957583427429e-03
-8.183966390788555145e-03
-7.988569885492324829e-02
-7.305482029914855957e-02
-7.742624729871749878e-02
6.056331470608711243e-02
-4.247062280774116516e-02
-3.061116486787796021e-02
-5.947511270642280579e-02
-5.759546905755996704e-02
5.337748676538467407e-02
1.387216732837259769e-03
2.569382265210151672e-02
6.772400438785552979e-02
7.175986468791961670e-02
-5.869374051690101624e-02
-9.671465493738651276e-03
1.959491893649101257e-02
-2.159446291625499725e-02
3.786728903651237488e-02
9.405745565891265869e-02
-6.599383056163787842e-02
-8.435904979705810547e-02
-6.539287418127059937e-02
3.621285408735275269e-02
2.397574670612812042e-02
5.039754509925842285e-02
4.545735940337181091e-02
-8.420690149068832397e-02
-7.660774141550064087e-02
-2.541641518473625183e-02
5.103142186999320984e-02
4.579934477806091309e-02
-7.309881597757339478e-02
-4.899981431663036346e-03
7.398229558020830154e-03
1.523098349571228027e-02
4.699067398905754089e-02
4.665005207061767578e-02
2.978157065808773041e-02
5.008671060204505920e-02
-3.401475027203559875e-02
4.048049077391624451e-02
5.081914365291595459e-02
-6.335624307394027710e-02
7.846455089747905731e-03
-4.397933930158615112e-02
-2.358709275722503662e-02
1.089996397495269775e-01
8.996729552745819092e-02
2.157817222177982330e-02
-1.549442997202277184e-03
9.432461112737655640e-03
4.137015342712402344e-02
-2.974834851920604706e-02
-2.360754273831844330e-02
-3.713151440024375916e-02
-7.745356857776641846e-02
1.755910739302635193e-02
5.143270269036293030e-02
-8.387931436300277710e-02
8.855170011520385742e-02
-8.116544783115386963e-02
5.097899213433265686e-02
-7.903429120779037476e-02
6.279142946004867554e-02
-4.110736399888992310e-02
1.161198597401380539e-02
-2.353147603571414948e-02
7.925108075141906738e-02
-8.595454692840576172e-02
9.768802672624588013e-02
-5.412779375910758972e-02
-7.106440514326095581e-02
-3.252404183149337769e-02
2.338747121393680573e-02
9.238458424806594849e-02
-5.843770876526832581e-02
4.989137873053550720e-02
3.037872910499572754e-02
3.446896746754646301e-02
7.165601104497909546e-02
-6.879242509603500366e-02
3.991390764713287354e-02
-5.340690538287162781e-02
-7.117376476526260376e-02
-2.051640115678310394e-02
-4.232315404806286097e-04
-3.328310325741767883e-02
-7.687850296497344971e-02
-5.470417439937591553e-02
6.682673841714859009e-02
4.614827688783407211e-03
4.089573025703430176e-02
1.366362720727920532e-01
5.002651736140251160e-02
1.396902184933423996e-02
1.135441586375236511e-01
-3.987925872206687927e-02
-2.841043472290039062e-02
1.467799544334411621e-01
-7.561140507459640503e-02
-5.182762444019317627e-02
3.103046864271163940e-02
-8.331156335771083832e-03
7.307039108127355576e-03
-9.692574851214885712e-03
3.600133582949638367e-02
7.354481518268585205e-02
-2.991819567978382111e-02
6.312127411365509033e-02
9.614241868257522583e-02
3.647765889763832092e-02
8.780179917812347412e-02
1.080380156636238098e-01
7.226051390171051025e-02
-1.040053963661193848e-01
5.097614228725433350e-02
-9.676758199930191040e-02
-3.658296912908554077e-02
-4.743626713752746582e-02
-1.277897059917449951e-01
3.032032586634159088e-02
4.437766224145889282e-02
9.764230996370315552e-02
8.939962834119796753e-02
-6.037279218435287476e-02
9.821891784667968750e-02
-4.146125167608261108e-02
1.268358528614044189e-02
3.140192478895187378e-02
5.826248973608016968e-02
2.646313747391104698e-03
-3.723635151982307434e-02
1.106675900518894196e-02
-1.594313420355319977e-03
4.917046800255775452e-02
8.395927399396896362e-02
8.643730729818344116e-02
1.452572196722030640e-01
-2.358321286737918854e-02
-1.459040492773056030e-02
-3.626875951886177063e-02
-8.421236276626586914e-02
9.111864864826202393e-02
-1.563846133649349213e-02
1.445517875254154205e-02
-8.527668565511703491e-02
-9.791238605976104736e-02
5.277989804744720459e-02
6.744368374347686768e-02
2.060896717011928558e-02
-8.775410801172256470e-02
6.496971845626831055e-02
-4.864216595888137817e-02
-7.744503766298294067e-02
2.413266524672508240e-02
-9.285912849009037018e-03
-7.834000140428543091e-02
3.202129900455474854e-02
5.197623744606971741e-02
-1.248949319124221802e-01
6.170865148305892944e-03
1.044575423002243042e-01
8.657763153314590454e-02
1.041495148092508316e-02
-7.078063488006591797e-02
6.789603829383850098e-02
-8.496906608343124390e-02
-5.836513638496398926e-02
-5.320485681295394897e-03
5.109096691012382507e-02
-9.047506004571914673e-02
-7.988949865102767944e-02
-3.252582997083663940e-02
-3.770584613084793091e-02
8.753179013729095459e-02
4.929459840059280396e-02
-4.704783111810684204e-02
-8.368664421141147614e-03
-1.018854230642318726e-01
1.024815514683723450e-01
1.008049920201301575e-01
-6.093732640147209167e-02
7.089906185865402222e-02
5.561128631234169006e-02
-1.237452179193496704e-01
-7.945255935192108154e-02
4.638210684061050415e-02
-1.851590164005756378e-02
5.954713001847267151e-02
5.537703633308410645e-02
-1.063462439924478531e-02
4.781888052821159363e-02
1.219865903258323669e-01
1.133179590106010437e-01
7.794439047574996948e-02
6.009429320693016052e-02
7.737813144922256470e-02
-5.336137488484382629e-02
-4.576972499489784241e-02
-3.148283064365386963e-02
5.856153368949890137e-02
-4.967003688216209412e-02
-1.069825664162635803e-01
9.333676844835281372e-02
8.977338671684265137e-02
1.543849520385265350e-02
5.375338345766067505e-02
1.384026464074850082e-02
-1.071352586150169373e-01
-7.489272952079772949e-02
-1.350630074739456177e-01
1.255257874727249146e-01
9.371874481439590454e-02
9.223434329032897949e-02
1.228803209960460663e-02
5.241400748491287231e-02
4.486105963587760925e-02
-7.202194631099700928e-02
1.499153822660446167e-01
-5.270993337035179138e-02
-8.247485756874084473e-02
3.885414078831672668e-02
7.273413985967636108e-02
-7.445447891950607300e-02
-1.035155877470970154e-01
-2.416925504803657532e-02
1.359657850116491318e-02
1.086675673723220825e-01
-7.743372023105621338e-02
-9.683573246002197266e-02
3.460790216922760010e-02
-9.251412749290466309e-02
-8.485440164804458618e-03
3.624654933810234070e-02
1.998137449845671654e-03
-1.225449051707983017e-02
3.060955740511417389e-02
3.192899003624916077e-02
8.483590185642242432e-02
-4.356146603822708130e-02
1.594572663307189941e-01
-1.307303458452224731e-01
-6.189607083797454834e-03
4.156474769115447998e-02
7.193117588758468628e-02
1.202743351459503174e-01
-2.946259267628192902e-02
-1.002079769968986511e-01
5.180067382752895355e-04
-5.798882246017456055e-02
-8.158323168754577637e-02
-6.360292434692382812e-02
2.737041562795639038e-02
6.630616635084152222e-02
1.271773427724838257e-01
-1.085372362285852432e-02
9.305096417665481567e-02
-1.641361042857170105e-02
9.111614525318145752e-02
-6.593032926321029663e-02
-8.430244028568267822e-02
-6.545088440179824829e-02
-1.013321205973625183e-01
-2.496110275387763977e-02
1.257965248078107834e-02
2.479289472103118896e-02
2.222659997642040253e-02
9.877394884824752808e-02
1.099015101790428162e-01
1.302389949560165405e-01
-8.459949493408203125e-02
-2.125937864184379578e-02
4.434075951576232910e-02
6.642426550388336182e-02
-6.495571881532669067e-02
-4.112853109836578369e-02
5.696981400251388550e-02
1.636451333761215210e-01
-6.829308718442916870e-02
5.799863860011100769e-02
-2.798116579651832581e-02
7.552723586559295654e-02
-6.453679502010345459e-02
-4.100504796952009201e-03
5.396301392465829849e-03
4.664165899157524109e-02
-4.740811511874198914e-02
-6.687295623123645782e-03
2.796852216124534607e-02
-3.241658210754394531e-02
3.228004206903278828e-04
8.992712199687957764e-02
7.421228289604187012e-02
-6.504526734352111816e-02
-3.053153306245803833e-02
1.105036139488220215e-01
9.005332738161087036e-02
1.232222989201545715e-01
3.580955415964126587e-02
6.390335410833358765e-02
7.266949117183685303e-02
1.220737118273973465e-02
-3.110111691057682037e-03
4.893155768513679504e-02
7.269255351275205612e-03
-1.877712830901145935e-02
1.418200731277465820e-01
-4.817710444331169128e-02
1.040936484932899475e-01
6.170783564448356628e-02
-4.404973238706588745e-02
6.242532283067703247e-02
3.180800378322601318e-02
-2.565384842455387115e-03
4.694769531488418579e-02
7.008389383554458618e-02
1.195585541427135468e-02
-9.184037148952484131e-02
-3.728085756301879883e-02
-5.352045595645904541e-02
-2.939924970269203186e-02
7.065887004137039185e-02
7.666647434234619141e-02
8.963411301374435425e-02
-9.171594679355621338e-02
6.830620020627975464e-02
2.310362830758094788e-02
5.655960738658905029e-02
3.639029338955879211e-02
3.481922671198844910e-02
-2.319063059985637665e-02
7.313819229602813721e-02
4.933593422174453735e-02
4.475873708724975586e-02
1.517828088253736496e-02
-2.179015055298805237e-02
1.431092992424964905e-02
9.285809844732284546e-02
-2.188442647457122803e-02
1.256608217954635620e-01
-2.185398526489734650e-02
-1.496373303234577179e-02
-4.599084332585334778e-02
-1.066361442208290100e-01
4.766533896327018738e-02
-2.082024293486028910e-04
8.057084679603576660e-02
-6.777995824813842773e-02
7.370006293058395386e-02
4.148364812135696411e-02
-5.791429802775382996e-02
-7.960847765207290649e-02
-7.167609781026840210e-02
-1.397607382386922836e-02
-9.556759893894195557e-02
1.020757555961608887e-01
7.096896320581436157e-02
-3.207676857709884644e-02
2.699849754571914673e-02
-6.578200310468673706e-02
3.961861506104469299e-02
-5.496579781174659729e-02
4.217433929443359375e-02
6.644626706838607788e-02
3.999044373631477356e-02
5.207588523626327515e-02
-1.019172370433807373e-02
-6.217981129884719849e-02
1.618633046746253967e-02
-2.878211252391338348e-02
-7.905934005975723267e-03
-5.963659286499023438e-02
-8.512307703495025635e-02
-4.875629022717475891e-02
7.845871150493621826e-02
8.859830349683761597e-02
2.012065425515174866e-02
1.208456456661224365e-01
-7.731240242719650269e-02
7.471161335706710815e-02
7.101875543594360352e-02
-5.686326697468757629e-02
-1.081315986812114716e-02
7.247841358184814453e-02
8.997420966625213623e-02
-6.363010406494140625e-02
2.655908651649951935e-02
4.761223867535591125e-02
9.254266321659088135e-02
-6.812115758657455444e-02
3.392224386334419250e-02
-8.092539012432098389e-02
-7.325159758329391479e-02
6.772024929523468018e-02
5.006602033972740173e-02
3.966997563838958740e-02
-8.287978172302246094e-02
9.126073122024536133e-02
4.101511836051940918e-02
-5.093035474419593811e-02
-5.286164954304695129e-02
7.079288829118013382e-03
1.997234299778938293e-02
7.420411705970764160e-02
2.579573309049010277e-03
-5.786494910717010498e-02
-1.044977679848670959e-01
-5.844628438353538513e-02
1.466219592839479446e-02
3.965078294277191162e-02
-8.048676699399948120e-02
-1.358205825090408325e-02
-9.722085297107696533e-02
-9.188819676637649536e-02
-8.691699802875518799e-02
-3.302262397482991219e-03
3.142349421977996826e-02
8.325242996215820312e-02
-5.236428231000900269e-02
7.748673111200332642e-02
-1.774998940527439117e-02
7.100238651037216187e-02
8.401283621788024902e-02
9.127040207386016846e-02
-6.301621347665786743e-02
-8.261734247207641602e-02
8.881170302629470825e-02
6.109301745891571045e-02
1.090673804283142090e-01
7.771547138690948486e-02
5.968713760375976562e-02
2.540529705584049225e-02
-8.200930058956146240e-02
-2.527289651334285736e-02
6.293107755482196808e-03
-2.388011664152145386e-02
-6.473093293607234955e-03
-2.681760303676128387e-02
-8.030948787927627563e-02
-7.943173497915267944e-02
8.240216225385665894e-02
-1.039656251668930054e-01
-2.904113149270415306e-03
8.261456340551376343e-02
-5.631376989185810089e-03
7.178188115358352661e-02
8.862472325563430786e-02
6.341292709112167358e-02
-4.231719231029273942e-06
-4.998987540602684021e-03
-9.571394324302673340e-02
2.640018239617347717e-02
-1.521843485534191132e-03
1.081118453294038773e-02
-2.919438853859901428e-02
3.323045093566179276e-03
-3.119746223092079163e-02
9.592910110950469971e-02
-1.418920904397964478e-01
-2.227254956960678101e-02
5.057216063141822815e-02
-1.370217800140380859e-01
1.476926356554031372e-02
-2.543101273477077484e-02
-1.174415275454521179e-01
6.660839915275573730e-02
1.030691191554069519e-01
7.483328878879547119e-02
9.817305020987987518e-03
-8.806546777486801147e-02
6.255692243576049805e-02
5.334610585123300552e-03
-5.342068895697593689e-02
6.596557796001434326e-02
-4.136313125491142273e-02
5.192010477185249329e-02
2.500561252236366272e-02
-9.547262638807296753e-02
3.968245536088943481e-02
-5.296722427010536194e-02
-5.586647614836692810e-02
-1.311272382736206055e-01
-2.661601640284061432e-02
1.730744354426860809e-02
8.671056479215621948e-02
-8.390454202890396118e-02
5.111102759838104248e-02
8.616080507636070251e-03
9.947510063648223877e-02
-1.272691339254379272e-01
-8.422670513391494751e-02
1.534682512283325195e-01
5.279194563627243042e-02
-1.322280615568161011e-01
7.387669291347265244e-03
8.765013515949249268e-02
1.134053710848093033e-02
1.053049266338348389e-01
8.640574663877487183e-02
-6.063903216272592545e-03
-6.709623150527477264e-03
3.382909670472145081e-02
6.360612064599990845e-02
1.688805967569351196e-02
2.714843302965164185e-02
3.861850872635841370e-02
-7.992720603942871094e-02
-9.544415026903152466e-02
-8.808198571205139160e-02
-6.204069592058658600e-03
3.007247345522046089e-03
7.680733222514390945e-03
7.812785357236862183e-02
-7.467088848352432251e-02
-6.917890161275863647e-03
-4.195050150156021118e-02
3.983785957098007202e-02
8.144232630729675293e-02
-1.585697941482067108e-02
2.259952761232852936e-02
3.951900079846382141e-02
-1.315002292394638062e-01
-3.105493821203708649e-02
9.572853334248065948e-03
1.282272394746541977e-02
2.978496812283992767e-02
1.456344574689865112e-01
9.819839149713516235e-02
-7.156454026699066162e-02
-1.210833434015512466e-03
1.091070771217346191e-01
4.347444325685501099e-02
6.799548864364624023e-02
6.345365196466445923e-02
5.179989710450172424e-02
7.070837914943695068e-02
-1.197507530450820923e-01
-1.437554657459259033e-01
-2.932661585509777069e-02
8.309608697891235352e-02
4.497577995061874390e-02
-2.679760381579399109e-02
9.342524409294128418e-02
9.881996549665927887e-03
-1.110254898667335510e-01
-1.210479289293289185e-01
-8.735240250825881958e-02
-7.168992608785629272e-02
-3.879622370004653931e-02
7.000197470188140869e-02
-4.847743082791566849e-03
-8.178805559873580933e-02
-1.364040821790695190e-01
-3.760692430660128593e-03
-6.596443802118301392e-02
-7.462025620043277740e-03
-1.458352655172348022e-01
2.071768790483474731e-02
-1.927190721035003662e-01
-7.459877431392669678e-02
-6.684989482164382935e-02
9.115876257419586182e-02
9.331888705492019653e-02
8.647754788398742676e-02
1.040504276752471924e-01
-2.476595900952816010e-02
3.826954215764999390e-02
-4.778255522251129150e-02
8.812408149242401123e-02
3.780450671911239624e-02
-5.095541477203369141e-02
3.776758909225463867e-02
7.542736828327178955e-03
6.217245012521743774e-02
-9.089644998311996460e-02
-1.134412288665771484e-01
3.396423906087875366e-02
-1.386051774024963379e-01
-6.990278512239456177e-02
5.641739442944526672e-02
8.139502257108688354e-02
-7.119080424308776855e-02
-8.470852673053741455e-02
3.733750432729721069e-02
-3.622769191861152649e-02
3.794571384787559509e-02
6.230731308460235596e-02
1.101390644907951355e-01
8.521964401006698608e-02
-1.368859261274337769e-01
5.673056095838546753e-02
-5.471961107105016708e-03
-6.674263626337051392e-02
1.722913049161434174e-02
2.071268670260906219e-02
-1.287198159843683243e-03
-3.867551917210221291e-03
6.982073187828063965e-02
-2.058413252234458923e-02
8.995892107486724854e-02
-3.737644851207733154e-02
1.421570312231779099e-02
4.830422624945640564e-02
-5.628879740834236145e-02
-1.648434810340404510e-02
-2.879519574344158173e-02
1.491952538490295410e-01
4.682168737053871155e-02
5.822217091917991638e-02
-1.177907437086105347e-01
-5.509603023529052734e-02
1.237003579735755920e-01
2.923151711001992226e-03
5.489243566989898682e-02
5.741176381707191467e-02
-8.882446587085723877e-02
-7.690230011940002441e-02
-2.720948122441768646e-02
3.356876224279403687e-02
9.639858454465866089e-02
-7.860526442527770996e-02
-8.252914994955062866e-02
-7.998591661453247070e-02
-7.693444937467575073e-02
-3.704510256648063660e-02
6.870153546333312988e-02
-1.014989614486694336e-01
1.340079959481954575e-02
-1.659541763365268707e-02
-7.820478081703186035e-02
5.034913495182991028e-02
1.005474105477333069e-01
6.932639330625534058e-02
-7.497148215770721436e-02
4.683226346969604492e-02
6.816029548645019531e-02
-2.182257594540715218e-03
-7.552381604909896851e-02
-2.498041465878486633e-02
-2.243561856448650360e-02
1.266299635171890259e-01
7.740504294633865356e-02
7.521141320466995239e-02
4.442919045686721802e-02
7.560413330793380737e-03
-6.826794892549514771e-02
1.740299165248870850e-02
1.628292538225650787e-02
-3.293845057487487793e-02
-4.279939830303192139e-02
1.254190951585769653e-01
4.513247311115264893e-02
3.855631873011589050e-02
-6.331934034824371338e-02
-1.606261543929576874e-02
-3.114102222025394440e-02
-8.874797262251377106e-03
3.137948364019393921e-02
1.338097546249628067e-02
7.487943768501281738e-02
7.876230031251907349e-02
4.014420509338378906e-02
1.547068357467651367e-01
3.289218619465827942e-02
1.174538657069206238e-01
3.033628687262535095e-02
-7.029458414763212204e-03
7.764378190040588379e-02
-9.571118652820587158e-02
-1.328007727861404419e-01
-1.377683598548173904e-03
-9.036359190940856934e-02
5.166309326887130737e-02
-6.812597159296274185e-03
7.214121520519256592e-02
1.724270731210708618e-01
-1.975817047059535980e-02
-8.783356100320816040e-02
-9.595394879579544067e-02
-1.180361676961183548e-02
-8.761214092373847961e-03
-6.641832739114761353e-02
5.952997598797082901e-03
5.339129641652107239e-02
-5.577914789319038391e-02
-2.001917921006679535e-02
5.493571050465106964e-03
-1.390943210572004318e-02
-6.478089839220046997e-02
1.231750752776861191e-02
9.315854869782924652e-03
-6.285004317760467529e-02
8.019779622554779053e-02
1.544807571917772293e-02
-7.314619142562150955e-03
5.575643479824066162e-02
-5.397176835685968399e-03
-7.973421365022659302e-02
-8.654820919036865234e-02
7.264109700918197632e-02
-5.715125240385532379e-03
7.558134198188781738e-02
2.251849882304668427e-02
-5.636319890618324280e-02
7.051119208335876465e-02
-3.258109465241432190e-02
2.861349144950509071e-03
-5.352891981601715088e-02
7.805941998958587646e-02
-7.381705939769744873e-02
-2.877975441515445709e-02
6.556230783462524414e-02
-2.800786867737770081e-03
-1.386139821261167526e-02
1.220071036368608475e-02
-8.151306957006454468e-02
-2.088201418519020081e-02
-5.421927198767662048e-03
-7.993330806493759155e-02
-1.719519309699535370e-02
-2.076752111315727234e-02
-7.886833697557449341e-02
2.722441218793392181e-02
1.104778796434402466e-02
7.052073627710342407e-02
1.933198422193527222e-02
-8.880638331174850464e-02
-2.423884905874729156e-02
-8.329503983259201050e-02
-8.994810283184051514e-02
-8.610442280769348145e-02
-9.151571244001388550e-02
-6.110201030969619751e-02
-8.188701421022415161e-02
5.459217354655265808e-03
6.392584741115570068e-02
4.861193895339965820e-02
-7.856910675764083862e-02
6.155337020754814148e-02
-3.317012684419751167e-03
-2.160328812897205353e-02
-2.905287034809589386e-02
2.504612691700458527e-02
-7.062647491693496704e-03
7.832378894090652466e-02
7.468415796756744385e-02
-5.464496463537216187e-02
-9.458536654710769653e-02
7.081765797920525074e-04
-7.655857503414154053e-02
-5.190526694059371948e-02
-7.695962488651275635e-02
4.131470248103141785e-02
5.735473334789276123e-02
3.339545801281929016e-02
4.294454306364059448e-02
1.279153954237699509e-02
-7.420580089092254639e-02
-2.348629944026470184e-02
-3.576711937785148621e-02
7.082972675561904907e-02
8.765478851273655891e-04
7.679855078458786011e-02
4.229375347495079041e-02
-9.144604206085205078e-02
-4.005482420325279236e-02
3.815883025527000427e-02
-6.238613277673721313e-02
3.452384145930409431e-03
-7.044173032045364380e-02
-2.827362902462482452e-02
3.380757942795753479e-02
1.887558028101921082e-02
-9.133546799421310425e-02
3.352890908718109131e-02
-5.934651941061019897e-02
-2.695992216467857361e-02
-8.158992230892181396e-02
3.491132287308573723e-03
8.601149171590805054e-02
3.990306332707405090e-02
-7.469920814037322998e-02
5.103818327188491821e-02
-9.464345872402191162e-02
-1.196822803467512131e-02
1.146001834422349930e-02
-4.813162237405776978e-02
3.904291614890098572e-02
7.171925157308578491e-02
7.771020382642745972e-02
3.241902589797973633e-02
-5.223404988646507263e-02
4.257750138640403748e-02
-1.977089419960975647e-02
1.153863687068223953e-02
-5.138969048857688904e-02
-3.677200898528099060e-02
7.803993672132492065e-02
7.321321219205856323e-02
2.024600282311439514e-02
2.795673720538616180e-02
-9.705933183431625366e-02
8.454965800046920776e-02
5.353669077157974243e-02
-3.033084422349929810e-02
-7.358825951814651489e-02
-4.781726747751235962e-02
-1.070828642696142197e-02
-7.773353159427642822e-02
-5.456461384892463684e-02
1.819536089897155762e-02
-3.823630139231681824e-02
9.019370377063751221e-02
5.015366524457931519e-02
2.207947149872779846e-02
8.582662791013717651e-02
-2.074447274208068848e-02
3.180496394634246826e-02
5.982857197523117065e-02
-4.487464576959609985e-02
-1.399185881018638611e-02
-2.954745478928089142e-02
9.780741296708583832e-03
3.174835443496704102e-02
-5.248304829001426697e-02
4.606158658862113953e-02
-7.031881809234619141e-02
-1.751473546028137207e-02
-7.214910537004470825e-02
3.877430781722068787e-02
-6.572839617729187012e-02
4.736299626529216766e-03
-2.535312436521053314e-02
-2.831718651577830315e-03
-3.444014862179756165e-02
2.187767624855041504e-02
-2.231047721579670906e-03
1.078546792268753052e-02
-8.947917819023132324e-02
-6.003956869244575500e-02
-2.357570454478263855e-02
1.125133559107780457e-01
3.587464243173599243e-02
-8.175425976514816284e-02
-2.814226597547531128e-02
3.236571326851844788e-02
-3.297833353281021118e-02
1.222369447350502014e-02
-2.714625746011734009e-02
-2.357727475464344025e-02
2.965803258121013641e-02
-9.822582360357046127e-04
1.624648831784725189e-02
-8.140578866004943848e-02
7.083875685930252075e-02
5.730838328599929810e-02
-1.002410240471363068e-02
-3.547745943069458008e-02
-1.932759396731853485e-02
-3.354975581169128418e-02
-2.891391329467296600e-02
-8.413274586200714111e-02
6.279082596302032471e-02
-1.231892686337232590e-02
8.739211596548557281e-03
4.101186245679855347e-02
8.666577935218811035e-02
-5.188352428376674652e-03
-7.900245487689971924e-02
3.783435374498367310e-02
3.810480982065200806e-02
-5.249277874827384949e-02
7.256578654050827026e-02
-4.037436842918395996e-02
-1.782615669071674347e-02
1.010002642869949341e-01
-2.320206724107265472e-02
1.902137696743011475e-02
3.036270849406719208e-02
1.163012254983186722e-02
-1.038772612810134888e-01
-8.894556760787963867e-02
1.086780056357383728e-02
6.555052474141120911e-03
1.051403433084487915e-01
5.090503767132759094e-02
1.790705509483814240e-02
-1.328421384096145630e-02
7.829376310110092163e-02
-4.694545641541481018e-02
7.357527315616607666e-02
-5.363778769969940186e-02
-4.962582141160964966e-02
-3.325767070055007935e-02
3.747271373867988586e-02
3.078095987439155579e-02
-6.760377436876296997e-02
-8.195480704307556152e-02
8.304240554571151733e-02
-1.592015963979065418e-03
-5.114321410655975342e-02
-8.007120341062545776e-02
1.053170561790466309e-01
-6.622606515884399414e-02
-6.505607068538665771e-02
6.360775977373123169e-02
-5.946444347500801086e-02
2.054343558847904205e-02
9.823708981275558472e-02
2.463150769472122192e-02
8.614215254783630371e-02
-1.032734960317611694e-01
-6.377543509006500244e-02
7.125834375619888306e-02
-4.591130837798118591e-02
-9.509786963462829590e-02
4.541372135281562805e-02
3.195201233029365540e-02
-3.666018322110176086e-02
9.420613944530487061e-02
7.767137140035629272e-02
1.588233746588230133e-02
5.486910417675971985e-02
6.680758297443389893e-02
6.537894159555435181e-02
2.070849947631359100e-02
5.233020335435867310e-02
8.506087958812713623e-02
1.852312497794628143e-02
-1.804227940738201141e-02
1.069361269474029541e-01
-7.554810494184494019e-02
3.704217029735445976e-03
2.426146762445569038e-03
2.853802219033241272e-02
-3.104783594608306885e-02
-7.516092061996459961e-02
-6.514086574316024780e-02
-8.369945921003818512e-03
-6.781773269176483154e-02
-5.104583874344825745e-02
-5.144119262695312500e-02
1.753886416554450989e-02
6.927955895662307739e-02
4.601979255676269531e-02
8.656187355518341064e-02
-5.407972261309623718e-02
-9.414867311716079712e-02
-2.549523487687110901e-03
-5.966839939355850220e-02
-2.997914142906665802e-02
-3.687677904963493347e-02
-4.464588314294815063e-02
-7.158116251230239868e-02
4.514073207974433899e-02
-4.667765274643898010e-02
-5.081337690353393555e-02
9.447185695171356201e-02
1.725582964718341827e-02
-9.812140837311744690e-03
6.868676841259002686e-02
5.504056066274642944e-02
3.636624664068222046e-02
-6.030682846903800964e-02
-3.622081130743026733e-02
2.341586863622069359e-03
9.946389496326446533e-02
-5.489708855748176575e-02
1.098647862672805786e-01
2.154311351478099823e-02
-1.072233915328979492e-01
-6.501281261444091797e-02
-6.267600506544113159e-02
5.396781489253044128e-02
-8.202106505632400513e-02
-8.729527890682220459e-02
-1.242028325796127319e-01
-6.646882742643356323e-02
-1.361956726759672165e-02
3.675664216279983521e-02
-4.495426267385482788e-02
-4.367563128471374512e-02
-3.528866916894912720e-03
7.020907104015350342e-02
7.499340921640396118e-02
8.166600763797760010e-02
-7.793530821800231934e-02
-2.872413024306297302e-03
3.700561448931694031e-02
-6.231521442532539368e-02
7.604062557220458984e-03
-3.660969436168670654e-02
3.377484530210494995e-02
2.145182341337203979e-03
8.524616807699203491e-02
2.407238073647022247e-02
-9.594686329364776611e-02
-4.950751736760139465e-02
-9.779378771781921387e-02
-2.215177193284034729e-02
-5.296931043267250061e-02
3.872233256697654724e-02
9.608096629381179810e-02
-3.868902102112770081e-02
-1.031277142465114594e-02
3.836892917752265930e-02
-8.170090615749359131e-02
4.656491428613662720e-02
1.005484983325004578e-01
9.310539066791534424e-02
-6.678458303213119507e-02
-2.553199604153633118e-02
9.359300881624221802e-02
-1.108335107564926147e-01
2.258821576833724976e-02
-7.298908382654190063e-02
-6.753548048436641693e-03
5.261125043034553528e-02
-5.350527539849281311e-02
9.302109479904174805e-03
-4.644368216395378113e-02
-2.161745168268680573e-02
8.484575897455215454e-02
-9.196918457746505737e-02
3.115898743271827698e-02
1.033528447151184082e-01
9.346268326044082642e-02
-8.741761744022369385e-02
4.869111999869346619e-02
-7.260948419570922852e-02
-2.737801335752010345e-02
-6.837929785251617432e-02
-1.868516206741333008e-02
-7.525112479925155640e-02
-3.711620345711708069e-02
6.818351894617080688e-02
9.377546608448028564e-02
1.245005354285240173e-01
-3.070618771016597748e-02
2.554131485521793365e-02
1.118425838649272919e-02
7.511869817972183228e-02
8.054361492395401001e-02
-7.051733136177062988e-02
-9.093238413333892822e-02
3.840096667408943176e-02
-6.435805559158325195e-02
6.868033856153488159e-02
-8.344852179288864136e-02
-3.374231606721878052e-02
2.786323428153991699e-02
-7.685127854347229004e-02
-6.176152825355529785e-02
9.008448570966720581e-02
-9.072531014680862427e-02
5.195567756891250610e-02
-4.614836536347866058e-03
4.529193416237831116e-02
2.860727719962596893e-02
-7.922966778278350830e-02
1.665213517844676971e-02
-5.158463865518569946e-02
-7.801914960145950317e-02
-7.246037479490041733e-03
7.045465707778930664e-02
-4.064659029245376587e-02
1.971426606178283691e-02
5.590535700321197510e-02
8.793050050735473633e-02
-7.211940735578536987e-02
-2.970735542476177216e-02
2.645448781549930573e-02
-5.952496826648712158e-02
-2.434429526329040527e-02
-1.712482422590255737e-02
-6.031510420143604279e-03
5.198626965284347534e-02
5.443264171481132507e-02
-6.868688855320215225e-03
1.137828920036554337e-02
6.990372389554977417e-02
7.999170571565628052e-02
-7.069846242666244507e-02
-2.987347776070237160e-03
-7.789639290422201157e-03
9.754536673426628113e-03
3.308252245187759399e-02
7.971071451902389526e-02
-6.277221441268920898e-02
4.045953601598739624e-02
1.149136573076248169e-02
7.819008082151412964e-03
5.184137448668479919e-02
-4.915662109851837158e-02
-8.859146386384963989e-02
-2.908912859857082367e-02
5.715470388531684875e-02
6.629683822393417358e-02
4.344908893108367920e-02
-8.932563662528991699e-02
7.784923166036605835e-02
-6.993855349719524384e-03
2.783254534006118774e-02
-8.793267607688903809e-02
1.775506697595119476e-02
-3.237309306859970093e-02
8.347439765930175781e-02
-4.306501522660255432e-02
-2.494301274418830872e-02
-7.313635945320129395e-02
-2.264940179884433746e-02
-3.450292348861694336e-02
5.674125999212265015e-02
-7.757142186164855957e-03
7.496496289968490601e-02
3.218659386038780212e-02
-3.524400526657700539e-03
5.747487023472785950e-02
4.685062542557716370e-02
-3.889613598585128784e-02
-2.351302187889814377e-03
-6.257040798664093018e-02
4.756559431552886963e-02
9.340967237949371338e-02
-6.070149317383766174e-02
-8.439000695943832397e-02
6.083253398537635803e-02
-5.178185645490884781e-03
-4.943506792187690735e-02
2.055453881621360779e-02
-3.187832981348037720e-02
7.507204543799161911e-03
-7.438716711476445198e-04
-7.756848633289337158e-02
-8.301952481269836426e-02
-1.017107348889112473e-02
-6.863497197628021240e-02
-5.672445893287658691e-02
6.385882198810577393e-02
4.213459324091672897e-03
-4.483413323760032654e-02
4.800280556082725525e-02
7.472341507673263550e-02
-6.035640090703964233e-02
-7.043460011482238770e-02
-3.175135701894760132e-02
-3.043399192392826080e-03
1.963557861745357513e-02
-2.340237796306610107e-02
1.494745258241891861e-02
-4.575275629758834839e-02
1.330547127872705460e-02
-7.860216498374938965e-02
6.095214188098907471e-02
8.025460690259933472e-02
7.516179233789443970e-02
-8.455217629671096802e-02
3.686449304223060608e-02
5.994278937578201294e-02
1.899037361145019531e-01
-5.978544242680072784e-03
6.320013105869293213e-02
-2.474861219525337219e-02
7.507809251546859741e-02
-5.553671717643737793e-02
4.458447918295860291e-02
3.824961557984352112e-02
7.365332916378974915e-03
6.755257025361061096e-03
4.926981031894683838e-02
-6.152895092964172363e-02
1.071541681885719299e-01
-5.084880068898200989e-02
1.268731653690338135e-01
8.729264885187149048e-02
5.648463219404220581e-02
-5.524321645498275757e-02
-1.615024060010910034e-01
7.692133635282516479e-02
3.990388009697198868e-03
5.677692219614982605e-02
1.144648864865303040e-01
-1.097123720683157444e-03
-6.064544618129730225e-02
3.194381296634674072e-02
7.425840198993682861e-02
-8.069055527448654175e-02
4.621541500091552734e-02
-9.039239585399627686e-02
-5.756714567542076111e-02
-6.629197299480438232e-02
-5.844003334641456604e-02
-3.202682361006736755e-02
-3.129491582512855530e-02
1.465882267802953720e-02
9.264423698186874390e-02
4.522788152098655701e-02
4.369469732046127319e-02
-5.165378563106060028e-03
-9.317520260810852051e-02
2.444881759583950043e-02
-1.554343253374099731e-01
-2.984263375401496887e-02
8.737438917160034180e-02
1.910942140966653824e-03
-5.098556727170944214e-02
-7.546147704124450684e-02
1.176999956369400024e-01
2.172348089516162872e-02
7.025009393692016602e-02
1.120043024420738220e-01
-7.215611636638641357e-02
7.300417125225067139e-02
-5.171955376863479614e-02
1.020079851150512695e-01
9.213027358055114746e-02
-1.472084783017635345e-02
-9.993821382522583008e-03
1.111069023609161377e-01
3.448161482810974121e-02
2.548676915466785431e-02
1.192851960659027100e-01
-1.551449149847030640e-01
-6.095401197671890259e-02
-2.267606370151042938e-02
4.621396213769912720e-02
1.165615469217300415e-01
1.435747444629669189e-01
-8.149951696395874023e-02
9.620140492916107178e-02
8.278092741966247559e-02
4.714957252144813538e-02
1.345415133982896805e-02
5.738386884331703186e-02
-3.515807539224624634e-02
9.112566709518432617e-02
5.423368141055107117e-02
-6.267219036817550659e-02
-4.235623404383659363e-02
-1.216430310159921646e-02
6.212848052382469177e-02
