1.138683967292308807e-02
-9.026410430669784546e-02
6.773063540458679199e-02
3.221504017710685730e-02
-2.746833115816116333e-02
-7.518984377384185791e-02
1.086638346314430237e-01
-3.035134077072143555e-02
-6.544988602399826050e-02
-4.986799508333206177e-02
8.747520297765731812e-02
3.832680359482765198e-02
1.080023124814033508e-01
1.720456033945083618e-02
-3.227384760975837708e-02
5.654925107955932617e-02
7.662402838468551636e-02
-4.580141976475715637e-02
5.273487791419029236e-02
-9.741485863924026489e-02
3.506090864539146423e-02
-5.016133561730384827e-02
-3.745051473379135132e-02
3.268146887421607971e-02
-2.519070357084274292e-02
-4.183582216501235962e-02
2.844473533332347870e-02
-1.627077907323837280e-02
-1.351542677730321884e-02
-8.228004723787307739e-02
-3.103722818195819855e-02
-2.012569643557071686e-02
-7.175310701131820679e-02
1.135250646620988846e-02
2.863764762878417969e-02
1.495098043233156204e-02
-4.210647661238908768e-03
-5.486416816711425781e-02
-2.361516654491424561e-02
-8.904157578945159912e-02
-2.621758915483951569e-02
-9.024267643690109253e-02
-5.996043235063552856e-02
7.113752514123916626e-02
-7.565630972385406494e-02
-4.124275222420692444e-02
-4.727960750460624695e-02
6.381630897521972656e-02
3.693452477455139160e-02
-2.802899852395057678e-02
-2.876047417521476746e-02
-3.296296298503875732e-02
9.594701975584030151e-02
-1.066740676760673523e-01
9.411970525979995728e-02
-8.239862322807312012e-02
-4.261893779039382935e-02
-7.040218263864517212e-02
-4.193120822310447693e-02
-8.688110858201980591e-02
-8.385825157165527344e-02
-8.233706653118133545e-02
-2.644220180809497833e-02
1.130380574613809586e-02
-3.106268588453531265e-03
-6.594613194465637207e-02
7.501706480979919434e-02
-1.042627915740013123e-02
5.429391562938690186e-02
2.216545864939689636e-02
1.230223476886749268e-01
-7.954144477844238281e-02
7.207653671503067017e-02
-7.487484067678451538e-02
-6.725499778985977173e-02
-5.050461739301681519e-02
1.318839192390441895e-01
6.360200792551040649e-02
-8.646102249622344971e-02
-5.310903117060661316e-02
-6.049068644642829895e-02
6.364053487777709961e-02
-7.041981816291809082e-02
1.159412711858749390e-01
