-2.312439084053039551e-01
7.810373604297637939e-02
-7.220304012298583984e-02
2.485770173370838165e-02
-3.332572802901268005e-02
2.143220044672489166e-02
9.511785954236984253e-02
6.997484248131513596e-03
-2.007357329130172729e-01
-1.429178416728973389e-01
-5.365840345621109009e-02
2.004456818103790283e-01
-1.747393980622291565e-02
-9.168484061956405640e-02
1.421651691198348999e-01
5.277963820844888687e-03
2.721720337867736816e-01
5.201094225049018860e-02
-7.315695285797119141e-02
-4.449321702122688293e-02
-1.270603984594345093e-01
-1.436452716588973999e-01
2.226594984531402588e-01
8.171334117650985718e-02
-9.494113922119140625e-02
-3.437091782689094543e-02
9.120308607816696167e-02
-1.225971523672342300e-02
-1.531516313552856445e-01
1.392947882413864136e-01
-1.217402443289756775e-01
9.228141605854034424e-02
7.555769989266991615e-04
1.692055910825729370e-01
-5.878553912043571472e-02
-6.462728977203369141e-02
5.848005041480064392e-02
1.163678467273712158e-01
1.562195271253585815e-01
-7.707616686820983887e-02
-7.081610709428787231e-02
3.882611170411109924e-02
-2.036647312343120575e-02
-4.537866637110710144e-02
5.312474817037582397e-02
5.386824905872344971e-02
2.741193473339080811e-01
-1.519568264484405518e-01
1.973232924938201904e-01
-7.847704738378524780e-02
-1.420789957046508789e-01
-4.141510464251041412e-03
4.321962967514991760e-02
2.171991467475891113e-01
-1.675637066364288330e-01
1.853029727935791016e-01
1.628679186105728149e-01
1.773938164114952087e-02
8.264922350645065308e-02
-2.128439396619796753e-02
1.900909543037414551e-01
4.714490100741386414e-02
-1.658143401145935059e-01
3.301755711436271667e-02
-8.295809477567672729e-02
2.157434262335300446e-02
2.223976515233516693e-02
-9.258124977350234985e-02
-1.545947343111038208e-01
1.981884837150573730e-01
1.036846172064542770e-02
4.032405465841293335e-02
1.211176998913288116e-02
-1.655259169638156891e-02
-8.359348028898239136e-02
2.361040003597736359e-02
7.891051471233367920e-02
-1.897233128547668457e-01
-6.355198472738265991e-02
8.326712995767593384e-02
-2.873074114322662354e-01
3.118852674961090088e-01
1.712608337402343750e-01
-1.550556570291519165e-01
-7.819073647260665894e-02
4.083549380302429199e-01
-1.142687201499938965e-01
-1.862089484930038452e-01
-8.570614457130432129e-02
-2.174596041440963745e-01
-2.144180834293365479e-01
-5.032437294721603394e-02
-2.339798361063003540e-01
-1.064085066318511963e-01
1.776462234556674957e-02
-8.970105648040771484e-02
-1.716630160808563232e-01
1.558430343866348267e-01
2.685403637588024139e-02
-1.564103662967681885e-01
-1.828738600015640259e-01
2.449363470077514648e-02
2.801579236984252930e-01
1.104284897446632385e-01
-1.635861694812774658e-01
-2.914589643478393555e-01
3.759141564369201660e-01
-8.280806243419647217e-02
2.003660649061203003e-01
-1.834691762924194336e-01
1.642208099365234375e-01
2.370260655879974365e-01
-5.740299075841903687e-02
-5.776067450642585754e-02
3.104157745838165283e-01
-1.885103876702487469e-03
-6.301458179950714111e-02
5.329539254307746887e-02
1.220987364649772644e-01
-5.406484380364418030e-02
2.829501219093799591e-02
-4.054985940456390381e-02
-2.418700754642486572e-01
-2.206344157457351685e-02
8.584031462669372559e-02
-1.390326470136642456e-01
-2.100997418165206909e-01
-1.841863244771957397e-02
2.553919143974781036e-02
-1.835952103137969971e-01
-2.478717453777790070e-02
-3.201634287834167480e-01
3.905924782156944275e-02
-2.743665575981140137e-01
-3.739603161811828613e-01
-4.268626682460308075e-03
-8.540178090333938599e-02
9.882127866148948669e-03
1.532297232188284397e-03
-2.042956091463565826e-02
3.790185749530792236e-01
1.176984161138534546e-01
-8.128049969673156738e-02
-1.715694069862365723e-01
-2.175589054822921753e-01
2.103613913059234619e-01
6.692823022603988647e-02
5.241254344582557678e-03
3.201313316822052002e-01
-2.304751574993133545e-01
-9.920052438974380493e-02
-4.732071161270141602e-01
1.312251240015029907e-01
-1.534453034400939941e-01
3.282495215535163879e-02
-3.089902698993682861e-01
5.853321030735969543e-02
-2.679581642150878906e-01
-1.120362058281898499e-02
5.318177118897438049e-02
4.975850135087966919e-02
-6.106467172503471375e-02
4.593577980995178223e-02
3.118098974227905273e-01
7.714170217514038086e-02
-2.007429674267768860e-02
-2.817569375038146973e-01
2.180268615484237671e-01
-1.051815152168273926e-01
8.826170861721038818e-02
-1.024335399270057678e-01
1.051152590662240982e-02
-1.402432024478912354e-01
8.903288096189498901e-02
1.085298974066972733e-02
2.511539682745933533e-02
2.002843022346496582e-01
1.112018972635269165e-01
5.865827947854995728e-02
1.205629929900169373e-01
-1.548984199762344360e-01
1.429052501916885376e-01
2.816112339496612549e-01
-5.594540387392044067e-03
3.878342211246490479e-01
2.541407346725463867e-01
6.022799015045166016e-02
1.323969513177871704e-01
6.896630674600601196e-02
-1.845010221004486084e-01
-7.983858138322830200e-02
-2.795908153057098389e-01
9.328117221593856812e-02
1.092055812478065491e-01
1.249098405241966248e-01
-1.966602951288223267e-01
2.783855497837066650e-01
1.277591884136199951e-01
6.564041599631309509e-03
7.486055046319961548e-02
-1.461506485939025879e-01
-2.715541422367095947e-01
4.320273101329803467e-01
-3.516763076186180115e-02
1.705767810344696045e-01
-1.592127606272697449e-02
2.074983716011047363e-02
-3.634692132472991943e-01
-7.584089040756225586e-02
-3.572221398353576660e-01
-4.500343464314937592e-03
-1.226139366626739502e-01
-2.329606115818023682e-01
-1.956085711717605591e-01
1.051092222332954407e-01
-5.023623351007699966e-03
-1.093621999025344849e-01
5.579422414302825928e-02
9.704662859439849854e-02
-1.552854031324386597e-01
3.369187712669372559e-01
2.070535719394683838e-01
-8.921244740486145020e-02
-1.396342813968658447e-01
-1.471477746963500977e-01
1.182850301265716553e-01
-3.598972260951995850e-01
1.362521052360534668e-01
2.825599312782287598e-01
1.315893977880477905e-01
-7.858217507600784302e-02
6.084649637341499329e-02
-8.056790381669998169e-02
-2.229609936475753784e-01
1.760667264461517334e-01
2.173463068902492523e-02
7.771989703178405762e-02
1.003107279539108276e-01
-5.926761776208877563e-03
-8.656285703182220459e-02
3.061940371990203857e-01
-7.351911161094903946e-03
-7.799057662487030029e-02
-1.299301534891128540e-01
3.427403792738914490e-02
-4.623544812202453613e-01
-5.855129286646842957e-02
5.889275297522544861e-02
7.510419189929962158e-02
1.003586128354072571e-01
-1.170078068971633911e-01
3.620762526988983154e-01
-3.684207331389188766e-03
1.297936141490936279e-01
-2.518243193626403809e-01
-8.888710290193557739e-02
-2.482389472424983978e-02
2.601265311241149902e-01
3.054825067520141602e-01
-9.691618382930755615e-03
2.839201688766479492e-01
8.410656452178955078e-02
-9.190167486667633057e-02
1.954962164163589478e-01
-4.524786770343780518e-02
2.132146507501602173e-01
1.149374619126319885e-01
-8.945289254188537598e-02
-4.434191808104515076e-02
-4.397823289036750793e-02
1.808900535106658936e-01
-5.709848999977111816e-01
-1.896109059453010559e-02
2.693153619766235352e-01
-1.037466824054718018e-01
2.042989581823348999e-01
6.344807893037796021e-02
1.037281565368175507e-02
-2.825503647327423096e-01
-3.048049472272396088e-02
8.170204609632492065e-02
1.781892180442810059e-01
8.240832388401031494e-02
-1.834176629781723022e-01
-1.199306324124336243e-01
1.191831603646278381e-01
-1.862959116697311401e-01
7.232583593577146530e-04
-2.742699682712554932e-01
-5.086007714271545410e-02
3.498564288020133972e-02
-2.760556936264038086e-01
1.068520396947860718e-01
4.184589534997940063e-02
-4.765306040644645691e-02
1.980114132165908813e-01
-4.622679352760314941e-01
4.754767194390296936e-02
1.364880800247192383e-01
-6.746623665094375610e-02
-1.196888461709022522e-01
1.151564344763755798e-01
2.870058119297027588e-01
1.544896140694618225e-02
8.016372472047805786e-02
-1.997698098421096802e-01
3.490924090147018433e-02
-2.535316944122314453e-01
1.005198284983634949e-01
8.154097944498062134e-02
2.562332749366760254e-01
-5.434120893478393555e-01
6.173237040638923645e-02
-2.805266082286834717e-01
1.483832299709320068e-01
1.005826797336339951e-02
1.627747528254985809e-02
1.359207481145858765e-01
-3.786271903663873672e-03
-1.753040961921215057e-02
2.007682323455810547e-01
-2.475726753473281860e-01
-1.045949459075927734e-01
2.380003035068511963e-02
2.119684517383575439e-01
-1.271814852952957153e-01
-2.894363999366760254e-01
-2.471970170736312866e-01
-5.179497003555297852e-01
1.307207494974136353e-01
1.311521381139755249e-01
3.141194581985473633e-02
2.590201497077941895e-01
1.181305572390556335e-01
-2.187022566795349121e-01
1.166739407926797867e-02
3.110966272652149200e-02
1.330720633268356323e-01
-1.049280986189842224e-01
9.865712374448776245e-02
1.267522871494293213e-01
-2.846398949623107910e-02
5.205063894391059875e-02
-1.159401088953018188e-01
-9.371209144592285156e-02
1.077235266566276550e-01
-1.070981919765472412e-01
1.420546323060989380e-02
9.800796210765838623e-02
3.050937131047248840e-02
-2.048744633793830872e-02
-3.208667635917663574e-01
-1.279463712126016617e-02
-2.757953405380249023e-01
-5.160771608352661133e-01
-2.221736013889312744e-01
-3.825833275914192200e-02
-2.401787489652633667e-01
-1.153700128197669983e-01
-4.224062338471412659e-02
2.329947501420974731e-01
1.532275676727294922e-01
-5.277355909347534180e-01
-7.297731935977935791e-02
-3.432100117206573486e-01
2.052191495895385742e-01
1.397245749831199646e-02
-2.329120039939880371e-02
-6.078138947486877441e-01
3.625337779521942139e-01
-3.716158568859100342e-01
8.925700187683105469e-02
7.624212652444839478e-02
-1.920426636934280396e-01
-3.037963807582855225e-01
2.459405511617660522e-01
-4.354574531316757202e-02
-1.644780039787292480e-01
-6.155436858534812927e-02
-2.776222527027130127e-01
1.194857284426689148e-01
4.703964889049530029e-01
1.055734157562255859e-01
-1.539975106716156006e-01
3.780378699302673340e-01
-2.563899159431457520e-01
-1.759943366050720215e-01
2.611926198005676270e-01
1.565814912319183350e-01
-8.740849047899246216e-02
1.154498830437660217e-01
1.799162477254867554e-01
-2.383453845977783203e-01
-1.589955538511276245e-01
3.734809160232543945e-01
-1.550143212080001831e-02
-2.676719427108764648e-01
2.894346788525581360e-02
1.447441801428794861e-02
8.472637832164764404e-02
-1.263532489538192749e-01
-1.823935210704803467e-01
-2.026042044162750244e-01
-4.085380733013153076e-01
2.465021610260009766e-01
-5.333107709884643555e-02
-1.282230466604232788e-01
5.084666982293128967e-02
-1.749662309885025024e-01
-2.965934574604034424e-01
9.549057483673095703e-02
-2.877230048179626465e-01
-3.465218096971511841e-02
-3.860940039157867432e-01
7.120718061923980713e-02
-2.847787737846374512e-01
-2.311083953827619553e-03
-4.889090731739997864e-02
7.564659416675567627e-02
1.314914971590042114e-01
-2.262691706418991089e-01
2.939427196979522705e-01
-3.551405370235443115e-01
-2.712053433060646057e-02
7.899335771799087524e-02
1.916357278823852539e-01
6.297827512025833130e-02
1.754096301738172770e-04
2.622581720352172852e-01
-2.661508694291114807e-02
-1.276326477527618408e-01
-1.253457963466644287e-01
2.268877625465393066e-01
-3.079664111137390137e-01
-2.952593192458152771e-02
7.398495078086853027e-02
7.343500852584838867e-02
1.265277713537216187e-01
-7.340631633996963501e-02
-7.898361980915069580e-02
3.308814764022827148e-01
-5.119553208351135254e-01
-6.225959584116935730e-02
2.776838541030883789e-01
2.003321498632431030e-01
-3.880799189209938049e-02
4.796103760600090027e-02
1.895576715469360352e-01
-2.150000035762786865e-01
1.205257028341293335e-01
3.726239800453186035e-01
1.605669260025024414e-01
3.323835730552673340e-01
1.340409070253372192e-01
-2.447602450847625732e-01
1.180834230035543442e-02
1.712344437837600708e-01
2.630084753036499023e-01
-2.961423695087432861e-01
-5.023371577262878418e-01
-5.051909387111663818e-02
-1.770770251750946045e-01
-3.253648802638053894e-02
-4.329196363687515259e-02
2.279006242752075195e-01
1.463654637336730957e-01
-1.100973319262266159e-02
1.814018487930297852e-01
2.828139364719390869e-01
-2.180712968111038208e-01
-6.195771694183349609e-01
4.200438037514686584e-02
-8.133967965841293335e-02
3.053549230098724365e-01
-3.595225745812058449e-03
-1.358971744775772095e-01
2.445247583091259003e-02
-3.653393983840942383e-01
-1.365555822849273682e-01
4.038236662745475769e-02
-3.209961205720901489e-02
3.494956493377685547e-01
1.108447983860969543e-01
4.642841592431068420e-02
-5.098969489336013794e-02
-4.029011726379394531e-01
-2.089354097843170166e-01
3.711908310651779175e-02
-2.284759283065795898e-01
2.277898788452148438e-01
-1.788346469402313232e-01
1.341155469417572021e-01
-3.621345758438110352e-02
1.775200068950653076e-01
-1.923948526382446289e-02
9.546285122632980347e-02
3.715949058532714844e-01
2.406207472085952759e-01
-2.354397997260093689e-02
-1.216598004102706909e-01
-4.458309710025787354e-02
-3.697684407234191895e-02
-6.510253995656967163e-02
-2.122802287340164185e-02
-7.520293444395065308e-02
-1.627340316772460938e-01
3.201714530587196350e-02
-2.850396335124969482e-01
-4.239273965358734131e-01
-1.270797103643417358e-01
5.172884464263916016e-02
1.624236404895782471e-01
-1.364930868148803711e-01
1.158794686198234558e-01
-6.825037300586700439e-02
-1.358545944094657898e-02
2.939308881759643555e-01
-5.625287070870399475e-02
1.384799033403396606e-01
-4.264979809522628784e-02
2.033909559249877930e-01
-4.782404005527496338e-02
-1.151675209403038025e-01
-1.018654033541679382e-01
5.057029798626899719e-02
6.804296374320983887e-02
1.327701658010482788e-01
7.625978440046310425e-03
-1.237712986767292023e-02
-1.313147544860839844e-01
1.595181822776794434e-01
6.725098937749862671e-02
5.811139196157455444e-02
-1.221486255526542664e-01
1.223201230168342590e-01
-1.689762026071548462e-01
2.019654959440231323e-01
-9.367403388023376465e-02
4.579127132892608643e-01
1.128595396876335144e-01
-6.621625274419784546e-02
9.901826828718185425e-02
1.108850315213203430e-01
-2.165313344448804855e-03
-2.125256657600402832e-01
-6.667942740023136139e-03
-5.530898645520210266e-02
-2.620043605566024780e-02
-1.258718315511941910e-02
1.396127939224243164e-01
1.471865177154541016e-01
-2.553563006222248077e-02
2.791651487350463867e-01
2.480523884296417236e-01
3.398991003632545471e-02
6.257782876491546631e-02
-3.339786827564239502e-01
-2.553318142890930176e-01
-2.811163291335105896e-02
-6.311824917793273926e-02
-3.377598226070404053e-01
5.323978513479232788e-02
2.387853711843490601e-01
4.254017397761344910e-02
9.742780588567256927e-03
8.423236012458801270e-02
9.407240152359008789e-02
-1.699425578117370605e-01
2.024229615926742554e-01
1.461203992366790771e-01
1.484592407941818237e-01
-1.641533374786376953e-01
-4.183139652013778687e-02
-7.814057171344757080e-02
-7.815959304571151733e-02
9.251824021339416504e-02
-2.392329275608062744e-01
-1.080114394426345825e-01
1.455544680356979370e-01
-1.938600093126296997e-01
2.823974192142486572e-01
1.165119931101799011e-01
-1.132612004876136780e-01
-8.037940412759780884e-02
-5.167056620121002197e-02
2.115615308284759521e-01
-9.549885243177413940e-02
2.079637497663497925e-01
5.733314156532287598e-02
-1.085675805807113647e-01
-4.189611412584781647e-03
-1.688947379589080811e-01
-3.827609121799468994e-02
3.035743348300457001e-02
5.619785562157630920e-02
1.323878020048141479e-01
4.955083876848220825e-02
5.180206522345542908e-02
1.665070094168186188e-02
-4.062749817967414856e-02
6.219837442040443420e-02
2.653946280479431152e-01
-3.619192540645599365e-02
-4.150899127125740051e-02
1.959737241268157959e-01
-2.748472988605499268e-01
-1.692577302455902100e-01
-4.279006272554397583e-03
1.253051757812500000e-01
-2.382547408342361450e-02
-1.257276087999343872e-01
-2.502711303532123566e-02
-6.941941380500793457e-02
-2.093791216611862183e-01
3.147201845422387123e-03
-1.179729700088500977e-01
-1.229953691363334656e-01
3.401599824428558350e-02
1.826856732368469238e-01
2.115723863244056702e-02
1.685248166322708130e-01
-3.825783431529998779e-01
-1.923798210918903351e-02
1.046119555830955505e-01
1.645101904869079590e-01
3.786458671092987061e-01
-5.622668564319610596e-02
-2.878522276878356934e-01
1.872056424617767334e-01
4.412330221384763718e-03
8.566166460514068604e-02
-5.177721977233886719e-01
-9.104031324386596680e-02
1.030539199709892273e-01
-1.571421176195144653e-01
-9.725162386894226074e-02
-3.603335842490196228e-02
-4.258315563201904297e-01
-4.372400641441345215e-01
5.720536410808563232e-02
2.942548990249633789e-01
2.854621037840843201e-02
2.669377923011779785e-01
-5.620031803846359253e-02
5.231570824980735779e-02
-8.034079521894454956e-02
3.663493320345878601e-02
3.138273060321807861e-01
-2.285067886114120483e-01
-1.090232506394386292e-01
8.207508176565170288e-02
-2.086814939975738525e-01
-1.955543756484985352e-01
1.761534214019775391e-01
-1.284464001655578613e-01
3.759731352329254150e-02
-2.632854282855987549e-01
-3.749229758977890015e-02
2.179701626300811768e-01
4.393555223941802979e-02
2.030326239764690399e-02
1.246642172336578369e-01
9.430063515901565552e-02
6.385906040668487549e-02
8.347705006599426270e-02
1.992125809192657471e-01
2.908822335302829742e-02
-5.106521770358085632e-02
1.094936430454254150e-01
8.644995093345642090e-02
3.933644294738769531e-02
-3.824976682662963867e-01
-1.577521562576293945e-01
-7.978813722729682922e-03
2.619832456111907959e-01
2.510403394699096680e-01
2.127320617437362671e-01
3.079293072223663330e-01
-6.003430113196372986e-02
-3.764850646257400513e-02
8.970232307910919189e-02
-5.167233571410179138e-02
1.853858530521392822e-01
-2.017245739698410034e-01
2.041848190128803253e-02
2.199589274823665619e-02
-1.250367313623428345e-01
-3.101052939891815186e-01
-4.069582372903823853e-02
1.173530593514442444e-01
-1.971524581313133240e-02
1.095103323459625244e-01
1.448117196559906006e-01
-2.231192737817764282e-01
1.846206337213516235e-01
-8.356678485870361328e-02
-6.280194502323865891e-03
2.339206337928771973e-01
5.538104474544525146e-02
2.964138388633728027e-01
1.521613895893096924e-01
-3.167145848274230957e-01
1.054948642849922180e-01
1.742724329233169556e-02
1.358942594379186630e-03
1.517535746097564697e-02
-7.427431643009185791e-02
-6.716401129961013794e-02
-3.044864861294627190e-03
-6.200249493122100830e-02
3.920370340347290039e-02
-2.882325947284698486e-01
-5.709164962172508240e-02
-2.135084718465805054e-01
-4.836360514163970947e-01
2.190705388784408569e-01
1.332881022244691849e-02
-1.848867088556289673e-01
1.369510442018508911e-01
7.065789401531219482e-02
7.530000060796737671e-02
-1.164224073290824890e-01
-1.110139191150665283e-01
-1.529940683394670486e-02
3.140721023082733154e-01
1.938738077878952026e-01
1.439119875431060791e-01
-6.711284071207046509e-02
-4.590354859828948975e-02
5.000652745366096497e-02
-2.548650205135345459e-01
2.389141619205474854e-01
1.382479327730834484e-03
1.594162583351135254e-01
-8.523409813642501831e-02
3.070194125175476074e-01
-1.620201766490936279e-01
3.498494327068328857e-01
2.055123895406723022e-01
-2.368829548358917236e-01
-1.945895999670028687e-01
-2.073961868882179260e-02
5.498461052775382996e-02
1.956200301647186279e-01
2.906456887722015381e-01
3.464956209063529968e-02
3.200827538967132568e-01
4.187593236565589905e-02
-5.486575886607170105e-02
4.973673447966575623e-02
1.184124276041984558e-01
-1.413018703460693359e-01
5.730831995606422424e-02
-1.146100685000419617e-01
5.498303472995758057e-02
8.700598031282424927e-02
-5.565211921930313110e-02
-3.538748994469642639e-02
-3.223569989204406738e-01
1.936081051826477051e-02
2.142107784748077393e-01
1.695472449064254761e-01
-1.612832695245742798e-01
-3.548579514026641846e-01
1.657551378011703491e-01
-3.172560408711433411e-02
3.980468958616256714e-02
3.610221147537231445e-01
2.497091442346572876e-01
5.315569415688514709e-02
8.996674418449401855e-02
-3.194594681262969971e-01
-8.867760002613067627e-02
9.579463303089141846e-02
1.371161192655563354e-01
-1.786208748817443848e-01
7.472191937267780304e-03
-2.080679498612880707e-02
-1.887403577566146851e-01
1.110572367906570435e-01
-2.763497829437255859e-01
5.356050133705139160e-01
-2.996460795402526855e-01
1.426192671060562134e-01
-1.435549408197402954e-01
-2.014680653810501099e-01
-1.550078950822353363e-02
-1.902298629283905029e-01
2.216514945030212402e-01
1.486729681491851807e-01
-7.888540625572204590e-02
1.821731217205524445e-02
1.338438838720321655e-01
-8.232815191149711609e-03
4.399880021810531616e-02
-6.890285015106201172e-01
3.776379525661468506e-01
-8.480403572320938110e-03
2.168136648833751678e-02
2.630656026303768158e-02
1.973441690206527710e-01
-4.938338324427604675e-02
1.628189682960510254e-01
1.866921633481979370e-01
2.657252922654151917e-02
9.673698991537094116e-02
1.719348728656768799e-01
1.354864090681076050e-01
-7.305178791284561157e-02
6.478706747293472290e-02
5.625229328870773315e-02
1.719851940870285034e-01
-3.295372053980827332e-02
1.289812624454498291e-01
-2.854633331298828125e-02
1.789222843945026398e-02
2.384934760630130768e-02
1.488820016384124756e-01
-2.075318545103073120e-01
1.985481940209865570e-02
1.292794942855834961e-01
-1.181698068976402283e-01
3.003499507904052734e-01
-2.274847179651260376e-01
-1.555939912796020508e-01
2.980039715766906738e-01
-7.906816899776458740e-02
-3.208045288920402527e-02
-3.732695430517196655e-02
-5.817118287086486816e-01
-1.016347482800483704e-02
-3.976638913154602051e-01
-5.884828418493270874e-02
1.421190351247787476e-01
1.666822284460067749e-01
-2.285341620445251465e-01
9.229189902544021606e-02
-3.032217919826507568e-01
-2.013999968767166138e-01
-5.011732503771781921e-02
-1.121914237737655640e-01
4.345399886369705200e-02
1.052702218294143677e-02
8.485750108957290649e-02
1.200581993907690048e-02
-2.977466769516468048e-02
-1.378731578588485718e-01
9.431274374946951866e-04
-8.069625496864318848e-02
-1.230985522270202637e-01
3.709452925249934196e-03
-8.204951882362365723e-02
1.060147769749164581e-02
-4.369202628731727600e-02
-8.063133805990219116e-02
-3.795098513364791870e-02
-1.212442219257354736e-01
2.108867093920707703e-02
-1.330637093633413315e-02
-2.576870471239089966e-02
-6.484733521938323975e-02
-6.034510210156440735e-02
-5.066227540373802185e-02
-7.401517033576965332e-02
-4.133209958672523499e-02
-3.132084384560585022e-02
6.189584732055664062e-02
-9.832508862018585205e-02
-6.637497991323471069e-02
-8.338001370429992676e-02
-3.629465773701667786e-02
-6.254933029413223267e-02
-1.092789620161056519e-01
5.970425903797149658e-02
8.841048926115036011e-03
7.576264906674623489e-03
-2.746114879846572876e-02
-5.212942138314247131e-02
5.498513579368591309e-02
2.648168988525867462e-02
-2.767628757283091545e-03
-3.345524892210960388e-02
-1.199461799114942551e-02
2.644860558211803436e-02
-1.070643514394760132e-01
-7.863307744264602661e-02
-1.219744980335235596e-02
-9.172597527503967285e-02
-5.618120357394218445e-02
2.043077722191810608e-02
3.081385605037212372e-02
1.706558279693126678e-02
-1.061891689896583557e-01
-5.802133679389953613e-02
-1.164091452956199646e-01
1.537381578236818314e-02
-6.797997653484344482e-02
-1.744963927194476128e-03
3.096479922533035278e-02
-1.152008846402168274e-01
9.479112923145294189e-03
-2.152275107800960541e-02
6.210120767354965210e-02
5.921318009495735168e-02
-3.020786121487617493e-02
-1.170468330383300781e-01
3.276037424802780151e-02
-8.945028483867645264e-02
-8.665154874324798584e-02
-8.779417723417282104e-02
-3.953705355525016785e-02
-8.391407877206802368e-02
2.278909087181091309e-02
3.623920492827892303e-03
-9.286702424287796021e-02
-5.886148661375045776e-02
-4.636868461966514587e-02
5.314298719167709351e-02
-1.262873318046331406e-02
-3.302415460348129272e-02
1.537164114415645599e-02
4.701013676822185516e-03
-9.404318034648895264e-02
-9.811507910490036011e-02
-9.642981737852096558e-02
7.003844249993562698e-03
-8.416855335235595703e-02
-7.470374554395675659e-02
-7.973955944180488586e-03
-3.322668001055717468e-02
-1.773073896765708923e-02
2.046436630189418793e-02
-7.077819108963012695e-02
9.296858683228492737e-03
3.960403800010681152e-02
7.436745613813400269e-02
-7.361150812357664108e-03
3.573233028873801231e-03
-9.499412775039672852e-02
-5.825514346361160278e-02
-1.707032788544893265e-03
3.314770385622978210e-02
-6.948506087064743042e-02
-1.112825274467468262e-01
-8.354910649359226227e-03
-2.586737275123596191e-02
-6.664374470710754395e-02
1.795000582933425903e-02
3.996989876031875610e-02
-8.676803670823574066e-03
-9.460627287626266479e-02
-7.948848605155944824e-02
3.776051476597785950e-02
-9.610945731401443481e-02
3.449672460556030273e-02
-3.819267451763153076e-02
5.248098447918891907e-02
1.223450293764472008e-03
-8.248891681432723999e-02
-1.852636598050594330e-02
-3.371548056602478027e-01
-2.251205444335937500e-01
8.173466473817825317e-02
-1.151373311877250671e-01
-2.249277569353580475e-02
2.490824162960052490e-01
1.110583618283271790e-01
2.989968750625848770e-03
-3.111104108393192291e-02
4.904392361640930176e-02
-1.604102402925491333e-01
-5.942527949810028076e-02
-5.455327033996582031e-02
1.065391525626182556e-01
-7.283016294240951538e-02
-9.041205048561096191e-02
-1.536571700125932693e-02
-4.562681540846824646e-03
4.001594707369804382e-02
3.834876418113708496e-02
-5.675020813941955566e-02
3.523306250572204590e-01
-2.805340290069580078e-01
2.480534762144088745e-01
9.177938848733901978e-02
-2.226578891277313232e-01
8.910858631134033203e-02
-8.338503539562225342e-02
-5.027421936392784119e-02
7.677806168794631958e-02
6.780438870191574097e-02
1.459808498620986938e-01
1.035299375653266907e-01
2.205903679132461548e-01
2.535422332584857941e-02
9.442242980003356934e-02
-7.856203615665435791e-02
-1.137414053082466125e-01
1.010972037911415100e-01
-5.209161341190338135e-02
1.254068128764629364e-02
7.091559469699859619e-02
-2.455693483352661133e-01
-5.015517026185989380e-02
3.391893580555915833e-02
4.514280240982770920e-03
-4.948441404849290848e-03
-2.262574136257171631e-01
-8.413942530751228333e-03
3.235868513584136963e-01
-2.030372917652130127e-01
1.459484845399856567e-01
1.223514154553413391e-01
-1.510134339332580566e-01
7.370474934577941895e-02
-2.957634031772613525e-01
1.186090931296348572e-01
-9.496218711137771606e-02
-6.312575936317443848e-02
-2.389555610716342926e-02
9.201360866427421570e-03
-2.759234905242919922e-01
-2.629160284996032715e-01
5.305860657244920731e-03
1.954438239336013794e-01
1.624076515436172485e-01
5.067359656095504761e-02
8.098782971501350403e-03
2.959773316979408264e-02
-2.016807347536087036e-01
-2.056892961263656616e-01
3.006595075130462646e-01
7.129261735826730728e-03
1.024110317230224609e-01
4.901137202978134155e-02
-2.080959267914295197e-02
-6.314714998006820679e-02
-3.812424242496490479e-01
-7.496752589941024780e-02
-5.336796492338180542e-02
1.339084357023239136e-01
3.162388801574707031e-01
7.964597642421722412e-02
-2.270810753107070923e-01
8.423326909542083740e-02
1.291424334049224854e-01
2.014883905649185181e-01
1.488236933946609497e-01
5.795181915163993835e-02
6.252959370613098145e-02
-1.943176835775375366e-01
-3.237901628017425537e-02
2.029001116752624512e-01
4.094732552766799927e-02
7.168132066726684570e-02
-4.259136319160461426e-02
-1.038810610771179199e-01
-3.028793260455131531e-02
-2.353595755994319916e-02
-2.721151411533355713e-01
3.339813947677612305e-01
-2.297852560877799988e-02
-3.295924142003059387e-02
-8.039713650941848755e-02
-2.412883341312408447e-01
1.516310274600982666e-01
-9.306343644857406616e-02
2.884944714605808258e-02
1.077019423246383667e-01
-7.029530405998229980e-02
9.323416650295257568e-02
3.087301552295684814e-01
1.410038173198699951e-01
-2.462534010410308838e-01
3.013865649700164795e-01
-1.149970367550849915e-01
-1.532647572457790375e-02
-1.215895041823387146e-01
4.105461016297340393e-02
-3.048598533496260643e-03
-1.417666971683502197e-01
2.800033986568450928e-01
1.398877650499343872e-01
-5.763194337487220764e-02
1.158440783619880676e-01
6.385186314582824707e-02
-1.161780655384063721e-01
2.334709838032722473e-02
-2.680455148220062256e-02
-1.056553050875663757e-01
-5.630245432257652283e-02
-2.019347995519638062e-01
-4.090226069092750549e-02
-3.033629059791564941e-01
-1.270748227834701538e-01
2.504605054855346680e-01
2.007058113813400269e-01
1.179307103157043457e-01
2.419354580342769623e-02
2.463692426681518555e-01
8.850380033254623413e-02
-6.162327155470848083e-02
3.148004710674285889e-01
5.808985605835914612e-02
1.291603296995162964e-01
1.917187720537185669e-01
-3.948919847607612610e-02
-3.974651694297790527e-01
3.841875791549682617e-01
-6.235378980636596680e-02
5.094062909483909607e-02
6.439282745122909546e-02
-2.790111005306243896e-01
-1.423162221908569336e-01
-1.837219446897506714e-01
-2.938014566898345947e-01
-1.959173381328582764e-01
3.685361146926879883e-01
4.868805035948753357e-02
3.823382034897804260e-02
-1.546136736869812012e-01
7.006879150867462158e-02
-3.054024279117584229e-01
-8.997048437595367432e-02
1.603034674189984798e-03
2.029694020748138428e-01
1.570879220962524414e-01
2.209159433841705322e-01
-1.139428541064262390e-01
3.283012211322784424e-01
-5.774097442626953125e-01
-2.948593795299530029e-01
-1.796830147504806519e-01
9.493548423051834106e-02
-2.506931424140930176e-01
9.129585698246955872e-03
1.936207264661788940e-01
3.335830941796302795e-02
5.078527331352233887e-02
-1.457044184207916260e-01
1.403080970048904419e-01
-1.720850467681884766e-01
2.899854779243469238e-01
2.175112441182136536e-02
-1.979505866765975952e-01
-8.249621093273162842e-02
-6.400042772293090820e-02
-2.120856642723083496e-01
1.560638844966888428e-01
-1.756043434143066406e-01
7.910508662462234497e-02
-1.212501823902130127e-01
-5.299318954348564148e-02
1.754396408796310425e-01
3.463478013873100281e-02
4.878046363592147827e-02
-3.535496890544891357e-01
1.638860255479812622e-01
-4.879141598939895630e-02
7.311825454235076904e-02
-1.911660879850387573e-01
-1.965698152780532837e-01
-3.379842638969421387e-01
1.099524572491645813e-01
-2.685507833957672119e-01
2.329125106334686279e-01
-2.893034219741821289e-01
1.783698238432407379e-02
-2.177288830280303955e-01
4.542385693639516830e-03
-1.133772656321525574e-01
2.325294613838195801e-01
2.043277621269226074e-01
1.754181236028671265e-01
3.018652498722076416e-01
-5.397961288690567017e-02
1.825691163539886475e-01
1.360304504632949829e-01
-1.622934453189373016e-02
2.659149235114455223e-03
-3.944516479969024658e-01
-5.100510269403457642e-02
1.238348335027694702e-01
1.746044456958770752e-01
1.788084656000137329e-01
5.094151943922042847e-02
7.270256429910659790e-02
-1.141442805528640747e-01
2.024384438991546631e-01
1.028544455766677856e-01
1.404671929776668549e-02
1.867551170289516449e-02
9.036753326654434204e-02
2.768088579177856445e-01
-3.322879076004028320e-01
-1.422303617000579834e-01
1.766571216285228729e-02
-1.834883987903594971e-01
-7.159551978111267090e-02
-7.824140787124633789e-02
4.977029561996459961e-02
3.519516810774803162e-02
-2.565104067325592041e-01
4.427326098084449768e-02
3.205741941928863525e-01
-1.374085843563079834e-01
3.014737926423549652e-02
4.595179483294487000e-02
-2.474781125783920288e-02
1.812284998595714569e-02
-5.782446265220642090e-01
-1.196047589182853699e-01
3.108829632401466370e-02
9.422206878662109375e-02
-1.464843899011611938e-01
2.692033648490905762e-01
-7.606619596481323242e-02
2.230889201164245605e-01
1.055013313889503479e-01
-9.160070121288299561e-02
-3.218385279178619385e-01
-9.462412446737289429e-02
1.272981613874435425e-01
4.243056476116180420e-02
2.729517221450805664e-01
1.034438610076904297e-01
6.327556818723678589e-02
-2.423952519893646240e-01
-6.869041174650192261e-02
1.740135401487350464e-01
8.596771955490112305e-02
5.212968587875366211e-02
9.630492329597473145e-02
2.063588798046112061e-01
-1.180875077843666077e-01
-5.464147329330444336e-01
-3.081563860177993774e-02
3.040500283241271973e-01
-4.745941236615180969e-02
4.659705981612205505e-02
-2.242233157157897949e-01
-3.163625597953796387e-01
-1.554843690246343613e-02
4.471579939126968384e-02
-1.642865240573883057e-01
-9.488453716039657593e-02
-8.736475557088851929e-02
7.921843975782394409e-02
-1.811612844467163086e-01
3.485263884067535400e-01
-5.395829677581787109e-02
-6.416320055723190308e-02
-2.458969354629516602e-01
1.437505334615707397e-02
4.351384565234184265e-02
1.415015906095504761e-01
4.082284867763519287e-01
-5.138006061315536499e-02
1.265038549900054932e-01
-9.209232032299041748e-02
-6.017408519983291626e-02
-2.963749468326568604e-01
3.704278264194726944e-03
3.588174283504486084e-02
3.099964559078216553e-01
-2.907022833824157715e-02
-1.438302686437964439e-03
1.141107827425003052e-01
-9.280400723218917847e-02
1.494934558868408203e-01
4.007091373205184937e-02
6.723728775978088379e-02
1.854500770568847656e-01
1.615869700908660889e-01
8.614064007997512817e-02
-8.637871593236923218e-02
5.362027287483215332e-01
-2.665281891822814941e-01
-4.854292050004005432e-02
1.087166462093591690e-02
3.306626155972480774e-02
-1.984673552215099335e-02
-4.631906747817993164e-03
-1.354154646396636963e-01
1.512193772941827774e-02
1.632265448570251465e-01
-5.973904952406883240e-02
-3.844870626926422119e-02
-6.280161142349243164e-01
-1.162754967808723450e-01
-4.567984044551849365e-01
-3.250196576118469238e-02
-6.402508914470672607e-02
7.530620694160461426e-02
-1.091297063976526260e-02
-8.049584925174713135e-02
-1.605885289609432220e-02
2.452408224344253540e-01
2.387551516294479370e-01
3.229709267616271973e-01
1.857881247997283936e-01
2.036630511283874512e-01
8.785004913806915283e-02
-2.172710597515106201e-01
2.962908521294593811e-02
3.373864889144897461e-01
8.433015644550323486e-02
3.387276455760002136e-02
6.508049368858337402e-02
-2.152990400791168213e-01
2.374717742204666138e-01
1.698038280010223389e-01
-8.951500803232192993e-02
-2.026858627796173096e-01
5.215440392494201660e-01
1.630122959613800049e-02
-7.926643639802932739e-02
-9.509509801864624023e-02
4.978717491030693054e-02
-3.119079768657684326e-02
3.662301972508430481e-02
-3.207907676696777344e-01
1.079816147685050964e-01
-2.941750548779964447e-02
1.712921708822250366e-01
2.757290005683898926e-01
-4.760421812534332275e-02
-3.324523335322737694e-03
5.005393549799919128e-02
-2.283975481986999512e-01
-2.357137054204940796e-01
-1.379508525133132935e-01
-2.140928804874420166e-02
-7.470312714576721191e-02
-1.483868807554244995e-01
9.696096181869506836e-02
-3.651373088359832764e-01
1.342021524906158447e-01
2.213376611471176147e-01
-3.020125627517700195e-01
-1.537537276744842529e-01
1.215078160166740417e-01
3.650441467761993408e-01
3.524209856986999512e-01
1.716221421957015991e-01
2.102258801460266113e-02
2.814898788928985596e-01
-2.242177426815032959e-01
-6.100815907120704651e-02
-1.441967338323593140e-01
4.599291831254959106e-02
-4.545201361179351807e-02
1.518902331590652466e-01
-1.904984414577484131e-01
-4.779559001326560974e-02
-1.966333091259002686e-01
-2.188906818628311157e-01
-2.464960813522338867e-01
-3.225463330745697021e-01
6.413619220256805420e-02
7.052882015705108643e-02
3.560796007513999939e-02
-4.292248561978340149e-02
-1.001555919647216797e-01
2.316091805696487427e-01
2.413902729749679565e-01
-6.537009775638580322e-02
1.767151802778244019e-01
3.177065551280975342e-01
2.257178425788879395e-01
4.863909631967544556e-02
-1.410404592752456665e-01
-3.987473547458648682e-01
1.092128530144691467e-01
3.871513009071350098e-01
6.582480669021606445e-02
8.999945223331451416e-02
8.861535228788852692e-03
2.428652718663215637e-03
-1.551825366914272308e-02
-7.169021666049957275e-02
3.337361514568328857e-01
-3.935193270444869995e-02
9.946385771036148071e-02
4.050849750638008118e-02
-8.950278908014297485e-02
2.468780800700187683e-02
-2.313909679651260376e-02
2.864993512630462646e-01
-1.169447898864746094e-01
-1.306653320789337158e-01
-9.688363224267959595e-02
-3.623145446181297302e-02
1.265074908733367920e-01
-2.792110107839107513e-02
-4.410691261291503906e-01
5.658588409423828125e-01
4.996564686298370361e-01
-1.366366399452090263e-03
7.776676863431930542e-02
1.014056876301765442e-01
1.935101002454757690e-01
1.991064548492431641e-01
1.012082956731319427e-02
2.427170872688293457e-01
5.014779046177864075e-03
-3.457211423665285110e-03
-2.371520400047302246e-01
-7.818505167961120605e-03
-4.519231989979743958e-02
1.411738544702529907e-01
-9.663555026054382324e-02
-3.024439811706542969e-01
1.979477107524871826e-01
-1.258279662579298019e-03
-7.771654054522514343e-03
-4.314363375306129456e-02
-5.817676335573196411e-02
-2.054880112409591675e-01
-1.026238575577735901e-01
2.287984341382980347e-01
-4.194906726479530334e-02
3.856683969497680664e-01
-3.955349624156951904e-01
8.584059774875640869e-02
3.495810925960540771e-01
-4.960903525352478027e-01
2.128510922193527222e-01
-1.789405941963195801e-01
-1.002316027879714966e-01
1.337376087903976440e-01
-2.216493934392929077e-01
7.759427279233932495e-02
-1.546690911054611206e-01
3.620878458023071289e-01
4.927243664860725403e-02
-8.181064575910568237e-02
-4.232030808925628662e-01
-1.069379895925521851e-01
6.423599272966384888e-02
-1.420576423406600952e-01
5.023387819528579712e-02
-5.951921269297599792e-02
-6.960154324769973755e-02
-5.166848003864288330e-02
1.408591717481613159e-01
-6.944522727280855179e-03
-8.810265362262725830e-02
-6.866315007209777832e-02
-2.379570901393890381e-02
1.873564571142196655e-01
1.717751473188400269e-01
-4.003658890724182129e-02
-9.809833019971847534e-02
8.840070664882659912e-02
1.579879820346832275e-01
1.044496968388557434e-01
-1.645408198237419128e-02
-4.679704830050468445e-02
-5.227024853229522705e-02
-1.328038573265075684e-01
-1.319403797388076782e-01
2.709206007421016693e-02
-7.261859625577926636e-02
-2.262073457241058350e-01
9.342770278453826904e-02
1.813289374113082886e-01
-3.753004968166351318e-01
-1.106593292206525803e-02
-3.442254289984703064e-02
-4.595429450273513794e-02
8.614268898963928223e-02
-3.552946075797080994e-02
5.870997533202171326e-02
3.080096561461687088e-03
3.265571966767311096e-02
-6.314148008823394775e-02
1.622645854949951172e-01
-3.620309382677078247e-02
9.843437932431697845e-03
1.931067742407321930e-02
2.401607334613800049e-01
4.889678210020065308e-03
-1.675686240196228027e-01
1.329485177993774414e-01
1.407067179679870605e-01
2.043406367301940918e-01
4.139331728219985962e-02
1.833360940217971802e-01
-2.651638723909854889e-02
4.468092694878578186e-02
5.543523281812667847e-02
-1.476516574621200562e-02
-1.104750856757164001e-02
1.166603341698646545e-01
-3.705417737364768982e-02
-8.464387804269790649e-02
-4.452626407146453857e-02
7.880657166242599487e-02
-1.270181685686111450e-01
1.833039820194244385e-01
-1.687470078468322754e-01
-4.065761864185333252e-01
-1.215794831514358521e-01
-2.287409752607345581e-01
-1.802167594432830811e-01
-3.915184736251831055e-02
-1.194719895720481873e-01
-4.066335037350654602e-03
2.191290026530623436e-03
1.154099926352500916e-01
2.855316698551177979e-01
1.465809345245361328e-01
-1.457387059926986694e-01
4.991147667169570923e-02
-2.384829521179199219e-02
-2.668374776840209961e-01
-2.332974821329116821e-01
-7.805970311164855957e-02
-7.985235005617141724e-02
1.222838461399078369e-01
3.001890182495117188e-01
-1.215701624751091003e-01
-5.688411369919776917e-02
-1.008497029542922974e-01
8.013947308063507080e-02
7.202123850584030151e-02
-1.941609084606170654e-01
1.241140663623809814e-01
-9.667130559682846069e-02
-4.439650848507881165e-02
7.165969163179397583e-02
-8.617956191301345825e-02
-1.351705044507980347e-01
-2.151506245136260986e-01
6.838377565145492554e-02
-9.604843333363533020e-03
2.353023886680603027e-01
1.032007508911192417e-03
6.360805779695510864e-02
-1.952025741338729858e-01
-2.746082842350006104e-01
1.430630683898925781e-01
1.660054475069046021e-01
2.272387444972991943e-01
1.696276068687438965e-01
9.013284742832183838e-02
-1.359313875436782837e-01
-1.381116062402725220e-01
-1.706459224224090576e-01
-3.528611734509468079e-02
-4.660642892122268677e-02
2.938659116625785828e-02
-1.030090898275375366e-01
1.355136930942535400e-01
5.938229709863662720e-02
-8.673846605233848095e-04
4.060260206460952759e-02
2.293013781309127808e-01
2.797980606555938721e-02
-2.382367849349975586e-02
-2.202811464667320251e-02
8.152639865875244141e-02
1.245341822504997253e-01
3.762322664260864258e-01
1.266878843307495117e-01
2.351012229919433594e-01
-9.091222658753395081e-03
6.804174184799194336e-02
-1.605706214904785156e-01
-3.428992927074432373e-01
-9.598062187433242798e-02
-1.900869794189929962e-02
9.521207958459854126e-02
2.726809680461883545e-01
1.995340883731842041e-01
-2.211960591375827789e-02
1.792919822037220001e-02
6.219530478119850159e-02
-1.221215426921844482e-01
1.143233850598335266e-01
-5.574390292167663574e-01
-3.608249500393867493e-02
-3.075886070728302002e-01
1.516412794589996338e-01
-1.196329072117805481e-01
2.758868932723999023e-01
1.254190504550933838e-01
-1.904609203338623047e-01
-2.784071862697601318e-01
1.254745572805404663e-01
9.782847948372364044e-03
9.382910095155239105e-03
-2.738991985097527504e-03
-4.140316694974899292e-02
1.380076557397842407e-01
-1.827538609504699707e-01
-6.908956915140151978e-02
3.464061021804809570e-02
6.530226022005081177e-02
-3.716897666454315186e-01
-2.340905070304870605e-01
5.503920838236808777e-02
1.337490528821945190e-01
2.463758140802383423e-01
-2.372520714998245239e-01
1.383426338434219360e-01
2.261610515415668488e-02
6.645139306783676147e-02
2.932589687407016754e-02
1.175448745489120483e-01
-1.395733803510665894e-01
-2.786992788314819336e-01
1.941034346818923950e-01
8.354084193706512451e-02
1.509154587984085083e-01
5.424275249242782593e-02
1.786535233259201050e-02
-3.778065145015716553e-01
-5.069258436560630798e-02
-2.317882329225540161e-01
4.197843745350837708e-02
-1.070644408464431763e-01
-2.666579559445381165e-02
1.496758759021759033e-01
5.757958441972732544e-02
3.231164067983627319e-02
8.767172694206237793e-02
3.095901012420654297e-01
-4.210419654846191406e-01
-2.101108133792877197e-01
2.570956647396087646e-01
-1.689819693565368652e-01
-4.239493310451507568e-01
-1.824946850538253784e-01
4.740995541214942932e-02
3.353852033615112305e-01
2.881727218627929688e-01
1.015134602785110474e-01
-2.019401825964450836e-02
1.692332923412322998e-01
-2.163387984037399292e-01
2.229684740304946899e-01
-3.604845106601715088e-01
-2.414040453732013702e-02
-2.765574455261230469e-01
-1.676005870103836060e-01
-2.739634737372398376e-02
-3.658616542816162109e-01
-3.362851738929748535e-01
-6.617305334657430649e-03
2.680877447128295898e-01
-2.778079211711883545e-01
1.130956262350082397e-01
9.067696332931518555e-02
-4.982955008745193481e-02
-2.307876944541931152e-01
1.336340457201004028e-01
1.414321810007095337e-01
1.763527244329452515e-01
2.364018931984901428e-02
-4.580091834068298340e-01
-4.100260436534881592e-01
1.351555157452821732e-02
2.155287889763712883e-03
2.427020967006683350e-01
2.626654505729675293e-01
1.197698116302490234e-01
-4.829619526863098145e-01
1.801332086324691772e-02
3.972493857145309448e-02
9.195753186941146851e-02
4.882744327187538147e-02
3.911021649837493896e-01
-1.622035801410675049e-01
-1.025881245732307434e-01
8.513287454843521118e-02
-1.961352378129959106e-01
1.529865115880966187e-01
1.740874350070953369e-02
-2.820287644863128662e-01
1.299276500940322876e-01
7.660022377967834473e-02
-1.543354988098144531e-02
-2.327929139137268066e-01
-3.041492998600006104e-01
-1.590657085180282593e-01
5.126780644059181213e-02
1.186181232333183289e-01
1.861038357019424438e-01
-4.117099195718765259e-02
8.904050290584564209e-02
6.135582178831100464e-02
-4.286492615938186646e-02
-2.902989685535430908e-01
1.954244971275329590e-01
-1.646383106708526611e-01
4.404778406023979187e-02
-7.558850944042205811e-02
6.960128992795944214e-02
2.133450061082839966e-01
-2.591104805469512939e-01
-3.688363134860992432e-01
2.543165981769561768e-01
3.393482882529497147e-03
-8.310271799564361572e-02
-2.335935458540916443e-02
-2.185259014368057251e-01
3.475624322891235352e-02
1.110079437494277954e-01
1.533163934946060181e-01
-8.365537971258163452e-02
7.496261969208717346e-03
-1.028000935912132263e-01
-1.242585554718971252e-01
-2.395860999822616577e-01
-1.266631782054901123e-01
1.292633265256881714e-01
1.458580791950225830e-01
-2.442796342074871063e-02
-1.909402608871459961e-01
-2.769084572792053223e-01
-5.064918994903564453e-01
4.645370692014694214e-02
-8.758676052093505859e-02
-1.680611521005630493e-01
-2.997270226478576660e-02
-9.567797929048538208e-02
1.070017516613006592e-01
2.222284972667694092e-01
-3.710546791553497314e-01
-9.398883208632469177e-03
8.777431398630142212e-02
-3.990253433585166931e-02
-2.072716057300567627e-01
-1.179556250572204590e-01
-1.423268616199493408e-01
8.759464835748076439e-04
-2.323871403932571411e-01
-1.563412696123123169e-02
4.578347504138946533e-02
8.807615935802459717e-02
2.054191529750823975e-01
2.471043355762958527e-02
-3.843967318534851074e-01
-4.400701820850372314e-02
-7.251384109258651733e-02
-1.115652024745941162e-01
-1.319876760244369507e-01
3.091116547584533691e-01
1.341556757688522339e-01
-1.772898137569427490e-01
-3.406293690204620361e-01
1.487995088100433350e-01
9.814706863835453987e-04
3.470717370510101318e-02
-1.516664326190948486e-01
-1.558031886816024780e-01
8.150386810302734375e-02
6.998808681964874268e-02
-3.806168586015701294e-02
-2.640906907618045807e-02
-7.776332087814807892e-03
2.427260577678680420e-02
-3.754799962043762207e-01
7.239520549774169922e-02
-1.639650911092758179e-01
7.898240536451339722e-02
-3.076673150062561035e-01
-9.781066328287124634e-02
-1.923368275165557861e-01
-2.499919384717941284e-01
1.072312667965888977e-01
-2.389302849769592285e-01
1.724091321229934692e-01
-1.503955759108066559e-02
-2.476044148206710815e-01
-3.280739486217498779e-01
6.416814774274826050e-02
2.991653233766555786e-02
-1.283391416072845459e-01
-6.846032291650772095e-02
-7.113818824291229248e-02
-2.689257562160491943e-01
-7.752600312232971191e-02
-1.898541748523712158e-01
3.025546967983245850e-01
-1.646806746721267700e-01
-3.701528161764144897e-02
-1.985010355710983276e-01
1.873764693737030029e-01
7.978095114231109619e-02
6.734549999237060547e-02
1.768537461757659912e-01
-2.765509532764554024e-03
-1.131163313984870911e-01
-8.160544931888580322e-02
-2.845728993415832520e-01
-1.600437313318252563e-01
-9.018181264400482178e-02
1.979084759950637817e-01
1.304276287555694580e-02
-1.748802810907363892e-01
5.952937528491020203e-02
-1.475131046026945114e-02
-1.445443779230117798e-01
6.138972938060760498e-02
-8.232421427965164185e-02
2.076260149478912354e-01
9.222411364316940308e-02
-7.661923766136169434e-03
-1.183143481612205505e-01
-9.361495077610015869e-02
-2.538617551326751709e-01
-4.712367653846740723e-01
2.129152119159698486e-01
4.556800052523612976e-02
1.942779496312141418e-02
-1.595441401004791260e-01
1.684854738414287567e-02
-4.140830412507057190e-02
3.455488979816436768e-01
-4.902539774775505066e-02
3.552347123622894287e-01
1.038436591625213623e-02
7.075313478708267212e-02
2.964783832430839539e-02
-3.030505776405334473e-01
-1.411520987749099731e-01
-6.474588811397552490e-02
4.203039780259132385e-02
-1.113749444484710693e-01
-1.740839332342147827e-02
-1.152009591460227966e-01
-1.478927880525588989e-01
1.552255474962294102e-03
-1.330096870660781860e-01
3.851895406842231750e-02
-1.519277542829513550e-01
-5.375065281987190247e-02
1.142039000988006592e-01
1.141123771667480469e-01
2.080787420272827148e-01
4.806908965110778809e-02
6.770046055316925049e-02
-1.674319803714752197e-01
-1.199024841189384460e-01
1.581745445728302002e-01
4.085428118705749512e-01
1.109722629189491272e-01
-2.315566837787628174e-01
-3.122505545616149902e-01
1.513623744249343872e-01
6.204543169587850571e-04
1.412830054759979248e-01
2.710458338260650635e-01
6.806116551160812378e-02
-7.849662005901336670e-02
1.757877469062805176e-01
-5.344416573643684387e-02
-7.304328680038452148e-02
3.321226537227630615e-01
1.813849210739135742e-01
1.166510507464408875e-01
2.323743514716625214e-02
3.361043035984039307e-01
-1.706034876406192780e-02
-9.006929583847522736e-03
1.113820299506187439e-01
-4.714771509170532227e-01
-1.568875461816787720e-01
-2.360189706087112427e-01
1.616919040679931641e-01
2.875859141349792480e-01
4.768364503979682922e-02
-1.464704722166061401e-01
3.422427773475646973e-01
1.823042333126068115e-01
-7.586564868688583374e-02
-6.380883604288101196e-02
-3.829963505268096924e-01
1.380690783262252808e-01
2.223282754421234131e-01
-4.466692730784416199e-02
1.067859232425689697e-01
6.455618888139724731e-02
-1.062504276633262634e-01
2.061469554901123047e-01
-7.458433043211698532e-03
-4.949644580483436584e-02
1.346256732940673828e-01
-1.926441788673400879e-01
-4.647931158542633057e-01
1.053918227553367615e-01
3.822058737277984619e-01
-4.343559592962265015e-02
1.405747681856155396e-01
-7.703128736466169357e-03
-1.505952477455139160e-01
-9.845142811536788940e-02
-2.489726245403289795e-02
-2.395958453416824341e-02
1.863817572593688965e-01
-2.423845231533050537e-01
-1.711212545633316040e-01
-9.337223321199417114e-02
-5.555452704429626465e-01
1.514287143945693970e-01
2.823339700698852539e-01
1.496756821870803833e-01
-3.640638664364814758e-02
1.955135464668273926e-01
-1.527961529791355133e-02
-2.364742010831832886e-02
7.351952791213989258e-02
1.138501688838005066e-01
9.916929993778467178e-04
1.358677744865417480e-01
-2.877060770988464355e-01
4.238661751151084900e-02
1.384221315383911133e-01
1.149281486868858337e-01
2.276030778884887695e-01
8.200562745332717896e-02
-4.434376657009124756e-01
-4.554974436759948730e-01
-1.455224156379699707e-01
-6.496693193912506104e-02
-1.562210172414779663e-01
1.225161924958229065e-01
4.498714208602905273e-01
1.035460308194160461e-01
-1.726057380437850952e-02
-5.778669193387031555e-02
6.007065996527671814e-02
-2.938474714756011963e-01
2.179822623729705811e-01
-4.176445305347442627e-02
8.274103747680783272e-04
1.838430762290954590e-01
2.917381823062896729e-01
-2.585546672344207764e-02
-2.392911911010742188e-01
-1.340305432677268982e-02
-1.284888982772827148e-01
1.890504956245422363e-01
-1.151075214147567749e-01
3.167562186717987061e-01
-9.708387404680252075e-02
-3.013596236705780029e-01
1.343872249126434326e-01
-4.005806520581245422e-02
-7.925182580947875977e-01
-2.101408243179321289e-01
5.133339390158653259e-02
-2.147503197193145752e-02
8.300910145044326782e-02
-2.885570824146270752e-01
2.389331758022308350e-01
8.311630785465240479e-02
-9.300366044044494629e-02
1.454576402902603149e-01
-1.681755185127258301e-01
-1.986518204212188721e-01
-1.594696491956710815e-01
-2.337110936641693115e-01
-8.247314393520355225e-02
-5.967608839273452759e-02
1.213016062974929810e-01
1.972094923257827759e-02
-9.211967140436172485e-02
3.797432035207748413e-02
-8.202145248651504517e-02
4.512276872992515564e-02
-5.816024169325828552e-02
-1.864166408777236938e-01
8.776405453681945801e-02
2.881622686982154846e-02
1.053840517997741699e-01
-3.296165261417627335e-03
6.412265449762344360e-02
2.227910757064819336e-01
3.963489085435867310e-02
1.104508563876152039e-01
3.407237231731414795e-01
7.571534067392349243e-02
-1.844257116317749023e-02
-1.886074990034103394e-01
1.320855692028999329e-02
2.209923565387725830e-01
1.503189653158187866e-02
-1.537407375872135162e-02
1.906159520149230957e-01
4.978346452116966248e-02
-1.056457534432411194e-01
2.791913971304893494e-02
-2.866905331611633301e-01
-2.776022627949714661e-02
-6.930366903543472290e-02
-1.183741837739944458e-01
-9.704340249300003052e-02
-1.793773323297500610e-01
8.751299977302551270e-02
1.604520529508590698e-01
2.803450226783752441e-01
-1.945961564779281616e-01
7.202795892953872681e-02
-1.140179634094238281e-01
4.463922381401062012e-01
-9.644264727830886841e-02
8.516047149896621704e-03
-6.255508661270141602e-01
-1.117183491587638855e-01
-2.824344038963317871e-01
2.189426273107528687e-01
6.582896411418914795e-02
-2.047472298145294189e-01
-3.431456387042999268e-01
8.206809312105178833e-02
-3.896342217922210693e-01
1.519292294979095459e-01
5.978671461343765259e-02
-1.030983254313468933e-01
-9.716942161321640015e-02
-2.452902793884277344e-01
-3.474314883351325989e-02
2.129493504762649536e-01
-1.204842776060104370e-01
-6.014621630311012268e-02
-6.232994794845581055e-01
-1.963431239128112793e-01
-9.604663401842117310e-02
1.069955676794052124e-01
1.829704791307449341e-01
-1.898621767759323120e-01
-2.391274273395538330e-01
6.743806600570678711e-02
1.466587632894515991e-01
1.138217821717262268e-01
1.829151622951030731e-02
-6.739041209220886230e-02
1.190874502062797546e-01
-1.938238367438316345e-02
4.671493917703628540e-02
-1.857169270515441895e-01
2.881911396980285645e-01
2.502213604748249054e-02
1.136081013828516006e-02
2.141421139240264893e-01
2.054257690906524658e-02
-2.674657106399536133e-01
8.551815152168273926e-02
-6.046420335769653320e-02
-2.659898437559604645e-02
-8.861868828535079956e-02
9.262572973966598511e-02
2.861189246177673340e-01
-3.513077795505523682e-01
1.590201705694198608e-01
-2.031659893691539764e-02
1.344280242919921875e-01
-4.585126414895057678e-03
5.197182763367891312e-03
-6.753620691597461700e-03
-1.047065034508705139e-01
-2.176502160727977753e-02
2.722931280732154846e-02
1.153990030288696289e-01
3.915082812309265137e-01
-3.852115273475646973e-01
2.326917499303817749e-01
7.994709908962249756e-02
1.188167333602905273e-01
1.010688543319702148e-01
-6.414385885000228882e-02
-5.351119115948677063e-02
2.078123390674591064e-01
1.237397342920303345e-01
2.606872320175170898e-01
8.169994503259658813e-02
-1.824413537979125977e-01
-1.837609261274337769e-01
-1.266976539045572281e-02
1.230657249689102173e-01
-1.663176417350769043e-01
-1.126839518547058105e-01
-3.337155282497406006e-01
-3.453384935855865479e-01
-3.259747028350830078e-01
2.422903776168823242e-01
3.168209269642829895e-02
1.816231608390808105e-01
-2.345709130167961121e-02
-1.046489626169204712e-01
1.162813380360603333e-01
1.794870197772979736e-01
-3.153276145458221436e-01
-7.634169608354568481e-02
-2.033636420965194702e-01
1.456259936094284058e-02
-1.984875947237014771e-01
-4.369952082633972168e-01
1.838538423180580139e-02
3.237430378794670105e-02
2.929887473583221436e-01
3.993924334645271301e-02
-3.164293617010116577e-02
1.001207008957862854e-01
1.027306392788887024e-01
-2.260572016239166260e-01
2.029734551906585693e-01
-1.169924275018274784e-03
-1.066174954175949097e-01
-2.233889549970626831e-01
8.748762309551239014e-02
3.886031359434127808e-02
2.296039611101150513e-01
2.019727230072021484e-01
-4.123207647353410721e-03
-7.304082065820693970e-02
2.023548483848571777e-01
-5.459269508719444275e-02
-2.610516035929322243e-03
-3.357216119766235352e-01
1.528052687644958496e-01
-3.223370313644409180e-01
-2.980311810970306396e-01
8.785547316074371338e-02
-1.191737577319145203e-01
-7.412553578615188599e-02
-2.561285160481929779e-02
8.872683346271514893e-02
1.152353808283805847e-01
-2.313277125358581543e-02
3.423940241336822510e-01
7.538284361362457275e-02
1.203091666102409363e-01
2.343237549066543579e-01
6.962389349937438965e-01
2.171393930912017822e-01
-6.485769152641296387e-02
3.933154046535491943e-01
-3.808349072933197021e-01
1.095927432179450989e-01
-3.601410388946533203e-01
-6.822629272937774658e-02
1.155653446912765503e-01
1.354373097419738770e-01
-3.209168314933776855e-01
8.032926172018051147e-02
6.761910766363143921e-02
-4.671656992286443710e-03
7.001645863056182861e-02
1.724364757537841797e-01
-2.292418479919433594e-01
6.429847329854965210e-02
-2.028111554682254791e-02
1.015226468443870544e-01
6.555958185344934464e-03
7.600169628858566284e-02
1.026599202305078506e-04
-1.179925501346588135e-01
-1.618577539920806885e-02
9.557659178972244263e-02
-2.877066470682621002e-02
2.024001255631446838e-02
-3.258309140801429749e-02
-4.278788715600967407e-02
2.386108785867691040e-02
-1.065984517335891724e-01
-9.636678546667098999e-02
-1.375088095664978027e-01
5.656914412975311279e-02
-5.915058031678199768e-02
1.016576867550611496e-02
-3.351047635078430176e-02
-2.253966592252254486e-02
-1.430914700031280518e-01
-1.070861890912055969e-01
5.582844093441963196e-02
-1.580730229616165161e-01
-6.175149697810411453e-03
-8.826700598001480103e-02
2.165901102125644684e-02
-1.666746102273464203e-02
-7.774048298597335815e-02
-9.159018099308013916e-02
-1.184024214744567871e-01
6.907197833061218262e-02
1.198879722505807877e-02
-5.912235379219055176e-02
4.554243385791778564e-02
-1.145799085497856140e-01
-1.532307714223861694e-01
-3.474435955286026001e-02
1.797395944595336914e-02
9.039609692990779877e-03
-1.334330886602401733e-01
-8.361602574586868286e-02
-5.540181882679462433e-04
-1.165176779031753540e-01
-1.241292655467987061e-01
-5.719501152634620667e-02
-6.269910931587219238e-02
3.676936030387878418e-02
6.294091790914535522e-02
-7.489886134862899780e-02
-6.022252514958381653e-02
1.319101918488740921e-02
-6.235627830028533936e-02
-4.960851371288299561e-02
-4.083470255136489868e-02
-9.460675716400146484e-02
9.407915174961090088e-03
2.811536379158496857e-02
-1.335382759571075439e-01
-1.432524472475051880e-01
-7.904417812824249268e-02
-1.455080658197402954e-01
-3.338545095175504684e-03
5.396172404289245605e-02
6.892725080251693726e-02
-3.748363256454467773e-02
1.121951919049024582e-02
-4.503643140196800232e-02
-4.531374201178550720e-02
8.589414879679679871e-03
-8.773826807737350464e-02
5.353917181491851807e-02
5.445297062397003174e-02
-1.986578851938247681e-02
-8.138915896415710449e-02
-1.276089549064636230e-01
-3.462205408141016960e-03
-8.043247461318969727e-02
1.798268058337271214e-04
-4.089436307549476624e-02
-4.410916566848754883e-02
1.375453080981969833e-02
-3.728085756301879883e-02
3.793794661760330200e-02
-6.518797576427459717e-02
-1.184247881174087524e-01
-1.058250814676284790e-01
2.810678631067276001e-02
-1.010473147034645081e-01
-3.621229529380798340e-02
-5.814163759350776672e-02
-3.613228723406791687e-02
-1.398236304521560669e-01
-4.457627981901168823e-02
-5.922404304146766663e-02
-1.498430874198675156e-02
4.873799334745854139e-04
4.763690382242202759e-02
-6.276571005582809448e-02
-1.568410731852054596e-02
-1.274587363004684448e-01
2.326731383800506592e-02
-1.166641265153884888e-01
3.155072778463363647e-02
-1.217700764536857605e-01
9.219215251505374908e-03
-1.002317667007446289e-01
-4.025481268763542175e-02
3.235923126339912415e-03
-2.102473378181457520e-02
-1.156898215413093567e-01
-1.353704780340194702e-01
-1.875113695859909058e-01
-1.559902913868427277e-02
3.021779842674732208e-02
-2.352560311555862427e-02
1.253636740148067474e-02
-1.823513419367372990e-03
3.166979551315307617e-02
-5.168531462550163269e-02
-4.073162749409675598e-02
-3.769670426845550537e-02
-3.590212762355804443e-02
-3.169447481632232666e-01
1.212434321641921997e-01
3.318548947572708130e-02
1.740702986717224121e-02
4.684803187847137451e-01
-8.645041286945343018e-02
1.239572986960411072e-01
-4.661760851740837097e-02
-9.205982834100723267e-02
4.890117421746253967e-02
-4.864103496074676514e-01
2.198778986930847168e-01
5.917533487081527710e-02
8.818958699703216553e-02
4.511117935180664062e-02
2.419026792049407959e-01
-2.751790881156921387e-01
2.522951364517211914e-01
2.221815288066864014e-01
-4.172724187374114990e-01
-2.693779766559600830e-01
-1.950600594282150269e-01
-6.124540045857429504e-02
1.518528163433074951e-01
3.260320127010345459e-01
-8.133143931627273560e-02
8.649043738842010498e-02
-5.805479288101196289e-01
-3.490782976150512695e-01
2.327494174242019653e-01
4.870163276791572571e-02
-4.980098083615303040e-02
1.129101291298866272e-01
1.959355324506759644e-01
-1.372582614421844482e-01
-5.382160544395446777e-01
5.253468826413154602e-02
1.743711680173873901e-01
-1.775129139423370361e-01
4.062515497207641602e-02
1.953936219215393066e-01
-1.670670211315155029e-01
9.812141954898834229e-02
-1.370456963777542114e-01
-2.147070467472076416e-01
-2.120153903961181641e-01
1.085476428270339966e-01
3.269123136997222900e-01
-1.311571300029754639e-01
3.981181383132934570e-01
2.452846057713031769e-02
9.244028478860855103e-02
-2.415128946304321289e-01
-4.192532226443290710e-02
2.649118890985846519e-03
2.569612562656402588e-01
2.102425694465637207e-01
5.551199242472648621e-02
6.051802635192871094e-02
-1.899143755435943604e-01
-2.635990977287292480e-01
-6.301715970039367676e-02
7.528737653046846390e-03
5.484465137124061584e-02
-2.173299938440322876e-01
8.039639890193939209e-02
-6.091751530766487122e-02
1.322807092219591141e-02
-3.855610731989145279e-03
-1.033045873045921326e-01
1.412023901939392090e-01
-5.954492464661598206e-02
4.024780392646789551e-01
2.448748052120208740e-01
2.657626569271087646e-01
-7.375303655862808228e-02
4.976669251918792725e-01
-1.091096550226211548e-01
-2.095331437885761261e-02
-9.322696179151535034e-02
2.077825218439102173e-01
-2.487854808568954468e-01
-5.406573414802551270e-02
-1.327288448810577393e-01
1.593089252710342407e-01
8.173307776451110840e-02
-2.340417504310607910e-01
-3.498187959194183350e-01
-6.237777471542358398e-01
-7.020574808120727539e-02
-2.000205814838409424e-01
6.237369403243064880e-02
-1.020142734050750732e-01
-1.988763222470879555e-03
-3.585675358772277832e-01
-4.625054821372032166e-02
9.244431555271148682e-02
1.625634729862213135e-01
-2.936172857880592346e-02
3.080296516418457031e-01
-1.764601841568946838e-02
2.720974683761596680e-01
1.496036350727081299e-01
-1.042137667536735535e-02
-8.185118436813354492e-03
1.928861588239669800e-01
-8.217834867537021637e-03
2.698028385639190674e-01
-3.081704676151275635e-02
-1.587622612714767456e-01
9.070491790771484375e-02
-9.020794928073883057e-02
4.865571483969688416e-02
-4.022051393985748291e-02
2.534042298793792725e-01
7.925018668174743652e-02
6.199707090854644775e-02
-3.097912073135375977e-01
1.542656868696212769e-01
-5.304691940546035767e-02
-7.748426496982574463e-02
1.156861409544944763e-01
5.114963278174400330e-03
-6.686268001794815063e-02
6.024985015392303467e-02
3.769149258732795715e-02
2.102241218090057373e-01
4.417865350842475891e-02
1.382947415113449097e-01
-1.155200600624084473e-01
-1.890391558408737183e-01
-2.712993919849395752e-01
2.708206512033939362e-02
-1.004563868045806885e-01
2.639416456222534180e-01
8.681174367666244507e-02
-5.295791476964950562e-02
1.143583506345748901e-01
2.691654562950134277e-01
-1.768400659784674644e-03
-1.853463798761367798e-01
-1.367850136011838913e-02
2.131259590387344360e-01
-3.651302307844161987e-02
-5.342577099800109863e-01
-2.621795423328876495e-02
-1.812775060534477234e-02
2.064576596021652222e-01
-1.812905371189117432e-01
1.734491884708404541e-01
-5.636335611343383789e-01
7.308789528906345367e-03
1.451439261436462402e-01
3.272877633571624756e-02
-1.099334657192230225e-01
-7.206729147583246231e-03
-1.397319585084915161e-01
1.130012050271034241e-01
-7.733976840972900391e-02
-3.577912598848342896e-02
-1.097373738884925842e-01
-1.138888448476791382e-01
3.664387464523315430e-01
6.142519786953926086e-02
2.127456218004226685e-01
-1.825847625732421875e-01
4.280627518892288208e-02
9.995451569557189941e-02
1.645124703645706177e-01
2.820980250835418701e-01
-1.780659407377243042e-01
6.466922909021377563e-02
-1.811831295490264893e-01
1.951432228088378906e-01
3.089873865246772766e-02
7.754074782133102417e-02
1.684972047805786133e-01
-4.139731451869010925e-02
4.094819128513336182e-01
-8.388949632644653320e-01
1.305245906114578247e-01
-8.687534183263778687e-02
2.093462049961090088e-01
3.854824230074882507e-02
2.138283103704452515e-01
-1.234681308269500732e-01
2.309903129935264587e-02
2.339711338281631470e-01
-2.390070855617523193e-01
2.179035246372222900e-01
6.071641296148300171e-02
-1.105255708098411560e-01
-2.540864050388336182e-01
7.772465795278549194e-02
1.709058284759521484e-01
-5.118430405855178833e-02
1.844362914562225342e-01
-1.339858863502740860e-02
-2.577933669090270996e-02
-8.052329719066619873e-02
-7.674018293619155884e-02
-3.055912852287292480e-01
-1.025847159326076508e-02
2.080445289611816406e-01
-7.986994832754135132e-02
2.497043609619140625e-01
-2.225826829671859741e-01
-2.277019172906875610e-01
-1.909783780574798584e-01
-1.577304005622863770e-01
-3.551879525184631348e-01
-4.177884198725223541e-03
-1.803686469793319702e-01
-2.649777531623840332e-01
-1.066104844212532043e-01
-5.677092075347900391e-02
-2.088891863822937012e-01
2.866895794868469238e-01
-2.045840173959732056e-01
4.906851649284362793e-01
2.207358181476593018e-02
2.658430933952331543e-01
5.321165546774864197e-03
2.371379546821117401e-02
-8.190146833658218384e-02
-1.105070933699607849e-01
1.343814581632614136e-01
-2.363946884870529175e-01
4.799216687679290771e-01
1.477728933095932007e-01
1.582820117473602295e-01
-1.121615990996360779e-03
-7.147690653800964355e-02
1.745294183492660522e-01
2.413683533668518066e-01
1.469683349132537842e-01
-6.297289580106735229e-02
-3.767143934965133667e-02
1.219521760940551758e-01
-2.979119680821895599e-02
-6.096233800053596497e-02
1.353725641965866089e-01
1.794880139641463757e-03
-3.744314610958099365e-02
7.407561689615249634e-02
1.553146075457334518e-02
1.569512486457824707e-01
-3.138008294627070427e-03
1.660430133342742920e-01
1.415020376443862915e-01
5.991189554333686829e-02
9.091819077730178833e-02
2.001513354480266571e-02
-6.307337433099746704e-02
4.611795395612716675e-02
3.333417326211929321e-02
-1.465556793846189976e-03
-2.970141470432281494e-01
-4.092202335596084595e-02
8.114615827798843384e-02
1.900061964988708496e-01
2.814786434173583984e-01
1.060148850083351135e-01
-1.167884394526481628e-01
-2.583409845829010010e-01
1.402710080146789551e-01
-2.580486238002777100e-01
5.853291973471641541e-02
2.840869314968585968e-02
-5.831885710358619690e-02
-1.408612877130508423e-01
3.651249688118696213e-03
1.129480004310607910e-01
-7.471119612455368042e-02
4.586895182728767395e-02
1.880448460578918457e-01
-1.053376272320747375e-01
-6.501697003841400146e-02
-1.378004103899002075e-01
-6.484930217266082764e-02
3.036904335021972656e-01
1.311227586120367050e-02
-1.359332948923110962e-01
8.133862167596817017e-02
-7.490073889493942261e-02
-1.102424040436744690e-02
-6.419243663549423218e-02
-9.338486939668655396e-02
-1.364473104476928711e-01
-9.422986209392547607e-02
1.889731138944625854e-01
-1.100444644689559937e-01
8.714030683040618896e-02
-3.339447379112243652e-01
1.305321753025054932e-01
-3.625715076923370361e-01
-7.855109870433807373e-02
-8.309940807521343231e-03
-1.694810017943382263e-02
7.701086252927780151e-02
7.321511954069137573e-02
-2.844683639705181122e-02
5.772604141384363174e-03
3.303747251629829407e-02
1.364757269620895386e-01
1.537580341100692749e-01
-6.063082814216613770e-02
2.530143857002258301e-01
-2.327705547213554382e-02
4.716659709811210632e-02
1.948588043451309204e-01
4.159664735198020935e-02
9.638027288019657135e-03
-3.468535840511322021e-02
2.454878203570842743e-02
2.933780103921890259e-02
-4.230192601680755615e-01
3.180406615138053894e-02
6.952779740095138550e-02
4.180763289332389832e-02
2.620237171649932861e-01
-1.787106096744537354e-01
-4.930734634399414062e-02
1.871080994606018066e-01
1.065244674682617188e-01
4.258594289422035217e-02
2.294738888740539551e-01
1.326093226671218872e-01
1.285163760185241699e-01
5.330377072095870972e-02
2.783678770065307617e-01
-1.709265634417533875e-02
1.266687214374542236e-01
5.048221908509731293e-03
-6.134812906384468079e-02
-8.491674810647964478e-02
-6.495333462953567505e-02
-6.184057332575321198e-03
-5.052039027214050293e-01
-2.317523658275604248e-01
1.802851706743240356e-01
-3.066975176334381104e-01
-1.283818185329437256e-01
7.702674716711044312e-02
3.237571939826011658e-02
8.639585971832275391e-02
-1.990602612495422363e-01
9.156408719718456268e-03
-1.328114513307809830e-02
2.516633868217468262e-01
1.211729496717453003e-01
-9.963227808475494385e-02
3.692844137549400330e-02
2.331555634737014771e-01
-2.647848799824714661e-03
-9.390024468302726746e-03
-5.541443452239036560e-02
2.900913357734680176e-01
3.391644731163978577e-02
7.063583284616470337e-02
-3.288325965404510498e-01
2.348727881908416748e-01
7.383848726749420166e-02
-1.663793250918388367e-02
2.210820168256759644e-01
-1.132075190544128418e-01
1.332944780588150024e-01
5.545414611697196960e-02
-5.704255029559135437e-02
3.220197260379791260e-01
-1.518712472170591354e-02
6.125357747077941895e-02
1.140486542135477066e-02
2.354640662670135498e-01
-2.691565155982971191e-01
9.102129936218261719e-02
-2.129606902599334717e-01
1.661128401756286621e-01
1.184585094451904297e-01
-3.458143472671508789e-01
-1.965872943401336670e-01
3.458288311958312988e-02
4.038152750581502914e-03
3.369505405426025391e-01
2.867621481418609619e-01
1.047338545322418213e-02
-7.652858644723892212e-02
-6.736498475074768066e-01
-1.414262801408767700e-01
3.165902569890022278e-02
-1.698193699121475220e-01
-8.227150142192840576e-02
1.763585060834884644e-01
7.305968087166547775e-03
8.406897634267807007e-02
4.181975871324539185e-02
1.341543793678283691e-01
1.662211865186691284e-01
-6.786097586154937744e-02
-4.368690028786659241e-02
2.571498751640319824e-01
-7.859623990952968597e-03
-4.288466274738311768e-02
5.495265498757362366e-02
1.301933079957962036e-01
6.540876347571611404e-04
1.448370963335037231e-01
-8.945389837026596069e-02
5.274867266416549683e-02
2.790313363075256348e-01
1.217783391475677490e-01
6.703758984804153442e-02
-1.131851077079772949e-01
-4.837720096111297607e-01
-8.990964852273464203e-03
-2.066609412431716919e-01
1.183743476867675781e-01
8.751479536294937134e-02
2.235358953475952148e-01
-1.228622868657112122e-01
5.273476243019104004e-02
-3.722130060195922852e-01
-1.978568434715270996e-01
-5.725220590829849243e-02
-4.379000663757324219e-01
5.044798925518989563e-02
-5.918877944350242615e-02
3.118383884429931641e-02
-1.669580787420272827e-01
2.858633920550346375e-02
1.700903028249740601e-01
2.335000634193420410e-01
3.403429388999938965e-01
2.822139859199523926e-01
-1.003197878599166870e-01
1.581104993820190430e-01
-3.532140254974365234e-01
-7.165085673332214355e-01
-4.558881372213363647e-02
-5.121302232146263123e-02
-1.279460936784744263e-01
4.534659162163734436e-02
6.363055855035781860e-02
-7.010662555694580078e-02
-7.474490255117416382e-02
3.509921133518218994e-01
1.419669482856988907e-02
-2.071344703435897827e-01
1.436559855937957764e-01
9.437432885169982910e-02
-1.465798467397689819e-01
-3.021091222763061523e-01
5.738563090562820435e-02
-1.587390154600143433e-02
-4.210818558931350708e-02
6.516217440366744995e-02
-2.147121131420135498e-01
-1.173513829708099365e-01
4.456352815032005310e-02
6.654959172010421753e-02
1.244920790195465088e-01
2.645614445209503174e-01
6.159378588199615479e-02
9.811691008508205414e-03
2.270698249340057373e-01
-9.773488342761993408e-02
2.778036147356033325e-02
3.608714789152145386e-02
2.152177244424819946e-01
5.654259398579597473e-02
-7.784532383084297180e-03
1.632605940103530884e-01
-9.193453937768936157e-02
-5.210195481777191162e-02
2.771174311637878418e-01
2.001986354589462280e-01
6.749561987817287445e-03
-1.255337893962860107e-01
6.908138841390609741e-02
-8.666093461215496063e-03
-4.299710318446159363e-02
-8.681595325469970703e-02
-7.668816298246383667e-02
-2.306693047285079956e-02
-8.029690384864807129e-02
-3.836750984191894531e-01
-3.187872171401977539e-01
-2.351786009967327118e-02
-1.075384858995676041e-02
7.791850715875625610e-02
3.385641276836395264e-01
6.187136843800544739e-02
8.997933566570281982e-02
-3.218886256217956543e-01
1.077526714652776718e-02
1.028975248336791992e-01
4.013623110949993134e-03
-2.965596690773963928e-02
2.654032707214355469e-01
-3.674152866005897522e-02
1.486550569534301758e-01
1.329544757027179003e-04
1.816222518682479858e-01
-3.795508742332458496e-01
1.518036574125289917e-01
3.375844284892082214e-02
-6.446883678436279297e-01
-2.988400310277938843e-02
2.602084577083587646e-01
-2.643277347087860107e-01
-1.220666244626045227e-01
-1.374952048063278198e-01
1.983153223991394043e-01
-1.007862761616706848e-01
1.912023425102233887e-01
-3.203523904085159302e-02
1.273970957845449448e-02
-2.840340137481689453e-03
-3.792231082916259766e-01
3.970590606331825256e-02
1.574336439371109009e-01
1.171089708805084229e-01
-4.368969425559043884e-02
3.180717229843139648e-01
-1.824065595865249634e-01
-2.330316454172134399e-01
-6.965540647506713867e-01
-2.990048825740814209e-01
-2.865372002124786377e-01
8.522444218397140503e-02
-1.402714848518371582e-01
-8.016376942396163940e-02
4.533784836530685425e-02
-1.400112956762313843e-01
5.034191533923149109e-02
3.319461941719055176e-01
-5.227870941162109375e-01
5.753095448017120361e-02
-1.214672029018402100e-01
1.374251693487167358e-01
-2.065098285675048828e-01
-1.665014028549194336e-01
1.680821739137172699e-02
5.693872272968292236e-02
7.385721057653427124e-02
-1.068086549639701843e-01
1.998238079249858856e-02
-1.529666185379028320e-01
1.816845387220382690e-01
-4.745630174875259399e-02
3.015022911131381989e-02
1.198570430278778076e-01
-5.474296808242797852e-01
-3.915750086307525635e-01
-5.339568480849266052e-02
1.318659931421279907e-01
-1.032243967056274414e-01
-2.722038188949227333e-03
3.302754461765289307e-02
-7.048173993825912476e-02
1.733615249395370483e-01
-3.040073215961456299e-01
-2.005195319652557373e-01
1.793167144060134888e-01
2.277529239654541016e-01
-2.473869323730468750e-01
-1.850476861000061035e-01
-2.452394068241119385e-01
-1.406760513782501221e-01
-1.651225239038467407e-01
-1.495712697505950928e-01
-1.156064718961715698e-01
3.034124970436096191e-01
1.473762746900320053e-02
3.095845282077789307e-01
8.205537497997283936e-02
3.559294342994689941e-02
-1.446623951196670532e-01
-3.041003942489624023e-01
2.757896780967712402e-01
-2.690221667289733887e-01
-2.598308920860290527e-01
1.249411329627037048e-01
-3.392873108386993408e-01
-2.347441315650939941e-01
2.086207643151283264e-02
-1.846487969160079956e-01
-1.548185199499130249e-01
1.508875936269760132e-01
2.717949748039245605e-01
8.749711513519287109e-02
-2.603864073753356934e-01
-1.191077474504709244e-02
3.394625782966613770e-01
-3.102944493293762207e-01
2.206095159053802490e-01
6.096258014440536499e-02
1.650452986359596252e-02
-1.669767796993255615e-01
-8.455713838338851929e-02
4.724419210106134415e-03
1.432249248027801514e-01
1.819512397050857544e-01
-2.310044318437576294e-02
5.449473485350608826e-02
-2.170070707798004150e-01
2.332785278558731079e-01
-4.086079820990562439e-02
5.310311168432235718e-02
1.645874977111816406e-01
-1.226986013352870941e-02
2.858330011367797852e-01
-8.542355895042419434e-02
9.499688446521759033e-02
5.338480323553085327e-02
1.616819575428962708e-02
1.388097852468490601e-01
-1.475934498012065887e-02
2.513485960662364960e-04
-7.135191559791564941e-02
1.210701614618301392e-01
-5.611483007669448853e-02
1.726891398429870605e-01
-1.983734965324401855e-01
1.714839339256286621e-01
9.476181119680404663e-02
1.964945495128631592e-01
-1.269896328449249268e-01
1.140825357288122177e-02
-1.221657916903495789e-01
-6.291460245847702026e-02
-3.980224579572677612e-02
-5.142443254590034485e-02
-2.018320560455322266e-02
9.938620775938034058e-02
-1.792330108582973480e-02
2.415300160646438599e-02
-1.268094927072525024e-01
-7.393372058868408203e-02
-3.954719752073287964e-03
3.208850920200347900e-01
3.018730878829956055e-01
-1.897676885128021240e-01
-2.846418023109436035e-01
7.723642140626907349e-02
1.351835429668426514e-01
-7.072327286005020142e-02
2.961090803146362305e-01
-2.241974920034408569e-01
-1.044427677989006042e-01
1.308755129575729370e-01
-1.014928147196769714e-02
3.095927834510803223e-01
-3.963067531585693359e-01
2.443477809429168701e-01
-3.713498115539550781e-01
-2.425330281257629395e-01
-1.210163608193397522e-01
-6.912080943584442139e-02
2.757299542427062988e-01
1.377972960472106934e-01
1.255228370428085327e-01
-6.219993531703948975e-02
-6.374035775661468506e-02
-1.501296311616897583e-01
1.505693048238754272e-01
5.711356550455093384e-02
1.782591491937637329e-01
1.043000295758247375e-01
4.157986491918563843e-02
2.361658513545989990e-01
9.120859205722808838e-02
9.302849322557449341e-02
-1.061605960130691528e-01
6.022195890545845032e-02
4.437854886054992676e-02
-6.635736227035522461e-01
1.404078751802444458e-01
1.041442900896072388e-01
5.190515890717506409e-02
2.588216960430145264e-01
-1.255041807889938354e-01
9.788538515567779541e-02
1.711472719907760620e-01
4.135782644152641296e-02
-6.193265318870544434e-02
5.487806349992752075e-02
5.991861224174499512e-03
-1.904629021883010864e-01
3.723880648612976074e-01
2.090842425823211670e-01
1.805014014244079590e-01
-2.090403996407985687e-02
3.664441108703613281e-01
-2.537898719310760498e-01
5.739324167370796204e-02
7.439880818128585815e-02
2.496451325714588165e-02
-3.199478983879089355e-01
-9.494542330503463745e-02
1.180573403835296631e-01
-3.400621712207794189e-01
-7.938893139362335205e-02
1.351552307605743408e-01
-8.102357387542724609e-02
-6.612533330917358398e-02
-4.423995316028594971e-02
1.569817960262298584e-01
-2.134260088205337524e-01
3.994503617286682129e-02
4.220807552337646484e-02
-3.523127138614654541e-01
6.073456630110740662e-02
2.371130436658859253e-01
-4.652872979640960693e-01
-1.037422344088554382e-01
4.351855069398880005e-02
2.927115857601165771e-01
7.760442048311233521e-02
-1.801829412579536438e-02
-1.721992939710617065e-01
-7.603192329406738281e-02
1.621946394443511963e-01
-3.969715163111686707e-02
-3.221076726913452148e-01
9.129320830106735229e-02
1.363977491855621338e-01
5.504452064633369446e-02
-2.344336658716201782e-01
7.897619158029556274e-03
2.144601196050643921e-01
-1.815977394580841064e-01
-6.413074582815170288e-02
-1.980877220630645752e-01
1.885333955287933350e-01
1.750137507915496826e-01
-3.423642367124557495e-02
-1.817714422941207886e-01
-5.364107713103294373e-02
-6.507492810487747192e-02
-1.207213997840881348e-01
-9.557449072599411011e-02
1.161499544978141785e-01
-3.367047384381294250e-02
-1.876332759857177734e-01
-2.080588787794113159e-01
8.007268607616424561e-02
-6.231752038002014160e-02
1.705956012010574341e-01
-4.425054416060447693e-02
1.115928143262863159e-01
1.040842831134796143e-01
-8.148505538702011108e-02
1.159807592630386353e-01
5.417954921722412109e-02
-1.374604105949401855e-01
1.297766622155904770e-02
-1.112957447767257690e-01
1.274853646755218506e-01
6.845224648714065552e-02
-2.149594873189926147e-01
7.384648919105529785e-02
1.643926501274108887e-01
-4.200806841254234314e-02
1.085011512041091919e-01
-4.672454297542572021e-02
6.951097398996353149e-02
1.854123473167419434e-01
1.791990548372268677e-01
-1.345774233341217041e-01
-2.592185437679290771e-01
4.504597932100296021e-02
1.259360462427139282e-01
1.568396091461181641e-01
-3.183949738740921021e-02
6.114202737808227539e-02
1.071541830897331238e-01
-6.742133945226669312e-02
-4.281414449214935303e-01
5.290251225233078003e-02
9.684555977582931519e-02
-4.800843447446823120e-02
5.183652043342590332e-02
1.218509767204523087e-02
-3.831460773944854736e-01
-1.681584417819976807e-01
3.743704780936241150e-02
-1.695594340562820435e-01
3.382815718650817871e-01
-1.584944427013397217e-01
-3.083564341068267822e-01
1.241129413247108459e-01
-1.253964006900787354e-01
-7.351376116275787354e-02
-4.326595459133386612e-03
-1.348024457693099976e-01
4.407065734267234802e-02
1.357681900262832642e-01
1.845144107937812805e-02
-3.582949191331863403e-02
3.410271108150482178e-01
1.872689723968505859e-01
-8.595732040703296661e-03
-8.068048208951950073e-02
-7.958348095417022705e-02
1.751427799463272095e-01
5.688259005546569824e-02
1.206856667995452881e-01
8.268061280250549316e-02
-1.269502788782119751e-01
-1.960584521293640137e-01
1.632666289806365967e-01
5.318053439259529114e-02
-1.358352154493331909e-01
-1.042076721787452698e-01
-4.143968969583511353e-02
-2.598508298397064209e-01
1.791085004806518555e-01
2.070881985127925873e-02
6.852807104587554932e-02
2.012251168489456177e-01
-2.475274503231048584e-01
1.052078381180763245e-01
5.986931174993515015e-02
3.687691316008567810e-02
1.854060739278793335e-01
1.576865166425704956e-01
-3.226500749588012695e-02
-2.750179171562194824e-01
-1.615597754716873169e-01
-4.504022747278213501e-02
2.535161972045898438e-01
8.209062367677688599e-02
-1.359663754701614380e-01
3.359539508819580078e-01
-9.961650520563125610e-02
-6.226379796862602234e-02
-1.617549918591976166e-02
2.063299864530563354e-01
5.726991966366767883e-02
-3.540564477443695068e-01
6.293720006942749023e-02
1.610187441110610962e-01
-7.010614871978759766e-02
1.203498616814613342e-01
1.862169355154037476e-01
2.233648002147674561e-01
-3.089509159326553345e-02
-1.725914627313613892e-01
1.277903765439987183e-01
-1.427085548639297485e-01
-2.083862423896789551e-01
-9.682951122522354126e-02
-5.356790125370025635e-02
1.128202527761459351e-01
2.352733016014099121e-01
-1.103475391864776611e-01
-9.974385052919387817e-02
1.487840414047241211e-01
-1.484013050794601440e-01
-3.025968074798583984e-01
1.314459741115570068e-01
-1.766632497310638428e-02
8.389504998922348022e-02
-9.105819463729858398e-02
4.674481600522994995e-02
3.607521951198577881e-02
-1.706343293190002441e-01
-2.360354512929916382e-01
-2.245501056313514709e-02
-2.463568896055221558e-01
2.006026655435562134e-01
5.233649536967277527e-02
1.588125973939895630e-01
7.467834651470184326e-02
-9.219648689031600952e-02
-3.138161078095436096e-02
1.054609343409538269e-01
3.053518831729888916e-01
-7.765414193272590637e-03
-1.277344417758285999e-03
1.350555568933486938e-01
6.410265341401100159e-04
-3.876565992832183838e-01
8.144349604845046997e-02
1.226072460412979126e-01
1.658088862895965576e-01
-1.088302209973335266e-01
2.419232577085494995e-01
2.832053974270820618e-02
-2.131010405719280243e-02
1.871938705444335938e-01
-7.076992094516754150e-02
1.195588037371635437e-01
1.032628268003463745e-01
-1.377938985824584961e-01
2.601055204868316650e-01
-7.327197492122650146e-02
-9.611331671476364136e-02
4.336187615990638733e-03
7.341450452804565430e-02
-6.000835821032524109e-02
-2.912978827953338623e-01
-2.680370397865772247e-02
-2.769129276275634766e-01
9.763327240943908691e-02
7.986377179622650146e-02
1.280980408191680908e-01
1.178236082196235657e-01
-1.491155028343200684e-01
-5.856493860483169556e-02
2.905095219612121582e-01
-1.716728955507278442e-01
6.859032064676284790e-02
1.351380497217178345e-01
-5.823758617043495178e-02
-4.922580122947692871e-01
-9.244512766599655151e-02
-3.504331037402153015e-02
7.838249951601028442e-02
2.483684271574020386e-01
3.094179928302764893e-01
9.200333058834075928e-02
-9.311071038246154785e-02
-1.260631438344717026e-02
2.008283138275146484e-01
1.827056407928466797e-01
-2.174817621707916260e-01
-9.783555567264556885e-02
1.097819283604621887e-01
-4.667539615184068680e-03
-8.695808798074722290e-02
-2.483637779951095581e-01
-4.991992563009262085e-02
-6.520786285400390625e-01
-3.851275518536567688e-02
1.528672687709331512e-02
1.333661228418350220e-01
-4.234681278467178345e-02
-2.201837599277496338e-01
3.395216539502143860e-02
-3.150576353073120117e-01
-2.666256949305534363e-02
2.747458219528198242e-01
8.841469138860702515e-02
2.412951290607452393e-01
1.082405373454093933e-01
8.453902602195739746e-02
-4.703959226608276367e-01
-2.248891144990921021e-01
1.012174189090728760e-01
2.133077755570411682e-02
2.369361743330955505e-02
-4.159311056137084961e-01
3.418420553207397461e-01
-1.092276796698570251e-01
6.726624071598052979e-02
1.493029445409774780e-01
1.585894525051116943e-01
-4.719431698322296143e-02
-2.070545256137847900e-01
-4.952288419008255005e-02
-6.038817763328552246e-01
1.297063101083040237e-02
-8.085346966981887817e-02
1.783772706985473633e-01
9.432852268218994141e-02
-8.564612828195095062e-03
7.194012403488159180e-02
1.563126742839813232e-01
-1.151634454727172852e-01
-2.383805960416793823e-01
-5.981112644076347351e-02
-1.153977587819099426e-02
-3.790501654148101807e-01
-2.462242555338889360e-04
-7.359478622674942017e-02
9.486157447099685669e-03
1.981385499238967896e-01
4.720322415232658386e-02
3.215916082262992859e-02
2.093976736068725586e-02
1.702892333269119263e-01
1.554751545190811157e-01
3.763102591037750244e-01
6.308495253324508667e-02
4.740373417735099792e-02
2.622450888156890869e-01
2.285351306200027466e-01
-3.363054394721984863e-01
-3.085149824619293213e-01
-1.457616090774536133e-01
-2.837754487991333008e-01
3.798847198486328125e-01
6.054518371820449829e-02
-2.587004797533154488e-03
-2.731887400150299072e-01
-1.618445292115211487e-02
9.542848169803619385e-02
-2.978963963687419891e-02
-2.723191976547241211e-01
5.501278489828109741e-02
-3.069426631554961205e-03
-7.593581825494766235e-02
1.752674728631973267e-01
5.897498503327369690e-02
1.523685455322265625e-01
4.243009909987449646e-02
3.965777456760406494e-01
5.394738167524337769e-02
-9.106913954019546509e-02
-3.322852849960327148e-01
-1.921973228454589844e-01
2.104394882917404175e-01
-1.167365163564682007e-01
-1.874616593122482300e-01
3.569580018520355225e-01
-5.290886014699935913e-02
-3.259592056274414062e-01
-8.419113606214523315e-02
-4.562502354383468628e-02
3.704460263252258301e-01
-2.815575003623962402e-01
6.506896112114191055e-03
4.404810070991516113e-02
-2.847242355346679688e-01
-9.299838915467262268e-03
1.569453626871109009e-01
2.057396173477172852e-01
8.313947170972824097e-02
-1.933277398347854614e-01
3.425465524196624756e-02
-3.503487408161163330e-01
-2.249765582382678986e-02
3.968112170696258545e-03
-2.874499559402465820e-01
1.920015066862106323e-01
1.709562689065933228e-01
-2.391502447426319122e-02
-3.546433523297309875e-02
2.842734940350055695e-02
-1.130122877657413483e-02
1.449269242584705353e-02
9.513812512159347534e-02
1.756979376077651978e-01
-1.490700338035821915e-02
-1.012154594063758850e-01
-3.571639209985733032e-02
-1.103916242718696594e-01
-7.638783007860183716e-02
-1.554827298969030380e-02
-1.282348781824111938e-01
-4.583569243550300598e-03
2.951389849185943604e-01
1.578868925571441650e-02
8.514358103275299072e-02
1.592117100954055786e-01
7.860179245471954346e-02
-1.704304069280624390e-01
-2.257183939218521118e-01
-1.644925326108932495e-01
2.276881188154220581e-01
2.133851051330566406e-01
-1.500939428806304932e-01
2.622413635253906250e-01
3.182747215032577515e-02
1.831068843603134155e-02
3.119281493127346039e-02
-5.463352426886558533e-02
-5.017331242561340332e-01
3.361347317695617676e-01
1.900676637887954712e-01
3.682890161871910095e-02
-3.687127307057380676e-02
5.579244345426559448e-02
-2.653427422046661377e-01
7.268837839365005493e-02
-1.469392776489257812e-01
9.648501873016357422e-02
1.033157017081975937e-02
9.131808765232563019e-03
2.563463449478149414e-01
-1.109758540987968445e-01
1.255816780030727386e-02
3.203417733311653137e-02
1.038961037993431091e-01
-1.867958903312683105e-01
3.224511444568634033e-02
1.950856298208236694e-01
-2.787294089794158936e-01
5.940958485007286072e-02
-3.669004142284393311e-01
1.052240282297134399e-02
2.009061723947525024e-02
5.203773081302642822e-02
1.511844247579574585e-01
-1.858543953858315945e-03
6.610655784606933594e-02
6.274704635143280029e-02
1.276959180831909180e-01
-1.141905486583709717e-01
-1.246621012687683105e-01
2.624541819095611572e-01
2.811648845672607422e-01
-3.271164894104003906e-01
2.270884215831756592e-01
5.535564199090003967e-02
1.384545415639877319e-01
-4.775636270642280579e-02
2.878332436084747314e-01
-1.217708140611648560e-01
-9.247792512178421021e-02
9.712583571672439575e-02
6.528901308774948120e-02
-2.644693292677402496e-02
7.265139371156692505e-02
-2.853277027606964111e-01
-1.527180988341569901e-02
1.387913674116134644e-01
5.176562070846557617e-02
-1.994081884622573853e-01
1.421222388744354248e-01
4.221276640892028809e-01
2.718646824359893799e-01
2.463205754756927490e-01
4.451079666614532471e-02
9.813664853572845459e-02
5.937018245458602905e-02
6.186271086335182190e-03
2.398457825183868408e-01
-2.968073189258575439e-01
-3.108235001564025879e-01
-2.299618422985076904e-01
-1.481549590826034546e-01
-1.671498268842697144e-01
3.330831229686737061e-01
3.867664560675621033e-02
-1.134118624031543732e-02
1.227826327085494995e-01
-5.722746253013610840e-01
1.651310622692108154e-01
1.050310432910919189e-01
3.855892121791839600e-01
6.805864721536636353e-02
-7.014794391579926014e-05
-5.018573999404907227e-02
-7.135406881570816040e-02
7.313154637813568115e-02
-3.214139342308044434e-01
1.326773315668106079e-01
-2.113292664289474487e-01
-1.357019394636154175e-01
-1.024687439203262329e-01
6.972520798444747925e-02
-6.830104440450668335e-02
-1.071459129452705383e-01
4.467622041702270508e-01
2.800469398498535156e-01
-6.836055964231491089e-02
-1.331559196114540100e-02
-8.634328097105026245e-02
-4.112346172332763672e-01
6.758426874876022339e-02
4.081804454326629639e-01
-1.324890702962875366e-01
-8.484517782926559448e-02
-3.784494996070861816e-01
-9.814354032278060913e-02
-5.516127496957778931e-02
-2.212604284286499023e-01
-3.026374578475952148e-01
-5.231641232967376709e-02
9.572055935859680176e-02
4.291650839149951935e-03
2.533795312047004700e-02
1.518581993877887726e-02
2.115216255187988281e-01
1.154257953166961670e-01
-1.212594211101531982e-01
3.718448579311370850e-01
9.958458691835403442e-02
1.800171732902526855e-01
3.061124384403228760e-01
1.155219823122024536e-01
5.205393210053443909e-02
-1.976565718650817871e-01
8.316157758235931396e-02
-2.318284809589385986e-01
3.049775958061218262e-01
-1.561199873685836792e-01
1.235375553369522095e-01
2.803173847496509552e-02
6.137948110699653625e-02
1.875695139169692993e-01
-1.790041849017143250e-02
-1.626339741051197052e-02
-2.532126940786838531e-02
-5.580944195389747620e-02
1.180186867713928223e-01
-7.801649719476699829e-02
1.291585266590118408e-01
-1.211167499423027039e-01
1.107634603977203369e-01
2.668503671884536743e-03
1.126097217202186584e-01
4.790319129824638367e-02
-1.014063954353332520e-01
7.237449288368225098e-02
7.907083630561828613e-02
1.883694976568222046e-01
-5.748947709798812866e-02
7.115245098248124123e-04
2.110701426863670349e-02
1.023946795612573624e-02
-5.411113053560256958e-02
1.377481669187545776e-01
-2.855372130870819092e-01
1.948822736740112305e-01
1.615434139966964722e-01
-2.525373995304107666e-01
-3.122581727802753448e-02
-1.551544219255447388e-01
-6.344830151647329330e-03
3.102793395519256592e-01
9.348130226135253906e-02
-9.885531663894653320e-02
1.391094923019409180e-01
-1.884939223527908325e-01
-2.044756412506103516e-01
1.929287165403366089e-01
-1.182082146406173706e-01
-2.813716419041156769e-02
1.385153234004974365e-01
8.221308141946792603e-02
-1.678536534309387207e-01
1.179476529359817505e-01
9.437180310487747192e-02
-2.688622474670410156e-02
-4.174457490444183350e-01
-3.796496987342834473e-02
2.160399556159973145e-01
-2.967980317771434784e-02
3.483527898788452148e-01
5.710097402334213257e-02
2.380640506744384766e-01
8.660679310560226440e-02
3.462314978241920471e-02
3.627899289131164551e-01
5.125877633690834045e-02
-5.277004465460777283e-02
-1.505888625979423523e-02
1.116700991988182068e-01
-1.301306188106536865e-01
-7.754144072532653809e-02
-4.637492354959249496e-03
9.737285226583480835e-02
1.809815168380737305e-01
-5.314198136329650879e-02
1.354819685220718384e-01
-1.306785643100738525e-01
2.087040990591049194e-01
1.729959845542907715e-01
1.742774397134780884e-01
9.733469784259796143e-02
3.734261989593505859e-01
1.144968122243881226e-01
8.300192654132843018e-02
-1.994454301893711090e-02
9.387565404176712036e-02
1.964054405689239502e-01
-8.127766847610473633e-02
-3.582019209861755371e-01
1.478082984685897827e-01
7.900491356849670410e-02
-7.171872258186340332e-02
-1.466811746358871460e-01
4.642214477062225342e-01
1.539609730243682861e-01
2.984825521707534790e-02
-1.279275980778038502e-03
6.196465343236923218e-02
-1.814877688884735107e-01
3.307540118694305420e-01
-1.660841330885887146e-02
2.107274234294891357e-01
-3.445992991328239441e-02
-1.676223240792751312e-02
-4.547085985541343689e-02
-8.916945755481719971e-02
1.648987531661987305e-01
-2.606644630432128906e-01
-1.890192776918411255e-01
-2.080246061086654663e-01
-1.409929692745208740e-01
1.400999724864959717e-01
-6.183217093348503113e-02
3.507178509607911110e-03
-1.705968566238880157e-02
-4.726665616035461426e-01
2.281687259674072266e-01
1.839953511953353882e-01
-1.287642866373062134e-02
1.936537623405456543e-01
-4.443851858377456665e-02
1.150693520903587341e-01
5.726110562682151794e-02
-1.464853286743164062e-01
7.016878575086593628e-02
1.193078830838203430e-01
8.818098157644271851e-02
1.585385575890541077e-02
-3.135926127433776855e-01
1.064579859375953674e-01
6.364073604345321655e-02
-2.279286235570907593e-01
8.007453382015228271e-02
5.861942842602729797e-02
-6.995032727718353271e-02
-2.136700600385665894e-02
-7.730815559625625610e-02
2.457375228404998779e-01
2.439082264900207520e-01
-2.414419203996658325e-01
4.060444235801696777e-02
-9.599697589874267578e-02
-1.330328434705734253e-01
-6.915495991706848145e-01
-3.455516323447227478e-02
3.100437223911285400e-01
-5.679430067539215088e-02
-1.861206069588661194e-02
-7.051330059766769409e-02
-1.498575322329998016e-02
1.657890230417251587e-01
-1.975683271884918213e-01
-2.508635222911834717e-01
2.276929318904876709e-01
9.973161667585372925e-02
-2.774465382099151611e-01
1.203702911734580994e-01
-8.430902659893035889e-02
3.344072103500366211e-01
1.125217750668525696e-01
1.050620377063751221e-01
-2.618969082832336426e-01
2.530947029590606689e-01
-1.850719898939132690e-01
-1.370467990636825562e-01
1.577447503805160522e-01
-3.604231774806976318e-02
1.488987356424331665e-01
-1.390175819396972656e-01
-4.329186975955963135e-01
1.971255540847778320e-01
6.417822092771530151e-02
-4.597005248069763184e-01
-2.307094186544418335e-01
7.067497819662094116e-02
2.347567677497863770e-01
-2.104568108916282654e-02
-8.882167935371398926e-02
-1.022927090525627136e-01
-2.688622474670410156e-01
2.974725663661956787e-01
-4.571000337600708008e-01
9.368812292814254761e-02
4.922410473227500916e-02
1.985078901052474976e-01
-2.277307957410812378e-01
9.625770151615142822e-02
-6.063081696629524231e-02
6.624554842710494995e-02
2.290666550397872925e-01
1.540162563323974609e-01
9.426356852054595947e-02
1.844461411237716675e-01
3.297703266143798828e-01
1.247837916016578674e-01
2.729999423027038574e-01
4.438735172152519226e-02
6.563776987604796886e-04
-6.589540094137191772e-02
-3.653286993503570557e-01
-3.731675446033477783e-02
3.515626788139343262e-01
2.270664721727371216e-01
-1.509434543550014496e-02
1.445911824703216553e-01
-1.951098889112472534e-01
-2.419142276048660278e-01
6.221950519829988480e-03
-2.467720210552215576e-01
1.800406873226165771e-01
2.961127161979675293e-01
-1.007181927561759949e-01
1.228897646069526672e-01
6.621281057596206665e-02
-8.577193319797515869e-02
-1.028355490416288376e-02
5.043929815292358398e-02
-9.281889535486698151e-03
-2.713136374950408936e-01
-3.117552101612091064e-01
-1.617638319730758667e-01
-7.465608417987823486e-02
1.919879615306854248e-01
-2.570302188396453857e-01
7.176263630390167236e-02
4.217337444424629211e-02
1.639018580317497253e-02
1.179048977792263031e-02
-3.228251636028289795e-01
-1.086974591016769409e-01
2.603925764560699463e-01
2.952653169631958008e-01
-5.277096107602119446e-02
1.663976162672042847e-01
-1.292344778776168823e-01
2.551953494548797607e-01
-5.179020762443542480e-02
-2.073358446359634399e-01
2.883353531360626221e-01
1.488241106271743774e-01
8.152056485414505005e-02
-2.254790365695953369e-01
1.318104267120361328e-01
-1.264652162790298462e-01
1.157535612583160400e-01
2.765001654624938965e-01
-4.534703493118286133e-01
-5.850278139114379883e-01
1.603880077600479126e-01
3.397655114531517029e-02
2.358610183000564575e-02
6.401862204074859619e-02
-2.982850372791290283e-01
-9.598740190267562866e-02
2.776987254619598389e-01
-9.340449422597885132e-02
8.447127044200897217e-02
-2.464021295309066772e-01
5.983653664588928223e-01
-3.126871958374977112e-02
3.417506441473960876e-02
-2.482260577380657196e-02
-5.625483393669128418e-02
2.551577687263488770e-01
-3.076808713376522064e-02
4.661718010902404785e-01
-1.238193362951278687e-01
5.470399558544158936e-02
7.967691123485565186e-02
4.373907670378684998e-02
-2.336559258401393890e-02
-8.249673992395401001e-02
1.764179915189743042e-01
2.237557768821716309e-01
1.118224933743476868e-01
1.158731803297996521e-01
1.721138507127761841e-01
-1.590290963649749756e-01
5.755990371108055115e-02
-1.779287606477737427e-01
-2.466856092214584351e-01
-4.870661795139312744e-01
1.971269249916076660e-01
2.524746060371398926e-01
-6.871191859245300293e-01
-6.265622377395629883e-02
-8.313479274511337280e-02
-4.085568487644195557e-01
1.575379222631454468e-01
2.072533965110778809e-02
1.443427056074142456e-01
8.296655863523483276e-02
-8.385705202817916870e-02
-5.072821304202079773e-02
-2.487186938524246216e-01
2.139301300048828125e-01
8.812152780592441559e-03
2.629311010241508484e-02
1.021415218710899353e-01
-3.970157355070114136e-02
3.116956055164337158e-01
2.702297568321228027e-01
-7.130530476570129395e-02
-1.049832403659820557e-01
-7.102456688880920410e-02
7.029644399881362915e-02
2.136731445789337158e-01
3.367962241172790527e-01
4.612446296960115433e-03
-3.689421117305755615e-01
-2.569204270839691162e-01
-9.320380538702011108e-02
-9.179347008466720581e-02
-3.489769622683525085e-02
-2.099602250382304192e-03
-1.520476117730140686e-02
-5.993089079856872559e-01
1.218512207269668579e-01
-1.746155321598052979e-01
-2.946301400661468506e-01
2.066641114652156830e-02
-1.771255135536193848e-01
-5.268549080938100815e-03
1.313966047018766403e-02
2.426129207015037537e-02
-2.326012700796127319e-01
-5.696178078651428223e-01
3.170421719551086426e-01
1.974369287490844727e-01
-1.270489543676376343e-01
1.726579815149307251e-01
1.103157624602317810e-01
4.186766445636749268e-01
-1.568957567214965820e-01
2.982845902442932129e-02
6.273501366376876831e-02
1.169130112975835800e-02
-1.136503443121910095e-01
-3.014367260038852692e-02
-1.043430902063846588e-02
-3.168000578880310059e-01
-2.139608860015869141e-01
-3.408703207969665527e-02
-1.406346261501312256e-01
1.963257789611816406e-01
2.154870629310607910e-01
1.015548184514045715e-01
-4.523262679576873779e-01
-2.248286968097090721e-03
-1.919270306825637817e-01
3.378252685070037842e-01
4.386254251003265381e-01
6.581940501928329468e-02
4.225138574838638306e-02
-1.454045921564102173e-01
8.945414423942565918e-02
-1.283477526158094406e-02
7.635239511728286743e-02
5.731372162699699402e-02
-1.281067281961441040e-01
1.221709102392196655e-01
-3.992778360843658447e-01
-1.101647317409515381e-02
-2.913616597652435303e-01
-1.279244273900985718e-01
1.371080726385116577e-01
1.910161972045898438e-01
8.682058006525039673e-02
8.008978515863418579e-02
3.315274789929389954e-02
9.317453205585479736e-02
2.852481305599212646e-01
8.552329987287521362e-02
3.050294518470764160e-02
2.353597134351730347e-01
9.289901703596115112e-02
-3.434554114937782288e-02
-1.747347414493560791e-01
8.119539171457290649e-02
2.410668879747390747e-02
8.246579021215438843e-02
-1.649449467658996582e-01
9.171344339847564697e-02
1.267311871051788330e-01
-8.496949821710586548e-02
-1.673965752124786377e-01
5.903428047895431519e-02
-3.972747549414634705e-02
1.902083307504653931e-01
-4.073965176939964294e-02
1.136410832405090332e-01
2.888691611588001251e-03
2.666837275028228760e-01
1.298086792230606079e-01
5.629865452647209167e-02
-6.850491464138031006e-02
-2.690072655677795410e-01
2.511351704597473145e-01
-3.028495609760284424e-01
1.766750663518905640e-01
-3.100045397877693176e-02
3.625173270702362061e-01
-3.192512392997741699e-01
-5.038679838180541992e-01
1.399491447955369949e-02
1.462068706750869751e-01
-4.655382335186004639e-01
2.743217051029205322e-01
-6.013571098446846008e-02
2.139629870653152466e-01
-8.218924701213836670e-02
5.374208837747573853e-02
-3.327114284038543701e-01
-1.519644260406494141e-01
3.189473226666450500e-02
-3.034898824989795685e-02
-5.134524544700980186e-04
6.013802438974380493e-02
-2.443147078156471252e-02
-2.144939005374908447e-01
1.289381831884384155e-01
-6.441175192594528198e-02
-7.291001081466674805e-02
-2.657506763935089111e-01
8.475759625434875488e-02
-2.460412383079528809e-01
1.721456646919250488e-02
5.906463041901588440e-02
1.948412391357123852e-04
-3.655488369986414909e-03
-2.519909739494323730e-01
7.782574743032455444e-02
-8.231242746114730835e-02
-5.471757613122463226e-03
-3.405831521376967430e-03
-1.464357525110244751e-01
9.003219753503799438e-02
-4.204277992248535156e-01
-1.781869828701019287e-01
7.311436533927917480e-02
-1.999912317842245102e-03
4.859295189380645752e-01
9.668803215026855469e-02
5.821548029780387878e-02
-1.509122271090745926e-02
-6.069259345531463623e-02
-2.516968250274658203e-01
6.904582679271697998e-02
1.513985991477966309e-01
-5.837961565703153610e-03
-2.411380112171173096e-01
2.211474031209945679e-01
-1.239372789859771729e-02
-3.472052812576293945e-01
-1.212964430451393127e-01
1.536705251783132553e-02
3.292713314294815063e-02
2.141689211130142212e-01
