1.868977397680282593e-01
-9.912923723459243774e-02
6.516589224338531494e-02
2.032638341188430786e-01
-2.265989594161510468e-02
1.516727358102798462e-01
1.076688319444656372e-01
-2.318899519741535187e-02
-7.250049710273742676e-02
4.772979393601417542e-02
-4.240228608250617981e-02
-1.182902380824089050e-01
2.208455801010131836e-01
7.974351942539215088e-02
-5.341774970293045044e-02
-1.371674090623855591e-01
-9.656385332345962524e-02
1.684214919805526733e-01
-1.016030907630920410e-01
1.139287650585174561e-01
1.095317229628562927e-01
8.816900849342346191e-02
-1.369394212961196899e-01
1.483833640813827515e-01
1.139992251992225647e-01
5.179122835397720337e-02
-4.521061200648546219e-03
5.393955111503601074e-02
-3.575160400941967964e-03
-7.465689629316329956e-02
-5.758231505751609802e-02
2.010233886539936066e-02
1.911047101020812988e-01
4.532364662736654282e-03
-5.535453185439109802e-02
2.224597632884979248e-01
1.717286109924316406e-01
3.334746137261390686e-02
-4.886918514966964722e-02
9.409198909997940063e-02
1.171676442027091980e-01
2.379940822720527649e-02
5.841179192066192627e-02
2.482374757528305054e-02
-1.347306072711944580e-01
-7.468282431364059448e-02
4.829334840178489685e-02
2.422820217907428741e-02
-9.712916612625122070e-02
1.579024493694305420e-01
8.128889650106430054e-02
4.813092201948165894e-02
5.266226455569267273e-02
1.586213260889053345e-01
6.905281543731689453e-02
6.130829080939292908e-02
-2.039381302893161774e-02
-1.630602777004241943e-02
9.743130952119827271e-02
1.614374220371246338e-01
-1.165196672081947327e-01
8.371835201978683472e-02
-1.976815462112426758e-01
1.104081422090530396e-01
-1.513198763132095337e-01
1.468655318021774292e-01
1.682204604148864746e-01
1.896967738866806030e-01
-6.566521525382995605e-02
-7.838785648345947266e-02
-4.876867309212684631e-02
-3.099365625530481339e-03
-1.233105733990669250e-01
1.414560824632644653e-01
2.679369226098060608e-02
6.440006196498870850e-02
-1.418919861316680908e-01
-1.201989036053419113e-02
1.191892549395561218e-01
7.582654803991317749e-02
1.247561722993850708e-01
1.036351397633552551e-01
-8.818158507347106934e-02
2.509544789791107178e-01
