4.259015247225761414e-02
1.647844612598419189e-01
-1.030450612306594849e-01
-5.200204625725746155e-02
-9.387659281492233276e-02
1.138553023338317871e-01
-1.118932738900184631e-01
4.102139174938201904e-02
1.938487291336059570e-01
7.004356384277343750e-02
2.167738229036331177e-01
-3.157218918204307556e-02
2.094297297298908234e-02
-1.676564514636993408e-01
1.505604833364486694e-01
1.473040133714675903e-01
1.595894843339920044e-01
-1.486074328422546387e-01
-8.094790577888488770e-02
-1.619185209274291992e-01
2.197398245334625244e-02
8.250358514487743378e-04
-6.468828022480010986e-02
2.138298936188220978e-02
2.487626671791076660e-01
1.176785379648208618e-01
-5.644982308149337769e-02
-2.580490112304687500e-01
2.227513305842876434e-02
9.856850840151309967e-03
-3.994577378034591675e-02
4.999215528368949890e-02
2.634768374264240265e-02
-2.020149827003479004e-01
-1.376755982637405396e-01
1.386373788118362427e-01
-1.551852282136678696e-02
2.808745764195919037e-02
2.663111984729766846e-01
1.687771528959274292e-01
-3.285384923219680786e-02
-7.705368846654891968e-02
4.399250075221061707e-02
-1.139705106616020203e-01
7.324950397014617920e-02
3.157545253634452820e-02
1.061055436730384827e-01
-8.917856216430664062e-02
9.671092033386230469e-02
7.429418712854385376e-02
1.242397800087928772e-01
6.831198930740356445e-02
-3.002508915960788727e-02
1.786213964223861694e-01
-1.556013673543930054e-01
-6.225977465510368347e-02
-7.278512418270111084e-02
1.395017057657241821e-01
3.676393255591392517e-02
-1.039929389953613281e-01
5.909401923418045044e-02
7.369432598352432251e-02
-1.048464328050613403e-01
4.142310097813606262e-02
-1.971263438463211060e-01
5.740159749984741211e-02
-2.578776329755783081e-02
1.078652963042259216e-01
-2.600206062197685242e-02
1.546224057674407959e-01
1.618670970201492310e-01
7.729120552539825439e-02
-6.164718419313430786e-02
2.939767146017402411e-04
4.816334322094917297e-02
1.398361027240753174e-01
3.408687710762023926e-01
-3.306170552968978882e-02
-1.408813893795013428e-01
6.501495093107223511e-02
-9.466090053319931030e-02
-4.157889261841773987e-02
-1.070763245224952698e-01
1.990426778793334961e-01
-1.171674281358718872e-01
4.840874299407005310e-02
-1.943342760205268860e-02
5.936214700341224670e-03
-2.121465839445590973e-02
1.906854808330535889e-01
-1.912451386451721191e-01
1.002510339021682739e-01
1.539877802133560181e-01
-3.149949386715888977e-02
-2.225389182567596436e-01
-2.381649985909461975e-02
-1.658837199211120605e-01
-1.392563134431838989e-01
9.082397073507308960e-02
3.933918476104736328e-02
1.711915582418441772e-01
1.401450335979461670e-01
-5.013576522469520569e-02
-1.530911475419998169e-01
7.407474517822265625e-02
-1.378756016492843628e-02
-4.448458552360534668e-02
-4.837286099791526794e-02
-3.311075270175933838e-01
-9.546203166246414185e-02
-1.441621184349060059e-01
4.303239285945892334e-02
-1.060802787542343140e-01
6.103739514946937561e-02
8.090420067310333252e-02
-6.682105362415313721e-02
2.064672261476516724e-01
-2.990929484367370605e-01
-1.300231069326400757e-01
1.083046793937683105e-01
1.506640017032623291e-01
3.835246711969375610e-02
4.670663177967071533e-02
3.424276784062385559e-02
-2.717472054064273834e-02
-6.245412304997444153e-02
1.626731753349304199e-01
2.268232405185699463e-01
2.389540150761604309e-02
8.944050967693328857e-02
1.350509002804756165e-02
-3.855798766016960144e-02
1.345118433237075806e-01
1.268370170146226883e-02
-1.497292816638946533e-01
-8.815793693065643311e-02
1.474417299032211304e-01
-1.270045936107635498e-01
-9.886361658573150635e-02
9.364511072635650635e-02
1.068634241819381714e-01
-1.385810226202011108e-01
1.386788934469223022e-01
1.077984645962715149e-01
1.029414311051368713e-01
5.837239697575569153e-02
-1.666191779077053070e-02
6.839868426322937012e-02
2.251268029212951660e-01
-1.626155339181423187e-02
2.858776226639747620e-02
-2.137514948844909668e-01
-1.902700811624526978e-01
1.593831777572631836e-01
1.349866837263107300e-01
7.518545538187026978e-02
8.555354177951812744e-02
3.921968117356300354e-02
1.960191130638122559e-01
-7.969442754983901978e-02
-2.828651368618011475e-01
2.098493129014968872e-01
-2.550402879714965820e-01
-5.578470416367053986e-03
-1.440334022045135498e-01
1.414987891912460327e-01
1.854009926319122314e-01
9.832935035228729248e-02
-1.572608351707458496e-01
-1.070389226078987122e-01
-1.708998829126358032e-01
-1.310207247734069824e-01
8.093181252479553223e-02
1.911395937204360962e-01
-1.583590358495712280e-01
-9.161272644996643066e-02
-2.437280118465423584e-01
-2.828504741191864014e-01
3.171706795692443848e-01
6.861558184027671814e-03
1.810826808214187622e-01
3.801015764474868774e-02
4.356879368424415588e-02
-3.962126672267913818e-01
1.130513548851013184e-01
-1.373904645442962646e-01
-1.046045944094657898e-01
-1.176246926188468933e-01
2.359132654964923859e-02
-1.089484244585037231e-02
-1.249069198966026306e-01
3.275753557682037354e-01
1.751586347818374634e-01
1.672955602407455444e-01
-3.604499101638793945e-01
-1.257017254829406738e-01
-7.232292741537094116e-02
-8.771501481533050537e-02
4.262956231832504272e-02
4.095678403973579407e-02
6.471026688814163208e-02
1.877360641956329346e-01
1.311561316251754761e-01
-1.583418548107147217e-01
5.798618122935295105e-02
7.535654306411743164e-02
-1.623506695032119751e-01
-1.105221509933471680e-01
-1.657764166593551636e-01
3.450340777635574341e-02
-1.936899274587631226e-01
1.605647951364517212e-01
-6.056358292698860168e-02
-8.415412157773971558e-02
6.654380261898040771e-02
-2.069815248250961304e-01
1.626433879137039185e-01
1.095119342207908630e-01
-2.740376889705657959e-01
-2.042515017092227936e-02
1.759827286005020142e-01
7.673491537570953369e-02
1.026770398020744324e-01
-1.907452046871185303e-01
-3.954305779188871384e-03
1.890697181224822998e-01
-2.170118987560272217e-01
7.321852445602416992e-02
-1.815282367169857025e-02
5.562715604901313782e-02
6.518384069204330444e-02
3.590668365359306335e-02
-1.414494216442108154e-01
2.277996987104415894e-01
-1.050518080592155457e-01
2.393845915794372559e-01
6.609487533569335938e-02
-1.443348526954650879e-01
1.957175731658935547e-01
-8.813741058111190796e-02
1.983091384172439575e-01
-1.184813976287841797e-01
5.682548135519027710e-02
1.193504557013511658e-01
1.563667654991149902e-01
-2.357756020501255989e-03
2.544522583484649658e-01
-8.313617110252380371e-02
-3.148904144763946533e-01
2.520080655813217163e-02
-1.234390363097190857e-01
-1.119675263762474060e-01
3.171882927417755127e-01
-3.502978757023811340e-02
-9.667404741048812866e-02
5.525373294949531555e-02
1.761439144611358643e-01
-1.250786930322647095e-01
-8.719904720783233643e-02
-7.248590141534805298e-02
5.791954696178436279e-02
1.228860020637512207e-01
-7.299867272377014160e-02
6.902768462896347046e-02
-1.686050891876220703e-01
2.229017168283462524e-01
8.714716881513595581e-02
-6.342546641826629639e-02
3.450348228216171265e-02
5.967525765299797058e-02
-1.042607575654983521e-01
-3.428278118371963501e-02
5.185850337147712708e-02
-6.973516941070556641e-02
8.853450417518615723e-02
-2.236609756946563721e-01
-1.568648368120193481e-01
-8.267555385828018188e-02
2.021281421184539795e-01
5.151349306106567383e-02
9.646595269441604614e-02
-2.732940018177032471e-02
5.248706042766571045e-02
-1.806082576513290405e-02
-2.068945914506912231e-01
-3.073754534125328064e-02
-2.209574133157730103e-01
-1.866519451141357422e-02
-9.969503432512283325e-02
-9.511857479810714722e-02
7.220953702926635742e-02
-5.382618308067321777e-02
2.144513092935085297e-02
5.378648266196250916e-02
-3.374909982085227966e-02
-8.786609768867492676e-02
4.290005657821893692e-03
-1.573987305164337158e-02
1.216751523315906525e-02
7.356102764606475830e-02
2.848701179027557373e-01
-1.664983667433261871e-02
-3.062570393085479736e-01
7.850450277328491211e-02
-4.676529392600059509e-02
2.180440723896026611e-02
2.092967629432678223e-01
2.684587053954601288e-02
-1.686229407787322998e-01
1.564604602754116058e-02
-1.791002899408340454e-01
1.111924275755882263e-01
-1.366259530186653137e-02
1.815329678356647491e-02
-4.354245029389858246e-03
-9.677243232727050781e-02
-7.490456104278564453e-02
1.497469842433929443e-01
2.453263849020004272e-02
-5.833510309457778931e-02
2.084971219301223755e-01
-9.947711974382400513e-02
-2.163498103618621826e-02
-1.163885146379470825e-01
7.679109461605548859e-03
7.921532541513442993e-02
-1.213614642620086670e-02
1.194532215595245361e-01
-2.812202274799346924e-02
2.047357410192489624e-01
1.810424476861953735e-01
1.884236484766006470e-01
-4.068172723054885864e-02
3.389391899108886719e-01
1.591798961162567139e-01
-1.492099165916442871e-01
-1.724853366613388062e-01
9.164285659790039062e-02
-1.507340222597122192e-01
-2.645036729518324137e-04
8.858631551265716553e-02
-1.160280257463455200e-01
-2.673641443252563477e-01
-4.706754535436630249e-02
6.235169246792793274e-02
-6.183720193803310394e-03
-3.454456031322479248e-01
2.962368167936801910e-02
-1.446590572595596313e-01
-1.077877059578895569e-01
-1.812551766633987427e-01
3.786689136177301407e-03
-1.352536827325820923e-01
-1.669440269470214844e-01
-8.329875022172927856e-02
3.099906742572784424e-01
-1.112483814358711243e-01
1.728370487689971924e-01
4.204752296209335327e-02
1.772724688053131104e-01
8.275424689054489136e-02
2.116948813199996948e-01
1.333727389574050903e-01
-2.360686212778091431e-01
-9.302203357219696045e-02
-1.109676659107208252e-01
6.195662170648574829e-02
7.582396268844604492e-02
6.440854817628860474e-02
2.568988800048828125e-01
-1.591966301202774048e-01
3.717142716050148010e-02
6.498362123966217041e-02
-1.557655725628137589e-02
-1.204004958271980286e-01
-1.710127145051956177e-01
9.612152725458145142e-02
5.417744815349578857e-02
-1.301555484533309937e-01
1.240120157599449158e-01
-1.075602471828460693e-01
-4.365795478224754333e-02
7.854504883289337158e-02
-1.436220556497573853e-01
2.719968557357788086e-01
2.908428013324737549e-01
-1.874820291996002197e-01
1.130754798650741577e-01
1.918086595833301544e-02
-2.781066671013832092e-02
4.036748409271240234e-02
-2.129177749156951904e-01
2.626551687717437744e-01
2.755565345287322998e-01
-2.974005229771137238e-02
-8.353275060653686523e-02
-1.333165261894464493e-02
-4.132235795259475708e-02
1.089304164052009583e-01
-2.077742964029312134e-01
-1.595695316791534424e-01
-1.130092963576316833e-01
7.473244518041610718e-02
-1.004939526319503784e-01
1.951679438352584839e-01
1.934933662414550781e-02
1.455148607492446899e-01
5.628025904297828674e-02
1.055413410067558289e-01
-1.584960073232650757e-01
4.018453136086463928e-02
-5.037359893321990967e-02
-1.514819711446762085e-01
-1.100087091326713562e-01
3.118309378623962402e-02
-1.601697653532028198e-01
2.039459198713302612e-01
1.220992505550384521e-01
2.155153155326843262e-01
1.219042986631393433e-01
4.696261137723922729e-03
-8.391205221414566040e-02
4.362923204898834229e-01
-6.628893315792083740e-02
1.181641370058059692e-01
-9.703531861305236816e-02
-1.011715009808540344e-01
1.066634133458137512e-01
-5.655852332711219788e-02
1.408553719520568848e-01
-1.298748552799224854e-01
1.917563565075397491e-02
-7.720423489809036255e-02
1.924495846033096313e-01
6.177363544702529907e-02
-1.551719903945922852e-01
3.905496001243591309e-02
2.573303133249282837e-02
-2.743063867092132568e-01
4.893518984317779541e-02
-1.262283772230148315e-01
8.624137379229068756e-03
1.024629324674606323e-01
-3.362677618861198425e-02
1.994161158800125122e-01
-7.025751471519470215e-02
1.490132957696914673e-01
1.810320168733596802e-01
9.393155574798583984e-02
8.066632598638534546e-02
-2.648144364356994629e-01
-8.083836175501346588e-03
1.561693996191024780e-01
1.490948349237442017e-01
2.123119384050369263e-01
-9.566251188516616821e-02
4.493037611246109009e-02
4.528185725212097168e-02
4.944663494825363159e-02
4.110862314701080322e-02
-5.710271000862121582e-02
-1.016451567411422729e-01
-1.958034187555313110e-01
-1.913193464279174805e-01
-1.024461351335048676e-02
-9.288793802261352539e-02
1.075698882341384888e-01
2.390046119689941406e-01
-3.652729392051696777e-01
1.926730722188949585e-01
6.563111394643783569e-02
-8.091329783201217651e-02
1.153362840414047241e-01
1.504218727350234985e-01
-1.079647317528724670e-01
-4.799881577491760254e-02
-2.749352529644966125e-02
-5.468378588557243347e-02
1.170729845762252808e-01
-6.505174562335014343e-03
-7.338312268257141113e-02
5.549705028533935547e-02
-4.531007260084152222e-03
-2.635505795478820801e-02
-1.313376277685165405e-01
6.679540127515792847e-02
-6.137004494667053223e-02
-2.696355283260345459e-01
-3.255698680877685547e-01
3.487823605537414551e-01
-1.319581829011440277e-02
-1.944599002599716187e-01
-1.124513102695345879e-03
-1.425318419933319092e-01
1.240575965493917465e-02
7.252402603626251221e-02
-1.030913321301341057e-03
2.495314180850982666e-01
1.053491607308387756e-01
9.632837027311325073e-02
6.901526451110839844e-02
-4.849455654621124268e-01
-2.298908829689025879e-01
-1.791644841432571411e-01
2.141963094472885132e-01
2.072449959814548492e-02
-2.007469385862350464e-01
8.816926926374435425e-02
-3.095791339874267578e-01
-2.506909668445587158e-01
-9.411029517650604248e-02
-5.550299584865570068e-02
-2.169206291437149048e-01
4.126395657658576965e-02
5.360023677349090576e-02
-7.744441926479339600e-02
-3.391254285816103220e-04
-3.342834860086441040e-02
2.215981483459472656e-03
1.065771803259849548e-01
-1.112759932875633240e-01
6.058095023036003113e-02
4.728332906961441040e-02
4.205763712525367737e-02
2.249979786574840546e-02
-2.114392071962356567e-01
-7.225564122200012207e-02
3.932096064090728760e-02
-8.231123536825180054e-02
-1.669515855610370636e-02
8.866981416940689087e-02
-2.427258044481277466e-01
9.766115248203277588e-02
1.568574309349060059e-01
-3.514610230922698975e-02
-3.084621205925941467e-02
-1.077064499258995056e-01
1.871574521064758301e-01
2.543522231280803680e-02
1.552162319421768188e-01
-1.573255807161331177e-01
-3.073279000818729401e-02
3.736847937107086182e-01
1.192634329199790955e-01
1.159584373235702515e-01
9.698772430419921875e-02
-2.257285080850124359e-02
6.334365159273147583e-02
1.192739382386207581e-01
-3.034023381769657135e-02
-1.173304542899131775e-01
-4.965649545192718506e-02
1.821025907993316650e-01
-2.887838184833526611e-01
2.221560031175613403e-01
2.582535520195960999e-02
2.663897573947906494e-01
4.965322092175483704e-02
-1.395091414451599121e-02
3.743660151958465576e-01
-3.010106384754180908e-01
-1.717655658721923828e-01
1.286351084709167480e-01
1.855699159204959869e-02
-1.102633997797966003e-01
3.581896051764488220e-02
-5.853080004453659058e-02
5.915334913879632950e-03
2.339573949575424194e-02
-2.048150636255741119e-02
8.114655315876007080e-02
2.668884694576263428e-01
-9.270906448364257812e-02
-4.813132435083389282e-02
2.808871269226074219e-01
1.533543914556503296e-01
2.381365150213241577e-01
1.613942682743072510e-01
-1.375427097082138062e-01
-1.588290780782699585e-01
2.100610285997390747e-01
-3.440700471401214600e-02
1.133046895265579224e-01
-3.053836338222026825e-02
2.405094206333160400e-01
1.143696680665016174e-01
-2.816133387386798859e-02
3.850442469120025635e-01
-1.351946443319320679e-01
-1.919413171708583832e-02
2.774008512496948242e-01
5.573153868317604065e-02
1.647263392806053162e-02
-6.444813311100006104e-02
3.527015745639801025e-01
-6.753795593976974487e-02
-3.252016380429267883e-02
-9.024967998266220093e-02
-1.052647307515144348e-01
2.929020300507545471e-02
1.890971511602401733e-01
-1.356975585222244263e-01
8.802830427885055542e-02
2.427657097578048706e-01
-7.343358546495437622e-02
-1.072753891348838806e-01
3.002800941467285156e-01
7.498843222856521606e-02
1.018408164381980896e-01
-8.993626385927200317e-02
-9.766858816146850586e-02
-1.345358639955520630e-01
-8.595778048038482666e-02
-9.909282624721527100e-02
-1.000905409455299377e-01
1.418149918317794800e-01
-4.930620267987251282e-02
-5.292895808815956116e-02
9.921274334192276001e-02
-5.557445809245109558e-02
-2.924968302249908447e-01
1.233721971511840820e-01
4.514334350824356079e-02
-1.191976293921470642e-02
7.896455377340316772e-02
-6.790727376937866211e-02
7.520918548107147217e-02
-6.212736666202545166e-02
8.907849341630935669e-02
4.019038751721382141e-03
1.618405580520629883e-01
-2.577353119850158691e-01
-7.156053930521011353e-02
-1.105205193161964417e-01
4.009224846959114075e-02
1.462724506855010986e-01
-3.511484265327453613e-01
-8.508643135428428650e-03
-1.242728903889656067e-01
2.802735939621925354e-02
-1.006845310330390930e-01
-1.025300845503807068e-01
-1.609514653682708740e-01
1.424742490053176880e-01
-1.309531331062316895e-01
-1.323404312133789062e-01
-1.380935460329055786e-01
1.672485098242759705e-02
4.732900112867355347e-02
-2.782109938561916351e-02
-3.524332121014595032e-02
-7.429435849189758301e-02
2.260858379304409027e-02
9.446360915899276733e-02
7.560516893863677979e-02
-7.784247398376464844e-03
-2.216067314147949219e-01
2.263494729995727539e-01
-3.287543654441833496e-01
-6.142710335552692413e-03
-2.524675130844116211e-01
9.888233244419097900e-02
-1.580373346805572510e-01
1.562845408916473389e-01
8.403458446264266968e-02
-1.541010141372680664e-01
1.625687479972839355e-01
-1.124749630689620972e-01
-3.055528365075588226e-02
-3.906051442027091980e-02
7.814522832632064819e-02
-1.925270631909370422e-02
1.128945574164390564e-01
-4.887572489678859711e-03
-2.339671701192855835e-01
-3.933949023485183716e-02
1.477961242198944092e-01
8.061588159762322903e-04
1.683808714151382446e-01
6.433515995740890503e-02
4.108030796051025391e-01
9.704882651567459106e-02
-1.212481185793876648e-01
3.435435891151428223e-02
1.503635756671428680e-02
-1.295990645885467529e-01
1.519550532102584839e-01
-2.193527817726135254e-01
-3.651287034153938293e-02
-2.156147062778472900e-01
-3.349170833826065063e-02
2.322767488658428192e-02
1.347858160734176636e-01
2.557841241359710693e-01
6.032207980751991272e-02
7.771751284599304199e-02
-1.310237450525164604e-03
-1.769773475825786591e-02
1.384502053260803223e-01
1.614425480365753174e-01
-4.179062321782112122e-02
2.010585553944110870e-02
2.223190367221832275e-01
2.358148805797100067e-02
1.284559369087219238e-01
-4.375626891851425171e-02
1.781984716653823853e-01
-1.169099733233451843e-01
1.901828199625015259e-01
-5.350661650300025940e-02
-1.223426386713981628e-01
-1.269256696105003357e-03
-1.358936727046966553e-01
-7.360596954822540283e-02
-3.316007852554321289e-01
1.045485883951187134e-01
-3.065858967602252960e-02
-2.117600478231906891e-02
-5.108729749917984009e-02
1.434960514307022095e-01
-3.182795643806457520e-01
-8.073572814464569092e-02
2.153922021389007568e-01
4.164680093526840210e-02
-1.199818179011344910e-01
-5.726585164666175842e-02
-3.388661146163940430e-02
-1.563494838774204254e-02
-2.377142906188964844e-01
-2.497048377990722656e-01
-1.108200922608375549e-01
-9.753297269344329834e-02
-1.843183115124702454e-02
-5.607967451214790344e-02
-3.609085083007812500e-02
-2.155536971986293793e-02
2.060996592044830322e-01
4.330261051654815674e-02
-9.178428351879119873e-02
6.720925867557525635e-02
3.354233503341674805e-01
-3.103340864181518555e-01
6.270911544561386108e-02
1.942514479160308838e-01
1.085079535841941833e-01
9.732260368764400482e-03
3.634551540017127991e-02
1.233049705624580383e-01
1.319986432790756226e-01
-3.666892647743225098e-02
-2.052449584007263184e-01
5.301805585622787476e-02
2.316807582974433899e-02
-2.143342494964599609e-01
1.198058426380157471e-01
-8.496429771184921265e-02
-1.630804538726806641e-01
-9.121613577008247375e-03
3.761701583862304688e-01
3.918770700693130493e-02
3.610523790121078491e-02
-1.094759926199913025e-01
3.702822327613830566e-01
8.253977447748184204e-02
2.551866695284843445e-03
-3.417871147394180298e-02
3.138400241732597351e-02
3.731640428304672241e-02
3.307380527257919312e-02
2.233253866434097290e-01
-1.538238227367401123e-01
-1.313399523496627808e-01
4.975855350494384766e-02
2.087836712598800659e-01
1.482354551553726196e-01
-2.681215479969978333e-02
-5.583023279905319214e-02
9.652916342020034790e-02
-6.120602414011955261e-02
-2.570819258689880371e-01
4.789512604475021362e-02
-9.242375195026397705e-02
-2.132657915353775024e-01
1.892139315605163574e-01
-1.087594479322433472e-01
-9.604883939027786255e-02
4.840849712491035461e-02
-8.247178792953491211e-02
1.649466753005981445e-01
-3.957652673125267029e-02
-1.224198564887046814e-01
-6.397319026291370392e-03
3.873120993375778198e-02
-5.287776887416839600e-02
6.917111575603485107e-02
4.837449267506599426e-02
-2.946150302886962891e-02
-8.798912912607192993e-02
3.134037554264068604e-01
-1.579004675149917603e-01
-1.075444892048835754e-01
1.166153401136398315e-01
8.699287474155426025e-02
-1.548086851835250854e-01
-1.590211540460586548e-01
1.773872971534729004e-01
6.016973033547401428e-02
6.352836638689041138e-02
-3.217749297618865967e-02
-5.424938723444938660e-02
2.284965813159942627e-01
1.040911152958869934e-01
1.194370836019515991e-01
3.185096383094787598e-02
6.205461174249649048e-02
-4.475203156471252441e-02
-5.283843725919723511e-02
5.210647359490394592e-04
-2.540948055684566498e-02
1.047718971967697144e-01
-8.264177292585372925e-02
1.746706478297710419e-02
-7.190179079771041870e-02
-6.953173875808715820e-02
-1.064987480640411377e-01
-2.869345545768737793e-01
-2.135325819253921509e-01
-1.332071423530578613e-01
-9.754356741905212402e-02
-2.625202387571334839e-02
6.997480243444442749e-02
-1.709054224193096161e-02
-2.417967617511749268e-01
-3.764342889189720154e-02
-8.193586766719818115e-02
-1.454409956932067871e-01
1.239452436566352844e-01
-2.465062439441680908e-01
-1.128355041146278381e-01
4.307017195969820023e-03
