-4.232741147279739380e-02
7.862777449190616608e-03
1.605301350355148315e-01
-8.541107177734375000e-02
-6.238760054111480713e-02
-5.856601521372795105e-03
5.747387558221817017e-02
1.370226740837097168e-01
-4.338367283344268799e-02
-1.114817634224891663e-01
1.685283333063125610e-01
-5.276050046086311340e-02
-4.172423109412193298e-02
-2.101442068815231323e-01
-3.069938905537128448e-02
2.398526072502136230e-01
1.840452253818511963e-01
-9.136850014328956604e-03
-6.880193948745727539e-02
-2.066119611263275146e-01
1.968499124050140381e-01
2.500484585762023926e-01
-2.685908675193786621e-01
-1.642741113901138306e-01
2.862511761486530304e-02
4.572276026010513306e-02
1.025587040930986404e-02
1.057721823453903198e-01
2.042034268379211426e-01
-4.461350291967391968e-02
8.196482062339782715e-02
1.437921375036239624e-01
-1.384369730949401855e-01
-3.035868145525455475e-02
-4.897221550345420837e-02
-1.353240311145782471e-01
-6.546742469072341919e-02
-2.203550636768341064e-01
1.831122934818267822e-01
3.153152018785476685e-02
-5.867936462163925171e-02
7.189884036779403687e-02
-1.501158028841018677e-01
9.472396969795227051e-02
5.738880857825279236e-02
1.373417675495147705e-01
-1.962968707084655762e-01
-3.018512725830078125e-01
3.036214113235473633e-01
1.297582089900970459e-01
2.198550254106521606e-01
2.172683775424957275e-01
-1.978293061256408691e-01
-1.010660603642463684e-01
-3.156199157238006592e-01
1.075368672609329224e-01
1.781990081071853638e-01
3.157315030694007874e-02
1.052082553505897522e-01
7.788087427616119385e-02
1.287700533866882324e-01
-2.620798349380493164e-01
-9.800286591053009033e-02
-3.709959238767623901e-02
4.093747958540916443e-02
2.453902037814259529e-03
-1.945552080869674683e-01
-1.390458792448043823e-01
1.690403074026107788e-01
-1.421931385993957520e-01
-1.432857960462570190e-01
-2.865510992705821991e-02
9.179330617189407349e-02
3.459930419921875000e-01
-3.183071911334991455e-01
-4.252983257174491882e-02
4.391153529286384583e-02
-1.700781881809234619e-01
1.389347016811370850e-03
5.520869046449661255e-02
-3.900337219238281250e-02
1.129327490925788879e-01
3.411230444908142090e-02
-2.050735056400299072e-01
-9.078103303909301758e-02
4.773195832967758179e-02
-1.595032364130020142e-01
-2.915634214878082275e-02
-3.721674159169197083e-02
5.205121636390686035e-02
-1.554781645536422729e-01
-9.796813130378723145e-02
-1.574634909629821777e-01
1.909151822328567505e-01
-6.783875077962875366e-02
1.543180942535400391e-01
-2.130505163222551346e-04
1.416492760181427002e-01
4.147197008132934570e-01
1.050764173269271851e-01
-1.291736066341400146e-01
-5.289890989661216736e-02
-1.297559291124343872e-01
-2.540121078491210938e-01
2.823053672909736633e-02
2.922439575195312500e-02
1.544874459505081177e-01
5.284756049513816833e-02
-8.985228091478347778e-02
-1.424145698547363281e-01
-3.625152260065078735e-02
-7.894274592399597168e-02
1.442868709564208984e-01
-1.398362815380096436e-01
-1.438463032245635986e-01
-5.360100790858268738e-02
-8.276667445898056030e-02
-9.664556384086608887e-02
1.278752386569976807e-01
-3.094948129728436470e-03
-1.733056455850601196e-01
2.112716585397720337e-01
-9.841140359640121460e-02
2.253605723381042480e-01
-5.160092562437057495e-02
-4.046296235173940659e-04
2.188027650117874146e-02
-3.809139877557754517e-02
-3.593750670552253723e-02
-7.267625536769628525e-03
-3.867337107658386230e-02
1.048168465495109558e-01
3.426847159862518311e-01
1.222163159400224686e-02
1.842390149831771851e-01
1.410585194826126099e-01
2.915756404399871826e-01
5.316666886210441589e-02
-6.948070134967565536e-03
1.374660581350326538e-01
-9.727327153086662292e-03
-2.187199294567108154e-01
2.810846827924251556e-02
4.344809800386428833e-02
7.361966371536254883e-02
-3.556894958019256592e-01
-2.420391440391540527e-01
-4.555399715900421143e-02
4.319930076599121094e-01
-9.290887415409088135e-02
-2.308924049139022827e-01
-4.161502122879028320e-01
1.493157744407653809e-01
-2.338447608053684235e-02
1.647342294454574585e-01
6.531711667776107788e-02
-1.845556199550628662e-01
-1.186270564794540405e-01
-1.245935782790184021e-01
6.887637078762054443e-02
-1.054424941539764404e-01
-6.958021223545074463e-02
-1.764670610427856445e-01
-2.012498229742050171e-01
-2.157212793827056885e-02
4.300286620855331421e-02
2.013716548681259155e-01
8.357125520706176758e-02
-1.171665638685226440e-01
-4.377710819244384766e-02
1.465889513492584229e-01
2.128912210464477539e-01
3.206479847431182861e-01
2.360621839761734009e-01
2.651483118534088135e-01
-2.210137434303760529e-02
-7.010988891124725342e-02
8.788210898637771606e-02
-5.295276269316673279e-02
-1.662103682756423950e-01
-4.471048712730407715e-02
-6.757312268018722534e-02
-1.047404948621988297e-02
8.767905831336975098e-02
7.101047784090042114e-02
4.317378625273704529e-02
6.848526652902364731e-03
2.004489302635192871e-01
5.525818839669227600e-02
7.091195881366729736e-02
1.243747957050800323e-02
3.714991733431816101e-03
-1.649170517921447754e-01
1.483985967934131622e-02
-2.492802916094660759e-03
5.490303412079811096e-02
1.159952767193317413e-02
-1.543592214584350586e-01
3.086585178971290588e-02
-1.406105011701583862e-01
3.084982931613922119e-01
2.005140185356140137e-01
-9.729143977165222168e-02
-1.271461844444274902e-01
-1.215885858982801437e-02
2.052312046289443970e-01
2.281403094530105591e-01
5.807343870401382446e-02
-1.044217124581336975e-01
-5.099164694547653198e-02
1.604442894458770752e-01
-6.923878937959671021e-02
-6.602960079908370972e-02
-2.380690723657608032e-01
-1.076713800430297852e-01
-1.212217472493648529e-02
-1.027242913842201233e-01
-1.124186441302299500e-01
-9.981205686926841736e-03
-9.763573110103607178e-02
-1.954082846641540527e-01
-1.762190461158752441e-01
1.121252924203872681e-01
-6.859136372804641724e-02
-2.133060693740844727e-01
-1.945953220129013062e-01
1.950216889381408691e-01
2.811697125434875488e-01
1.590115427970886230e-01
-1.438734531402587891e-01
-1.694907695055007935e-01
1.930791325867176056e-02
3.504504263401031494e-02
4.121304675936698914e-02
5.608811974525451660e-02
4.158447962254285812e-03
-2.838378250598907471e-01
7.055293023586273193e-02
3.168439492583274841e-02
-1.831108629703521729e-01
1.266677677631378174e-01
-8.573079854249954224e-02
-8.651346713304519653e-02
4.878063499927520752e-02
2.485261484980583191e-02
-1.147390156984329224e-01
-3.316354155540466309e-01
-2.061073929071426392e-01
-5.381912924349308014e-03
-7.413486391305923462e-02
9.569851681590080261e-03
5.863692164421081543e-01
1.469736248254776001e-01
-9.470541262999176979e-04
-4.349880665540695190e-02
1.884440928697586060e-01
2.169848829507827759e-01
3.402983397245407104e-02
-9.115849435329437256e-02
1.144528463482856750e-01
4.740854352712631226e-02
-8.035711944103240967e-02
1.495700608938932419e-02
-4.291507601737976074e-02
9.016809053719043732e-03
3.282524272799491882e-02
-6.889684498310089111e-02
6.559590250253677368e-02
8.198603987693786621e-02
-3.219905123114585876e-02
-2.500423789024353027e-01
-1.142135560512542725e-01
-4.272653721272945404e-03
-1.873209141194820404e-02
-1.385913640260696411e-01
1.705268919467926025e-01
1.048651710152626038e-01
2.709912657737731934e-01
1.796403229236602783e-01
1.861696243286132812e-01
1.827887445688247681e-01
-3.638510033488273621e-02
-3.335634618997573853e-02
-3.333946689963340759e-02
1.351686418056488037e-01
1.597182638943195343e-02
3.351828828454017639e-02
-3.206492662429809570e-01
-1.159091815352439880e-01
-6.379426270723342896e-02
-3.369230628013610840e-01
-7.440394721925258636e-03
8.798862248659133911e-02
-2.527006668969988823e-03
-1.485284864902496338e-01
-2.165943980216979980e-01
-1.206584274768829346e-01
-1.228110641241073608e-01
4.211932793259620667e-02
-2.659897208213806152e-01
-3.231585398316383362e-02
2.988874018192291260e-01
9.479029476642608643e-02
-2.011323720216751099e-02
-1.347029581665992737e-02
-7.562461495399475098e-02
-2.233199961483478546e-02
2.638999000191688538e-02
2.507996857166290283e-01
5.199581757187843323e-02
-9.282764047384262085e-02
-6.968227773904800415e-02
3.805283084511756897e-02
1.233562529087066650e-01
6.828462332487106323e-02
-2.842844091355800629e-02
6.018881499767303467e-02
2.309184893965721130e-02
-9.317527711391448975e-02
-4.015445709228515625e-02
6.152146682143211365e-02
7.397473603487014771e-02
5.947308614850044250e-03
1.729849167168140411e-02
1.996586285531520844e-02
-5.837281793355941772e-02
-8.143588900566101074e-02
-2.059598565101623535e-01
7.681575417518615723e-02
8.006466925144195557e-02
-1.244454011321067810e-01
9.570986032485961914e-03
1.166754066944122314e-01
1.344473809003829956e-01
3.621352612972259521e-01
-1.315972208976745605e-01
4.295135661959648132e-02
-7.333009690046310425e-02
-1.676503382623195648e-02
2.796203494071960449e-01
9.377992711961269379e-03
-2.852723002433776855e-02
1.566434949636459351e-01
-1.739747673273086548e-01
-1.757656931877136230e-01
-2.592515386641025543e-02
-2.660201117396354675e-02
2.084875404834747314e-01
-6.386269629001617432e-02
-5.482425540685653687e-02
2.964473068714141846e-01
3.062745928764343262e-01
2.321862578392028809e-01
5.923730880022048950e-02
-1.747225821018218994e-01
3.986499086022377014e-02
-9.600465744733810425e-02
1.755430400371551514e-01
2.096017599105834961e-01
-3.093668520450592041e-01
-1.089259237051010132e-01
-2.028272300958633423e-01
3.341440856456756592e-02
1.132724583148956299e-01
3.172376155853271484e-01
-2.815283238887786865e-01
-1.431105285882949829e-01
-2.951419539749622345e-02
2.109248191118240356e-01
6.612516641616821289e-01
-1.789093464612960815e-01
-3.756691813468933105e-01
-7.630795240402221680e-02
-1.624082028865814209e-01
1.330481469631195068e-01
6.868743151426315308e-02
7.086312770843505859e-02
1.689645797014236450e-01
-2.007647603750228882e-01
-1.949383020401000977e-01
4.611472040414810181e-02
-9.485617280006408691e-03
6.850828230381011963e-02
-2.115306258201599121e-01
1.349823623895645142e-01
-1.419925838708877563e-01
-1.288381367921829224e-01
-3.710547834634780884e-02
1.572238057851791382e-01
-5.178742855787277222e-02
1.724452078342437744e-01
-1.077384203672409058e-01
2.586489310488104820e-03
-3.085372224450111389e-02
-2.030765116214752197e-01
2.197659946978092194e-02
2.370434440672397614e-02
-1.517855077981948853e-01
-1.314307153224945068e-01
-2.021448165178298950e-01
-1.755025088787078857e-01
1.128375753760337830e-01
-4.709926247596740723e-02
-1.760147362947463989e-01
-7.450965791940689087e-02
-1.526054441928863525e-01
1.367742270231246948e-01
6.097016483545303345e-02
-5.344308540225028992e-02
1.497086789458990097e-02
-4.095020517706871033e-02
1.236770749092102051e-01
-5.391467735171318054e-02
-1.173389777541160583e-01
-2.491631060838699341e-01
2.155811637639999390e-01
4.752563312649726868e-02
-1.750223040580749512e-01
8.953818678855895996e-02
8.177626132965087891e-02
9.138037264347076416e-02
7.760713249444961548e-02
1.977329254150390625e-01
1.269023567438125610e-01
1.504125446081161499e-01
9.441367536783218384e-02
-1.133556067943572998e-01
-8.092319965362548828e-02
-3.961206376552581787e-01
3.174425959587097168e-01
1.962247192859649658e-01
7.848808169364929199e-02
1.786905676126480103e-01
-2.860672399401664734e-02
-8.347269147634506226e-02
-3.892532736063003540e-02
2.342169731855392456e-01
-1.757104247808456421e-01
-3.781488910317420959e-02
-2.199638634920120239e-02
-1.547778546810150146e-01
-1.581702679395675659e-01
-5.713338777422904968e-02
1.920544058084487915e-01
-1.601904071867465973e-02
9.166304767131805420e-02
-1.961955800652503967e-02
1.526248268783092499e-02
3.050335049629211426e-01
1.469005048274993896e-01
-2.670725993812084198e-02
-3.574499115347862244e-02
-2.326286956667900085e-02
1.080934540368616581e-03
9.793951362371444702e-02
-6.659067422151565552e-02
-2.415279671549797058e-02
7.417726796120405197e-03
-1.022798269987106323e-01
-5.161759629845619202e-02
5.275683104991912842e-02
-1.596974432468414307e-01
-1.304358802735805511e-02
-7.796093821525573730e-02
-2.548500299453735352e-01
2.494759261608123779e-01
-1.121976226568222046e-01
-1.670342832803726196e-01
-1.418630778789520264e-01
-2.473999932408332825e-02
-7.695515453815460205e-02
-1.655915402807295322e-03
1.425398439168930054e-01
1.290307343006134033e-01
9.422370046377182007e-02
8.627421408891677856e-02
-2.505218982696533203e-01
-1.631864011287689209e-01
-2.534549534320831299e-01
2.186079621315002441e-01
-1.383276283740997314e-01
-4.252365790307521820e-03
-2.648144662380218506e-01
-2.814092934131622314e-01
-1.040250714868307114e-02
6.763555854558944702e-02
-3.252842277288436890e-02
-3.004436790943145752e-01
2.545619383454322815e-02
-1.010608226060867310e-01
1.889997720718383789e-01
5.928203463554382324e-02
-9.754785150289535522e-02
6.202834472060203552e-02
-6.243332475423812866e-02
2.840749919414520264e-01
2.547863721847534180e-01
8.674001693725585938e-02
-1.504135970026254654e-02
-2.495897561311721802e-01
-1.809236109256744385e-01
6.506422907114028931e-02
2.544513642787933350e-01
-1.568399667739868164e-01
-6.099186092615127563e-02
-3.398131206631660461e-02
2.111611664295196533e-01
-7.156401872634887695e-03
-1.869423985481262207e-01
-9.968351572751998901e-02
1.402728408575057983e-01
1.177110522985458374e-01
-1.537725031375885010e-01
7.584991306066513062e-02
3.076792359352111816e-01
4.016631245613098145e-01
1.143196970224380493e-01
7.696878165006637573e-02
1.566434353590011597e-01
2.400929182767868042e-01
6.784699857234954834e-02
6.786644458770751953e-02
-2.015495449304580688e-01
-3.398638069629669189e-01
-9.155397862195968628e-02
1.318333577364683151e-02
2.857283651828765869e-01
5.984481796622276306e-02
1.342195123434066772e-01
2.057695947587490082e-02
-1.624892801046371460e-01
2.615701258182525635e-01
-1.291295886039733887e-01
1.712672971189022064e-02
-8.809110522270202637e-02
-8.574158884584903717e-03
4.360243212431669235e-03
7.774721086025238037e-02
-1.167493462562561035e-01
-1.014905273914337158e-01
-1.257199198007583618e-01
3.208889439702033997e-02
3.198022767901420593e-02
1.540041565895080566e-01
-1.315584778785705566e-01
1.553159952163696289e-01
-7.832453586161136627e-03
1.895955651998519897e-01
6.144798919558525085e-02
-1.505513936281204224e-01
7.668594270944595337e-02
2.048662155866622925e-01
5.085339769721031189e-02
-6.986687332391738892e-02
7.607346028089523315e-02
1.061582192778587341e-01
-1.238434612751007080e-01
-9.037004411220550537e-02
-6.601402908563613892e-02
2.118681818246841431e-01
-6.208803039044141769e-03
2.060171663761138916e-01
-4.656093940138816833e-02
-1.292021721601486206e-01
4.039084538817405701e-02
3.539384528994560242e-02
-1.693310886621475220e-01
-1.930222213268280029e-01
-1.141076758503913879e-01
1.558058112859725952e-01
1.637827903032302856e-01
-2.370852828025817871e-01
-2.954157069325447083e-02
6.328696757555007935e-02
1.515009701251983643e-01
1.500587463378906250e-01
8.462495356798171997e-02
-4.837869107723236084e-02
2.421624958515167236e-02
2.541551599279046059e-03
-1.220415458083152771e-01
1.699357181787490845e-01
-6.292726099491119385e-02
-4.613184183835983276e-02
5.124033242464065552e-02
-6.608677655458450317e-02
-1.686598211526870728e-01
-1.402874737977981567e-01
5.280812084674835205e-02
3.629334568977355957e-01
1.163902729749679565e-01
-9.489105641841888428e-02
-1.793713420629501343e-01
2.348712980747222900e-01
3.620112240314483643e-01
1.884127855300903320e-01
-2.241572290658950806e-01
-1.763738542795181274e-01
-4.833499714732170105e-02
7.308501005172729492e-02
-4.003035277128219604e-02
-1.165288761258125305e-01
2.392957955598831177e-01
-1.661117374897003174e-01
-2.394051700830459595e-01
-7.099480926990509033e-02
1.197169721126556396e-01
2.964792251586914062e-01
-2.481089718639850616e-02
-1.281687468290328979e-01
-5.657877400517463684e-02
4.567466676235198975e-03
-2.286521047353744507e-01
1.625928878784179688e-01
1.595105826854705811e-01
9.199783951044082642e-02
-3.790967166423797607e-02
-5.959521979093551636e-02
-6.374305486679077148e-02
-2.709065563976764679e-02
2.643504440784454346e-01
-4.454600159078836441e-03
-1.414979547262191772e-01
-7.116246968507766724e-02
-1.636663265526294708e-02
3.254059329628944397e-02
1.442620605230331421e-01
-2.750182338058948517e-02
-1.209223121404647827e-01
1.215450018644332886e-01
-1.115692853927612305e-01
1.564472019672393799e-01
9.962558001279830933e-02
3.297055065631866455e-01
-1.362556312233209610e-02
9.736831486225128174e-02
-8.835811167955398560e-02
1.613528132438659668e-01
-2.882009930908679962e-02
-1.189172826707363129e-02
1.106854155659675598e-01
-1.146398261189460754e-01
-1.449086368083953857e-01
-1.113706529140472412e-01
7.167360931634902954e-02
-3.351380676031112671e-02
-7.619101554155349731e-02
-1.773215979337692261e-01
-1.901496052742004395e-01
-5.974182859063148499e-02
1.721396669745445251e-02
-8.968234062194824219e-02
-2.929692566394805908e-01
7.450585067272186279e-02
-1.118664741516113281e-01
-1.854820251464843750e-01
2.265382092446088791e-03
1.988323777914047241e-02
-2.064326107501983643e-01
2.507373094558715820e-01
-8.990804105997085571e-02
-7.817272841930389404e-02
-6.136016547679901123e-02
-2.055339068174362183e-01
-6.091748550534248352e-02
-1.600682288408279419e-01
-2.333351671695709229e-01
-1.565056145191192627e-01
-1.489081233739852905e-01
-1.565414816141128540e-01
-5.554895848035812378e-02
-1.590378433465957642e-01
1.797733306884765625e-01
9.263505041599273682e-02
-1.334134340286254883e-01
-1.383617818355560303e-01
2.694170549511909485e-02
1.116726994514465332e-01
1.789003610610961914e-01
7.858422398567199707e-02
1.231115893460810184e-03
3.628906607627868652e-01
3.827174752950668335e-02
6.750617921352386475e-02
1.177415624260902405e-01
-1.078200191259384155e-01
1.177486311644315720e-02
2.184251695871353149e-01
1.539514660835266113e-01
1.735744774341583252e-01
7.919976115226745605e-02
-1.354607343673706055e-01
-1.808233931660652161e-02
-1.024863272905349731e-01
6.620468199253082275e-02
-1.713822782039642334e-02
-8.520760387182235718e-02
-3.519844263792037964e-02
-2.668155729770660400e-01
8.376155048608779907e-02
-3.424465656280517578e-02
1.701642721891403198e-01
3.693681061267852783e-01
-8.374384790658950806e-02
-2.846701741218566895e-01
-1.730493828654289246e-02
-1.826397627592086792e-01
-1.229753484949469566e-03
1.356653217226266861e-02
3.517852723598480225e-02
-2.518951594829559326e-01
-2.469831146299839020e-03
-1.915498226881027222e-01
9.837100654840469360e-02
9.680096060037612915e-02
-2.454154640436172485e-01
-2.823421359062194824e-01
-1.056409552693367004e-01
-1.226978749036788940e-02
-5.236330628395080566e-02
7.571569830179214478e-02
1.370705757290124893e-02
3.326034918427467346e-02
1.782689057290554047e-02
-3.639874234795570374e-02
2.133887726813554764e-03
1.395464837551116943e-01
3.464556634426116943e-01
3.102698624134063721e-01
-1.182083636522293091e-01
-8.456383831799030304e-03
4.605319723486900330e-02
1.982671320438385010e-01
4.355637729167938232e-01
2.713732123374938965e-01
-2.643494009971618652e-01
-2.300638146698474884e-02
-8.695477992296218872e-02
2.896705865859985352e-01
1.016448587179183960e-01
-7.911163568496704102e-02
1.843718066811561584e-02
1.011130437254905701e-01
1.605464369058609009e-01
1.930482238531112671e-01
-2.058590352535247803e-01
-6.456992775201797485e-02
1.026145666837692261e-01
-1.770438440144062042e-02
2.420162037014961243e-02
2.197819799184799194e-01
1.184490621089935303e-01
3.687949776649475098e-01
3.873412683606147766e-02
6.735777109861373901e-02
-2.500549517571926117e-02
-2.130959331989288330e-01
1.173707023262977600e-01
1.165317595005035400e-01
-4.748142510652542114e-02
-2.491940930485725403e-02
-8.609939366579055786e-02
9.246512502431869507e-02
5.091988015919923782e-03
-9.498894214630126953e-03
-1.105769127607345581e-01
-5.707679688930511475e-02
2.375111356377601624e-02
-8.949581533670425415e-02
-5.395456403493881226e-02
3.373138234019279480e-02
-6.633047759532928467e-02
-1.241486445069313049e-01
-7.969002425670623779e-02
-1.995578259229660034e-01
3.158816397190093994e-01
3.373108804225921631e-01
1.753917336463928223e-01
-4.207997024059295654e-02
4.267642647027969360e-02
-2.198756933212280273e-01
-1.234155967831611633e-01
-1.134780328720808029e-02
1.167165637016296387e-01
4.203713536262512207e-01
-6.976035237312316895e-02
-1.915478855371475220e-01
-6.911925040185451508e-03
-3.881061822175979614e-02
2.486631833016872406e-02
7.535831630229949951e-02
-7.698789238929748535e-02
-2.797552384436130524e-03
-2.667742073535919189e-01
-9.346585720777511597e-02
6.842914223670959473e-02
1.606622785329818726e-01
-5.076127126812934875e-02
2.799308672547340393e-02
-1.286255866289138794e-01
8.080139011144638062e-02
4.605697095394134521e-02
2.187669575214385986e-01
2.480525523424148560e-02
2.480483613908290863e-02
1.013769768178462982e-02
1.196850314736366272e-01
4.061008989810943604e-02
-1.637476235628128052e-01
4.584549926221370697e-03
-2.739010751247406006e-01
1.207172572612762451e-01
-1.967262849211692810e-02
2.442998066544532776e-02
1.585548371076583862e-01
1.071630790829658508e-01
3.434114754199981689e-01
-5.705605726689100266e-03
1.282360702753067017e-01
1.433047950267791748e-01
1.361836493015289307e-01
-1.183711830526590347e-02
-3.052853979170322418e-02
1.582586318254470825e-01
5.867310333997011185e-03
-2.539597749710083008e-01
-2.206521928310394287e-01
1.984484307467937469e-02
3.969669342041015625e-02
5.021244287490844727e-01
-7.665721233934164047e-03
1.296198274940252304e-02
-1.923910826444625854e-01
1.884445548057556152e-01
-2.707107551395893097e-02
-5.945709720253944397e-02
1.124287247657775879e-01
2.393345162272453308e-02
-2.125574201345443726e-01
-2.258160561323165894e-01
2.629274688661098480e-02
6.015717610716819763e-02
-1.221340335905551910e-02
-1.563675105571746826e-01
-1.157628223299980164e-01
1.318003702908754349e-02
-7.362902164459228516e-02
-1.416738629341125488e-01
1.143666431307792664e-01
9.411522187292575836e-03
-3.574615120887756348e-01
-8.121353387832641602e-02
2.217185199260711670e-01
6.601101160049438477e-02
-1.603728383779525757e-01
1.511096358299255371e-01
-1.609412138350307941e-03
8.535801619291305542e-02
-1.915150880813598633e-01
-4.528789967298507690e-02
1.637671589851379395e-01
2.777850255370140076e-02
-8.648142963647842407e-02
-1.273936498910188675e-02
2.119797021150588989e-01
-1.881904453039169312e-01
-1.186555176973342896e-01
1.885406672954559326e-02
-2.776520699262619019e-02
9.917356073856353760e-02
-1.436666399240493774e-01
-8.214955218136310577e-03
2.062075883150100708e-01
-1.931367516517639160e-01
-1.989304572343826294e-01
1.768823564052581787e-01
1.738694757223129272e-01
-3.413711115717887878e-02
-6.779348850250244141e-02
-1.719656214118003845e-02
8.829487860202789307e-02
1.582146883010864258e-01
-2.229567319154739380e-01
-5.661995336413383484e-02
-2.363134026527404785e-01
-9.608095884323120117e-02
4.858088120818138123e-02
4.125163704156875610e-02
6.284806877374649048e-02
-7.242375612258911133e-02
-1.753679290413856506e-02
2.594416588544845581e-02
1.454755514860153198e-01
7.422662526369094849e-02
1.828794479370117188e-01
9.345811605453491211e-02
-2.187533378601074219e-01
-2.579840719699859619e-01
-1.451461166143417358e-01
-1.529344469308853149e-01
-4.419742617756128311e-03
-3.190101683139801025e-02
1.520297955721616745e-02
-1.193553656339645386e-01
-5.674557294696569443e-03
-2.098373137414455414e-02
-4.878181219100952148e-02
-9.778366237878799438e-02
-2.122131176292896271e-03
-4.537877812981605530e-02
1.143996194005012512e-01
1.132423356175422668e-01
-1.485542654991149902e-01
-9.442890435457229614e-02
1.084204316139221191e-01
3.263342380523681641e-02
1.689030528068542480e-01
1.651205569505691528e-01
2.939989417791366577e-02
3.031892478466033936e-01
8.356302231550216675e-02
1.136116683483123779e-01
-1.256586909294128418e-01
-2.869085669517517090e-01
-1.642824709415435791e-01
1.906743831932544708e-02
1.044350266456604004e-01
-3.888134062290191650e-01
9.006414562463760376e-02
2.140392363071441650e-01
9.026222676038742065e-02
8.996465802192687988e-02
-4.460008814930915833e-02
-2.081029117107391357e-01
1.950053870677947998e-01
-1.823540329933166504e-01
-7.346255332231521606e-02
-4.386012256145477295e-02
1.586443036794662476e-01
1.254320740699768066e-01
-8.142457902431488037e-02
9.437452256679534912e-02
-1.265106350183486938e-01
-4.625548794865608215e-02
2.576056718826293945e-01
2.414960116147994995e-01
8.885262906551361084e-02
-3.521082922816276550e-02
-3.110094368457794189e-01
2.219136208295822144e-01
-3.644424676895141602e-02
-6.071460247039794922e-02
-4.890704154968261719e-02
1.990822106599807739e-01
4.114176332950592041e-02
8.531740307807922363e-02
2.065258659422397614e-02
-2.217222601175308228e-01
6.265830993652343750e-02
-1.287375688552856445e-01
1.026043444871902466e-01
-2.467080801725387573e-01
2.031893581151962280e-01
2.334745228290557861e-02
-6.256903707981109619e-02
2.899224162101745605e-01
2.607933990657329559e-02
-2.426739223301410675e-02
3.144120797514915466e-02
-2.731386758387088776e-02
-6.432779878377914429e-02
-2.285353988409042358e-01
6.771221756935119629e-02
1.026421189308166504e-01
-6.433523446321487427e-02
-2.309428304433822632e-01
-5.552136525511741638e-02
1.049357205629348755e-01
-5.715061351656913757e-02
1.052337661385536194e-01
-3.370946645736694336e-02
6.287022680044174194e-02
-1.911265589296817780e-02
-2.330621182918548584e-01
-2.989835105836391449e-02
3.178704157471656799e-02
1.861481666564941406e-01
6.169292703270912170e-02
-3.175401687622070312e-01
6.034844368696212769e-02
9.111144393682479858e-02
1.757036596536636353e-01
-2.425286024808883667e-01
-2.991032898426055908e-01
-2.121582627296447754e-01
1.425468772649765015e-01
1.334408521652221680e-01
-3.278943598270416260e-01
-2.744097709655761719e-01
-3.281364738941192627e-01
-1.719195395708084106e-01
-1.506283320486545563e-02
8.861411362886428833e-02
6.355573236942291260e-02
-4.332873038947582245e-03
-2.032735347747802734e-01
-1.426257491111755371e-01
7.781738042831420898e-02
1.034324020147323608e-01
1.117178574204444885e-01
-5.171834304928779602e-02
1.712234765291213989e-01
-8.257069624960422516e-03
-1.079699248075485229e-01
2.394442558288574219e-01
-5.741356313228607178e-02
-8.358865231275558472e-02
-1.000444777309894562e-02
1.720802336931228638e-01
3.095682263374328613e-01
-1.753648519515991211e-01
2.298972569406032562e-02
-1.453517377376556396e-01
-9.609327465295791626e-02
-3.537044525146484375e-01
-2.679212205111980438e-02
9.916083887219429016e-03
-3.253543376922607422e-02
-4.514081403613090515e-02
-1.563047319650650024e-01
7.679223269224166870e-02
6.309766788035631180e-03
8.333283662796020508e-02
1.161948963999748230e-01
2.531947791576385498e-01
1.170832589268684387e-01
2.722351439297199249e-02
-4.733736626803874969e-03
-2.412662357091903687e-01
8.787341415882110596e-02
6.864695996046066284e-02
1.759412735700607300e-01
9.304445236921310425e-02
-2.756232619285583496e-01
-1.390520483255386353e-01
2.764830365777015686e-03
5.402235314249992371e-03
-2.506677508354187012e-01
-1.348324716091156006e-01
-2.902439832687377930e-01
-1.973670125007629395e-01
-2.089387625455856323e-01
1.338553428649902344e-01
-3.427870338782668114e-03
1.512884534895420074e-02
1.242195069789886475e-01
-8.690290153026580811e-03
-1.462222039699554443e-01
-1.819875091314315796e-01
-1.923835575580596924e-01
1.064038574695587158e-01
-4.654676094651222229e-02
1.169807091355323792e-01
-6.759991496801376343e-02
-4.395229741930961609e-02
3.400444090366363525e-01
7.108619064092636108e-02
-3.978060558438301086e-02
1.039206236600875854e-01
3.168527483940124512e-01
8.272238075733184814e-02
2.969110012054443359e-02
-1.328715234994888306e-01
4.619498178362846375e-02
1.850719004869461060e-01
3.132116794586181641e-02
2.641790807247161865e-01
1.975633054971694946e-01
7.906108349561691284e-02
-8.563556522130966187e-02
-2.187150269746780396e-01
1.993588730692863464e-02
1.880312711000442505e-02
-2.074671387672424316e-01
1.867358237504959106e-01
-6.963789463043212891e-02
-6.789059937000274658e-02
-1.494110971689224243e-01
-2.986953128129243851e-03
2.660053372383117676e-01
-1.530507765710353851e-02
-1.940848380327224731e-01
-2.210640907287597656e-02
-2.547507360577583313e-02
2.801008224487304688e-01
1.185083016753196716e-01
-1.065697073936462402e-01
9.133944660425186157e-02
-5.527194589376449585e-03
2.551490366458892822e-01
-1.931153088808059692e-01
-1.671442836523056030e-01
1.685247011482715607e-02
2.504584491252899170e-01
2.009428888559341431e-01
1.533049196004867554e-01
-5.255764350295066833e-02
-1.961065828800201416e-01
4.093792662024497986e-02
4.885815456509590149e-02
-1.144423484802246094e-01
1.843998953700065613e-02
1.793577075004577637e-01
7.794353365898132324e-02
2.324155531823635101e-02
-1.219697743654251099e-01
-2.840115875005722046e-02
1.123653277754783630e-01
3.099040687084197998e-01
2.843477576971054077e-02
-1.265566051006317139e-01
2.982985377311706543e-01
3.691917061805725098e-01
2.489605098962783813e-01
-1.507617440074682236e-02
1.460468769073486328e-01
4.953428357839584351e-02
-1.467385701835155487e-02
-4.664289951324462891e-02
-1.633469462394714355e-01
7.810794562101364136e-02
3.506376221776008606e-02
9.993416257202625275e-03
-2.491131238639354706e-02
1.506516188383102417e-01
7.169916294515132904e-03
1.275126487016677856e-01
7.763259857892990112e-02
2.020697146654129028e-01
-1.594139784574508667e-01
9.442915022373199463e-02
6.545454263687133789e-02
-1.504214107990264893e-02
-1.456617265939712524e-01
-6.708091497421264648e-02
-7.044625282287597656e-02
-3.183721899986267090e-01
1.818034052848815918e-02
-2.938694655895233154e-01
-2.041850537061691284e-01
-1.043888628482818604e-01
-3.152938187122344971e-01
-1.506815701723098755e-01
-1.041224971413612366e-01
-1.761014610528945923e-01
5.005292221903800964e-02
1.428092271089553833e-01
-7.392585277557373047e-02
-5.059967935085296631e-02
9.414992481470108032e-02
1.671680957078933716e-01
1.728781685233116150e-02
1.953009865246713161e-03
-4.049485176801681519e-02
5.228930711746215820e-02
5.145077407360076904e-02
-8.592484146356582642e-02
1.059446483850479126e-01
-8.901864290237426758e-02
5.113403126597404480e-02
5.046328529715538025e-02
-2.028357386589050293e-01
-2.901296615600585938e-01
-2.185146957635879517e-01
6.712106615304946899e-02
2.206351310014724731e-01
7.637222856283187866e-02
-2.478224188089370728e-01
-4.159839153289794922e-01
-3.021340072154998779e-01
1.756949275732040405e-01
1.201101318001747131e-01
1.322512421756982803e-02
-3.876592516899108887e-01
6.020773202180862427e-02
-1.238061487674713135e-01
-3.646804764866828918e-02
2.841742634773254395e-01
-9.590834379196166992e-02
-3.223619982600212097e-02
-3.228928195312619209e-03
2.184169888496398926e-01
1.408312916755676270e-01
3.888436779379844666e-02
6.351180840283632278e-03
-1.414945721626281738e-01
1.489076465368270874e-01
-3.018788248300552368e-02
3.167625665664672852e-01
1.866928488016128540e-01
1.803979091346263885e-02
2.941938340663909912e-01
8.489783853292465210e-02
2.737126052379608154e-01
-2.496478147804737091e-02
1.224956512451171875e-01
9.443731978535652161e-03
-1.622025370597839355e-01
-9.560369700193405151e-02
1.790698990225791931e-02
-1.421913504600524902e-02
1.992549300193786621e-01
-4.060776531696319580e-02
2.065323442220687866e-01
-7.365286350250244141e-02
6.042294204235076904e-03
4.135439917445182800e-02
1.782532334327697754e-01
-1.557455062866210938e-01
-1.528915315866470337e-01
1.279656589031219482e-01
1.171642616391181946e-01
-2.124282270669937134e-01
-1.582081913948059082e-01
-1.603916287422180176e-01
-8.587932586669921875e-02
-2.036706507205963135e-01
-2.480032742023468018e-01
-1.521815657615661621e-01
-4.394114762544631958e-02
-1.677393540740013123e-02
-7.971058785915374756e-02
-1.242789626121520996e-01
2.795471847057342529e-01
4.968536272644996643e-02
-7.998579740524291992e-02
-1.324642300605773926e-01
-5.076235905289649963e-02
7.054706662893295288e-02
1.489096432924270630e-01
-1.353162229061126709e-01
2.565483748912811279e-01
-2.179217934608459473e-01
1.724405735731124878e-01
-7.802033424377441406e-02
-1.775897890329360962e-01
2.316160500049591064e-01
2.726062946021556854e-02
-1.275405734777450562e-01
-8.951161056756973267e-02
-6.296332925558090210e-02
-1.690581813454627991e-02
2.201668918132781982e-01
3.930264413356781006e-01
-1.079332828521728516e-01
1.068662330508232117e-01
3.359477818012237549e-01
1.361431628465652466e-01
3.857326507568359375e-02
-9.608905017375946045e-02
-3.318997621536254883e-01
3.903356567025184631e-02
1.074249017983675003e-02
-1.358488500118255615e-01
1.904336512088775635e-01
-4.228910058736801147e-02
1.506444625556468964e-02
-7.191535085439682007e-02
4.451851919293403625e-02
-1.231492161750793457e-01
-1.544232517480850220e-01
-1.452522426843643188e-01
-2.320361323654651642e-02
-4.687969014048576355e-02
-3.790408000349998474e-02
-2.392942607402801514e-01
1.122457720339298248e-02
-1.727037318050861359e-02
1.667574048042297363e-02
-1.228652819991111755e-01
1.234807912260293961e-02
-4.776177555322647095e-02
1.620504856109619141e-01
1.173987239599227905e-01
4.992889706045389175e-03
1.396820545196533203e-01
6.460592895746231079e-02
1.826457213610410690e-03
-2.009609341621398926e-01
3.248545806854963303e-03
1.949197202920913696e-01
-3.735066577792167664e-02
-2.743021957576274872e-02
-9.058459103107452393e-02
-9.601823985576629639e-02
1.221879422664642334e-01
1.461456716060638428e-01
1.728969663381576538e-01
1.198198422789573669e-01
3.218427672982215881e-02
5.273317918181419373e-02
-1.209250092506408691e-02
5.666362121701240540e-02
9.749916195869445801e-02
-2.246729582548141479e-01
1.494214385747909546e-01
-1.374909430742263794e-01
1.648919731378555298e-01
1.747584193944931030e-01
4.108238592743873596e-02
6.477086246013641357e-02
1.174764558672904968e-01
-7.120054960250854492e-02
-6.607687100768089294e-03
8.014825731515884399e-02
3.209323808550834656e-02
2.772440761327743530e-02
-2.748648524284362793e-01
-2.099383324384689331e-01
3.410913283005356789e-03
3.196866810321807861e-01
9.925822168588638306e-02
-4.191203713417053223e-01
-1.572658419609069824e-01
-1.823399588465690613e-02
9.100540727376937866e-02
2.062570899724960327e-01
4.035600125789642334e-01
-1.072667241096496582e-01
-1.027948455885052681e-04
-1.232558041810989380e-01
1.295851171016693115e-01
1.367923468351364136e-01
1.902544498443603516e-01
2.832989990711212158e-01
1.742216348648071289e-01
-1.486661583185195923e-01
-8.010825514793395996e-02
9.962765872478485107e-02
3.093469738960266113e-01
2.098705917596817017e-01
-1.841057240962982178e-01
2.728047966957092285e-02
-7.902838289737701416e-02
-2.757439948618412018e-02
1.541295349597930908e-01
-3.558968901634216309e-01
-2.285750210285186768e-01
-2.874394133687019348e-02
-1.328908503055572510e-01
5.027627572417259216e-02
1.319357156753540039e-01
-4.238708410412073135e-03
1.538579016923904419e-01
1.579838544130325317e-01
5.235117301344871521e-02
9.144858270883560181e-02
7.643524557352066040e-03
-2.226583892479538918e-03
1.726759970188140869e-02
-2.391327917575836182e-01
-6.336000561714172363e-02
1.005876250565052032e-02
-1.838135719299316406e-01
1.323563009500503540e-01
-2.628223784267902374e-02
1.014368012547492981e-01
-6.134467944502830505e-02
2.548758685588836670e-02
-2.016552388668060303e-01
2.952601611614227295e-01
-8.936119079589843750e-02
-3.740308880805969238e-01
5.216705054044723511e-02
1.177773997187614441e-01
5.285679548978805542e-02
-6.646315008401870728e-02
-5.646359175443649292e-02
-1.570175737142562866e-01
4.407205805182456970e-02
-2.787966467440128326e-02
-1.396660059690475464e-01
-2.182462066411972046e-02
-1.061998233199119568e-01
-1.008377689868211746e-02
4.319335520267486572e-02
7.471608370542526245e-02
7.909450680017471313e-02
-3.641396015882492065e-02
-1.077758893370628357e-01
-9.706974029541015625e-02
3.384066373109817505e-02
-1.015753820538520813e-01
-5.287925526499748230e-02
-4.447066411375999451e-02
-1.001265347003936768e-01
-1.128417253494262695e-02
3.120519220829010010e-01
6.223496198654174805e-01
1.481235325336456299e-01
-2.987572252750396729e-01
-1.881393790245056152e-01
-5.973095446825027466e-02
-1.495230942964553833e-01
-1.598213911056518555e-01
1.450215466320514679e-02
-1.282035559415817261e-01
1.052908152341842651e-01
-5.528184771537780762e-02
1.513566970825195312e-01
-7.400768250226974487e-02
2.604605853557586670e-01
-1.836701035499572754e-01
-1.152169033885002136e-01
2.444133311510086060e-01
1.883323937654495239e-01
9.477888047695159912e-02
-2.098291665315628052e-01
-1.700502932071685791e-01
-8.191146701574325562e-02
2.086285948753356934e-01
2.425630241632461548e-01
3.445449173450469971e-01
-7.209430634975433350e-02
-1.768086850643157959e-01
3.785976767539978027e-02
-1.372660994529724121e-01
-8.170564472675323486e-02
-1.797786653041839600e-01
-8.774952590465545654e-02
7.729987055063247681e-02
-1.461854577064514160e-01
-1.405043751001358032e-01
-3.252977430820465088e-01
3.590262308716773987e-02
-1.527863554656505585e-02
-6.740174442529678345e-02
2.060448750853538513e-02
2.350874058902263641e-02
-7.969158887863159180e-02
-1.829581111669540405e-01
5.217901989817619324e-02
-1.083988603204488754e-02
-4.040506854653358459e-02
-2.756745368242263794e-02
-3.520005941390991211e-02
-4.091332480311393738e-02
7.239826768636703491e-02
9.632620215415954590e-02
1.226272061467170715e-01
-1.787179261445999146e-01
5.296708643436431885e-02
2.922896668314933777e-02
-1.967946998775005341e-02
-3.765040263533592224e-02
-2.565107643604278564e-01
8.975881338119506836e-02
9.071555733680725098e-02
1.629851311445236206e-01
7.757825404405593872e-02
-8.307021111249923706e-02
-4.625174775719642639e-02
1.514691561460494995e-01
3.293363004922866821e-02
2.356537729501724243e-01
-1.263061761856079102e-01
1.128174811601638794e-01
-1.310799568891525269e-01
1.266537755727767944e-01
1.915713250637054443e-01
-1.800400465726852417e-01
-2.327017113566398621e-02
1.292181108146905899e-02
1.968182809650897980e-02
-3.613082170486450195e-01
-2.437389045953750610e-01
7.398351281881332397e-02
6.569930911064147949e-02
5.529025569558143616e-02
-2.272097170352935791e-01
-2.203603535890579224e-01
3.965856134891510010e-02
-2.036540657281875610e-01
-4.807860124856233597e-03
-1.742636039853096008e-02
3.893015906214714050e-03
-3.307693451642990112e-02
-1.115079596638679504e-01
1.657691448926925659e-01
-1.174595430493354797e-01
-1.158654019236564636e-01
1.885397285223007202e-01
-5.595572665333747864e-02
-7.389162667095661163e-03
-2.274612039327621460e-01
9.824655950069427490e-02
3.903415501117706299e-01
4.612283706665039062e-01
2.046910375356674194e-01
-2.538638412952423096e-01
-7.145283371210098267e-02
-5.257739499211311340e-02
-9.275818243622779846e-03
-8.930908888578414917e-02
-8.774239569902420044e-02
-9.006488323211669922e-02
1.499216258525848389e-01
-2.273227870464324951e-01
1.111884694546461105e-02
5.037071555852890015e-02
-1.533863544464111328e-01
5.811825394630432129e-02
-1.121943444013595581e-01
1.359541118144989014e-01
1.764420866966247559e-01
9.793784469366073608e-02
-7.674692571163177490e-02
-1.715460866689682007e-01
1.006204038858413696e-01
-1.867510080337524414e-01
-9.956318885087966919e-02
-7.399089634418487549e-02
-5.380241572856903076e-02
7.792477309703826904e-02
1.564298719167709351e-01
2.479995638132095337e-01
-1.426958739757537842e-01
-8.138459175825119019e-02
1.172759607434272766e-01
3.247176483273506165e-02
3.377076983451843262e-01
-1.404659301042556763e-01
-2.417647838592529297e-02
7.051602751016616821e-02
-1.962829828262329102e-01
4.115450754761695862e-02
-4.570309072732925415e-03
1.845571398735046387e-01
1.105197705328464508e-02
-6.056821346282958984e-02
-1.658555567264556885e-01
-6.101665273308753967e-02
6.104897335171699524e-02
3.933651745319366455e-02
-1.102088093757629395e-01
8.545046672224998474e-03
3.231163718737661839e-04
-1.029746308922767639e-01
1.099067032337188721e-01
5.121696367859840393e-02
-1.322273313999176025e-01
-2.468228489160537720e-01
2.424691617488861084e-01
2.533937059342861176e-02
5.269400477409362793e-01
-2.867702543735504150e-01
-5.226938128471374512e-01
6.196936964988708496e-02
7.398139685392379761e-02
4.016704857349395752e-01
-1.375195682048797607e-01
-6.089914962649345398e-02
-9.553301148116588593e-03
-1.359516978263854980e-01
-2.272529751062393188e-01
6.787822395563125610e-02
-2.560844123363494873e-01
-1.726676225662231445e-01
1.162963286042213440e-01
1.112848967313766479e-01
3.694362938404083252e-01
-5.623651668429374695e-02
1.485489606857299805e-01
8.100024610757827759e-02
-9.922686219215393066e-02
-3.701164573431015015e-02
-5.861193686723709106e-02
2.018629759550094604e-02
2.099175304174423218e-01
-3.582515120506286621e-01
2.518749237060546875e-01
-6.227820739150047302e-02
-1.284707337617874146e-01
2.055627852678298950e-01
-8.182801306247711182e-02
5.080383643507957458e-02
3.412239626049995422e-02
-8.325435966253280640e-02
-5.366760864853858948e-02
-4.021808505058288574e-02
1.419827342033386230e-01
4.482854530215263367e-02
-8.771108090877532959e-02
-7.641308754682540894e-02
6.240303069353103638e-02
2.521114051342010498e-01
4.214924294501543045e-03
-1.064782515168190002e-01
8.732862025499343872e-02
1.240177452564239502e-01
-1.544817686080932617e-01
1.253346651792526245e-01
-1.526017300784587860e-02
-2.255207598209381104e-01
-2.077561169862747192e-01
5.061933770775794983e-02
8.140028268098831177e-02
3.319961577653884888e-02
-1.348799020051956177e-01
2.447264492511749268e-01
1.593837887048721313e-01
6.115096621215343475e-03
8.606084436178207397e-02
-2.879526698961853981e-03
2.075288891792297363e-01
-1.364040374755859375e-01
-5.926098674535751343e-02
1.104869693517684937e-01
-7.854650169610977173e-02
-9.105084091424942017e-02
2.922048866748809814e-01
-7.669806480407714844e-02
-1.477885544300079346e-01
-1.118924617767333984e-01
1.507053524255752563e-01
3.908377140760421753e-02
-1.381742674857378006e-02
-1.129761710762977600e-01
-1.733488738536834717e-01
-3.332803845405578613e-01
1.679988652467727661e-01
1.588959246873855591e-01
1.946439594030380249e-01
-1.873903162777423859e-02
6.456736475229263306e-02
1.068765595555305481e-01
-4.666961729526519775e-03
1.128712482750415802e-02
-6.418461352586746216e-02
-1.745806187391281128e-01
8.616047352552413940e-02
-1.132840365171432495e-01
-2.009586244821548462e-01
3.757712244987487793e-02
-5.625214800238609314e-02
2.437289953231811523e-01
-2.409293800592422485e-01
5.235772207379341125e-02
4.338605105876922607e-01
2.859555184841156006e-01
-2.621742486953735352e-01
-1.662148237228393555e-01
-2.551762154325842857e-03
6.056057289242744446e-02
1.752125620841979980e-01
-1.406569331884384155e-01
-5.041081905364990234e-01
1.365470439195632935e-01
2.460783161222934723e-02
1.166111230850219727e-02
1.457272912375628948e-03
-2.917048633098602295e-01
5.104980245232582092e-02
1.907186806201934814e-01
-1.253308802843093872e-01
1.019260734319686890e-01
4.105861857533454895e-02
-5.678646266460418701e-02
-9.933239221572875977e-02
-6.907501816749572754e-02
-2.633735351264476776e-02
2.754949629306793213e-01
6.029630452394485474e-02
2.064480483531951904e-01
-7.942994683980941772e-02
-1.668459624052047729e-01
2.606885433197021484e-01
-3.219754695892333984e-01
-1.372279971837997437e-01
-1.418359279632568359e-01
-8.214794844388961792e-02
-4.539716243743896484e-02
3.275150805711746216e-02
-8.486665040254592896e-02
6.073295697569847107e-02
8.157368749380111694e-03
-6.729242205619812012e-02
1.428256090730428696e-02
-5.053638294339179993e-02
-4.784695059061050415e-02
-1.943836808204650879e-01
1.054281089454889297e-02
1.350650787353515625e-01
-1.219353824853897095e-01
-4.807302355766296387e-02
-6.154209375381469727e-02
1.618660092353820801e-01
1.641446501016616821e-01
1.482623964548110962e-01
1.493870373815298080e-02
-1.853075176477432251e-01
-1.668614745140075684e-01
-2.662051469087600708e-02
-6.303432583808898926e-02
4.224852472543716431e-02
2.035974152386188507e-02
2.270043641328811646e-02
7.482822984457015991e-02
-1.344323754310607910e-01
-4.633864387869834900e-02
1.119195520877838135e-01
-9.805388748645782471e-02
5.302517488598823547e-02
9.352967888116836548e-02
-7.191262394189834595e-02
6.611957401037216187e-02
5.055253580212593079e-02
5.035037547349929810e-02
-3.685137629508972168e-02
1.900315657258033752e-02
1.099794954061508179e-01
1.249789223074913025e-01
1.938670426607131958e-01
1.031241491436958313e-01
-3.014112710952758789e-01
2.009253501892089844e-01
-8.670938014984130859e-02
-2.230682522058486938e-01
1.929166167974472046e-01
7.204276323318481445e-02
1.101172789931297302e-01
1.338484231382608414e-02
-3.805382177233695984e-02
1.456109434366226196e-01
-5.255332216620445251e-02
-1.200006231665611267e-01
-5.635223165154457092e-02
-1.759269535541534424e-01
-7.339266687631607056e-02
-1.003752499818801880e-01
-1.117366850376129150e-01
8.628382533788681030e-02
-2.756556272506713867e-01
-7.844132184982299805e-02
1.081173494458198547e-02
-4.166110232472419739e-02
1.083174347877502441e-01
-2.594535350799560547e-01
-2.332282066345214844e-01
1.701763570308685303e-01
-1.863132417201995850e-01
-3.600328415632247925e-02
5.648247431963682175e-03
2.170175760984420776e-01
4.728682339191436768e-02
-4.208837449550628662e-02
1.277269273996353149e-01
-2.293141633272171021e-01
2.083081454038619995e-01
-1.929720044136047363e-01
7.520089298486709595e-02
9.118797630071640015e-02
-1.071101725101470947e-01
-9.502913057804107666e-02
-1.176655758172273636e-02
8.332473784685134888e-02
3.112114220857620239e-02
3.507871553301811218e-02
-1.655101627111434937e-01
1.728125214576721191e-01
-3.783658146858215332e-02
1.215321123600006104e-01
9.622202813625335693e-02
-2.758586704730987549e-01
2.929122373461723328e-02
-7.597290724515914917e-02
-3.259796798229217529e-01
2.265449911355972290e-01
3.022651076316833496e-01
1.459650844335556030e-01
1.627005487680435181e-01
4.409272514749318361e-05
-1.581145972013473511e-01
2.158546894788742065e-01
3.162807971239089966e-02
-2.337095700204372406e-02
1.479541212320327759e-01
9.709389507770538330e-02
-6.956477463245391846e-02
1.830518841743469238e-01
1.844653636217117310e-01
3.155389130115509033e-01
5.278599634766578674e-02
-4.219074267894029617e-03
4.339820444583892822e-01
1.811206638813018799e-01
1.846529692411422729e-01
1.681723147630691528e-01
5.908317118883132935e-02
3.752345144748687744e-01
-2.964559793472290039e-01
2.408291958272457123e-02
-2.534027695655822754e-01
3.998110070824623108e-03
-3.613797575235366821e-02
-3.082100152969360352e-01
-1.282905191183090210e-01
4.053662996739149094e-03
-1.272894591093063354e-01
-5.057703703641891479e-03
8.630900830030441284e-02
-1.743584424257278442e-01
-3.461658582091331482e-02
2.923322655260562897e-02
-3.670791536569595337e-02
2.058689147233963013e-01
-2.591844089329242706e-02
-8.858024142682552338e-03
-1.098852455615997314e-01
-4.488119482994079590e-02
2.010131329298019409e-01
-1.692194193601608276e-01
-1.489605195820331573e-02
-5.650607496500015259e-02
1.756279170513153076e-01
1.501061618328094482e-01
5.550009384751319885e-02
1.060968562960624695e-01
-7.272338867187500000e-02
-2.029068171977996826e-01
1.980271935462951660e-01
-5.827426910400390625e-02
-5.146216601133346558e-02
8.876326680183410645e-02
-3.045698627829551697e-02
4.023075103759765625e-02
6.662560254335403442e-02
-3.262977898120880127e-01
1.390250306576490402e-02
1.545141041278839111e-01
-1.436300724744796753e-01
-2.022124975919723511e-01
-8.104715496301651001e-02
3.376436978578567505e-02
-1.020372007042169571e-02
4.384000785648822784e-03
7.255981862545013428e-02
2.266457229852676392e-01
1.930379867553710938e-01
1.622565388679504395e-01
1.581148356199264526e-01
-2.151698805391788483e-02
-2.491188347339630127e-01
-1.259309891611337662e-02
-2.625432908535003662e-01
-2.447680234909057617e-01
4.247972369194030762e-02
9.442202746868133545e-03
-8.205863833427429199e-02
-1.463176775723695755e-02
-3.745285421609878540e-02
1.235981564968824387e-02
-2.048600614070892334e-01
1.051770076155662537e-01
-1.568590551614761353e-01
2.334197983145713806e-02
-5.421673879027366638e-03
-7.806332409381866455e-02
4.131283611059188843e-02
-8.725662529468536377e-02
-1.535292863845825195e-01
1.637847423553466797e-01
2.332373261451721191e-01
2.080148160457611084e-01
-1.818529665470123291e-01
1.953676342964172363e-01
-2.814370095729827881e-01
-1.757481247186660767e-01
1.297957152128219604e-01
6.571528315544128418e-02
1.893062591552734375e-01
9.875421226024627686e-02
-3.829389438033103943e-02
-2.499416470527648926e-02
8.069007098674774170e-02
-6.697425246238708496e-02
3.088216483592987061e-02
8.702199161052703857e-02
5.294892564415931702e-02
5.761404708027839661e-02
5.929952114820480347e-02
3.931476548314094543e-02
6.185581907629966736e-02
-9.752131998538970947e-02
2.896981313824653625e-02
-4.970894008874893188e-02
1.061608418822288513e-01
-1.244343742728233337e-01
7.008713483810424805e-02
2.204346060752868652e-01
6.725777685642242432e-02
-1.953106373548507690e-01
4.111453592777252197e-01
3.817320764064788818e-01
9.332875907421112061e-02
2.059708088636398315e-01
8.125239610671997070e-02
2.476000338792800903e-01
-2.147703766822814941e-01
-1.368434578180313110e-01
-1.492898445576429367e-02
8.889170736074447632e-02
4.979342967271804810e-02
1.232483237981796265e-01
-4.170610755681991577e-02
-1.468290984630584717e-01
5.765960365533828735e-02
1.511983387172222137e-02
-8.304612711071968079e-03
9.156484901905059814e-02
6.214309111237525940e-02
-7.303195446729660034e-02
-3.477928638458251953e-01
-9.722517430782318115e-02
-9.963117539882659912e-02
1.612998992204666138e-01
-1.737854778766632080e-01
2.038069665431976318e-01
4.749494493007659912e-01
1.084750294685363770e-01
6.113094463944435120e-02
-9.675133973360061646e-02
1.554098427295684814e-01
-4.690735414624214172e-02
-3.315199017524719238e-01
-1.051378846168518066e-01
-1.139340102672576904e-01
7.711388170719146729e-02
-1.761959046125411987e-01
-1.854464262723922729e-01
-2.935876138508319855e-02
-1.550299078226089478e-01
-2.016076147556304932e-01
-1.401309370994567871e-01
1.083115786314010620e-01
1.285600811243057251e-01
-7.003027945756912231e-02
1.014848500490188599e-01
2.072411216795444489e-02
-9.831040352582931519e-02
-1.467017978429794312e-01
-2.190715819597244263e-01
1.377903521060943604e-01
2.569299936294555664e-01
-3.756466880440711975e-02
-1.420533806085586548e-01
-1.532845944166183472e-01
1.591805517673492432e-01
1.491575390100479126e-01
-6.237778440117835999e-02
-1.308342814445495605e-01
-1.013802662491798401e-01
8.692922443151473999e-02
1.596910804510116577e-01
3.280016034841537476e-02
-2.954671680927276611e-01
-3.543735295534133911e-02
-2.101669320836663246e-03
-8.493253588676452637e-02
-1.263953596353530884e-01
-2.980100512504577637e-01
-9.348088502883911133e-02
9.764158166944980621e-03
-7.695092260837554932e-02
-2.653186395764350891e-02
8.143562823534011841e-02
1.143249794840812683e-01
-2.344448119401931763e-01
-1.206923089921474457e-02
-2.648043930530548096e-01
1.013547256588935852e-01
3.805913403630256653e-02
-1.330856978893280029e-01
7.642331719398498535e-02
4.951373487710952759e-02
3.690924495458602905e-02
-1.188155263662338257e-01
-1.400197893381118774e-01
2.187990546226501465e-01
-3.024350479245185852e-02
6.634891778230667114e-02
2.166985347867012024e-02
8.908169344067573547e-03
8.703143894672393799e-02
9.919273853302001953e-02
3.163803741335868835e-02
-1.988765895366668701e-01
1.386944502592086792e-01
5.568033084273338318e-03
1.638700962066650391e-01
9.034515172243118286e-02
5.258936434984207153e-02
6.987340748310089111e-02
-1.086352467536926270e-01
-5.325061827898025513e-02
1.631304472684860229e-01
1.472301483154296875e-01
2.392957955598831177e-01
-3.181030228734016418e-02
4.972871765494346619e-02
2.822199650108814240e-02
-1.264433115720748901e-01
-1.648510545492172241e-01
-5.657496675848960876e-02
1.997687369585037231e-01
-1.042438074946403503e-01
1.150271296501159668e-01
-9.705578535795211792e-02
2.109517902135848999e-02
-7.333408296108245850e-02
5.873370170593261719e-02
1.905187666416168213e-01
7.074800878763198853e-02
-1.800094395875930786e-01
5.855014175176620483e-02
1.806546896696090698e-01
9.163364768028259277e-02
-2.104284614324569702e-01
-1.088496819138526917e-01
-7.266926765441894531e-02
-1.740325242280960083e-01
-8.177103102207183838e-02
-8.460283279418945312e-02
-1.007600575685501099e-01
-1.474287509918212891e-01
1.927380822598934174e-02
-1.601652204990386963e-01
-9.099723538383841515e-04
1.357851270586252213e-02
-1.100509017705917358e-01
2.401622198522090912e-02
-2.868991577997803688e-03
1.647287607192993164e-01
-9.882134944200515747e-02
-1.589880883693695068e-01
-4.001305252313613892e-02
3.400072157382965088e-01
6.677578389644622803e-02
-9.342640638351440430e-02
-4.182229638099670410e-01
-3.758790194988250732e-01
-3.584359884262084961e-01
1.785805374383926392e-01
3.396356403827667236e-01
2.759968042373657227e-01
-1.868986338376998901e-01
-2.141505293548107147e-02
-1.192715391516685486e-01
-1.307205259799957275e-01
-1.293677091598510742e-01
-1.663194894790649414e-01
-2.222687751054763794e-01
6.666059046983718872e-02
1.110692322254180908e-01
-8.569283038377761841e-02
-2.235530465841293335e-01
4.982463642954826355e-02
2.339878231287002563e-01
5.639443919062614441e-02
4.596789553761482239e-02
-1.334407031536102295e-01
1.925785839557647705e-01
2.228970080614089966e-01
-8.229976892471313477e-02
-4.881209693849086761e-03
-1.818075031042098999e-01
-6.610062718391418457e-02
-1.427354514598846436e-01
2.459922432899475098e-01
4.690786823630332947e-02
3.859374672174453735e-02
-2.940395176410675049e-01
-1.555592864751815796e-01
-1.298035085201263428e-01
-2.781656086444854736e-01
-4.750366881489753723e-02
-7.140621542930603027e-02
9.820062667131423950e-02
3.605382516980171204e-02
-1.375190168619155884e-01
-3.314303159713745117e-01
-1.972374022006988525e-01
1.625081151723861694e-01
-1.100946962833404541e-01
-1.039327681064605713e-01
-2.009125202894210815e-01
3.501241505146026611e-01
2.280284315347671509e-01
-1.284738630056381226e-01
-7.399241626262664795e-02
-3.401636183261871338e-01
-2.069380283355712891e-01
-8.127740770578384399e-02
-5.974793341010808945e-03
3.198217228055000305e-02
-3.213591501116752625e-02
-2.603727877140045166e-01
1.695184782147407532e-02
1.128088403493165970e-02
8.171462267637252808e-02
-1.359329074621200562e-01
7.383769005537033081e-02
5.925391241908073425e-02
1.146834567189216614e-01
4.882696270942687988e-02
-2.932718396186828613e-01
-7.891657203435897827e-02
-1.221760809421539307e-01
-8.171629160642623901e-03
2.872722689062356949e-03
-1.297816038131713867e-01
-9.402894973754882812e-02
2.929612062871456146e-02
1.428993493318557739e-01
1.522423923015594482e-01
-1.167797073721885681e-01
-2.461505234241485596e-01
3.453237563371658325e-02
5.938431248068809509e-02
1.112025305628776550e-01
-1.331796050071716309e-01
-1.859685629606246948e-01
-2.383870482444763184e-01
-1.011423394083976746e-01
-9.316957741975784302e-02
5.114425718784332275e-02
-1.526784300804138184e-01
-1.374071538448333740e-01
-4.495110213756561279e-01
-3.938296139240264893e-01
1.637179255485534668e-01
1.135837882757186890e-01
-4.432789050042629242e-03
1.668468415737152100e-01
-1.830242201685905457e-02
1.589330136775970459e-01
-6.013423949480056763e-02
2.023372203111648560e-01
2.859174013137817383e-01
1.128496378660202026e-01
3.154358267784118652e-02
8.131529204547405243e-03
4.267828539013862610e-02
1.217829883098602295e-01
4.596459493041038513e-02
5.523210018873214722e-02
-1.751921512186527252e-02
6.379183381795883179e-02
-6.564210634678602219e-03
-1.316525880247354507e-02
1.534052286297082901e-02
1.543391942977905273e-01
5.686546862125396729e-02
-2.323328051716089249e-03
1.638387702405452728e-02
-1.099388953298330307e-02
1.005941182374954224e-01
9.652451425790786743e-02
2.173297405242919922e-01
5.389357730746269226e-02
-2.091625332832336426e-01
-2.145758271217346191e-01
-1.190443038940429688e-01
-2.764343284070491791e-02
1.738068759441375732e-01
-1.432802826166152954e-01
-5.206340178847312927e-02
9.165024012327194214e-02
1.108133718371391296e-01
-5.278131365776062012e-02
-1.338847726583480835e-01
-1.700686663389205933e-01
-1.696223318576812744e-01
-2.374859601259231567e-01
1.811565645039081573e-02
2.239641360938549042e-02
-1.236336007714271545e-01
-2.120770514011383057e-01
-9.905003011226654053e-02
-2.896361425518989563e-02
1.476644724607467651e-01
-1.557791084051132202e-01
-2.705508172512054443e-01
-5.504947155714035034e-03
-7.299527525901794434e-02
9.868625551462173462e-02
-2.188404947519302368e-01
-4.954837858676910400e-01
-6.246625781059265137e-01
-3.072301149368286133e-01
7.488518208265304565e-02
1.162065658718347549e-02
1.007482632994651794e-01
3.291094675660133362e-02
7.465053349733352661e-02
1.947993487119674683e-01
1.196978017687797546e-01
1.483447551727294922e-01
9.271842241287231445e-02
7.293236255645751953e-02
-2.782890498638153076e-01
1.572174876928329468e-01
2.682637237012386322e-02
1.390040293335914612e-02
-4.648092761635780334e-02
-1.261609196662902832e-01
1.268062591552734375e-01
-4.650046676397323608e-02
-6.032856181263923645e-02
-6.207605451345443726e-02
1.541268229484558105e-01
-6.094485148787498474e-02
-5.338206514716148376e-02
2.600825391709804535e-02
6.092737894505262375e-03
-1.583352312445640564e-02
1.406374573707580566e-01
2.515505552291870117e-01
-1.275822967290878296e-01
-2.129903808236122131e-02
1.499265879392623901e-01
1.063395198434591293e-02
-8.830855600535869598e-03
3.753662854433059692e-02
-2.388160116970539093e-02
-9.587265551090240479e-02
-1.788350343704223633e-01
-1.552547365427017212e-01
-8.772148191928863525e-02
-1.902937293052673340e-01
5.167815461754798889e-02
-7.298479974269866943e-02
-1.958085149526596069e-01
-1.627574115991592407e-01
-6.645452231168746948e-02
1.373580545186996460e-01
8.328159898519515991e-02
-1.159143075346946716e-01
-8.123740553855895996e-02
1.002999767661094666e-02
8.278949558734893799e-02
-1.158701330423355103e-01
1.105183511972427368e-01
8.321212232112884521e-02
-1.052297353744506836e-01
7.840438187122344971e-02
-7.872652262449264526e-02
5.260092392563819885e-02
4.398695379495620728e-02
-1.594627499580383301e-01
1.464319825172424316e-01
-1.374015361070632935e-01
-4.799740612506866455e-01
-1.018691807985305786e-01
-5.842376872897148132e-02
-8.027824014425277710e-02
5.553672090172767639e-02
1.116611510515213013e-01
1.283907331526279449e-02
-1.015834510326385498e-01
3.864342719316482544e-02
8.307951688766479492e-02
-6.953744590282440186e-02
2.878772020339965820e-01
8.232008665800094604e-02
-2.698281407356262207e-01
-4.202153384685516357e-01
-2.740937769412994385e-01
-3.754086047410964966e-02
5.989878624677658081e-02
5.641483142971992493e-02
-1.182433590292930603e-01
-2.787148952484130859e-02
-3.715455904603004456e-02
-1.824775934219360352e-01
-6.500168889760971069e-02
-1.936342418193817139e-01
-3.467716276645660400e-02
8.032888174057006836e-02
1.293001919984817505e-01
-1.127939000725746155e-01
-1.213823556900024414e-01
-5.966761335730552673e-02
-9.574453532695770264e-02
4.815150797367095947e-02
-9.753586724400520325e-03
2.537158504128456116e-02
7.792356610298156738e-02
6.070255115628242493e-02
-2.530382946133613586e-02
-8.452021330595016479e-02
1.949825435876846313e-01
2.337912172079086304e-01
1.197229251265525818e-01
1.959586292505264282e-01
-8.999652415513992310e-02
1.465269029140472412e-01
2.567004263401031494e-01
-2.033734172582626343e-01
-2.132489532232284546e-01
-9.010796248912811279e-02
3.023757226765155792e-02
-1.039546951651573181e-01
-1.610941439867019653e-01
-3.131249174475669861e-02
-1.311585307121276855e-01
-4.773454274982213974e-03
-2.383555769920349121e-01
3.604739904403686523e-01
2.512007653713226318e-01
7.234167307615280151e-02
3.426883369684219360e-02
1.229062229394912720e-01
-1.917683631181716919e-01
2.562859356403350830e-01
-1.513597816228866577e-01
-2.105969935655593872e-01
-1.623467803001403809e-01
4.270644113421440125e-02
-1.312618553638458252e-01
-5.645577330142259598e-03
-6.959613878279924393e-03
-9.161285310983657837e-02
-2.209409326314926147e-01
1.797294020652770996e-01
-1.558648794889450073e-01
8.499064296483993530e-02
2.063344419002532959e-01
2.841302454471588135e-01
1.305307447910308838e-01
8.951894193887710571e-02
2.052635252475738525e-01
2.332646995782852173e-01
5.458981543779373169e-02
-1.285242587327957153e-01
-1.467657983303070068e-01
1.320125758647918701e-01
-1.434921659529209137e-02
1.172294691205024719e-01
-1.203942596912384033e-01
-4.244327545166015625e-02
-3.827913478016853333e-02
1.737054884433746338e-01
-1.411603242158889771e-01
-1.355564594268798828e-01
2.204776406288146973e-01
-4.816235229372978210e-02
-6.718236207962036133e-02
-1.186273992061614990e-01
-3.847551345825195312e-02
-1.254422515630722046e-01
-1.256970018148422241e-01
2.664455771446228027e-02
-2.165223211050033569e-01
3.840092942118644714e-02
5.899557843804359436e-03
2.172198593616485596e-01
-1.516750454902648926e-01
-2.303033135831356049e-02
-2.378919422626495361e-01
-9.910193830728530884e-02
-2.083827555179595947e-01
-3.514689207077026367e-01
-2.033130973577499390e-01
-7.875468581914901733e-02
1.758063137531280518e-01
9.234865009784698486e-02
2.315066754817962646e-01
-1.704095453023910522e-01
-2.515028715133666992e-01
9.679429978132247925e-02
1.665935367345809937e-01
-1.344087123870849609e-01
-1.640183627605438232e-01
2.767438301816582680e-03
-4.212712123990058899e-02
3.778137639164924622e-02
-1.516948193311691284e-01
-7.715270668268203735e-02
-2.529897689819335938e-01
-1.094218045473098755e-01
-9.327410161495208740e-02
-2.626962400972843170e-02
-1.251911558210849762e-02
-2.265491709113121033e-02
2.692756652832031250e-01
1.166060492396354675e-01
-1.742601990699768066e-01
1.811871826648712158e-01
2.143215239048004150e-01
