1.905490607023239136e-01
1.776729971170425415e-01
1.627047061920166016e-01
-2.344270199537277222e-01
6.043832004070281982e-02
-1.734122633934020996e-01
2.102703601121902466e-01
1.597712486982345581e-01
-1.646371334791183472e-01
1.365007907152175903e-01
1.343832118436694145e-03
-3.989465534687042236e-02
-2.168515473604202271e-01
-4.040114581584930420e-02
-2.095127552747726440e-01
-1.180153414607048035e-01
-1.681879013776779175e-01
-1.837855130434036255e-01
-6.118591874837875366e-02
8.143965899944305420e-02
6.989951431751251221e-02
1.842030882835388184e-01
2.042391300201416016e-01
4.517320692539215088e-01
2.622452676296234131e-01
-5.451672244817018509e-03
6.450585275888442993e-02
1.148138865828514099e-01
2.989119589328765869e-01
-3.658441603183746338e-01
9.991859085857868195e-03
2.310636639595031738e-02
1.744368076324462891e-01
2.546936273574829102e-01
-2.418786585330963135e-01
-1.127335950732231140e-01
9.812302142381668091e-02
-1.025858223438262939e-01
9.417267888784408569e-02
1.997487992048263550e-01
-1.295695304870605469e-01
-2.358660995960235596e-01
1.619384996592998505e-02
-3.160016238689422607e-02
3.500526547431945801e-01
-1.775876432657241821e-01
-1.840806752443313599e-01
-1.215568110346794128e-01
3.843368589878082275e-02
-1.418833341449499130e-02
2.499623149633407593e-01
1.530326008796691895e-01
2.619855999946594238e-01
-5.032520741224288940e-02
-2.797861397266387939e-01
-2.928300760686397552e-02
1.343047171831130981e-01
8.510047197341918945e-02
-2.060714513063430786e-01
4.139475151896476746e-02
7.477381080389022827e-02
-1.941106915473937988e-01
-3.427613675594329834e-01
-1.356734186410903931e-01
7.987461984157562256e-02
-1.231107711791992188e-01
-4.072134196758270264e-01
-4.149187505245208740e-01
-1.960783898830413818e-01
2.539228498935699463e-01
-8.487511426210403442e-02
-1.079626902937889099e-01
-1.231107115745544434e-02
2.211493700742721558e-01
-9.415090084075927734e-02
-9.767701476812362671e-02
-1.937472373247146606e-01
-3.812717497348785400e-01
1.825548559427261353e-01
3.082400262355804443e-01
5.884556472301483154e-02
-5.470857489854097366e-03
-1.113328188657760620e-01
3.203060850501060486e-02
1.527735292911529541e-01
2.170494496822357178e-01
1.792543679475784302e-01
-1.764663308858871460e-01
-6.081857904791831970e-02
-7.366520166397094727e-02
-2.704381942749023438e-01
2.567540109157562256e-01
-7.734730839729309082e-03
-3.126991912722587585e-02
5.207538232207298279e-02
1.495294123888015747e-01
-8.341979980468750000e-02
-3.234980106353759766e-01
9.497328847646713257e-02
1.847524344921112061e-01
1.469093263149261475e-01
-3.319064676761627197e-01
-5.277033448219299316e-01
-3.039663434028625488e-01
-4.734348878264427185e-02
3.668147623538970947e-01
-8.743821829557418823e-02
-4.495272040367126465e-01
-2.945949137210845947e-01
1.027890443801879883e-01
2.021105736494064331e-01
-1.013665739446878433e-02
-6.757349520921707153e-02
3.396553173661231995e-02
2.582123503088951111e-02
1.029486507177352905e-01
-8.521410077810287476e-02
-1.081603989005088806e-01
9.342745691537857056e-02
1.152925938367843628e-01
1.864712983369827271e-01
6.479793693870306015e-03
2.133299112319946289e-01
5.322759598493576050e-02
-1.393782496452331543e-01
-3.829104080796241760e-02
-7.232534140348434448e-02
-1.158667504787445068e-01
-5.239158868789672852e-03
1.734914481639862061e-01
3.456076607108116150e-03
-3.511438667774200439e-01
-3.532007932662963867e-01
-2.576102316379547119e-01
1.138939633965492249e-01
2.942857742309570312e-01
2.310512587428092957e-03
-1.230646967887878418e-01
-2.278418391942977905e-01
-2.195470631122589111e-01
-5.216656252741813660e-02
1.225290298461914062e-01
1.624743640422821045e-01
-2.736034393310546875e-01
-5.444044712930917740e-03
-2.681508660316467285e-01
3.137274682521820068e-01
3.628656268119812012e-02
-1.299600899219512939e-01
-1.429401040077209473e-01
